word,0,1,2,3,4,5,6,7,8,9,10,11,12,13,14,15,16,17,18,19,20,21,22,23,24,25,26,27,28,29,30,31,32,33,34,35,36,37,38,39,40,41,42,43,44,45,46,47,48,49,50,51,52,53,54,55,56,57,58,59,60,61,62,63,64,65,66,67,68,69,70,71,72,73,74,75,76,77,78,79,80,81,82,83,84,85,86,87,88,89,90,91,92,93,94,95,96,97,98,99,100,101,102,103,104,105,106,107,108,109,110,111,112,113,114,115,116,117,118,119,120,121,122,123,124,125,126,127,128,129,130,131,132,133,134,135,136,137,138,139,140,141,142,143,144,145,146,147,148,149,150,151,152,153,154,155,156,157,158,159,160,161,162,163,164,165,166,167,168,169,170,171,172,173,174,175,176,177,178,179,180,181,182,183,184,185,186,187,188,189,190,191,192,193,194,195,196,197,198,199,200,201,202,203,204,205,206,207,208,209,210,211,212,213,214,215,216,217,218,219,220,221,222,223,224,225,226,227,228,229,230,231,232,233,234,235,236,237,238,239,240,241,242,243,244,245,246,247,248,249,250,251,252,253,254,255
车辆,0.15882064402103424,0.1167982816696167,-0.013310050591826439,0.06724663823843002,0.11639237403869629,-0.11100901663303375,0.014785409905016422,-0.12077532708644867,-0.22319643199443817,0.1453685760498047,-0.0670161023736,0.009452249854803085,0.17532630264759064,-0.10110360383987427,0.132991760969162,-0.06182458996772766,-0.0043683419935405254,-0.01890186034142971,0.043007805943489075,0.11846454441547394,-0.09103933721780777,-0.021542377769947052,-0.02745966613292694,0.2940899431705475,-0.23897743225097656,0.03367588296532631,0.08845405280590057,0.05948371812701225,-0.1331983208656311,0.19236838817596436,-0.190636545419693,-0.050831232219934464,-0.044803500175476074,-0.01594730280339718,0.08455076813697815,0.13832667469978333,-0.0012981457402929664,-0.12665700912475586,0.1158013865351677,0.1432785987854004,0.07220235466957092,0.19678011536598206,-0.0662023201584816,-0.021405916661024094,0.13775517046451569,0.005315066315233707,-0.18780605494976044,-0.054240331053733826,0.1121089830994606,0.08017848432064056,-0.002122392412275076,-0.1001494899392128,-0.13296742737293243,0.09284383058547974,-0.04964291304349899,-0.18164341151714325,0.1636694371700287,0.2253677397966385,0.12591291964054108,-0.018104540184140205,0.06270013004541397,0.05890088528394699,-0.12036710232496262,0.005099155940115452,-0.031141558662056923,-0.15912415087223053,0.16521070897579193,-0.003256699535995722,0.10940949618816376,-0.2125239372253418,0.14044958353042603,-0.019645748659968376,0.0563717819750309,-0.19392269849777222,-0.10466492176055908,-0.15009254217147827,0.059736497700214386,0.0914720818400383,0.15155337750911713,0.2392805963754654,-0.03606339171528816,0.03803557902574539,0.10886453092098236,-0.09454905241727829,0.11616058647632599,0.006193884182721376,-0.0629243403673172,-0.019874555990099907,-0.05957701429724693,0.015359227545559406,0.025023190304636955,0.1327742040157318,-0.11662108451128006,-0.08328641206026077,0.09578264504671097,-0.051915932446718216,-0.0852932408452034,0.05875452980399132,0.11620871722698212,-0.07084362953901291,0.08414161950349808,0.057897962629795074,-0.18789711594581604,0.01698504388332367,-0.027973128482699394,-0.29180246591567993,0.04881616309285164,-0.1531233936548233,0.05395222455263138,-0.12516319751739502,-0.09002067893743515,0.0779334232211113,-0.09653735905885696,0.01771075651049614,0.08124741166830063,-0.08506102859973907,0.018372206017374992,-0.10167424380779266,0.1746973842382431,0.07907639443874359,-0.018842753022909164,-0.09364119172096252,-0.04247116670012474,-0.07056593149900436,0.11594779789447784,-0.1929747760295868,0.06158589944243431,-0.0525507926940918,0.03471507504582405,-0.007092309184372425,0.10871151834726334,-0.05867297574877739,-0.008475533686578274,0.007860281504690647,-0.2016720473766327,-0.014476616866886616,0.12710921466350555,0.059357933700084686,0.04589547961950302,-0.0640062466263771,-0.05358438566327095,-0.010015771724283695,0.030772753059864044,0.14844678342342377,-0.21762852370738983,-0.10243456810712814,-0.006431056652218103,-0.00818935688585043,-0.03138996288180351,-0.026058819144964218,-0.07246015220880508,-0.03972254693508148,-0.020766746252775192,-0.2034287303686142,-0.09411465376615524,0.0022937010508030653,0.005876700393855572,-0.06406216323375702,-0.07425747066736221,-0.04170793294906616,-0.2056364119052887,-0.0851643979549408,-0.09743805974721909,0.19544653594493866,0.026446616277098656,0.0609547458589077,-0.2416260838508606,0.07009248435497284,0.1399790644645691,0.012400079518556595,-0.09131113439798355,0.17312370240688324,0.09843303263187408,-0.07953927665948868,0.11358963698148727,-0.054865214973688126,-0.04470888897776604,-0.07833757996559143,-0.031041260808706284,-0.08128567785024643,0.15820664167404175,-0.0569896325469017,-0.0832400768995285,0.04668789356946945,-0.10274966061115265,-0.17176631093025208,0.11605051159858704,0.13881143927574158,0.06862886995077133,0.1268356293439865,-0.001975886058062315,0.10038919001817703,0.07878144085407257,0.1091705858707428,0.00507043581455946,0.03889736160635948,-0.07420813292264938,0.10417553782463074,-0.0577019527554512,0.10443495213985443,0.10648393630981445,0.15495508909225464,0.21560028195381165,-0.057193778455257416,-0.01206112839281559,0.09350527822971344,0.046026185154914856,-0.009677541442215443,-0.1569502353668213,-0.12878604233264923,-0.18397939205169678,0.07638243585824966,-0.061874955892562866,0.1135932207107544,0.0770537331700325,-0.07287941873073578,-0.0212544035166502,0.1959790140390396,-0.04917846992611885,0.12289547920227051,0.14605259895324707,-0.040213800966739655,-0.013076845556497574,0.06139860302209854,-0.20283111929893494,-0.04869021475315094,0.07841865718364716,0.013967633247375488,-4.5616732677444816e-05,0.08561384677886963,-0.07213851809501648,-0.1513618379831314,0.1740950345993042,-0.05701907351613045,-0.036802906543016434,-0.16969618201255798,-0.1452884078025818,0.04621424153447151,0.07836436480283737,-0.08263926953077316,-0.08159781992435455,-0.020832324400544167,0.07042671740055084,-0.02252952754497528,0.01906176470220089,-0.17321310937404633,0.02257065661251545,0.006500893738120794,0.0961044430732727,0.018054168671369553,-0.29789289832115173,0.1019703820347786,0.025774052366614342,0.09056495875120163,0.004616857040673494,0.11992081254720688
乘客,0.14413367211818695,0.03652501106262207,0.054317351430654526,0.05375240743160248,0.053286004811525345,-0.025919681414961815,-0.0248736385256052,-0.05326974391937256,-0.2085602879524231,0.0767553374171257,-0.056256093084812164,0.02419559843838215,0.040685731917619705,-0.07553919404745102,0.04747395217418671,-0.00803788285702467,-0.02814432606101036,0.05396080017089844,0.054594047367572784,0.012137162499129772,-0.04592369496822357,-0.012396707199513912,0.015160171315073967,0.15655852854251862,-0.10756316781044006,0.04525115340948105,0.09939143061637878,0.0790378525853157,-0.07039661705493927,0.049393314868211746,-0.14459459483623505,-0.038331590592861176,-0.019409257918596268,0.029256444424390793,0.02814679779112339,0.08686497062444687,-0.02970498614013195,-0.09953952580690384,0.04795517399907112,0.06272096186876297,0.08684597164392471,0.06497186422348022,-0.03339337557554245,-0.03618123009800911,0.05322473868727684,-0.02572762593626976,-0.046876631677150726,-0.058617591857910156,0.07107410579919815,0.02686695195734501,0.03051665611565113,-0.07655369490385056,-0.09006822854280472,0.045516978949308395,-0.024406516924500465,-0.07667123526334763,0.13375666737556458,0.1255752444267273,0.04779404029250145,-0.07436171174049377,0.07001859694719315,0.08278771489858627,-0.11239086091518402,-0.008914327248930931,-0.03443433716893196,-0.0959763452410698,0.08692634105682373,0.012716053985059261,0.03728432580828667,-0.1575525850057602,0.062157727777957916,-0.03816546872258186,0.026840656995773315,-0.13360586762428284,-0.07648992538452148,-0.03248266503214836,0.01010818500071764,-0.027203526347875595,0.17934444546699524,0.1403440535068512,-0.014883220195770264,0.007824507541954517,0.07003604620695114,-0.11906720697879791,0.03927316889166832,0.04873357713222504,-0.06668198853731155,-0.04390707239508629,-0.04630902037024498,-0.008492986671626568,-0.018891628831624985,0.0755225121974945,0.07170867919921875,-0.052435487508773804,0.025457244366407394,0.011490553617477417,-0.07791365683078766,0.10691308230161667,0.03633210435509682,0.0017942046979442239,0.04909682646393776,0.02110186219215393,-0.11008772999048233,-0.019229941070079803,0.06821481138467789,-0.13948720693588257,0.0008771365392021835,-0.07934492826461792,0.029991790652275085,-0.08369575440883636,-0.1202538013458252,-0.0568101592361927,-0.00039916642708703876,-0.03135300800204277,0.1170259639620781,-0.025926809757947922,0.039391469210386276,-0.060399651527404785,0.08976946026086807,0.007270047906786203,-0.0011204190086573362,-0.09842877089977264,-0.0768737718462944,-0.054939333349466324,0.06445946544408798,-0.06327936798334122,0.108012855052948,-0.02422046847641468,-0.03208332136273384,-0.060370657593011856,0.09968039393424988,-0.022044485434889793,0.034677036106586456,0.04485681653022766,-0.12144581228494644,0.015636758878827095,0.023238960653543472,0.022403469309210777,0.04695694521069527,-0.005284717306494713,-0.09900794178247452,-0.015245898626744747,0.038762450218200684,0.09196890890598297,-0.08833730220794678,-0.07029122859239578,0.02087639644742012,-0.03832541033625603,-0.041368067264556885,-0.055947646498680115,-0.07220382988452911,-0.08366542309522629,0.021811310201883316,-0.17125250399112701,-0.036621809005737305,0.061817437410354614,-0.00636605778709054,-0.09620681405067444,-0.02772505395114422,-0.008967055007815361,-0.07961103320121765,-0.043384674936532974,0.027545085176825523,0.13651078939437866,-0.003199091413989663,-0.05871284008026123,-0.13435101509094238,0.09758585691452026,0.1304895132780075,-0.07889696210622787,-0.10614769905805588,0.090172678232193,0.13059277832508087,-0.013960801064968109,0.09269089996814728,-0.026618482545018196,-0.0658133253455162,-0.08092954754829407,-0.042515188455581665,0.027618974447250366,0.09603371471166611,-0.02121913805603981,-0.0380585715174675,0.01800502836704254,-0.056804634630680084,-0.04970933496952057,0.12373218685388565,0.09151790291070938,0.054889265447854996,0.1037115603685379,0.13339637219905853,0.11474170535802841,0.029832514002919197,0.051672596484422684,-0.02896103449165821,0.059582337737083435,-0.029609661549329758,0.08948802202939987,-0.03558896481990814,0.02233785390853882,0.07854022830724716,0.07598131150007248,0.17423416674137115,-0.009475148282945156,-0.06684766709804535,0.07094655930995941,0.02922998182475567,-0.075934037566185,-0.125456765294075,0.003609331790357828,-0.09173507988452911,0.0934273973107338,-0.028329957276582718,0.13871648907661438,-0.014255126006901264,-0.0360884964466095,-0.01568920537829399,0.10813728719949722,0.027963535860180855,0.06298714876174927,0.2077377289533615,0.0031281854026019573,-0.03636208176612854,0.07296916842460632,-0.14928565919399261,-0.02744537591934204,0.08384119719266891,-0.03924309462308884,0.03467398136854172,0.04318397119641304,-0.0883398950099945,-0.10803664475679398,0.1322021782398224,-0.001379731809720397,-0.07054059952497482,-0.09753737598657608,0.01672673039138317,0.02022235468029976,0.018803883343935013,-0.08142901957035065,-0.058874718844890594,-0.045168906450271606,-0.00559777207672596,-0.010435123927891254,0.07031457871198654,-0.13269679248332977,-0.0005530348280444741,0.017271213233470917,0.11899886280298233,0.046525511890649796,-0.22874677181243896,0.09614452719688416,-0.06355813890695572,0.015021583996713161,0.03896764665842056,0.05820835754275322
方向,0.2189255803823471,0.4313156008720398,0.06301261484622955,-0.08460558205842972,0.2602121829986572,-0.5717082619667053,0.07588121294975281,-0.3087787926197052,-0.7417606711387634,0.5249474048614502,0.16566865146160126,-0.15403804183006287,0.06018104776740074,-0.41559135913848877,0.18764524161815643,-0.22482942044734955,0.25509947538375854,-0.09818759560585022,0.12245939671993256,0.14647608995437622,-0.23468807339668274,0.07202646136283875,0.06352100521326065,1.0608197450637817,-0.6357274651527405,-0.27232953906059265,0.3170114755630493,0.4371581971645355,-0.7095615863800049,-0.117210753262043,-0.46093565225601196,-0.12887424230575562,-0.14052629470825195,-0.038061995059251785,0.11115934699773788,0.14734172821044922,0.26724934577941895,-0.49449560046195984,0.2700982689857483,0.30085304379463196,0.22490271925926208,0.32940036058425903,0.18443411588668823,-0.13076148927211761,0.2715320587158203,-0.11542940139770508,-0.19278253614902496,-0.32950559258461,0.38723117113113403,0.06920802593231201,0.03703460097312927,0.007179852109402418,-0.11773978918790817,-0.03103511780500412,0.08683854341506958,-0.8266833424568176,0.6734327673912048,0.06948522478342056,0.31283271312713623,-0.1431340128183365,0.4253239333629608,0.2452608346939087,-0.6406633853912354,-0.4837414622306824,0.09223224222660065,-0.5651594996452332,0.0869276374578476,0.27489328384399414,0.03770947456359863,-0.49517765641212463,0.4517749547958374,-0.3656863272190094,0.028004545718431473,-0.5038564801216125,-0.7336646914482117,-0.4968993365764618,-0.16367529332637787,-0.27697479724884033,0.18577677011489868,0.7938006520271301,0.2408379465341568,0.16367648541927338,0.08623712509870529,-0.4522666931152344,0.5681775808334351,0.3401032090187073,-0.0623818039894104,-0.5121164321899414,-0.21335405111312866,0.2229108363389969,-0.0564374178647995,0.3504999876022339,0.1823764145374298,-0.015591920353472233,0.01597517915070057,-0.1385173499584198,-0.3032177686691284,-0.09090574830770493,0.4942542612552643,-0.2759864628314972,0.41320282220840454,0.21845519542694092,-0.7229729294776917,-0.12576653063297272,-0.027292601764202118,-0.5912174582481384,-0.0491083562374115,-0.500572681427002,-0.17554907500743866,-0.6624207496643066,-0.26625287532806396,0.0031713901553303003,-0.1087706983089447,0.043983716517686844,0.6376365423202515,-0.6045944094657898,0.24655567109584808,0.030301472172141075,-0.01835521310567856,-0.23294374346733093,-0.007859207689762115,-0.3795330226421356,-0.4994969367980957,-0.7361661195755005,0.25786054134368896,-0.5040239095687866,0.3436994254589081,-0.24219587445259094,0.038503050804138184,0.09717565029859543,0.28844723105430603,-0.2485107034444809,-0.008382648229598999,0.3291153609752655,-0.4636673033237457,-0.07908981293439865,0.1074860543012619,0.40340718626976013,0.16585461795330048,0.1661362200975418,-0.23513203859329224,-0.14309783279895782,0.344902902841568,0.20486000180244446,-0.22155486047267914,-0.12083224952220917,-0.055185120552778244,0.05882134661078453,-0.00480548245832324,-0.16895848512649536,-0.4509495794773102,0.1679173856973648,0.06203816086053848,-0.2890453338623047,-0.2498399019241333,0.3304996192455292,0.20495600998401642,-0.15746910870075226,0.021099837496876717,0.20283909142017365,-0.6359072327613831,-0.09502796083688736,-0.19364230334758759,0.2832585871219635,0.06430225074291229,0.12724000215530396,-0.4510904550552368,0.39073440432548523,0.3289048373699188,-0.28461122512817383,-0.44182032346725464,0.5343667268753052,0.46505939960479736,-0.30836063623428345,0.5250993967056274,-0.2362840175628662,-0.6495592594146729,-0.1208040863275528,-0.17639468610286713,-0.28381603956222534,0.26589107513427734,-0.049328964203596115,0.04492362588644028,0.33032917976379395,-0.3786831796169281,-0.14584727585315704,0.3157976269721985,0.5504137277603149,-0.1881132870912552,0.2992051839828491,0.2668842673301697,0.5936050415039062,-0.10897845774888992,0.4512813091278076,0.37070685625076294,-0.09789060801267624,-0.12711867690086365,0.2954106330871582,0.050868041813373566,0.28035876154899597,0.20293857157230377,0.07661408185958862,0.6742085218429565,0.2632805109024048,0.15734805166721344,-0.13596709072589874,0.2583423852920532,-0.3767887055873871,-0.6206633448600769,-0.29362690448760986,-0.5077515244483948,0.1183658242225647,-0.3369704782962799,0.277194082736969,0.0647793635725975,-0.2727820873260498,-0.12582077085971832,0.5738664269447327,-0.08281385898590088,0.41825976967811584,0.6009679436683655,0.09720532596111298,0.23026753962039948,0.3013852834701538,-0.5795997381210327,-0.3265707194805145,0.5488598942756653,0.01739908568561077,0.11391209810972214,0.3721347451210022,-0.2901678681373596,-0.5516754388809204,0.220648854970932,0.1727256029844284,0.023810219019651413,-0.7716119289398193,-0.17616575956344604,0.2591361105442047,-0.04273771122097969,-0.3288957178592682,-0.04460020363330841,-0.10137885808944702,0.2618985176086426,0.1962066888809204,0.07061275839805603,-0.38139039278030396,0.04150517284870148,0.0017822606023401022,0.2638641595840454,-0.21013548970222473,-0.7561616897583008,0.17132523655891418,-0.08995158225297928,0.18681758642196655,-0.15706361830234528,0.30673080682754517
结构,-0.049455203115940094,0.21153710782527924,0.47494807839393616,0.4106289744377136,0.5225257873535156,-0.1342681497335434,-0.2470453977584839,-0.3012099862098694,-0.5112128853797913,0.17669939994812012,0.3242346942424774,0.3561987280845642,0.05064531788229942,-0.7762330770492554,-0.28688764572143555,-0.10606618970632553,0.5855873823165894,0.5132768750190735,-0.2771940529346466,0.9501845836639404,-0.49695971608161926,0.05864967405796051,-0.3577422797679901,0.13489793241024017,-1.040933609008789,-0.15139999985694885,-0.11089619994163513,0.04733569175004959,-0.6485999226570129,0.4307895600795746,-0.27364274859428406,0.13224364817142487,-0.9290570616722107,-0.049956921488046646,0.9191561341285706,0.6182186603546143,0.22592037916183472,-0.3152230381965637,0.4690462350845337,0.4136974513530731,0.08398962765932083,0.3641715347766876,-0.19879554212093353,-0.3859975337982178,0.5948272943496704,-0.04387325793504715,-0.5220986604690552,-0.11893438547849655,0.20356647670269012,0.6326168179512024,-0.13631358742713928,-0.23231817781925201,0.08473939448595047,-0.6466167569160461,-0.2789231538772583,-0.40110018849372864,0.5455018877983093,0.26440292596817017,0.2968071401119232,-0.09629779309034348,0.043546322733163834,0.1742931604385376,0.15527400374412537,0.1086094081401825,-0.5035465955734253,0.15795646607875824,0.37234964966773987,0.2940097451210022,0.17821384966373444,-0.5349881649017334,0.07960962504148483,-0.3425798714160919,0.07837779819965363,-0.6510375738143921,-0.13920362293720245,-0.3720751106739044,0.4123172461986542,0.040121134370565414,0.5066313743591309,1.132962942123413,0.5168213248252869,-0.04405732452869415,0.5022789239883423,0.004141516983509064,0.24801011383533478,0.6105207800865173,-0.04713129624724388,0.19897128641605377,0.10745848715305328,-0.0954945906996727,0.06536805629730225,0.5454229712486267,0.24453498423099518,0.042522504925727844,-0.12409123033285141,0.20213545858860016,-0.5933082103729248,0.18332143127918243,0.1841987520456314,-0.7965535521507263,-0.07280782610177994,-0.705825686454773,-0.46804988384246826,0.786737859249115,0.3397766351699829,-0.6384167671203613,0.24026049673557281,-0.3998197317123413,0.33231672644615173,-0.29018232226371765,-0.1852373331785202,0.34406283497810364,0.3901746869087219,0.19199822843074799,-0.2702212333679199,-0.9127529859542847,0.3416518568992615,0.08504229038953781,0.2772747576236725,0.0754302367568016,-0.17114195227622986,-0.3402766287326813,-0.019645581021904945,-0.2288035750389099,0.13713338971138,0.34011372923851013,0.7062402367591858,0.18197853863239288,0.7657871246337891,-0.2106524109840393,0.5778094530105591,-0.5154815912246704,-0.08709550648927689,0.032924387603998184,-0.9342864155769348,-0.22627480328083038,0.12202885746955872,-0.14840570092201233,0.05471094697713852,-0.35477763414382935,-0.48586738109588623,0.1531803011894226,0.06031329929828644,0.587064802646637,-0.8536975979804993,-0.13632427155971527,0.07165589183568954,-0.07307826727628708,0.04520982503890991,-0.21383081376552582,-0.8108319044113159,-0.0877392515540123,0.03974778205156326,-0.22296269237995148,-0.5141600966453552,-0.20596148073673248,0.018260853365063667,-0.12879955768585205,0.025083309039473534,-0.24364446103572845,0.14862950146198273,-0.006201475393027067,-0.16726849973201752,0.30705955624580383,0.12595827877521515,0.04349566251039505,-0.9599646925926208,0.13095301389694214,0.06124182045459747,0.22758197784423828,-0.1617211252450943,0.5802913308143616,0.25987815856933594,-0.44765281677246094,0.0426069013774395,-0.3712717592716217,-0.11292438209056854,-0.23890380561351776,0.16128313541412354,-0.6706063151359558,0.36715421080589294,-0.35929450392723083,0.4494335949420929,0.9702647924423218,0.2354760766029358,-0.2029482126235962,-0.19652916491031647,-0.2670632004737854,0.04912218078970909,0.4545917212963104,0.05905545875430107,0.09565598517656326,0.5389604568481445,0.2911865711212158,0.346023291349411,-0.06449282169342041,0.13313624262809753,0.20067466795444489,-0.1217118501663208,0.4066563546657562,0.0698760375380516,0.238961324095726,0.4696790874004364,0.06414426118135452,-0.3235236406326294,0.08353924751281738,-0.27634671330451965,-0.427863746881485,-0.7926897406578064,-0.1808607280254364,0.13777144253253937,-0.2360549122095108,-0.4827812612056732,0.09195077419281006,0.19179701805114746,0.1609850376844406,0.19338403642177582,1.1424381732940674,-0.18843863904476166,0.7023336887359619,0.20003154873847961,-0.10016744583845139,0.4317101538181305,0.7030749917030334,-1.0279134511947632,-0.03900432959198952,0.814695417881012,-0.17414721846580505,0.30941587686538696,0.8500986695289612,-0.7017703652381897,-0.8918903470039368,-0.4084564447402954,-0.11367808282375336,-0.28415024280548096,-0.4071851074695587,-0.5365288853645325,0.36472395062446594,0.5823484063148499,0.003434997284784913,-0.5572750568389893,0.10187393426895142,0.04902318865060806,-0.22681120038032532,-0.2322877198457718,-0.7279338836669922,0.04555756598711014,0.1064903512597084,0.5746118426322937,-0.43745186924934387,-0.7084598541259766,0.07101155817508698,0.10290589928627014,0.4571031928062439,-0.14773322641849518,0.8346545100212097
定位,0.14219756424427032,0.06848976016044617,-0.009026306681334972,0.04857376217842102,0.1252981573343277,-0.08522208034992218,-0.01720380038022995,-0.10313889384269714,-0.26588428020477295,0.1236393004655838,-0.04983317479491234,0.03289460018277168,0.14411674439907074,-0.10393119603395462,0.06773312389850616,-0.08824652433395386,0.0055982088670134544,0.07760549336671829,-0.04226063936948776,0.08901357650756836,-0.026822855696082115,0.03082399256527424,-0.00814659520983696,0.23585635423660278,-0.1697353720664978,0.05293867737054825,0.10313685983419418,0.09759455174207687,-0.13555990159511566,0.13822507858276367,-0.19855904579162598,-0.006697538308799267,-0.015564117580652237,0.007705177180469036,0.10074542462825775,0.09950298070907593,-0.03136585280299187,-0.139878511428833,0.06092161685228348,0.16530770063400269,0.07247326523065567,0.09918826818466187,-0.02829817496240139,-0.06411508470773697,0.10163317620754242,0.00397341838106513,-0.14956176280975342,-0.06384812295436859,0.14362972974777222,0.09478361159563065,-0.053939662873744965,-0.05987827479839325,-0.1360291689634323,0.026518328115344048,-0.09774171561002731,-0.16999830305576324,0.19618479907512665,0.07940028607845306,0.08037382364273071,-0.021994778886437416,0.11029329895973206,0.10354464501142502,-0.14616690576076508,-0.05758679285645485,-0.05173499137163162,-0.09798631072044373,0.13503479957580566,0.03920738771557808,0.03003251925110817,-0.23960299789905548,0.09449951350688934,-0.01277643721550703,0.012065617367625237,-0.23554562032222748,-0.06790512055158615,-0.09150724112987518,0.06379994750022888,0.040301498025655746,0.18440502882003784,0.16229869425296783,0.011942337267100811,-0.018583185970783234,0.08470341563224792,-0.12074847519397736,0.08448900282382965,0.08484161645174026,-0.08207978308200836,-0.012795904651284218,-0.05047421157360077,0.0021496000699698925,-0.04153241962194443,0.19601024687290192,0.03114735707640648,-0.04273265600204468,0.043996501713991165,0.032229259610176086,-0.09292633831501007,0.094901442527771,0.07817333191633224,-0.07734014093875885,0.06773986667394638,-0.001023437944240868,-0.12784115970134735,0.07379522919654846,-0.0357099249958992,-0.2646825611591339,-0.0004009885888081044,-0.1860334426164627,0.06826797872781754,-0.09053302556276321,-0.12906691431999207,0.01654164120554924,0.014613918028771877,-0.0043448214419186115,0.08072993904352188,-0.06745890527963638,-0.027114810422062874,-0.09506481140851974,0.06108514219522476,-0.05389495566487312,-0.03557940199971199,-0.11948462575674057,-0.026920614764094353,-0.06308641284704208,0.05145281180739403,-0.09188999235630035,0.12587159872055054,-0.010829895734786987,0.04582506790757179,-0.03395310044288635,0.17564716935157776,-0.008131351321935654,0.01634777896106243,0.00826417375355959,-0.1482522189617157,-0.003789209993556142,0.04192594811320305,0.030457088723778725,0.10069216787815094,-0.0572199784219265,-0.05829870328307152,-0.0643155500292778,0.05160681903362274,0.13792318105697632,-0.17735940217971802,-0.08577003329992294,0.06060103327035904,-0.0581514909863472,-0.03067847713828087,-0.0031527478713542223,-0.16283756494522095,-0.062170058488845825,0.007815453223884106,-0.17015835642814636,-0.06775248050689697,0.12019969522953033,-0.045367106795310974,-0.13481764495372772,-0.0015140593750402331,-0.07865042984485626,-0.16218799352645874,-0.02850748412311077,-0.09884858876466751,0.16436803340911865,-0.017865058034658432,-0.014338851906359196,-0.2267630398273468,0.08066073805093765,0.1451287865638733,0.03861681744456291,-0.1131214126944542,0.09083962440490723,0.1369994431734085,-0.01823658123612404,0.06287437677383423,-0.03140329569578171,-0.01741846278309822,-0.08591360598802567,-0.002597906393930316,-0.07806491106748581,0.15081778168678284,-0.05142688378691673,-0.03612662851810455,0.05056316778063774,-0.08866508305072784,-0.12649711966514587,0.08969809859991074,0.14403730630874634,0.10049067437648773,0.11950433999300003,0.0064381626434624195,0.12988846004009247,0.042587485164403915,0.02259604074060917,-0.036032628268003464,0.01581886224448681,-0.01774006336927414,0.1065705418586731,-0.029944805428385735,0.03427671641111374,0.05072683468461037,0.08416396379470825,0.21374253928661346,-0.05504719167947769,-0.04395846277475357,0.04974517971277237,-0.012648910284042358,-0.07256433367729187,-0.2101106494665146,-0.047253575176000595,-0.09713523834943771,0.10297464579343796,-0.039155252277851105,0.13420115411281586,0.04783957079052925,-0.06310394406318665,0.0012541242176666856,0.19184443354606628,0.005395819898694754,0.1226697787642479,0.1596246212720871,0.057924117892980576,0.03080732189118862,0.11602648347616196,-0.16216573119163513,-0.08025243878364563,0.07963352650403976,0.000393753289245069,0.0354224368929863,0.07827504724264145,-0.11902344971895218,-0.15636403858661652,0.12427466362714767,-0.052932143211364746,-0.04159695282578468,-0.14078082144260406,-0.022918865084648132,0.11060982942581177,0.06847207993268967,-0.1182803362607956,-0.033323198556900024,-0.06810319423675537,0.015378790907561779,-0.012388230301439762,0.012051066383719444,-0.18714001774787903,-0.0721663385629654,-0.07162544131278992,0.059382859617471695,-0.03402244299650192,-0.24923019111156464,0.09157639741897583,-0.041739948093891144,0.06631045043468475,0.03654778003692627,0.08100924640893936
具有,0.22538524866104126,0.17229938507080078,0.15562570095062256,0.18745960295200348,0.32698237895965576,-0.23284636437892914,-0.09839512407779694,-0.2524012625217438,-0.5060232877731323,0.24997073411941528,0.017099592834711075,0.13990330696105957,0.13482330739498138,-0.38536980748176575,0.03258727490901947,-0.14182783663272858,0.22336293756961823,0.21430011093616486,-0.10609003156423569,0.4492090046405792,-0.19216227531433105,0.05641794204711914,-0.14785298705101013,0.48875609040260315,-0.6538648009300232,-0.05634632706642151,0.11537008732557297,0.18579864501953125,-0.4480021297931671,0.30185940861701965,-0.3372410833835602,0.004097938537597656,-0.29470235109329224,-0.012089627794921398,0.45267635583877563,0.38703128695487976,0.12584902346134186,-0.3336913585662842,0.3166482448577881,0.34320855140686035,0.11960669606924057,0.3165110945701599,-0.17878389358520508,-0.24192705750465393,0.37932074069976807,-0.017324460670351982,-0.42235660552978516,-0.12454584240913391,0.3491601049900055,0.3247973620891571,-0.18067963421344757,-0.22389733791351318,-0.14271749556064606,-0.19353488087654114,-0.2355186641216278,-0.42755380272865295,0.45805302262306213,0.1738395392894745,0.23783043026924133,-0.056809425354003906,0.1709565818309784,0.16184985637664795,-0.15175680816173553,-0.02905770018696785,-0.26648327708244324,-0.12858787178993225,0.33417704701423645,0.2066546231508255,0.1308346837759018,-0.481374055147171,0.16677530109882355,-0.1720014214515686,0.0950455442070961,-0.5035611987113953,-0.22996774315834045,-0.329293429851532,0.16418761014938354,0.04372970387339592,0.4106982350349426,0.6522638201713562,0.2635692059993744,0.011731951497495174,0.2772984206676483,-0.15208706259727478,0.26526930928230286,0.26249098777770996,-0.09896763414144516,0.0013101757504045963,-0.05984032154083252,-0.013399884104728699,0.024370327591896057,0.42378857731819153,0.02002515271306038,-0.011936594732105732,0.031174885109066963,0.01804841123521328,-0.3805673122406006,0.1470431089401245,0.2085816115140915,-0.3431738317012787,0.1375890076160431,-0.15332050621509552,-0.3523801267147064,0.26933494210243225,0.07506965100765228,-0.5747610330581665,0.11165783554315567,-0.3942646086215973,0.18713927268981934,-0.24682484567165375,-0.2104412466287613,0.16572324931621552,0.08607705682516098,0.08606601506471634,0.041976168751716614,-0.4253465533256531,0.040662981569767,-0.052892521023750305,0.1971805989742279,-0.04378192871809006,-0.12424919009208679,-0.29732465744018555,-0.04676547646522522,-0.28107208013534546,0.162177175283432,-0.10407795011997223,0.3774036467075348,0.04138665273785591,0.2501230537891388,-0.07470265030860901,0.3812636435031891,-0.2011638730764389,0.036730822175741196,0.054020170122385025,-0.5158984661102295,-0.14231248199939728,0.12758104503154755,0.020293163135647774,0.163512721657753,-0.15861175954341888,-0.26111412048339844,-0.02703162282705307,0.10199286043643951,0.3305650055408478,-0.5286701321601868,-0.16346779465675354,0.020564936101436615,-0.10826227813959122,-0.05794062837958336,-0.11712945997714996,-0.4963008165359497,-0.0868494063615799,0.019953519105911255,-0.30219730734825134,-0.2230091542005539,0.07461050152778625,-0.07793188095092773,-0.21191364526748657,0.016564078629016876,-0.20574018359184265,-0.3142947256565094,-0.08836213499307632,-0.26348933577537537,0.30254778265953064,0.011984609998762608,0.039371639490127563,-0.6046761870384216,0.13644564151763916,0.27786538004875183,0.04360334947705269,-0.23083099722862244,0.42916956543922424,0.29306408762931824,-0.19589796662330627,0.1413436233997345,-0.15568631887435913,-0.1758064180612564,-0.1319231390953064,-0.015020731836557388,-0.36613890528678894,0.3150123953819275,-0.1852206289768219,0.09656601399183273,0.3504309356212616,-0.04448871314525604,-0.2903960645198822,0.05420498549938202,0.20603010058403015,0.12848618626594543,0.34280267357826233,-0.008414090611040592,0.2862309515476227,0.25078538060188293,0.20447683334350586,0.09239767491817474,0.08897817879915237,0.018780404701828957,0.24715599417686462,-0.08957261592149734,0.20801201462745667,0.1569870114326477,0.1877819448709488,0.5482946634292603,-0.011787044815719128,-0.1478271782398224,0.05740510672330856,-0.13008908927440643,-0.2691330015659332,-0.6061072945594788,-0.17151980102062225,-0.18912599980831146,0.0476435050368309,-0.2205144315958023,0.23091596364974976,0.23577509820461273,-0.03064124658703804,0.027472568675875664,0.6954338550567627,-0.10109824687242508,0.46737754344940186,0.26761582493782043,0.07541611790657043,0.1819475144147873,0.4094940721988678,-0.6319732666015625,-0.14886929094791412,0.43044087290763855,0.00992703065276146,0.11781178414821625,0.44407716393470764,-0.3411930203437805,-0.541763424873352,0.027183063328266144,-0.08319664746522903,-0.1090506985783577,-0.4235159158706665,-0.2129649817943573,0.332025408744812,0.2556600272655487,-0.13066434860229492,-0.2074565291404724,-0.01302834041416645,0.07494989037513733,-0.06604937463998795,-0.08139486610889435,-0.4956743121147156,0.04072859138250351,-0.09528442472219467,0.2214183211326599,-0.13525806367397308,-0.585106611251831,0.12544742226600647,0.023132214322686195,0.20980116724967957,-0.0287636686116457,0.442841500043869
面板,0.07720377296209335,0.09122254699468613,-0.015453030355274677,0.04931566119194031,0.0991930365562439,-0.0866338312625885,0.033561281859874725,-0.07585805654525757,-0.14208807051181793,0.11297334730625153,-0.05819676071405411,0.011283007450401783,0.11774412542581558,-0.05161837860941887,0.11516451835632324,-0.022552423179149628,0.030466299504041672,-0.0024221036583185196,-0.021144481375813484,0.16862832009792328,-0.043379418551921844,-0.03673151507973671,-0.09690205752849579,0.17385172843933105,-0.13227902352809906,-0.041023243218660355,-0.005797983147203922,0.023045871406793594,-0.07428103685379028,0.1616975963115692,-0.07863255590200424,-0.0028179013170301914,-0.002351227682083845,-0.05476583540439606,0.08747541159391403,0.1477925181388855,0.02289082296192646,-0.07154765725135803,0.07723011821508408,0.09873002767562866,0.01206953078508377,0.13742674887180328,-0.06414201110601425,-0.03510046750307083,0.10181625932455063,0.02220543473958969,-0.18528738617897034,0.020457273349165916,0.11892728507518768,0.10831071436405182,-0.016254421323537827,-0.07309342175722122,-0.04962204024195671,0.0031189240980893373,-0.08104483038187027,-0.1146501675248146,0.0598958395421505,0.11950681358575821,0.12013441324234009,0.025122540071606636,-0.04049660265445709,-0.013580530881881714,-0.021688781678676605,0.007803487591445446,-0.07903975248336792,-0.08347111195325851,0.15719115734100342,-0.0011197886196896434,0.07301320880651474,-0.08949507027864456,0.07139738649129868,0.052896659821271896,0.06123462691903114,-0.10462638735771179,-0.022619307041168213,-0.17046913504600525,0.04572061821818352,0.1405392587184906,0.06922183185815811,0.14716307818889618,0.0056038969196379185,0.007572554517537355,0.07785692065954208,0.02767191082239151,0.09311123192310333,-0.06876125931739807,-0.009866420179605484,0.08703344315290451,-0.014471309259533882,0.0076309749856591225,0.05070916563272476,0.06844200938940048,-0.16086025536060333,-0.013068667612969875,0.08640307188034058,-0.0462690033018589,-0.0355125367641449,0.03134898841381073,0.02921966090798378,-0.06217721849679947,0.03614331781864166,0.03167148679494858,-0.05459901690483093,0.011063267476856709,-0.044382911175489426,-0.16441139578819275,0.09125912934541702,-0.08656840026378632,0.061608485877513885,-0.03783011436462402,0.05187336355447769,0.11670950055122375,-0.07363594323396683,0.023189736530184746,-0.015994906425476074,-0.05136777460575104,-0.03922302648425102,-0.02379957213997841,0.08797688782215118,0.09479325264692307,-0.03808428347110748,-0.0456533282995224,0.04095406085252762,-0.03549224138259888,0.0486002042889595,-0.13026128709316254,-0.038192570209503174,0.025981368497014046,0.019141295924782753,0.02248559147119522,0.04585869982838631,-0.1040894016623497,0.040996748954057693,-0.021830027922987938,-0.11411076039075851,0.0022898605093359947,0.09815990924835205,0.018724435940384865,0.043202366679906845,-0.07914306968450546,0.014108792878687382,-0.004579492844641209,-0.0012908546486869454,0.05878738313913345,-0.1823291927576065,-0.049707282334566116,-0.04080664739012718,-0.022496959194540977,-0.02707056701183319,-0.012702850624918938,-0.08023300021886826,-0.010138411074876785,-0.050144776701927185,-0.13012272119522095,-0.04966103658080101,-0.05273696035146713,-0.05177414417266846,-0.011528435163199902,-0.004160622134804726,-0.07869209349155426,-0.19293329119682312,-0.031969815492630005,-0.14996255934238434,0.09526357054710388,0.021071380004286766,0.031495608389377594,-0.16723833978176117,-0.05603707209229469,0.050937242805957794,0.05592479929327965,-0.03195226937532425,0.13038064539432526,0.01103889662772417,-0.06491929292678833,0.04801022261381149,-0.033365875482559204,0.006856083869934082,-0.02502504177391529,0.060686144977808,-0.13200484216213226,0.03922348469495773,-0.023227708414196968,-0.057527411729097366,-0.04900998994708061,0.010264444164931774,-0.1562316119670868,0.00839255377650261,0.09292223304510117,0.05859556794166565,0.07949775457382202,-0.14891862869262695,0.012255868874490261,0.13293643295764923,0.07013047486543655,-0.03765787184238434,0.06813587993383408,-0.029530242085456848,0.05911753326654434,-0.05861971154808998,0.12445063889026642,0.06241772696375847,0.106013722717762,0.08679886907339096,-0.072410449385643,0.01641334593296051,0.046007443219423294,-0.012607136741280556,0.06345851719379425,-0.11317601799964905,-0.11812715232372284,-0.08935859054327011,-0.023393331095576286,-0.0017690369859337807,0.04672301933169365,0.11955291032791138,-0.02009732462465763,-0.041211485862731934,0.1493760496377945,-0.07063333690166473,0.08962138742208481,-0.04586583375930786,-0.009809422306716442,0.007720561698079109,0.015665637329220772,-0.1538250893354416,-0.03843039646744728,0.03415222093462944,0.0807662159204483,-0.016864215955138206,0.06702309101819992,-0.05061831697821617,-0.1190270334482193,0.05342944338917732,-0.05104891210794449,-0.025168994441628456,-0.06616818159818649,-0.10645115375518799,0.09465991705656052,0.07448432594537735,-0.011010735295712948,-0.03874499723315239,0.04725620523095131,0.05445590987801552,-0.022089291363954544,-0.03860455006361008,-0.08917928487062454,0.07752946764230728,-0.009752856567502022,-0.017982231453061104,-0.015066017396748066,-0.17166447639465332,0.05334733426570892,0.0792672261595726,0.0656595230102539,-0.04748775064945221,0.16790495812892914
表面,0.04956371709704399,0.13371092081069946,0.16018645465373993,0.03796815127134323,0.17132613062858582,-0.16601870954036713,-0.069283626973629,-0.04169130697846413,-0.28586581349372864,0.13822919130325317,-0.0001257378316950053,0.014810215681791306,0.03826678916811943,-0.17652066051959991,0.013759906403720379,-0.04019979387521744,0.12689340114593506,0.09269306063652039,0.0034325148444622755,0.3125593960285187,-0.16188396513462067,-0.07301994413137436,-0.12723387777805328,0.23886018991470337,-0.26464056968688965,-0.09807947278022766,0.027921395376324654,0.08573073148727417,-0.1736217588186264,0.18030643463134766,-0.15074127912521362,-0.03867083042860031,-0.22538281977176666,-0.017689483240246773,0.17321878671646118,0.22809632122516632,0.06633209437131882,-0.09253060072660446,0.12581251561641693,0.14494596421718597,0.062371354550123215,0.151582732796669,0.030246051028370857,-0.1256750077009201,0.1387239396572113,-0.009788825176656246,-0.09057635813951492,-0.06426390260457993,0.12748156487941742,0.10190028697252274,0.08792373538017273,-0.140526682138443,-0.023821961134672165,-0.08203881233930588,-0.009557247161865234,-0.19461435079574585,0.22243763506412506,0.1767844259738922,0.20832282304763794,-0.07939668744802475,0.02252974361181259,0.05784283205866814,-0.05251327529549599,-0.1584250032901764,-0.0914517417550087,-0.08315914869308472,0.09967947751283646,0.030593285337090492,0.04864533618092537,-0.26138365268707275,0.1443963497877121,-0.1257677525281906,-0.02207917720079422,-0.2554031014442444,-0.0879567414522171,-0.223549485206604,0.027617182582616806,-0.008693148382008076,0.1316719353199005,0.3544071316719055,0.037018273025751114,-0.03165528178215027,0.09711755812168121,-0.1118120476603508,0.16248784959316254,0.11396867036819458,-0.06231911852955818,0.04813515022397041,0.01144327875226736,0.029885537922382355,0.048948828130960464,0.20857380330562592,0.0274516548961401,0.025170492008328438,0.05350622907280922,0.03585372120141983,-0.13860797882080078,0.07318847626447678,0.05606945976614952,-0.0919407308101654,0.04522949457168579,-0.07813488692045212,-0.22728416323661804,0.09554808586835861,0.10437195748090744,-0.24754789471626282,0.07098859548568726,-0.13377158343791962,0.06757462024688721,-0.1442100703716278,-0.06067606061697006,0.04540830850601196,0.010869142599403858,0.02824764885008335,0.1014791950583458,-0.21151944994926453,0.07558443397283554,0.007606198079884052,0.1418178677558899,0.037917982786893845,-0.017523061484098434,-0.1570337414741516,-0.10927508026361465,-0.06659336388111115,0.058896590024232864,-0.13177745044231415,0.13236722350120544,0.018042052164673805,0.17029695212841034,-0.002508761826902628,0.22629722952842712,-0.2705584764480591,0.046747058629989624,0.02231520786881447,-0.26303714513778687,-0.015552286989986897,0.06675538420677185,0.006214471533894539,-0.03645975887775421,-0.05360960215330124,-0.1260361671447754,-0.0751521959900856,0.09548048675060272,0.16157829761505127,-0.20823928713798523,-0.09638051688671112,0.029499223455786705,0.061737850308418274,-0.022922510281205177,-0.09526373445987701,-0.2601360082626343,0.014305799268186092,0.035587944090366364,-0.1517319530248642,-0.1539863646030426,-0.008861079812049866,0.0032268387731164694,-0.11118602752685547,0.03704201802611351,0.023906709626317024,-0.07714595645666122,-0.049838121980428696,-0.10912161320447922,0.1586354821920395,0.032693326473236084,-0.05363268777728081,-0.40376994013786316,0.08113425225019455,0.08367880433797836,0.007519915234297514,-0.20976758003234863,0.2776590883731842,0.13556331396102905,-0.10741858929395676,0.16422809660434723,-0.15240876376628876,-0.10292288661003113,-0.10534483939409256,0.04147522151470184,-0.13142399489879608,0.11005450040102005,-0.07892506569623947,0.08838365226984024,0.16425974667072296,-0.015399773605167866,-0.08050675690174103,0.04966815561056137,-0.018038399517536163,0.014235632494091988,0.1342989206314087,0.10116845369338989,0.15641166269779205,0.17534328997135162,0.2167789489030838,0.032054297626018524,-0.02643078938126564,-0.07939630001783371,0.10452626645565033,-0.07328851521015167,0.21502390503883362,0.10203099995851517,0.10471438616514206,0.20351776480674744,0.055828772485256195,-0.10338972508907318,-0.03220904618501663,0.0476430207490921,-0.06719859689474106,-0.26180630922317505,-0.09295028448104858,-0.10523270815610886,-0.09019351750612259,-0.1572832614183426,0.0452740378677845,0.039548009634017944,0.014016903005540371,0.02787405252456665,0.3201693892478943,-0.10064941644668579,0.1373949497938156,0.18577484786510468,-0.06178572401404381,0.02518020011484623,0.15361596643924713,-0.38222041726112366,-0.1034262627363205,0.29536744952201843,0.03782786801457405,0.014529788866639137,0.2453727424144745,-0.229209765791893,-0.28797587752342224,-0.04926392808556557,-0.01769963651895523,-0.099361352622509,-0.17613758146762848,-0.15088804066181183,0.07784055918455124,0.10679376125335693,-0.06260362267494202,-0.1599026918411255,-0.016286490485072136,0.05658378079533577,-0.06415508687496185,0.057284820824861526,-0.23382632434368134,0.06842196732759476,0.10049857199192047,0.15232665836811066,-0.14325504004955292,-0.31794509291648865,0.11167021095752716,0.012785996310412884,0.061856042593717575,-0.029124785214662552,0.2928283214569092
直到,0.5097342133522034,1.019736647605896,0.9793210029602051,2.0499088764190674,-0.15708966553211212,1.3142343759536743,-1.191679835319519,0.23604685068130493,-1.5998435020446777,0.1987435221672058,-1.1042979955673218,1.6127322912216187,0.344543993473053,-1.3013314008712769,-0.6772733330726624,0.8115442395210266,-0.5435608625411987,2.5255680084228516,0.7414170503616333,0.08474887162446976,-0.745214581489563,-0.3278157413005829,-0.6957650184631348,-1.385460615158081,1.07973313331604,0.7676408290863037,-0.25298696756362915,0.21774274110794067,0.8741687536239624,0.12080391496419907,-0.3975793719291687,-0.17677035927772522,-1.4193930625915527,0.023372367024421692,1.6717004776000977,2.2778570652008057,-2.130080223083496,-0.1578233391046524,0.453740656375885,0.1819850653409958,0.909111499786377,0.702942430973053,-0.3019004166126251,-1.8829940557479858,0.2441946119070053,-0.033993933349847794,0.33949974179267883,-0.26018375158309937,-0.11160936206579208,1.2284126281738281,1.1068925857543945,-0.2360948622226715,-0.5475587844848633,-0.8502784371376038,0.7358573079109192,1.1706370115280151,0.27056869864463806,2.030818462371826,-0.32550013065338135,-1.000393271446228,-0.22543609142303467,0.9720020294189453,0.05319321155548096,0.9600276947021484,-1.2702243328094482,0.5735632181167603,1.969807744026184,-0.19832149147987366,0.431338369846344,-1.3295564651489258,-1.2015892267227173,0.6633495092391968,0.5875130295753479,-0.6887642741203308,1.447200059890747,0.43115273118019104,1.0672540664672852,0.13133053481578827,3.25007700920105,1.500714898109436,0.28570812940597534,-0.7458123564720154,1.4040696620941162,-1.1013859510421753,0.5622299909591675,0.30998802185058594,-0.32739806175231934,1.905510425567627,0.06048838049173355,-0.07821042835712433,-0.08091012388467789,1.864263653755188,2.3368477821350098,-0.06759172677993774,0.35885241627693176,1.75017511844635,-1.0401878356933594,2.30204701423645,-2.072329521179199,0.19502709805965424,-1.8088685274124146,-1.7690870761871338,1.4925754070281982,0.8971807360649109,2.4140193462371826,-0.9285309910774231,-0.11481242626905441,-0.3558940589427948,1.1543949842453003,0.2397799789905548,-0.5741376280784607,-1.3768949508666992,1.536268711090088,-0.9946932196617126,-0.6005712747573853,-0.5242608785629272,0.28947511315345764,-1.077871561050415,0.32514140009880066,1.2389644384384155,0.1918320506811142,-0.32363399863243103,-0.4701807498931885,0.31450027227401733,0.9103575944900513,0.07459219545125961,1.3943904638290405,0.38955092430114746,1.1270384788513184,-0.7192006707191467,2.4389686584472656,-1.166535496711731,1.334574580192566,-0.14129814505577087,-1.4692106246948242,1.5755016803741455,0.19117777049541473,-1.4976259469985962,1.204917073249817,-0.6668108105659485,-1.111739158630371,0.8411322832107544,-0.19010695815086365,0.2764979898929596,-1.262208342552185,-0.45890820026397705,1.306015133857727,-1.1911296844482422,-0.6573456525802612,-1.7418802976608276,-1.1977012157440186,-1.5450507402420044,0.5371472239494324,-1.5499590635299683,-0.5636056661605835,-0.5264797210693359,-0.2103310078382492,-0.8151981830596924,0.04084140807390213,0.0810113400220871,2.2601146697998047,0.10209938883781433,1.3884507417678833,0.9841453433036804,1.301337480545044,-2.179811954498291,-1.6063553094863892,0.3780176043510437,0.6235141158103943,-0.7741289138793945,-0.16160716116428375,0.4046840965747833,0.762653648853302,0.07552892714738846,-0.6987624168395996,-0.7838783860206604,1.0035523176193237,-1.0560766458511353,0.47607114911079407,0.8278448581695557,-0.1969609409570694,0.3294406235218048,-0.031077606603503227,0.6105552315711975,0.6398541927337646,0.4659600555896759,-0.05721728131175041,-1.0636481046676636,0.617997407913208,1.40220046043396,1.371656060218811,-1.0107910633087158,2.0044326782226562,-0.6060675978660583,-1.5816729068756104,0.3798992335796356,0.3091046214103699,1.233701467514038,-0.7194676399230957,-0.4145376682281494,-0.24591363966464996,0.5360641479492188,0.46089431643486023,-0.8901626467704773,-1.988135576248169,1.3683204650878906,-0.16305793821811676,-0.07709826529026031,-0.5630595088005066,1.0397788286209106,0.7861037850379944,-0.13829657435417175,-0.10565394163131714,1.7611445188522339,-0.27086400985717773,0.12016268819570541,-0.3484417200088501,2.5283451080322266,0.5302714705467224,0.913598358631134,1.7993210554122925,-0.09074477106332779,-0.7161412239074707,0.6061645746231079,-2.172006845474243,0.15461482107639313,1.3466663360595703,-1.2144064903259277,1.2970120906829834,0.2484271228313446,-2.1642847061157227,-2.0459699630737305,0.32128408551216125,-0.5446212887763977,-1.498098611831665,1.0805633068084717,0.6125398874282837,-0.5613988637924194,1.4092594385147095,-0.8733289837837219,-1.287151575088501,-0.8842036128044128,-1.4731531143188477,-1.7055855989456177,0.061401717364788055,-0.9614608883857727,-0.2153007984161377,0.9753561019897461,2.997387409210205,0.19868063926696777,-1.961194396018982,1.6260710954666138,-0.8444086909294128,-0.06110460311174393,-0.15037617087364197,1.4318983554840088
配置,0.17253370583057404,0.17609524726867676,0.03090941160917282,0.01913445256650448,0.09501749277114868,-0.14618413150310516,0.043639712035655975,-0.1344851702451706,-0.27841803431510925,0.12653060257434845,-0.07860565185546875,-0.009014302864670753,0.06947183609008789,-0.07227323204278946,0.19725430011749268,-0.07680544257164001,-0.04066824913024902,-0.019766466692090034,0.09483448415994644,0.040346670895814896,-0.05782021954655647,-0.07653713971376419,-0.013031738810241222,0.3399009108543396,-0.19464077055454254,-0.032910868525505066,0.08874151110649109,0.16724736988544464,-0.09193211793899536,0.1295895129442215,-0.16046015918254852,-0.05412926897406578,0.028461532667279243,-0.026606524363160133,0.08551036566495895,0.1371406763792038,0.042733438313007355,-0.16816741228103638,0.10482755303382874,0.17227068543434143,0.07274170219898224,0.24008066952228546,-0.08914411067962646,-0.01340639591217041,0.14951743185520172,-0.06480511277914047,-0.179812952876091,-0.04230606555938721,0.22178824245929718,0.08172045648097992,0.0056427475064992905,-0.11829011887311935,-0.15980090200901031,0.14926733076572418,-0.03194223716855049,-0.14786748588085175,0.14237549901008606,0.14062899351119995,0.09755479544401169,0.03573663532733917,0.04698321223258972,0.024323830381035805,-0.17660455405712128,-0.04724680632352829,-0.07800952345132828,-0.2064766138792038,0.2047908902168274,-0.002571360906586051,0.11751313507556915,-0.17653623223304749,0.10691653192043304,-0.04771365225315094,0.07015553116798401,-0.1452743411064148,-0.17271366715431213,-0.2103273868560791,0.01045259553939104,0.0377747118473053,0.1929989904165268,0.2798628807067871,-0.029215874150395393,0.07442236691713333,0.1083434671163559,-0.13437610864639282,0.16074953973293304,-0.05685027688741684,-0.020194489508867264,-0.03369400277733803,-0.04537096992135048,-0.01484957616776228,0.06439675390720367,0.09285625070333481,-0.1439603865146637,-0.05316539853811264,0.1192934587597847,-0.10071409493684769,-0.08698603510856628,0.1308877170085907,0.05082416161894798,0.021176500245928764,0.10663685202598572,0.14318768680095673,-0.14480185508728027,-0.08823948353528976,-0.00010894470324274153,-0.22234763205051422,0.07872399687767029,-0.202418714761734,0.043980229645967484,-0.14980235695838928,-0.03947118669748306,0.023083822801709175,-0.15338605642318726,0.02422984316945076,0.16658514738082886,-0.061603982001543045,0.051895201206207275,-0.06471511721611023,0.17296966910362244,0.07846672832965851,-8.00626294221729e-05,-0.10428392142057419,-0.10659417510032654,-0.11488450318574905,0.08051200211048126,-0.25629281997680664,-0.053721316158771515,-0.08646410703659058,-0.047296009957790375,0.0034242505207657814,0.07879733294248581,-0.1203928291797638,0.050354037433862686,0.0858912393450737,-0.18191519379615784,-0.017104310914874077,0.11648537218570709,0.06229652836918831,0.07488670200109482,0.00958501547574997,-0.08027875423431396,-0.03794226050376892,0.02078332006931305,0.07167404890060425,-0.17957741022109985,-0.08785790950059891,-0.0797155350446701,-0.11571535468101501,-0.08242487907409668,-0.07872690260410309,-0.07355114072561264,-0.047000009566545486,-0.005722643341869116,-0.26029956340789795,-0.054592423141002655,-0.029556721448898315,-0.023037265986204147,-0.05922740697860718,-0.04417269676923752,-0.0035160065162926912,-0.3228074610233307,-0.1201779916882515,-0.11924814432859421,0.16613923013210297,0.009303838945925236,0.002369965659454465,-0.18015019595623016,0.06738302111625671,0.21288534998893738,-0.08755818009376526,-0.16647721827030182,0.22874607145786285,0.12291350960731506,-0.07862886786460876,0.15266945958137512,-0.029567910358309746,-0.11833371222019196,-0.03715566545724869,-0.07821771502494812,-0.08181709796190262,0.10715702921152115,0.02862791158258915,-0.06722971051931381,-0.0744769275188446,-0.09357035905122757,-0.18799982964992523,0.137884721159935,0.23310871422290802,0.07388986647129059,0.15224719047546387,0.007644898258149624,0.1860240250825882,0.059912119060754776,0.16714727878570557,-0.06158311292529106,0.18419258296489716,-0.09968120604753494,0.14334464073181152,-0.02870826981961727,0.10350671410560608,0.193039670586586,0.07693493366241455,0.2637946307659149,-0.026699019595980644,-0.0274039413779974,0.08710917830467224,0.051741939038038254,-0.015331460162997246,-0.15641383826732635,-0.12412791699171066,-0.21643947064876556,0.030537573620676994,-0.013670889660716057,0.15669795870780945,0.08304065465927124,-0.026838956400752068,-0.12553037703037262,0.26219603419303894,-0.09211188554763794,0.14176277816295624,0.13822217285633087,-0.00329883536323905,-0.03368186950683594,0.04701545089483261,-0.21970143914222717,-0.0753684714436531,0.09252385050058365,0.021444076672196388,0.024661727249622345,0.11265245079994202,-0.12369910627603531,-0.16371126472949982,0.22309108078479767,-0.01164843700826168,-0.06329811364412308,-0.17615662515163422,-0.04955637454986572,0.08254995197057724,0.007853428833186626,-0.09764239192008972,-0.06768327206373215,0.03542979806661606,0.11054978519678116,0.01224071066826582,-0.016056692227721214,-0.18137766420841217,0.12197322398424149,0.007306246552616358,0.09252647310495377,0.06366592645645142,-0.2874453067779541,0.14024102687835693,0.053947895765304565,0.07694175094366074,0.010669703595340252,0.2111673355102539
横向,0.01804635487496853,0.0002953052462544292,0.0209488682448864,0.022803187370300293,0.00872846320271492,-0.017089521512389183,-0.015736030414700508,-0.01689092069864273,-0.03240971639752388,0.015594718977808952,-0.010775906965136528,0.019709784537553787,0.015536369755864143,-0.009719891473650932,0.009407858364284039,0.005577110685408115,-0.0008847748395055532,0.017888030037283897,-0.003789655864238739,0.025502018630504608,-0.012655919417738914,0.012857296504080296,0.0018601433839648962,0.03544583171606064,-0.014028949663043022,-0.0003540122997947037,0.015412881039083004,0.0055292751640081406,-0.015629461035132408,0.024132588878273964,-0.01890052855014801,-0.013587763532996178,0.0012769221793860197,-0.0034542533103376627,0.018604401499032974,0.02428571879863739,0.010445905849337578,-0.021689359098672867,0.013262025080621243,0.031221071258187294,0.011990736238658428,0.009876057505607605,-0.001215197378769517,-0.017507480457425117,0.013434669002890587,0.009334169328212738,-0.0223922748118639,-0.017379963770508766,0.023195205256342888,0.0074013713747262955,-0.0051070344634354115,-0.010229438543319702,-0.01283189095556736,-0.022216975688934326,-0.02251041866838932,-0.01441399659961462,0.025730552151799202,0.020805656909942627,0.022779816761612892,-0.012074645608663559,-0.002337140729650855,0.025850431993603706,-0.005529507994651794,0.007891746237874031,-0.0210436824709177,-0.00923384353518486,0.02533048577606678,-0.002380720805376768,0.0040597799234092236,-0.021445926278829575,0.014661484397947788,0.0003509896050672978,0.0024523939937353134,-0.018037045374512672,-0.005283252336084843,-0.021632743999361992,0.004054259043186903,0.011644397862255573,0.028866130858659744,0.041956234723329544,0.020422883331775665,0.00732972240075469,0.009217803366482258,-0.016225231811404228,0.009484882466495037,0.02460741065442562,-0.02700820378959179,0.012386956252157688,-0.00376443681307137,0.009373018518090248,0.006466865073889494,0.037152670323848724,0.020140955224633217,-0.006207696162164211,0.013955929316580296,0.014853909611701965,-0.023198235780000687,0.010850944556295872,0.00667498167604208,-0.002299283631145954,0.019220247864723206,-0.010428220964968204,-0.004921521991491318,0.0156279094517231,-0.0020289903040975332,-0.039119478315114975,0.016458725556731224,-0.0020062087569385767,0.013735948130488396,0.006916010286659002,-0.005717350635677576,0.009678098373115063,-0.0013726959004998207,0.01996530406177044,0.005049131810665131,-0.028025375679135323,0.00324035482481122,-0.0013762485468760133,0.014879109337925911,-0.0019163669785484672,0.0019562435336411,-0.029039641842246056,-0.0007213593344204128,-0.006266499869525433,0.011328257620334625,-0.010766115970909595,0.009572898969054222,0.008645596913993359,0.00460916617885232,0.006973530165851116,0.024429650977253914,-0.012164540588855743,0.005446037743240595,-0.0036324909888207912,-0.03260466828942299,-0.00808712001889944,0.012379503808915615,0.00900985300540924,0.00946925301104784,-0.01218507345765829,-0.010714905336499214,-0.005917060654610395,-0.013319863937795162,0.03095640055835247,-0.03456719219684601,-0.005929216276854277,0.006444735452532768,-0.009488997049629688,-0.0022836546413600445,-0.005665743723511696,-0.025073610246181488,-0.005520004779100418,0.009474125690758228,-0.018753111362457275,-0.015661993995308876,-0.003986291121691465,-0.016602495685219765,-0.016195090487599373,0.012726455926895142,-0.033741649240255356,-0.010344384238123894,-0.002219890244305134,-0.02460029162466526,0.02976628951728344,-0.0059549943543970585,-0.02664625085890293,-0.047352831810712814,0.0024712884332984686,0.01865675300359726,-0.007321649696677923,-0.025996100157499313,0.020412079989910126,0.0027143703773617744,-0.008773664012551308,0.015798769891262054,-0.01801409386098385,-0.010592631064355373,-0.02586594969034195,0.008799292147159576,-0.011058078147470951,0.019283045083284378,-0.021943259984254837,-6.809412298025563e-05,-0.007068215869367123,-0.0038719046860933304,-0.014903672970831394,-0.0012408201582729816,0.0020952438935637474,0.010618510656058788,0.03035464510321617,0.014047796837985516,0.01189256738871336,0.03138183429837227,0.01490270160138607,-0.0032504568807780743,0.007382816635072231,0.0056218840181827545,0.023481957614421844,-0.005085377022624016,0.03439352661371231,0.008148095570504665,0.014687313698232174,0.016564350575208664,-0.0023477922659367323,-0.011598119512200356,0.003878941759467125,0.00024629541439935565,-0.002700518351048231,-0.04226190596818924,0.0024735168553888798,-0.013488071039319038,0.006237448658794165,-0.010174589231610298,0.02208353765308857,0.015509074553847313,-0.0010687430622056127,-0.0023370925337076187,0.039630990475416183,0.008354966528713703,0.02693583257496357,0.016753140836954117,-0.004794428590685129,-0.00029898699722252786,-0.0011000367812812328,-0.042734939604997635,-0.009654131717979908,0.034493133425712585,-0.0035626080352813005,0.010519327595829964,0.026046747341752052,-0.033438485115766525,-0.0310367438942194,-0.006024131551384926,-0.021125150844454765,-0.005118530709296465,-0.016759270802140236,-0.004871301352977753,0.00958000123500824,0.016703981906175613,-0.008966457098722458,-0.013651964254677296,0.0037795682437717915,-0.016589857637882233,-0.008634579367935658,0.0034828828647732735,-0.022746089845895767,-0.0003624506061896682,-0.008570102043449879,0.010896778665482998,0.0007230501505546272,-0.035354144871234894,0.018462367355823517,-0.0005640513263642788,-0.004901602398604155,0.003366301767528057,0.04020875692367554
