word,0,1,2,3,4,5,6,7,8,9,10,11,12,13,14,15,16,17,18,19,20,21,22,23,24,25,26,27,28,29,30,31,32,33,34,35,36,37,38,39,40,41,42,43,44,45,46,47,48,49,50,51,52,53,54,55,56,57,58,59,60,61,62,63,64,65,66,67,68,69,70,71,72,73,74,75,76,77,78,79,80,81,82,83,84,85,86,87,88,89,90,91,92,93,94,95,96,97,98,99,100,101,102,103,104,105,106,107,108,109,110,111,112,113,114,115,116,117,118,119,120,121,122,123,124,125,126,127,128,129,130,131,132,133,134,135,136,137,138,139,140,141,142,143,144,145,146,147,148,149,150,151,152,153,154,155,156,157,158,159,160,161,162,163,164,165,166,167,168,169,170,171,172,173,174,175,176,177,178,179,180,181,182,183,184,185,186,187,188,189,190,191,192,193,194,195,196,197,198,199,200,201,202,203,204,205,206,207,208,209,210,211,212,213,214,215,216,217,218,219,220,221,222,223,224,225,226,227,228,229,230,231,232,233,234,235,236,237,238,239,240,241,242,243,244,245,246,247,248,249,250,251,252,253,254,255
操作,-0.019626684486865997,0.14853958785533905,0.14761462807655334,0.20456235110759735,0.24102595448493958,-0.22960059344768524,-0.03897516429424286,-0.21542182564735413,-0.39122331142425537,0.2618802487850189,-0.04653741419315338,0.14302630722522736,0.17915919423103333,-0.21258927881717682,0.10996565222740173,-0.07924317568540573,0.23896832764148712,0.2137438803911209,-0.13905204832553864,0.5159609317779541,-0.15204764902591705,0.046017568558454514,-0.23738837242126465,0.33441320061683655,-0.32481124997138977,-0.17805230617523193,-0.0468733087182045,0.03943294659256935,-0.24853269755840302,0.3388685882091522,-0.12141355127096176,0.03906076401472092,-0.09142109006643295,-0.1146424263715744,0.373737633228302,0.3593795895576477,0.12255494296550751,-0.21363714337348938,0.21490928530693054,0.3749603033065796,-0.027762092649936676,0.21800464391708374,-0.0491640642285347,-0.20681147277355194,0.3159725069999695,0.04059315845370293,-0.41615229845046997,0.035669002681970596,0.2969829738140106,0.374866783618927,-0.07497764378786087,-0.08354618400335312,-0.04972875490784645,-0.2375660389661789,-0.308366596698761,-0.27735140919685364,0.2109716385602951,0.061311740428209305,0.344088613986969,0.05626331642270088,-0.07651171088218689,0.005727018695324659,0.04900999739766121,-0.09416571259498596,-0.33613666892051697,-0.08432691544294357,0.3096001148223877,0.05730653926730156,0.060754209756851196,-0.20663988590240479,0.13750696182250977,-0.004091519862413406,0.012691115960478783,-0.30497339367866516,-0.04064211621880531,-0.4628949761390686,0.13328881561756134,0.22675126791000366,0.1952812522649765,0.5219257473945618,0.1758837103843689,0.04680502787232399,0.14786316454410553,0.08332982659339905,0.23182541131973267,0.030330032110214233,-0.05094205215573311,0.2838881015777588,0.09383262693881989,0.10005039721727371,0.1638168841600418,0.28570014238357544,-0.1161327064037323,-0.0031423037871718407,0.22434870898723602,0.05929291620850563,-0.16741728782653809,0.1258559226989746,-0.0151788629591465,-0.17498917877674103,0.06529556214809418,-0.1480923295021057,-0.06273075193166733,0.2020372748374939,-0.015596525743603706,-0.4215174615383148,0.24720335006713867,-0.2498939037322998,0.17731036245822906,-0.053688887506723404,0.15025067329406738,0.23774489760398865,0.010935003869235516,0.17107002437114716,-0.06775479763746262,-0.3045722246170044,-0.0002778203343041241,0.04900866374373436,0.09028764814138412,0.0018463123124092817,-0.06630729883909225,-0.23023460805416107,0.048659879714250565,-0.08462166786193848,0.013307126238942146,-0.19104695320129395,-0.014385492540895939,0.11161135882139206,0.18960681557655334,0.10534624755382538,0.25803107023239136,-0.3755604326725006,0.08543158322572708,-0.0641578659415245,-0.383247971534729,-0.04826675355434418,0.2069709748029709,-0.010051770135760307,0.08932656049728394,-0.1871892660856247,-0.030357444658875465,-0.11650358140468597,-0.0405571311712265,0.1738288551568985,-0.5072425007820129,-0.051685892045497894,-0.01011680718511343,-0.10228972882032394,-0.027976911514997482,-0.08323246240615845,-0.37690696120262146,-0.011040842160582542,-0.05057875066995621,-0.225249782204628,-0.25062358379364014,-0.14256475865840912,-0.20505526661872864,-0.03785347566008568,0.09233331680297852,-0.27179890871047974,-0.25018927454948425,0.02957359328866005,-0.3434218168258667,0.1669561266899109,0.02132589928805828,-0.08710256218910217,-0.6070697903633118,-0.1520143449306488,0.12771408259868622,0.15888537466526031,-0.18203204870224,0.3359690010547638,-0.05820002406835556,-0.16973507404327393,0.13974158465862274,-0.2235971838235855,-0.01766003854572773,-0.1726042926311493,0.26782938838005066,-0.39830896258354187,0.06685492396354675,-0.11350324004888535,0.0727691501379013,0.0012517353752627969,0.14386290311813354,-0.23191064596176147,-0.11886528879404068,0.049954380840063095,0.08928756415843964,0.24910366535186768,-0.28013482689857483,-0.0058396910317242146,0.3344012200832367,0.19123654067516327,0.03699382767081261,0.08403385430574417,0.03011051006615162,0.18810857832431793,-0.15555784106254578,0.36591246724128723,0.09520179033279419,0.1126202940940857,0.1396900862455368,-0.0803084671497345,-0.03823419660329819,0.023754604160785675,-0.1243210956454277,0.025148889049887657,-0.47224947810173035,-0.15886051952838898,-0.0008775849128141999,-0.1591632068157196,-0.05814359709620476,0.12181837856769562,0.30222123861312866,0.005078593268990517,-0.06504244357347488,0.5805778503417969,-0.15571823716163635,0.2922418415546417,-0.17469358444213867,-0.033481694757938385,0.11327731609344482,0.03846587985754013,-0.4935154914855957,-0.12878592312335968,0.31867098808288574,0.11744136363267899,0.08387906104326248,0.3825690746307373,-0.3161848187446594,-0.4578225612640381,-0.1091681495308876,-0.19382092356681824,-0.05986112728714943,-0.141191303730011,-0.15184971690177917,0.27941158413887024,0.20105235278606415,0.011417925357818604,-0.1590253859758377,0.15875327587127686,0.02997143566608429,-0.07337766885757446,-0.10872248560190201,-0.281749427318573,0.10583650320768356,-0.030564479529857635,-0.0024683172814548016,-0.20803099870681763,-0.31488552689552307,0.12274850904941559,0.21817681193351746,0.17516447603702545,-0.08843492716550827,0.5969313383102417
车辆,0.15882064402103424,0.1167982816696167,-0.013310050591826439,0.06724663823843002,0.11639237403869629,-0.11100901663303375,0.014785409905016422,-0.12077532708644867,-0.22319643199443817,0.1453685760498047,-0.0670161023736,0.009452249854803085,0.17532630264759064,-0.10110360383987427,0.132991760969162,-0.06182458996772766,-0.0043683419935405254,-0.01890186034142971,0.043007805943489075,0.11846454441547394,-0.09103933721780777,-0.021542377769947052,-0.02745966613292694,0.2940899431705475,-0.23897743225097656,0.03367588296532631,0.08845405280590057,0.05948371812701225,-0.1331983208656311,0.19236838817596436,-0.190636545419693,-0.050831232219934464,-0.044803500175476074,-0.01594730280339718,0.08455076813697815,0.13832667469978333,-0.0012981457402929664,-0.12665700912475586,0.1158013865351677,0.1432785987854004,0.07220235466957092,0.19678011536598206,-0.0662023201584816,-0.021405916661024094,0.13775517046451569,0.005315066315233707,-0.18780605494976044,-0.054240331053733826,0.1121089830994606,0.08017848432064056,-0.002122392412275076,-0.1001494899392128,-0.13296742737293243,0.09284383058547974,-0.04964291304349899,-0.18164341151714325,0.1636694371700287,0.2253677397966385,0.12591291964054108,-0.018104540184140205,0.06270013004541397,0.05890088528394699,-0.12036710232496262,0.005099155940115452,-0.031141558662056923,-0.15912415087223053,0.16521070897579193,-0.003256699535995722,0.10940949618816376,-0.2125239372253418,0.14044958353042603,-0.019645748659968376,0.0563717819750309,-0.19392269849777222,-0.10466492176055908,-0.15009254217147827,0.059736497700214386,0.0914720818400383,0.15155337750911713,0.2392805963754654,-0.03606339171528816,0.03803557902574539,0.10886453092098236,-0.09454905241727829,0.11616058647632599,0.006193884182721376,-0.0629243403673172,-0.019874555990099907,-0.05957701429724693,0.015359227545559406,0.025023190304636955,0.1327742040157318,-0.11662108451128006,-0.08328641206026077,0.09578264504671097,-0.051915932446718216,-0.0852932408452034,0.05875452980399132,0.11620871722698212,-0.07084362953901291,0.08414161950349808,0.057897962629795074,-0.18789711594581604,0.01698504388332367,-0.027973128482699394,-0.29180246591567993,0.04881616309285164,-0.1531233936548233,0.05395222455263138,-0.12516319751739502,-0.09002067893743515,0.0779334232211113,-0.09653735905885696,0.01771075651049614,0.08124741166830063,-0.08506102859973907,0.018372206017374992,-0.10167424380779266,0.1746973842382431,0.07907639443874359,-0.018842753022909164,-0.09364119172096252,-0.04247116670012474,-0.07056593149900436,0.11594779789447784,-0.1929747760295868,0.06158589944243431,-0.0525507926940918,0.03471507504582405,-0.007092309184372425,0.10871151834726334,-0.05867297574877739,-0.008475533686578274,0.007860281504690647,-0.2016720473766327,-0.014476616866886616,0.12710921466350555,0.059357933700084686,0.04589547961950302,-0.0640062466263771,-0.05358438566327095,-0.010015771724283695,0.030772753059864044,0.14844678342342377,-0.21762852370738983,-0.10243456810712814,-0.006431056652218103,-0.00818935688585043,-0.03138996288180351,-0.026058819144964218,-0.07246015220880508,-0.03972254693508148,-0.020766746252775192,-0.2034287303686142,-0.09411465376615524,0.0022937010508030653,0.005876700393855572,-0.06406216323375702,-0.07425747066736221,-0.04170793294906616,-0.2056364119052887,-0.0851643979549408,-0.09743805974721909,0.19544653594493866,0.026446616277098656,0.0609547458589077,-0.2416260838508606,0.07009248435497284,0.1399790644645691,0.012400079518556595,-0.09131113439798355,0.17312370240688324,0.09843303263187408,-0.07953927665948868,0.11358963698148727,-0.054865214973688126,-0.04470888897776604,-0.07833757996559143,-0.031041260808706284,-0.08128567785024643,0.15820664167404175,-0.0569896325469017,-0.0832400768995285,0.04668789356946945,-0.10274966061115265,-0.17176631093025208,0.11605051159858704,0.13881143927574158,0.06862886995077133,0.1268356293439865,-0.001975886058062315,0.10038919001817703,0.07878144085407257,0.1091705858707428,0.00507043581455946,0.03889736160635948,-0.07420813292264938,0.10417553782463074,-0.0577019527554512,0.10443495213985443,0.10648393630981445,0.15495508909225464,0.21560028195381165,-0.057193778455257416,-0.01206112839281559,0.09350527822971344,0.046026185154914856,-0.009677541442215443,-0.1569502353668213,-0.12878604233264923,-0.18397939205169678,0.07638243585824966,-0.061874955892562866,0.1135932207107544,0.0770537331700325,-0.07287941873073578,-0.0212544035166502,0.1959790140390396,-0.04917846992611885,0.12289547920227051,0.14605259895324707,-0.040213800966739655,-0.013076845556497574,0.06139860302209854,-0.20283111929893494,-0.04869021475315094,0.07841865718364716,0.013967633247375488,-4.5616732677444816e-05,0.08561384677886963,-0.07213851809501648,-0.1513618379831314,0.1740950345993042,-0.05701907351613045,-0.036802906543016434,-0.16969618201255798,-0.1452884078025818,0.04621424153447151,0.07836436480283737,-0.08263926953077316,-0.08159781992435455,-0.020832324400544167,0.07042671740055084,-0.02252952754497528,0.01906176470220089,-0.17321310937404633,0.02257065661251545,0.006500893738120794,0.0961044430732727,0.018054168671369553,-0.29789289832115173,0.1019703820347786,0.025774052366614342,0.09056495875120163,0.004616857040673494,0.11992081254720688
旋转,0.039273373782634735,-0.0398995615541935,0.10237912833690643,0.056474849581718445,0.08704804629087448,-0.044158391654491425,-0.10134594142436981,-0.04187016561627388,-0.10069122165441513,0.03333265334367752,0.007787999697029591,0.004765447694808245,-0.01047474890947342,-0.07778946310281754,-0.07194770872592926,-0.024297604337334633,0.03380968049168587,0.10975880920886993,-0.054499994963407516,0.1524415761232376,-0.010458261705935001,-0.001334578264504671,0.02787298522889614,0.10599946975708008,-0.213363915681839,0.03640503063797951,0.06726332008838654,0.0532081164419651,-0.1149546280503273,0.08526201546192169,-0.06676078587770462,0.019332243129611015,-0.08590513467788696,0.02789580263197422,0.11604783684015274,0.1248147189617157,0.0598420575261116,-0.08274008333683014,0.09715592116117477,0.07864809036254883,-0.002010440919548273,0.04864799603819847,-0.04892067611217499,-0.05993921309709549,0.07051672041416168,0.020386073738336563,-0.04661787301301956,-0.04263253137469292,0.0447591207921505,0.05451323091983795,-0.07432617247104645,-0.09929262101650238,-0.07203080505132675,-0.021663393825292587,-0.08062919229269028,-0.10237102955579758,0.14454388618469238,0.02530731074512005,0.05852031335234642,-0.08194310963153839,0.06170542538166046,0.00843263603746891,0.04629521071910858,-0.0002451828622724861,-0.08011219650506973,0.057358626276254654,0.05607883632183075,0.041550155729055405,0.049407802522182465,-0.08476890623569489,0.08085004985332489,-0.08388522267341614,-0.00189159344881773,-0.08658497780561447,0.006944234017282724,-0.09290117025375366,0.03064841590821743,0.02280346117913723,0.11158761382102966,0.14360305666923523,0.050184402614831924,-0.00032459356589242816,0.06803625822067261,-0.06678514927625656,0.008376898244023323,0.10338865965604782,-0.09471145272254944,-0.03404894098639488,0.005643805954605341,-0.03505503013730049,0.018332095816731453,0.09175441414117813,0.017388934269547462,-0.06331700831651688,0.06290394067764282,0.028808964416384697,-0.12122728675603867,0.04454205185174942,0.05502557009458542,-0.072603739798069,0.025210095569491386,-0.03757700324058533,-0.11135359108448029,0.08087319135665894,0.06349142640829086,-0.1300899237394333,0.016076302155852318,-0.08781372755765915,0.03571447730064392,-0.05155045539140701,-0.1268065720796585,0.03387469798326492,0.03667977824807167,0.012668744660913944,0.054659415036439896,-0.07475157827138901,0.05242433026432991,0.008628761395812035,0.0759541466832161,-0.09566527605056763,-0.017829030752182007,-0.09586890041828156,-0.023776834830641747,0.0006383280269801617,0.024248842149972916,0.03579265996813774,0.1069970428943634,0.05764482542872429,0.01834934577345848,0.02923228032886982,0.13811813294887543,-0.054712098091840744,-0.04442219436168671,-0.04369531571865082,-0.1253141313791275,-0.049171481281518936,0.031975168734788895,-0.04634740203619003,-0.012135650031268597,-0.045669179409742355,-0.11920525133609772,-0.0575210265815258,-0.018173282966017723,0.09061780571937561,-0.13643264770507812,-0.0733490139245987,0.023788634687662125,-0.016260715201497078,-0.019865671172738075,-0.05307391285896301,-0.11751057952642441,-0.05273992568254471,-0.02207106351852417,-0.08969870954751968,-0.05046185851097107,0.008676832541823387,-0.028773337602615356,-0.09939760714769363,-0.009494599886238575,-0.07139027863740921,-0.07458042353391647,-0.02089310996234417,-0.045021023601293564,0.11098343878984451,0.011680006980895996,-0.011598842218518257,-0.15696576237678528,0.04402375966310501,0.04380325227975845,0.05195234715938568,-0.06004435196518898,0.07317620515823364,0.09172870963811874,0.01856333762407303,0.04531210660934448,-0.04969138652086258,-0.028713393956422806,-0.07161400467157364,-0.0036102847661823034,-0.07311373949050903,0.1137130931019783,-0.0605957955121994,0.032448846846818924,0.08927218616008759,-0.006849350407719612,-0.042158231139183044,0.04414590448141098,-0.013296550139784813,0.04544200748205185,0.07912135869264603,0.006442685145884752,0.0849604457616806,0.040847111493349075,0.05473752319812775,0.02915901318192482,0.04318583011627197,-0.010162362828850746,0.01712377741932869,-0.06515926122665405,0.047003570944070816,0.028986912220716476,0.05553252995014191,0.10852979123592377,0.003703537629917264,-0.06683172285556793,0.0047461907379329205,-0.02432176098227501,-0.12747055292129517,-0.18437416851520538,-0.03776251897215843,0.03749082610011101,0.0463138185441494,-0.03434756025671959,0.05888749659061432,0.04944087192416191,0.06094207614660263,0.0705825462937355,0.09202086180448532,-0.03345935419201851,0.11418861895799637,0.08280914276838303,0.04786529392004013,-0.017965346574783325,0.1476363241672516,-0.1671711802482605,0.018840916454792023,0.13533277809619904,-0.025594016537070274,0.006571060046553612,0.17525343596935272,-0.041153110563755035,-0.06997065246105194,0.032149653881788254,-0.08365088701248169,-0.012172587215900421,-0.1363316923379898,-0.04835823178291321,0.05088410526514053,0.03993755951523781,-0.014596841298043728,-0.09811895340681076,-0.0005541041609831154,0.04421639069914818,-0.055436983704566956,0.03827638924121857,-0.1459597498178482,-0.009578198194503784,-0.06720530241727829,0.03389708325266838,-0.03196622431278229,-0.0985482782125473,0.015512494370341301,-0.03711717575788498,0.04370389133691788,0.08598663657903671,0.12679815292358398
设置,0.1520405113697052,0.0551828034222126,0.051484253257513046,0.11604191362857819,0.17689427733421326,-0.13028022646903992,-0.021465640515089035,-0.21513935923576355,-0.3022242486476898,0.13860322535037994,0.04764959216117859,0.0783916786313057,0.07614763081073761,-0.2277151495218277,0.0700288638472557,-0.08823982626199722,0.08977676928043365,0.02854348160326481,-0.032518792897462845,0.1780097335577011,-0.10691916942596436,0.04592711478471756,-0.035109374672174454,0.2965225577354431,-0.3436751961708069,0.01157818641513586,0.08894473314285278,0.09584314376115799,-0.25827330350875854,0.12911354005336761,-0.19637377560138702,-0.04282808676362038,-0.08594074845314026,0.008327025920152664,0.2005312293767929,0.16564226150512695,0.13755100965499878,-0.21844804286956787,0.1754179447889328,0.19663028419017792,0.0810476616024971,0.17329224944114685,-0.10114773362874985,-0.07663093507289886,0.24014076590538025,-0.053056105971336365,-0.268219918012619,-0.07927604019641876,0.21052299439907074,0.1762683391571045,-0.08814532309770584,-0.09926781058311462,-0.10531327873468399,-0.006670990027487278,-0.14208301901817322,-0.2478046715259552,0.2600231170654297,0.08627848327159882,0.08340920507907867,0.0006290141609497368,0.08242006599903107,0.08802128583192825,-0.10290758311748505,0.033448055386543274,-0.14786647260189056,-0.11882052570581436,0.22224485874176025,0.09321321547031403,0.09074708819389343,-0.2121603786945343,0.12566910684108734,-0.1337655633687973,0.1010216698050499,-0.2256646752357483,-0.18997928500175476,-0.18291348218917847,0.05326990783214569,-0.011018025688827038,0.23952604830265045,0.37537819147109985,0.07827755063772202,0.06156438961625099,0.14200451970100403,-0.0795615091919899,0.07685669511556625,0.12646159529685974,-0.03168885037302971,-0.04622576758265495,-0.048695631325244904,-0.026532338932156563,0.01263347826898098,0.17334677278995514,0.018507109954953194,-0.06405247002840042,0.028189918026328087,-0.03462803736329079,-0.18317463994026184,0.07880690693855286,0.11688121408224106,-0.17648367583751678,0.11843565106391907,-0.02575542964041233,-0.23382677137851715,0.10123542696237564,0.017291229218244553,-0.29967400431632996,0.09303265810012817,-0.2071916162967682,0.05825107544660568,-0.14589494466781616,-0.10744836926460266,0.10082274675369263,-0.05049460753798485,0.0640561655163765,0.06662693619728088,-0.22420737147331238,0.08445116132497787,-0.04864336922764778,0.12319305539131165,-0.0017054472118616104,-0.02322234772145748,-0.18287187814712524,-0.036881912499666214,-0.185115247964859,0.10246037691831589,-0.05978142097592354,0.16154949367046356,0.02389824576675892,0.0601099357008934,-0.0333125963807106,0.13135170936584473,-0.08990437537431717,0.0024099263828247786,0.059020958840847015,-0.3019177317619324,-0.09078305959701538,0.0770699679851532,0.024468477815389633,0.10413943231105804,-0.07335977256298065,-0.11851925402879715,-0.029507528990507126,-0.01798113062977791,0.20954540371894836,-0.28269994258880615,-0.05157275125384331,-0.022165469825267792,-0.0846925601363182,-0.00700506241992116,-0.06289099901914597,-0.15192623436450958,-0.06442003697156906,0.01094829011708498,-0.19112633168697357,-0.1462935507297516,0.00853465124964714,-0.012876744382083416,-0.08604158461093903,-0.022530941292643547,-0.12256111949682236,-0.23485936224460602,-0.08162419497966766,-0.12646892666816711,0.1989513784646988,-0.03744344413280487,0.06379926949739456,-0.3030317425727844,0.06589093804359436,0.2238161563873291,-0.009565806947648525,-0.12300631403923035,0.23688364028930664,0.14954933524131775,-0.11584792286157608,0.1286759227514267,-0.08035247772932053,-0.13488148152828217,-0.07734954357147217,-0.05862937122583389,-0.15876954793930054,0.18606647849082947,-0.046155139803886414,0.016648104414343834,0.11187093704938889,-0.04215952381491661,-0.15668706595897675,0.0781019851565361,0.13296253979206085,0.07740315794944763,0.21493259072303772,0.042301177978515625,0.15473949909210205,0.10173827409744263,0.1320052593946457,0.08907225728034973,0.08634127676486969,0.006965379696339369,0.15157075226306915,-0.05203872174024582,0.1185285821557045,0.1327667385339737,0.10301117599010468,0.26836562156677246,0.015150877647101879,-0.03438328206539154,0.06794396787881851,-0.06359556317329407,-0.1628514975309372,-0.29320603609085083,-0.09724261611700058,-0.13335438072681427,0.0717010423541069,-0.047472529113292694,0.17198976874351501,0.07613345980644226,-0.039776526391506195,-0.03717413917183876,0.3146997392177582,-0.062419064342975616,0.2546828091144562,0.15972696244716644,-0.0001943783281603828,0.06922145932912827,0.15939773619174957,-0.2919129729270935,-0.041039105504751205,0.19582974910736084,-0.025423524901270866,0.08311586827039719,0.21648383140563965,-0.1524074822664261,-0.245121031999588,0.12768757343292236,-0.04109037294983864,-0.07486894726753235,-0.23871932923793793,-0.12888240814208984,0.12556691467761993,0.0996190756559372,-0.07361956685781479,-0.1340382695198059,0.02254919335246086,0.09033612161874771,0.018647268414497375,-0.042258039116859436,-0.2897091507911682,0.04534989222884178,-0.04554379731416702,0.12884025275707245,-0.019163208082318306,-0.3169647753238678,0.054214294999837875,0.02573712356388569,0.15228858590126038,0.0007311995141208172,0.226664200425148
限定,0.06303833425045013,0.07485038787126541,-0.026561178267002106,0.020294828340411186,0.054055601358413696,-0.04902441054582596,0.01925267092883587,-0.0555899553000927,-0.15640504658222198,0.0964047759771347,-0.07085880637168884,0.0020750605035573244,0.10590444505214691,-0.029083367437124252,0.06985326111316681,-0.030998380854725838,-0.03191004693508148,0.014735057950019836,0.003827888984233141,0.070481076836586,-0.021692562848329544,-0.029210858047008514,-0.03347575664520264,0.1493089199066162,-0.06866911798715591,0.026722833514213562,0.03670787066221237,0.04619801416993141,-0.05382833629846573,0.11148518323898315,-0.1077868640422821,-0.010815219953656197,0.00991746224462986,-0.016839755699038506,0.06018710136413574,0.07897114008665085,-0.039365433156490326,-0.058067671954631805,0.027648229151964188,0.0776650607585907,0.02900083176791668,0.09237807989120483,-0.029205217957496643,-0.028455032035708427,0.044823817908763885,0.0076759569346904755,-0.09108275175094604,-0.002549771685153246,0.09676821529865265,0.06104838475584984,-0.0003891150117851794,-0.036157555878162384,-0.08198891580104828,0.06159025803208351,-0.0483565554022789,-0.07610230147838593,0.0606532096862793,0.10135038942098618,0.08249295502901077,-0.00521264411509037,0.016061505302786827,0.017826328054070473,-0.06160898879170418,-0.02730512246489525,-0.03521836921572685,-0.09143359959125519,0.10069962590932846,-0.003158182604238391,0.05390414968132973,-0.09430578351020813,0.06494421511888504,0.024313494563102722,0.012531020678579807,-0.1104167252779007,-0.01652657426893711,-0.09478147327899933,0.031086713075637817,0.08444437384605408,0.0996771976351738,0.08757741749286652,-0.04487152770161629,-0.0020308159291744232,0.03793800249695778,-0.04858384281396866,0.056954119354486465,-0.04416269063949585,-0.0152119817212224,0.042055439203977585,-0.022233404219150543,-0.00312180258333683,0.012443573214113712,0.06278834491968155,-0.08003070950508118,-0.04841111600399017,0.06983993202447891,-0.01928502693772316,-0.02665909193456173,0.06754715740680695,0.02964155189692974,-0.0003419580461923033,0.015083489939570427,0.048389676958322525,-0.04864504933357239,-0.007949610240757465,-0.02102653682231903,-0.11645764857530594,0.02856435813009739,-0.08618728816509247,0.041764773428440094,-0.04590168595314026,-0.036635324358940125,0.013813463971018791,-0.04945928975939751,-0.015228410251438618,0.0430980883538723,-0.002560599008575082,-0.011753230355679989,-0.05900191515684128,0.05973079800605774,0.04031183198094368,-0.008349454030394554,-0.03991243243217468,0.003568714950233698,-0.02663211151957512,0.037497274577617645,-0.10844733566045761,-0.0020659484434872866,-0.007125247735530138,-0.005150824785232544,0.006307340692728758,0.07538605481386185,-0.04345978796482086,0.025236180052161217,-0.01471345778554678,-0.07626178860664368,0.025672920048236847,0.07948160171508789,-0.0066437325440347195,0.0329061895608902,-0.034814685583114624,-0.004957982804626226,-0.044131260365247726,0.022065533325076103,0.03753998503088951,-0.11416222155094147,-0.039601534605026245,0.006712184753268957,-0.021358434110879898,-0.005939861759543419,-0.014407441020011902,-0.056165482848882675,-0.03379536792635918,-0.027386853471398354,-0.13601967692375183,-0.034382712095975876,0.0191921666264534,-0.018985968083143234,-0.03802162781357765,-0.007164039649069309,-0.036036618053913116,-0.11956597119569778,-0.01914105750620365,-0.07684116810560226,0.09005734324455261,0.02233971282839775,-0.010273823514580727,-0.1230759397149086,0.007976076565682888,0.07141800969839096,0.022440355271100998,-0.050489846616983414,0.06840644031763077,0.05027327314019203,-0.025650348514318466,0.05636787787079811,-0.034364812076091766,0.029434476047754288,-0.041181501001119614,0.019181808456778526,-0.0341864712536335,0.04683210328221321,-0.0007549534202553332,-0.06461534649133682,-0.03971853479743004,-0.026412280276417732,-0.092211052775383,0.0637587159872055,0.07822606712579727,0.06709765642881393,0.03988025709986687,-0.051886122673749924,0.03588470071554184,0.047591350972652435,0.026732411235570908,-0.04523497074842453,0.028882406651973724,-0.040724143385887146,0.06784792244434357,-0.03783204406499863,0.060928378254175186,0.05027596652507782,0.08662693947553635,0.09736670553684235,-0.03557178005576134,-0.0046865325421094894,0.0654151663184166,0.02090662159025669,0.036118149757385254,-0.08870100975036621,-0.04425886645913124,-0.07105115801095963,0.03474395349621773,0.009589004330337048,0.07410737872123718,0.03379853069782257,-0.037685927003622055,-0.02783755026757717,0.0970679223537445,-0.0333193801343441,0.04327128082513809,0.039658233523368835,0.013533104211091995,-0.026664722710847855,0.022448552772402763,-0.09975169599056244,-0.031167292967438698,0.015133793465793133,0.045249901711940765,-0.01161512266844511,0.023697061464190483,-0.02651423215866089,-0.07675625383853912,0.09670974314212799,-0.02187925949692726,-0.02416103705763817,-0.04710085690021515,-0.031097806990146637,0.058968231081962585,0.03459072858095169,-0.03520914167165756,-0.020907677710056305,-0.00039103481685742736,0.03713848069310188,-0.022324755787849426,-0.008531099185347557,-0.09400317817926407,0.005095228552818298,-0.0061125727370381355,0.00524987792596221,0.0017825542017817497,-0.13362374901771545,0.06297460943460464,0.028030287474393845,0.024796312674880028,0.007593305315822363,0.07432416081428528
位置,-0.16477583348751068,0.9070510268211365,0.25918048620224,-1.028791904449463,0.29467445611953735,-0.5548372864723206,0.2803550958633423,-0.16810202598571777,-1.0478367805480957,0.30889448523521423,0.6534386277198792,-0.36560872197151184,-0.8206945061683655,-0.6567437648773193,-0.274934321641922,-0.3085867464542389,0.3949275314807892,-0.18636691570281982,0.4501607418060303,0.030223418027162552,-0.6858369708061218,-0.4117387533187866,0.04785137251019478,1.1310492753982544,-0.9935842752456665,-0.4905930459499359,0.03501855209469795,1.047996997833252,-1.1442415714263916,-0.5982152223587036,-0.5605748295783997,-0.10251718759536743,-0.8036637902259827,-0.17165905237197876,0.4109019935131073,0.48514699935913086,0.3856630027294159,-0.2683245837688446,0.36375170946121216,-0.49050846695899963,0.676476001739502,0.9564065337181091,0.2789479196071625,-0.052292779088020325,-0.06425045430660248,-0.7603277564048767,0.7913766503334045,-0.6298263072967529,0.3889561593532562,-0.1444699615240097,0.5626010298728943,-0.25948378443717957,0.1520608812570572,0.3128056228160858,0.6908882260322571,-1.0375720262527466,0.8566924929618835,-0.020500242710113525,0.19898106157779694,-0.17714010179042816,0.8491090536117554,0.11206268519163132,-1.0817469358444214,-0.9894933104515076,0.41939330101013184,-0.7132288813591003,-0.3768974244594574,0.5628767609596252,0.22047783434391022,-1.2291259765625,0.8364331722259521,-1.0720795392990112,0.0399603396654129,-0.8741747736930847,-1.1972554922103882,-0.3433307707309723,-0.6576595902442932,-0.8177047967910767,0.25174686312675476,1.3481050729751587,0.033924687653779984,-0.4496782124042511,0.19683688879013062,-0.6643396019935608,0.6779384016990662,0.5009528994560242,0.23811008036136627,-0.9817285537719727,0.06569747626781464,-0.09540259093046188,-0.3291512727737427,0.5421465635299683,0.13630907237529755,0.45509520173072815,-0.23050136864185333,-0.7298310399055481,-0.6474413275718689,-0.042905960232019424,1.0029935836791992,-0.6058523654937744,0.02669701911509037,0.6886630058288574,-1.442021369934082,0.061922334134578705,0.6963966488838196,-0.3207138776779175,-0.24182237684726715,-0.8941778540611267,-0.024166636168956757,-1.2983300685882568,-0.3917076289653778,-0.42500898241996765,-0.04148489609360695,-0.2020861655473709,1.1522783041000366,-1.0891329050064087,0.6213076710700989,-0.061748143285512924,0.5237196087837219,0.0698208436369896,-0.19818902015686035,-0.2495621293783188,-1.2484838962554932,-1.3497650623321533,0.27844467759132385,-0.8413474559783936,0.33818453550338745,-0.6583906412124634,0.6756604909896851,-0.37344908714294434,0.6913953423500061,-0.8704332709312439,0.2822606861591339,0.5264100432395935,-0.6135023236274719,-0.27295249700546265,0.10283456742763519,0.25487619638442993,-0.245192289352417,0.39411166310310364,-0.84298175573349,-0.08822007477283478,1.0301330089569092,-0.0048325988464057446,-0.10006777942180634,-0.3482394218444824,-0.10104701668024063,0.08133598417043686,0.19506755471229553,-0.27615442872047424,-0.754276692867279,0.5420628786087036,0.02467801235616207,-0.4603866636753082,-0.18621650338172913,0.5634622573852539,0.9672220945358276,-0.44004419445991516,0.08754362165927887,0.9958376884460449,-0.40769028663635254,-0.19193053245544434,-0.10101447999477386,0.03148281201720238,0.4473675489425659,0.15136153995990753,-0.4358471930027008,0.8668697476387024,0.3737650215625763,-0.47952955961227417,-0.8565146327018738,0.9740970134735107,1.395756721496582,-0.5549668669700623,0.9329309463500977,-0.17438575625419617,-1.0780224800109863,0.1692924052476883,-0.7150734066963196,-0.46517595648765564,0.2669025659561157,-0.204926997423172,0.7004784941673279,1.4631036520004272,-0.1701865792274475,0.17375421524047852,0.3804457485675812,0.3867306709289551,-0.6151034832000732,-0.1266506314277649,0.846962571144104,1.3449634313583374,-0.32987290620803833,0.8608304262161255,0.3761275112628937,-0.2679558992385864,-0.7971773147583008,0.31853386759757996,0.3677978217601776,0.43237370252609253,0.4153388738632202,0.16336405277252197,1.07822847366333,0.6797902584075928,0.11790952831506729,-0.6583194732666016,0.7021281719207764,-0.9377676248550415,-0.5840256214141846,-0.5908968448638916,-1.0559625625610352,-0.39719027280807495,-0.7211658358573914,0.12462159246206284,-0.6563877463340759,-0.23558971285820007,0.15866994857788086,0.9892241358757019,-0.855294942855835,0.5743656754493713,1.4588346481323242,0.3126683831214905,0.4256250560283661,1.3545706272125244,-1.1106849908828735,-0.43222010135650635,0.9911451935768127,0.2752949595451355,0.07761718332767487,0.6049007177352905,-0.620608389377594,-0.6491232514381409,0.06687144935131073,0.7156282067298889,-0.5472801327705383,-0.9997520446777344,-0.49538493156433105,0.27892276644706726,-0.3154386579990387,-0.5209607481956482,-0.44815418124198914,-0.156444251537323,0.5925496816635132,0.15610955655574799,-0.10490582138299942,-0.7878919243812561,0.27433454990386963,0.5873121619224548,0.5661447048187256,-0.6597743034362793,-1.0882222652435303,0.2013482004404068,0.023781757801771164,0.23575517535209656,-0.4624595046043396,0.6565581560134888
结构,-0.049455203115940094,0.21153710782527924,0.47494807839393616,0.4106289744377136,0.5225257873535156,-0.1342681497335434,-0.2470453977584839,-0.3012099862098694,-0.5112128853797913,0.17669939994812012,0.3242346942424774,0.3561987280845642,0.05064531788229942,-0.7762330770492554,-0.28688764572143555,-0.10606618970632553,0.5855873823165894,0.5132768750190735,-0.2771940529346466,0.9501845836639404,-0.49695971608161926,0.05864967405796051,-0.3577422797679901,0.13489793241024017,-1.040933609008789,-0.15139999985694885,-0.11089619994163513,0.04733569175004959,-0.6485999226570129,0.4307895600795746,-0.27364274859428406,0.13224364817142487,-0.9290570616722107,-0.049956921488046646,0.9191561341285706,0.6182186603546143,0.22592037916183472,-0.3152230381965637,0.4690462350845337,0.4136974513530731,0.08398962765932083,0.3641715347766876,-0.19879554212093353,-0.3859975337982178,0.5948272943496704,-0.04387325793504715,-0.5220986604690552,-0.11893438547849655,0.20356647670269012,0.6326168179512024,-0.13631358742713928,-0.23231817781925201,0.08473939448595047,-0.6466167569160461,-0.2789231538772583,-0.40110018849372864,0.5455018877983093,0.26440292596817017,0.2968071401119232,-0.09629779309034348,0.043546322733163834,0.1742931604385376,0.15527400374412537,0.1086094081401825,-0.5035465955734253,0.15795646607875824,0.37234964966773987,0.2940097451210022,0.17821384966373444,-0.5349881649017334,0.07960962504148483,-0.3425798714160919,0.07837779819965363,-0.6510375738143921,-0.13920362293720245,-0.3720751106739044,0.4123172461986542,0.040121134370565414,0.5066313743591309,1.132962942123413,0.5168213248252869,-0.04405732452869415,0.5022789239883423,0.004141516983509064,0.24801011383533478,0.6105207800865173,-0.04713129624724388,0.19897128641605377,0.10745848715305328,-0.0954945906996727,0.06536805629730225,0.5454229712486267,0.24453498423099518,0.042522504925727844,-0.12409123033285141,0.20213545858860016,-0.5933082103729248,0.18332143127918243,0.1841987520456314,-0.7965535521507263,-0.07280782610177994,-0.705825686454773,-0.46804988384246826,0.786737859249115,0.3397766351699829,-0.6384167671203613,0.24026049673557281,-0.3998197317123413,0.33231672644615173,-0.29018232226371765,-0.1852373331785202,0.34406283497810364,0.3901746869087219,0.19199822843074799,-0.2702212333679199,-0.9127529859542847,0.3416518568992615,0.08504229038953781,0.2772747576236725,0.0754302367568016,-0.17114195227622986,-0.3402766287326813,-0.019645581021904945,-0.2288035750389099,0.13713338971138,0.34011372923851013,0.7062402367591858,0.18197853863239288,0.7657871246337891,-0.2106524109840393,0.5778094530105591,-0.5154815912246704,-0.08709550648927689,0.032924387603998184,-0.9342864155769348,-0.22627480328083038,0.12202885746955872,-0.14840570092201233,0.05471094697713852,-0.35477763414382935,-0.48586738109588623,0.1531803011894226,0.06031329929828644,0.587064802646637,-0.8536975979804993,-0.13632427155971527,0.07165589183568954,-0.07307826727628708,0.04520982503890991,-0.21383081376552582,-0.8108319044113159,-0.0877392515540123,0.03974778205156326,-0.22296269237995148,-0.5141600966453552,-0.20596148073673248,0.018260853365063667,-0.12879955768585205,0.025083309039473534,-0.24364446103572845,0.14862950146198273,-0.006201475393027067,-0.16726849973201752,0.30705955624580383,0.12595827877521515,0.04349566251039505,-0.9599646925926208,0.13095301389694214,0.06124182045459747,0.22758197784423828,-0.1617211252450943,0.5802913308143616,0.25987815856933594,-0.44765281677246094,0.0426069013774395,-0.3712717592716217,-0.11292438209056854,-0.23890380561351776,0.16128313541412354,-0.6706063151359558,0.36715421080589294,-0.35929450392723083,0.4494335949420929,0.9702647924423218,0.2354760766029358,-0.2029482126235962,-0.19652916491031647,-0.2670632004737854,0.04912218078970909,0.4545917212963104,0.05905545875430107,0.09565598517656326,0.5389604568481445,0.2911865711212158,0.346023291349411,-0.06449282169342041,0.13313624262809753,0.20067466795444489,-0.1217118501663208,0.4066563546657562,0.0698760375380516,0.238961324095726,0.4696790874004364,0.06414426118135452,-0.3235236406326294,0.08353924751281738,-0.27634671330451965,-0.427863746881485,-0.7926897406578064,-0.1808607280254364,0.13777144253253937,-0.2360549122095108,-0.4827812612056732,0.09195077419281006,0.19179701805114746,0.1609850376844406,0.19338403642177582,1.1424381732940674,-0.18843863904476166,0.7023336887359619,0.20003154873847961,-0.10016744583845139,0.4317101538181305,0.7030749917030334,-1.0279134511947632,-0.03900432959198952,0.814695417881012,-0.17414721846580505,0.30941587686538696,0.8500986695289612,-0.7017703652381897,-0.8918903470039368,-0.4084564447402954,-0.11367808282375336,-0.28415024280548096,-0.4071851074695587,-0.5365288853645325,0.36472395062446594,0.5823484063148499,0.003434997284784913,-0.5572750568389893,0.10187393426895142,0.04902318865060806,-0.22681120038032532,-0.2322877198457718,-0.7279338836669922,0.04555756598711014,0.1064903512597084,0.5746118426322937,-0.43745186924934387,-0.7084598541259766,0.07101155817508698,0.10290589928627014,0.4571031928062439,-0.14773322641849518,0.8346545100212097
系统,0.1609068214893341,0.1546289175748825,0.05696651712059975,0.3397274315357208,0.417372465133667,-0.13634870946407318,-0.03840482980012894,-0.18146729469299316,-0.4083377718925476,0.24011686444282532,-0.08605548739433289,0.23358750343322754,0.2919955253601074,-0.3069615364074707,0.16015763580799103,-0.03214947134256363,0.3138253390789032,0.22771936655044556,-0.23006205260753632,0.6977730393409729,-0.20240777730941772,0.028196096420288086,-0.37032490968704224,0.28155919909477234,-0.47596004605293274,-0.06747681647539139,-0.17293347418308258,-0.09064318239688873,-0.2496923953294754,0.5080034136772156,-0.21977011859416962,0.05656912550330162,-0.2386123687028885,-0.16994141042232513,0.5100368857383728,0.5484440326690674,0.05835362896323204,-0.20817354321479797,0.29913032054901123,0.31513404846191406,0.08952968567609787,0.3036373555660248,-0.27086472511291504,-0.250253826379776,0.45865920186042786,0.09078612923622131,-0.5253068208694458,0.10657548904418945,0.19408388435840607,0.5316453576087952,-0.11003056913614273,-0.18741530179977417,0.0174736175686121,-0.32465940713882446,-0.35117509961128235,-0.3927689790725708,0.31744104623794556,0.2864951193332672,0.326448917388916,0.04154913127422333,-0.11247339099645615,0.09076212346553802,0.0678882822394371,0.12350165843963623,-0.3699713349342346,-0.009972682222723961,0.45693451166152954,0.11034044623374939,0.12123826891183853,-0.4064524471759796,0.1663186103105545,0.1297188699245453,0.21123555302619934,-0.4894263744354248,0.017383607104420662,-0.3809733986854553,0.2281283587217331,0.3992353677749634,0.33473119139671326,0.5596957802772522,0.09567997604608536,-0.2472895234823227,0.2995736300945282,0.16356220841407776,0.18863172829151154,0.04895567521452904,-0.013031498529016972,0.44291773438453674,0.03684655576944351,0.02818569540977478,0.10446582734584808,0.416759729385376,-0.18546205759048462,0.004157636314630508,0.1515592336654663,0.1271858811378479,-0.2161286324262619,0.15478433668613434,0.035994913429021835,-0.37143540382385254,-0.01094784401357174,-0.21004073321819305,-0.20120006799697876,0.40294888615608215,0.04869632422924042,-0.5781183242797852,0.2594420909881592,-0.22532199323177338,0.309373676776886,-0.03440909460186958,0.1641571819782257,0.32153964042663574,0.15968914330005646,0.04014502465724945,-0.2755425274372101,-0.3634001612663269,-0.11058469861745834,-0.08785451203584671,0.24033261835575104,0.22654394805431366,-0.22048722207546234,-0.1972505748271942,0.1880340725183487,-0.06813859939575195,0.06775467097759247,-0.1007748693227768,0.20485515892505646,0.2638222873210907,0.37469908595085144,-0.037751637399196625,0.3689432442188263,-0.32701918482780457,0.1977786421775818,-0.17056690156459808,-0.49036672711372375,0.0010664602741599083,0.14460082352161407,-0.11748389899730682,0.22200928628444672,-0.36999034881591797,-0.07308048754930496,0.07284557074308395,-0.021324874833226204,0.30968108773231506,-0.7049643397331238,-0.1303648203611374,0.05274133011698723,-0.03994361683726311,-0.04051637649536133,-0.05725167319178581,-0.42255473136901855,-0.12776882946491241,-0.09878965467214584,-0.2552919387817383,-0.23228436708450317,-0.06243431940674782,-0.1742868721485138,-0.1947830766439438,0.03520799055695534,-0.3910066485404968,-0.23470322787761688,0.14983461797237396,-0.3733040392398834,0.29788944125175476,0.0517505407333374,0.03843889757990837,-0.7393849492073059,-0.11559835821390152,0.10464836657047272,0.3351331055164337,-0.023051749914884567,0.3529128432273865,0.07965365052223206,-0.26116296648979187,-0.0745215117931366,-0.11560499668121338,0.08519823104143143,-0.13675948977470398,0.3872656524181366,-0.5026507377624512,0.1704033613204956,-0.17987599968910217,0.01999463327229023,0.21341928839683533,0.17617842555046082,-0.3038788437843323,-0.13272054493427277,0.016633810475468636,0.1297520250082016,0.28343191742897034,-0.3557790517807007,-0.14037136733531952,0.5573455691337585,0.08694960176944733,0.018622854724526405,0.10332845896482468,0.02060975879430771,0.09671353548765182,-0.21750248968601227,0.32948169112205505,0.014886909164488316,0.23096968233585358,0.21795934438705444,-0.3333071768283844,-0.02511574700474739,0.13781346380710602,-0.19655616581439972,-0.045548513531684875,-0.5141283869743347,-0.24721257388591766,-0.07179940491914749,-0.11521439254283905,-0.03805097937583923,0.14940930902957916,0.3705531060695648,-0.06793771684169769,0.04238902032375336,0.661597728729248,-0.14951106905937195,0.35823482275009155,-0.08061428368091583,-0.039352450519800186,0.13031429052352905,0.231532484292984,-0.5541063547134399,-0.09738976508378983,0.23873041570186615,0.16307032108306885,0.021056419238448143,0.22999362647533417,-0.2787111699581146,-0.4844309389591217,-0.059018220752477646,-0.3086034655570984,-0.155276820063591,-0.11290781944990158,-0.40103214979171753,0.29647576808929443,0.4108036458492279,-0.020856402814388275,-0.2334643453359604,0.026782285422086716,-0.008374922908842564,-0.21273250877857208,-0.12256558239459991,-0.3293798565864563,0.09828455001115799,-0.06585178524255753,0.07556985318660736,-0.25248515605926514,-0.5754464268684387,0.1477225422859192,0.19721867144107819,0.23968273401260376,-0.1957569271326065,0.5786730647087097
