word,0,1,2,3,4,5,6,7,8,9,10,11,12,13,14,15,16,17,18,19,20,21,22,23,24,25,26,27,28,29,30,31,32,33,34,35,36,37,38,39,40,41,42,43,44,45,46,47,48,49,50,51,52,53,54,55,56,57,58,59,60,61,62,63,64,65,66,67,68,69,70,71,72,73,74,75,76,77,78,79,80,81,82,83,84,85,86,87,88,89,90,91,92,93,94,95,96,97,98,99,100,101,102,103,104,105,106,107,108,109,110,111,112,113,114,115,116,117,118,119,120,121,122,123,124,125,126,127,128,129,130,131,132,133,134,135,136,137,138,139,140,141,142,143,144,145,146,147,148,149,150,151,152,153,154,155,156,157,158,159,160,161,162,163,164,165,166,167,168,169,170,171,172,173,174,175,176,177,178,179,180,181,182,183,184,185,186,187,188,189,190,191,192,193,194,195,196,197,198,199,200,201,202,203,204,205,206,207,208,209,210,211,212,213,214,215,216,217,218,219,220,221,222,223,224,225,226,227,228,229,230,231,232,233,234,235,236,237,238,239,240,241,242,243,244,245,246,247,248,249,250,251,252,253,254,255
车辆,0.15882064402103424,0.1167982816696167,-0.013310050591826439,0.06724663823843002,0.11639237403869629,-0.11100901663303375,0.014785409905016422,-0.12077532708644867,-0.22319643199443817,0.1453685760498047,-0.0670161023736,0.009452249854803085,0.17532630264759064,-0.10110360383987427,0.132991760969162,-0.06182458996772766,-0.0043683419935405254,-0.01890186034142971,0.043007805943489075,0.11846454441547394,-0.09103933721780777,-0.021542377769947052,-0.02745966613292694,0.2940899431705475,-0.23897743225097656,0.03367588296532631,0.08845405280590057,0.05948371812701225,-0.1331983208656311,0.19236838817596436,-0.190636545419693,-0.050831232219934464,-0.044803500175476074,-0.01594730280339718,0.08455076813697815,0.13832667469978333,-0.0012981457402929664,-0.12665700912475586,0.1158013865351677,0.1432785987854004,0.07220235466957092,0.19678011536598206,-0.0662023201584816,-0.021405916661024094,0.13775517046451569,0.005315066315233707,-0.18780605494976044,-0.054240331053733826,0.1121089830994606,0.08017848432064056,-0.002122392412275076,-0.1001494899392128,-0.13296742737293243,0.09284383058547974,-0.04964291304349899,-0.18164341151714325,0.1636694371700287,0.2253677397966385,0.12591291964054108,-0.018104540184140205,0.06270013004541397,0.05890088528394699,-0.12036710232496262,0.005099155940115452,-0.031141558662056923,-0.15912415087223053,0.16521070897579193,-0.003256699535995722,0.10940949618816376,-0.2125239372253418,0.14044958353042603,-0.019645748659968376,0.0563717819750309,-0.19392269849777222,-0.10466492176055908,-0.15009254217147827,0.059736497700214386,0.0914720818400383,0.15155337750911713,0.2392805963754654,-0.03606339171528816,0.03803557902574539,0.10886453092098236,-0.09454905241727829,0.11616058647632599,0.006193884182721376,-0.0629243403673172,-0.019874555990099907,-0.05957701429724693,0.015359227545559406,0.025023190304636955,0.1327742040157318,-0.11662108451128006,-0.08328641206026077,0.09578264504671097,-0.051915932446718216,-0.0852932408452034,0.05875452980399132,0.11620871722698212,-0.07084362953901291,0.08414161950349808,0.057897962629795074,-0.18789711594581604,0.01698504388332367,-0.027973128482699394,-0.29180246591567993,0.04881616309285164,-0.1531233936548233,0.05395222455263138,-0.12516319751739502,-0.09002067893743515,0.0779334232211113,-0.09653735905885696,0.01771075651049614,0.08124741166830063,-0.08506102859973907,0.018372206017374992,-0.10167424380779266,0.1746973842382431,0.07907639443874359,-0.018842753022909164,-0.09364119172096252,-0.04247116670012474,-0.07056593149900436,0.11594779789447784,-0.1929747760295868,0.06158589944243431,-0.0525507926940918,0.03471507504582405,-0.007092309184372425,0.10871151834726334,-0.05867297574877739,-0.008475533686578274,0.007860281504690647,-0.2016720473766327,-0.014476616866886616,0.12710921466350555,0.059357933700084686,0.04589547961950302,-0.0640062466263771,-0.05358438566327095,-0.010015771724283695,0.030772753059864044,0.14844678342342377,-0.21762852370738983,-0.10243456810712814,-0.006431056652218103,-0.00818935688585043,-0.03138996288180351,-0.026058819144964218,-0.07246015220880508,-0.03972254693508148,-0.020766746252775192,-0.2034287303686142,-0.09411465376615524,0.0022937010508030653,0.005876700393855572,-0.06406216323375702,-0.07425747066736221,-0.04170793294906616,-0.2056364119052887,-0.0851643979549408,-0.09743805974721909,0.19544653594493866,0.026446616277098656,0.0609547458589077,-0.2416260838508606,0.07009248435497284,0.1399790644645691,0.012400079518556595,-0.09131113439798355,0.17312370240688324,0.09843303263187408,-0.07953927665948868,0.11358963698148727,-0.054865214973688126,-0.04470888897776604,-0.07833757996559143,-0.031041260808706284,-0.08128567785024643,0.15820664167404175,-0.0569896325469017,-0.0832400768995285,0.04668789356946945,-0.10274966061115265,-0.17176631093025208,0.11605051159858704,0.13881143927574158,0.06862886995077133,0.1268356293439865,-0.001975886058062315,0.10038919001817703,0.07878144085407257,0.1091705858707428,0.00507043581455946,0.03889736160635948,-0.07420813292264938,0.10417553782463074,-0.0577019527554512,0.10443495213985443,0.10648393630981445,0.15495508909225464,0.21560028195381165,-0.057193778455257416,-0.01206112839281559,0.09350527822971344,0.046026185154914856,-0.009677541442215443,-0.1569502353668213,-0.12878604233264923,-0.18397939205169678,0.07638243585824966,-0.061874955892562866,0.1135932207107544,0.0770537331700325,-0.07287941873073578,-0.0212544035166502,0.1959790140390396,-0.04917846992611885,0.12289547920227051,0.14605259895324707,-0.040213800966739655,-0.013076845556497574,0.06139860302209854,-0.20283111929893494,-0.04869021475315094,0.07841865718364716,0.013967633247375488,-4.5616732677444816e-05,0.08561384677886963,-0.07213851809501648,-0.1513618379831314,0.1740950345993042,-0.05701907351613045,-0.036802906543016434,-0.16969618201255798,-0.1452884078025818,0.04621424153447151,0.07836436480283737,-0.08263926953077316,-0.08159781992435455,-0.020832324400544167,0.07042671740055084,-0.02252952754497528,0.01906176470220089,-0.17321310937404633,0.02257065661251545,0.006500893738120794,0.0961044430732727,0.018054168671369553,-0.29789289832115173,0.1019703820347786,0.025774052366614342,0.09056495875120163,0.004616857040673494,0.11992081254720688
持续,0.1408538818359375,0.05111632123589516,0.08153028041124344,0.062104422599077225,0.10954891890287399,-0.021064970642328262,-0.04121719300746918,-0.08397228270769119,-0.23071226477622986,0.06375664472579956,-0.011587337590754032,0.07237307727336884,0.05986473709344864,-0.13575100898742676,0.01993904635310173,-0.04608240723609924,0.022960569709539413,0.08964736759662628,0.03240933269262314,0.03266717493534088,-0.12175074219703674,0.015143845230340958,0.008617294952273369,0.13032670319080353,-0.20634084939956665,0.045240405946969986,0.1169063076376915,0.06583504378795624,-0.11945690214633942,0.09300819784402847,-0.18567828834056854,-0.046281006187200546,-0.1128680408000946,0.013223241083323956,0.10757409036159515,0.08133792877197266,-0.016582125797867775,-0.10404793173074722,0.08593843132257462,0.0935533195734024,0.12335452437400818,0.08640825003385544,-0.06282114237546921,-0.061033718287944794,0.08418285101652145,-0.005068233236670494,-0.11675014346837997,-0.10727174580097198,0.07646153122186661,0.05697111412882805,0.00999305211007595,-0.10500045865774155,-0.07791169732809067,-0.019212158396840096,-0.05090362951159477,-0.08552367985248566,0.1596718281507492,0.13473306596279144,0.04559563472867012,-0.0704721063375473,0.10504822432994843,0.1334586888551712,-0.1063966304063797,0.010494901798665524,-0.05391359701752663,-0.09458169341087341,0.08993131667375565,0.029654983431100845,0.038002099841833115,-0.2328552007675171,0.05858403816819191,-0.07107827067375183,0.02495342679321766,-0.22518716752529144,-0.08022496104240417,-0.0005715849110856652,0.04698057100176811,-0.03214593976736069,0.20360775291919708,0.24681679904460907,0.053761254996061325,0.009604589082300663,0.11946503072977066,-0.11648736894130707,0.051299311220645905,0.14361561834812164,-0.09612853825092316,-0.0671110525727272,-0.047862473875284195,-0.011136858724057674,-0.03629617765545845,0.1476694941520691,0.13723136484622955,-0.01029002945870161,-0.04547683894634247,0.032347533851861954,-0.15456248819828033,0.09768024832010269,0.07266360521316528,-0.08385918289422989,0.06050914525985718,-0.05619179829955101,-0.1656675487756729,0.07839465141296387,0.052857380360364914,-0.21482793986797333,0.02111556939780712,-0.11105683445930481,0.0654255747795105,-0.09415563195943832,-0.154991015791893,-0.04986840859055519,0.0358923077583313,0.011175751686096191,0.05755852535367012,-0.12482169270515442,0.04862117022275925,-0.07040015608072281,0.1315699815750122,0.015248255804181099,-0.05279897525906563,-0.11896087974309921,-0.0755571499466896,-0.06891641765832901,0.10883066058158875,-0.010407533496618271,0.1912454515695572,-0.04350787028670311,0.054760050028562546,-0.1257225126028061,0.1412670612335205,-0.025811713188886642,-0.009349114261567593,0.06892658025026321,-0.18695002794265747,-0.04509001597762108,0.0026793621946126223,0.025026848539710045,0.06266452372074127,-0.06030380353331566,-0.15440049767494202,0.023647023364901543,0.04666219279170036,0.17497038841247559,-0.1628570854663849,-0.08998562395572662,0.03179425001144409,-0.06533770263195038,-0.025906095281243324,-0.011602669022977352,-0.11812163889408112,-0.07358033955097198,0.06095939129590988,-0.15084125101566315,-0.0866168960928917,0.06238730624318123,-0.008087040856480598,-0.10344565659761429,-0.028911888599395752,-0.061250023543834686,-0.005145647097378969,-0.06787191331386566,0.0037007597275078297,0.16097570955753326,-0.03422669693827629,-0.059372443705797195,-0.20215733349323273,0.12182783335447311,0.12010674178600311,-0.060934942215681076,-0.11895213276147842,0.1269969493150711,0.1544720083475113,-0.046691421419382095,0.09010417014360428,-0.04580359160900116,-0.07098237425088882,-0.09889945387840271,-0.09151341766119003,-0.004834728315472603,0.17015695571899414,-0.10325369983911514,0.0066795796155929565,0.16441261768341064,-0.06975223869085312,-0.07132241129875183,0.09914711117744446,0.0956776961684227,0.0616653673350811,0.14505019783973694,0.15853412449359894,0.15648746490478516,0.06015699729323387,0.055343471467494965,0.023327328264713287,0.01693088188767433,-0.0008673918782733381,0.11245463788509369,-0.002542697824537754,0.06663231551647186,0.07372290641069412,0.07753565162420273,0.24941392242908478,-0.007007964421063662,-0.1158607080578804,0.07694070041179657,-0.0077070691622793674,-0.13546226918697357,-0.18088945746421814,0.009127181954681873,-0.09960822761058807,0.07420110702514648,-0.11668196320533752,0.1347852498292923,-0.02851894125342369,-0.05036232993006706,0.043935757130384445,0.22117887437343597,0.0624278299510479,0.14094699919223785,0.26223406195640564,-0.024144474416971207,0.043798621743917465,0.13740698993206024,-0.22302040457725525,-0.04151316359639168,0.11669921875,-0.061140596866607666,0.07742162048816681,0.08960360288619995,-0.19721516966819763,-0.1984948217868805,0.05209682881832123,-0.013848511502146721,-0.0948704406619072,-0.13042552769184113,-0.027619650587439537,0.04646507278084755,0.092860646545887,-0.07714011520147324,-0.07853610813617706,-0.05261652171611786,-0.032395001500844955,-0.03262930363416672,0.0363992415368557,-0.18783946335315704,-0.03945627063512802,0.01896302029490471,0.18063682317733765,0.007123865187168121,-0.2947401702404022,0.10661745816469193,-0.06941131502389908,0.03960509970784187,0.056574027985334396,0.08181335777044296
控制,0.3021490275859833,-0.02884053997695446,0.08956575393676758,0.24458178877830505,0.2536313533782959,0.0051413169130682945,-0.1533062607049942,-0.15781086683273315,-0.411406934261322,0.14805789291858673,-0.17002162337303162,0.1470879763364792,0.2055833786725998,-0.2298392951488495,0.010968970134854317,-0.07558070868253708,0.006758310832083225,0.2930920124053955,-0.05240476503968239,0.2513964772224426,-0.04320187494158745,0.05401625484228134,-0.05649865046143532,0.20517872273921967,-0.35314467549324036,0.18372847139835358,0.17202214896678925,0.0798424556851387,-0.15895020961761475,0.3303031027317047,-0.28251340985298157,-0.044106826186180115,-0.1505136489868164,0.12544341385364532,0.29635682702064514,0.29593560099601746,-0.08829043060541153,-0.2412574738264084,0.19909051060676575,0.32849669456481934,0.1270391196012497,0.09879100322723389,-0.1677483767271042,-0.21872273087501526,0.2661936283111572,0.017296692356467247,-0.30465686321258545,-0.08978746831417084,0.24244795739650726,0.20826810598373413,-0.17474530637264252,-0.2361980825662613,-0.26274701952934265,-0.0017576502868905663,-0.25746530294418335,-0.13684998452663422,0.3181828558444977,0.19927634298801422,0.12157734483480453,-0.10142035782337189,0.18102765083312988,0.12691977620124817,-0.10547026246786118,0.05313751846551895,-0.2569965422153473,-0.022524727508425713,0.358061283826828,0.05660231411457062,0.08501673489809036,-0.41080817580223083,0.031493179500103,-0.07948927581310272,0.03933534026145935,-0.36272725462913513,0.06491783261299133,-0.12442899495363235,0.20980162918567657,0.0693168193101883,0.5161420702934265,0.3224738836288452,0.041932232677936554,-0.05515982583165169,0.23722416162490845,-0.15320923924446106,0.07829663157463074,0.14450888335704803,-0.17726609110832214,0.07542826980352402,-0.05959971621632576,-0.06178440898656845,-0.00966024212539196,0.31334787607192993,0.10817607492208481,-0.09719699621200562,0.08984285593032837,0.13270527124404907,-0.23412398993968964,0.29923015832901,-0.0159353855997324,-0.05827571824193001,0.04534788057208061,-0.16931478679180145,-0.13856618106365204,0.16415782272815704,0.08310147374868393,-0.4427952766418457,0.04352444410324097,-0.287034809589386,0.18959854543209076,-0.08111721277236938,-0.307724267244339,0.01723722368478775,0.12822964787483215,-0.03113033063709736,0.02129863202571869,-0.09509731829166412,-0.048040419816970825,-0.18833115696907043,0.14402569830417633,-0.09190995991230011,-0.05944870412349701,-0.21898595988750458,0.012156393378973007,0.04448980465531349,0.08973860740661621,-0.012738501653075218,0.3356533944606781,0.07768704742193222,0.07517200708389282,-0.14240822196006775,0.35729849338531494,-0.019667601212859154,0.07415912300348282,-0.035910867154598236,-0.36884012818336487,-0.01864374428987503,0.05686984211206436,-0.14486311376094818,0.18714645504951477,-0.1708495169878006,-0.21814444661140442,-0.0808718353509903,0.009876729920506477,0.271738737821579,-0.37038907408714294,-0.15594980120658875,0.13686862587928772,-0.13724654912948608,-0.0813022255897522,-0.12554921209812164,-0.2858528196811676,-0.2606010437011719,0.04157885164022446,-0.34042221307754517,-0.1156345009803772,0.10337986052036285,-0.2170613408088684,-0.23163969814777374,-0.04411827772855759,-0.25920259952545166,-0.08680317550897598,-0.09590552002191544,-0.06353670358657837,0.29398101568222046,-0.05128704011440277,-0.12588872015476227,-0.46647369861602783,0.08476289361715317,0.2838382422924042,0.06711635738611221,-0.16884717345237732,0.16881632804870605,0.19126388430595398,-0.00853564403951168,0.045907504856586456,-0.07699926942586899,0.06473813951015472,-0.19669857621192932,0.006140741053968668,-0.08706697821617126,0.2872202694416046,-0.10916316509246826,-0.05959400162100792,0.09972912818193436,-0.06320222467184067,-0.21873298287391663,0.15185759961605072,0.14352458715438843,0.26738932728767395,0.2937747538089752,0.10434484481811523,0.12406641244888306,0.15474049746990204,0.024649783968925476,-0.09417515993118286,0.12005790323019028,0.0491437166929245,0.24243180453777313,-0.1491086184978485,-0.016473088413476944,0.1177380234003067,0.17994271218776703,0.4173775017261505,-0.13214576244354248,-0.24263116717338562,0.16264575719833374,-0.1849367320537567,-0.19862000644207,-0.3944903016090393,0.011928052641451359,-0.02640034630894661,0.22269456088542938,-0.038995373994112015,0.2982385754585266,0.13361871242523193,-0.004420621320605278,0.014122565276920795,0.3721955418586731,0.051740411669015884,0.27411919832229614,0.3087025284767151,0.10001088678836823,-0.008200796321034431,0.2637404501438141,-0.3902154266834259,-0.02956300787627697,0.18382695317268372,-0.08323489874601364,0.10620632022619247,0.1885395050048828,-0.21466809511184692,-0.31955686211586,0.22377441823482513,-0.17882241308689117,-0.10889357328414917,-0.22636565566062927,0.016489775851368904,0.14159327745437622,0.22094321250915527,-0.12872275710105896,-0.1598198562860489,-0.13661253452301025,-0.08988241106271744,-0.10012722760438919,0.07493038475513458,-0.40865814685821533,-0.0880536362528801,-0.11682218313217163,0.18572869896888733,0.027401616796851158,-0.43291908502578735,0.17339710891246796,-0.0835864320397377,0.1089843139052391,0.15542834997177124,0.19249044358730316
策略,0.18450140953063965,0.054203324019908905,0.02359207533299923,0.10912586003541946,0.1568407416343689,-0.05380121245980263,-0.024830613285303116,-0.1674320548772812,-0.38688477873802185,0.1483256071805954,-0.14854782819747925,0.0471772626042366,0.20741304755210876,-0.14744135737419128,0.07761441916227341,-0.08799733966588974,-0.02142949216067791,0.12278331071138382,0.007595811504870653,0.15248186886310577,-0.0286557599902153,-0.004861163906753063,-0.0652182400226593,0.24752752482891083,-0.19560353457927704,0.11042381078004837,0.13251003623008728,0.11387072503566742,-0.14862896502017975,0.2566479742527008,-0.2437933385372162,-0.02007591910660267,-0.03240380063652992,0.0385892353951931,0.15945447981357574,0.18896038830280304,-0.0927988812327385,-0.1975139081478119,0.10411611199378967,0.19579073786735535,0.07419724762439728,0.1344371885061264,-0.10422646254301071,-0.12048256397247314,0.15502628684043884,-0.000312113668769598,-0.27885398268699646,-0.04421315714716911,0.26173630356788635,0.13573934137821198,-0.0770334005355835,-0.1552819311618805,-0.21342983841896057,0.10478886216878891,-0.17345547676086426,-0.13060861825942993,0.19281725585460663,0.17838060855865479,0.12007252871990204,-0.06287682801485062,0.09773615747690201,0.050995223224163055,-0.14142507314682007,-0.03284675255417824,-0.16300378739833832,-0.13160346448421478,0.278274267911911,0.041097525507211685,0.08372331410646439,-0.28623145818710327,0.08155117928981781,-0.02490793541073799,0.031005369499325752,-0.2841915190219879,-0.004755451809614897,-0.16715088486671448,0.1112445816397667,0.09765058755874634,0.350310742855072,0.16744180023670197,-0.043135035783052444,0.01648152992129326,0.15548430383205414,-0.0959412008523941,0.1104968711733818,0.00040208775317296386,-0.11763869225978851,0.05272793024778366,-0.06259532272815704,-0.03729509562253952,-0.035289861261844635,0.20456375181674957,-0.03862018510699272,-0.07755105942487717,0.1107502207159996,0.0071275862865149975,-0.11819587647914886,0.20318609476089478,0.03766463324427605,-0.027364684268832207,0.03860531747341156,-0.03100748546421528,-0.10420721769332886,0.03379179909825325,-0.0013613654300570488,-0.3329553008079529,0.024394994601607323,-0.25400182604789734,0.13077804446220398,-0.09551726281642914,-0.16135720908641815,0.04679519683122635,-0.048095401376485825,-0.008154474198818207,0.06551770865917206,-0.0008197770803235471,-0.07803751528263092,-0.14559486508369446,0.09613677114248276,-0.025300754234194756,-0.018141113221645355,-0.1711178421974182,0.037587352097034454,-0.011437367647886276,0.08798067271709442,-0.1453574150800705,0.12220322340726852,0.008177177049219608,-0.010491492226719856,-0.10101030021905899,0.18854999542236328,-0.05981236696243286,0.06462320685386658,0.009748981334269047,-0.21208146214485168,0.02395479567348957,0.14047123491764069,-0.051276978105306625,0.11103136092424393,-0.10316725820302963,-0.06062240153551102,-0.09212132543325424,0.041216980665922165,0.15420584380626678,-0.2416287660598755,-0.1343912035226822,0.048538804054260254,-0.10092943161725998,-0.056307729333639145,-0.07361230999231339,-0.20541813969612122,-0.13138145208358765,-0.01890041120350361,-0.3160007894039154,-0.07988304644823074,0.07176148146390915,-0.13349217176437378,-0.12204848974943161,-0.017468055710196495,-0.13257400691509247,-0.194594144821167,-0.12046520411968231,-0.0864928662776947,0.22438250482082367,-0.025445401668548584,-0.08029817789793015,-0.3212999403476715,0.001016614492982626,0.24697494506835938,0.04354329779744148,-0.16371892392635345,0.15439307689666748,0.14005036652088165,-0.008689611218869686,0.11015889793634415,-0.06019138917326927,0.023699503391981125,-0.1260426789522171,-0.01763744093477726,-0.07973272353410721,0.16694608330726624,-0.04325846582651138,-0.08015542477369308,-0.05865153297781944,-0.058237332850694656,-0.1967385858297348,0.14570893347263336,0.18400198221206665,0.21585991978645325,0.18449567258358002,-0.01682332716882229,0.13473168015480042,0.093387670814991,0.042763955891132355,-0.14515645802021027,0.09289875626564026,-0.00744758453220129,0.2058982402086258,-0.1251966804265976,0.04043460264801979,0.12850244343280792,0.1936330497264862,0.2776622176170349,-0.06852651387453079,-0.13953030109405518,0.12961353361606598,-0.0760815292596817,-0.025398563593626022,-0.26118624210357666,-0.03399723768234253,-0.10703367739915848,0.12527282536029816,0.026953736320137978,0.22158508002758026,0.11165285110473633,-0.03906027600169182,-0.036542415618896484,0.23849251866340637,-0.012088377960026264,0.17509347200393677,0.18604400753974915,0.07516060024499893,-0.0354338213801384,0.14025256037712097,-0.2729617953300476,-0.05583310127258301,0.08946963399648666,0.012672598473727703,0.07038313150405884,0.13878971338272095,-0.13630008697509766,-0.24362125992774963,0.23385301232337952,-0.07308543473482132,-0.10208258777856827,-0.14505693316459656,0.03337761014699936,0.1482960432767868,0.09764672070741653,-0.09232162684202194,-0.08393341302871704,-0.057620927691459656,-0.01293816976249218,-0.011724865064024925,0.02340436354279518,-0.2854786217212677,-0.02614259533584118,-0.04083068296313286,0.06882879883050919,0.011720670387148857,-0.3376332223415375,0.15335404872894287,-0.007185088936239481,0.09183143079280853,0.08543255925178528,0.14997917413711548
硬件,0.04786945506930351,0.14750328660011292,-0.034426141530275345,0.0823449119925499,0.13521026074886322,-0.0922393798828125,0.04566021263599396,-0.10631095618009567,-0.11037040501832962,0.11591824144124985,0.031164510175585747,0.05819977819919586,0.1178404688835144,-0.1262206733226776,0.09869565069675446,-0.05632204934954643,0.11776365339756012,-0.008458738215267658,-0.08213634788990021,0.1994374841451645,-0.08265730738639832,0.017550505697727203,-0.14026755094528198,0.1642177551984787,-0.2375296652317047,-0.06349197775125504,-0.04457659274339676,-0.005952333565801382,-0.1690286546945572,0.1617690771818161,-0.1016865000128746,0.020489318296313286,-0.08328285813331604,-0.0825054943561554,0.16751070320606232,0.1368725746870041,0.040957558900117874,-0.10364199429750443,0.09324783086776733,0.10057224333286285,0.031947746872901917,0.16212798655033112,-0.10476666688919067,-0.020279107615351677,0.1622244268655777,0.02531648427248001,-0.24550595879554749,0.02575366385281086,0.1048492044210434,0.1874367892742157,-0.057134393602609634,-0.01916171982884407,0.004562118090689182,-0.1092878058552742,-0.09296704083681107,-0.1948632448911667,0.09987889975309372,0.07210104167461395,0.10327406972646713,0.07130054384469986,-0.02142675593495369,0.0197384562343359,-0.03152899816632271,0.03867991268634796,-0.08649410307407379,-0.07346298545598984,0.1352078765630722,0.0823088213801384,0.06988194584846497,-0.13190065324306488,0.04937511682510376,0.03338667005300522,0.07685128599405289,-0.1659725308418274,-0.08813405781984329,-0.14148972928524017,0.08005573600530624,0.11846470087766647,0.04144817590713501,0.20835252106189728,0.08060283958911896,-0.011440589092671871,0.10477644950151443,0.04497905820608139,0.12204299867153168,0.007413280662149191,0.03306906670331955,0.06411126255989075,-0.004090670961886644,0.013310759328305721,0.03364992514252663,0.11917877942323685,-0.1459885537624359,0.01972164586186409,-0.004095571115612984,-0.033071208745241165,-0.08542054891586304,-0.0020859993528574705,0.09651567786931992,-0.21123822033405304,0.06841351836919785,-0.016051702201366425,-0.10551538318395615,0.11037234216928482,-0.053831763565540314,-0.19378408789634705,0.08863978087902069,-0.11350004374980927,0.06681447476148605,-0.06768304854631424,0.07083595544099808,0.15419843792915344,-0.002763369120657444,0.03971824422478676,-0.08815423399209976,-0.1667095124721527,-0.033614639192819595,-0.018702635541558266,0.0748012438416481,0.09717462956905365,-0.07880817353725433,-0.03186614066362381,0.04755685478448868,-0.13482125103473663,0.0686042532324791,-0.04023240506649017,0.048938851803541183,0.019562555477023125,0.1345285177230835,-0.012080526910722256,0.03751926124095917,-0.07893981784582138,0.018875058740377426,0.010469513013958931,-0.17053091526031494,-0.06747455894947052,0.08441238105297089,0.03884737193584442,0.0725102573633194,-0.09853995591402054,-0.012422532774508,0.06511159241199493,0.009932238608598709,0.09995106607675552,-0.23349860310554504,-0.02763504348695278,-0.04052161052823067,-0.023751676082611084,-0.0032988698221743107,0.022848207503557205,-0.15098515152931213,0.017114318907260895,-0.05376412719488144,-0.06254827231168747,-0.08540356904268265,-0.03936814144253731,-0.010518854483962059,-0.005237843841314316,-0.01224634051322937,-0.10934585332870483,-0.15935774147510529,0.01964624971151352,-0.16701379418373108,0.07230766117572784,0.025920985266566277,0.10206372290849686,-0.17642022669315338,-0.030179215595126152,0.026368550956249237,0.1062965989112854,0.02045443467795849,0.15893936157226562,0.04894963651895523,-0.14385755360126495,-0.020292134955525398,-0.015005181543529034,-0.037015315145254135,0.018046732991933823,0.05533377081155777,-0.23104490339756012,0.04985961690545082,-0.07247885316610336,0.005254220217466354,0.1225644126534462,0.017428558319807053,-0.14951682090759277,-0.0612909272313118,0.08538682013750076,0.006637602113187313,0.0937628448009491,-0.18339650332927704,0.00775475800037384,0.1464308202266693,0.05924078822135925,0.061437997967004776,0.021939994767308235,0.020388150587677956,0.03625255823135376,-0.015142911113798618,0.11904948949813843,0.021367140114307404,0.07073969393968582,0.1269780546426773,-0.05875357240438461,0.06637325137853622,0.0462215431034565,-0.05107440426945686,-0.015737198293209076,-0.15471330285072327,-0.14606384932994843,-0.10192092508077621,-0.06340815871953964,-0.0594051256775856,0.0028048246167600155,0.13558357954025269,-0.05943681299686432,-0.011109153740108013,0.25873318314552307,-0.0601167194545269,0.1574096828699112,-0.07086919248104095,-0.015165705233812332,0.12644337117671967,0.09502963721752167,-0.1728065013885498,-0.06910370290279388,0.07506316155195236,0.0736062079668045,0.016514120623469353,0.09769278764724731,-0.07939667254686356,-0.17365704476833344,-0.04796300455927849,-0.03557584807276726,-0.03133940324187279,-0.09392490983009338,-0.1911419779062271,0.15498535335063934,0.12996995449066162,-0.007489634677767754,-0.040718063712120056,0.05118885636329651,0.07667621970176697,-0.01516411080956459,-0.11264510452747345,-0.10991927236318588,0.06669464707374573,-0.03248995542526245,0.017835156992077827,-0.0729781985282898,-0.196967214345932,0.009214156307280064,0.11999590694904327,0.1174461841583252,-0.12096624821424484,0.15894484519958496
恢复,0.26687896251678467,0.08719917386770248,0.008859945461153984,0.09046664088964462,0.10895177721977234,-0.03539980575442314,-0.03552906960248947,-0.1283206343650818,-0.33868294954299927,0.09876199811697006,-0.04834062233567238,0.03419431298971176,0.15389657020568848,-0.1409611999988556,0.03163239732384682,-0.12521034479141235,-0.07046566903591156,0.0650574266910553,0.0013466492528095841,-0.03490671515464783,-0.035063181072473526,0.038142040371894836,0.08751828968524933,0.2581009864807129,-0.22018031775951385,0.15030522644519806,0.17981231212615967,0.1877274215221405,-0.15625622868537903,0.12190403044223785,-0.30809155106544495,-0.031804777681827545,-0.06584290415048599,0.02603897638618946,0.13319098949432373,0.04085380211472511,-0.07006470859050751,-0.20123054087162018,0.07298194617033005,0.17224447429180145,0.17282305657863617,0.11863952875137329,-0.09591928869485855,-0.0640673041343689,0.0705396756529808,0.020792387425899506,-0.17395491898059845,-0.12214460968971252,0.17690753936767578,0.0690574049949646,-0.0425376296043396,-0.09434384107589722,-0.24394412338733673,0.07337664067745209,-0.07207685708999634,-0.18711571395397186,0.2731069326400757,0.12338346242904663,0.006118335761129856,-0.066472128033638,0.19944468140602112,0.1704404503107071,-0.2109939157962799,0.034185852855443954,-0.05143815651535988,-0.14841340482234955,0.15938885509967804,0.08202241361141205,0.09460286796092987,-0.33146315813064575,0.07780728489160538,-0.04532009735703468,0.06037808582186699,-0.2950875163078308,-0.1291259080171585,0.007058725692331791,0.07788418233394623,-0.04119585454463959,0.3045309782028198,0.16953636705875397,0.02027842588722706,0.008133289404213428,0.146142840385437,-0.2812281847000122,0.09504609555006027,0.19989243149757385,-0.15196898579597473,-0.0997130274772644,-0.14771071076393127,-0.04537157714366913,-0.10623244196176529,0.28656184673309326,0.154168501496315,-0.08044937998056412,-0.04648918658494949,0.014587943442165852,-0.15781943500041962,0.13117125630378723,0.13851994276046753,-0.11655490100383759,0.11898207664489746,0.05313073471188545,-0.2341982126235962,0.06903813034296036,-0.006273212376981974,-0.33657318353652954,-0.04733152687549591,-0.22216641902923584,0.0765666514635086,-0.13466405868530273,-0.27843719720840454,-0.0515054427087307,-0.014042794704437256,-0.053811557590961456,0.14778871834278107,-0.08184169977903366,0.020068887621164322,-0.15411463379859924,0.11786051094532013,-0.05884838476777077,-0.04384404048323631,-0.15185949206352234,-0.07290831953287125,-0.11604414135217667,0.15871338546276093,-0.03963245823979378,0.21625065803527832,-0.0720948576927185,-0.0044654374942183495,-0.1300545483827591,0.1683460921049118,0.10548628866672516,-0.010964644141495228,0.1090860366821289,-0.1981648951768875,-0.0528290830552578,0.04006350412964821,0.03241920843720436,0.12276140600442886,-0.03481582552194595,-0.11849435418844223,-0.009155924431979656,0.03729991987347603,0.22398242354393005,-0.1965380609035492,-0.11838960647583008,0.05921773239970207,-0.14042313396930695,-0.053553562611341476,0.0036144221667200327,-0.16159150004386902,-0.11206475645303726,0.05461117997765541,-0.2414250373840332,-0.06516572833061218,0.16179700195789337,-0.01977219060063362,-0.1950783133506775,-0.042236242443323135,-0.09734877198934555,-0.1690809726715088,-0.094988152384758,-0.03634103387594223,0.25747621059417725,-0.0486828051507473,-0.04172966256737709,-0.18560028076171875,0.20385132730007172,0.20576879382133484,-0.04519154876470566,-0.12116982042789459,0.1067381426692009,0.2909906208515167,-0.00412742281332612,0.08421346545219421,0.011807718314230442,-0.08337274193763733,-0.11026078462600708,-0.1608463078737259,-0.02996070869266987,0.25130966305732727,-0.0922049805521965,-0.04817145690321922,0.13215352594852448,-0.20164412260055542,-0.15816302597522736,0.1828812211751938,0.22273625433444977,0.1330082267522812,0.177899569272995,0.1547044962644577,0.2501297891139984,0.004934043623507023,-0.002387939253821969,-0.04115404933691025,0.019379444420337677,-0.025795573368668556,0.1316998451948166,0.0012451405636966228,-0.018230704590678215,0.09290169924497604,0.12037509679794312,0.3573814928531647,-0.03530187904834747,-0.07808183878660202,0.11454573273658752,0.01917029172182083,-0.17890655994415283,-0.21542611718177795,-0.0064925700426101685,-0.15807686746120453,0.19064223766326904,-0.1011664941906929,0.22432275116443634,-0.055281225591897964,-0.08949454873800278,0.048126496374607086,0.19602437317371368,0.11201117932796478,0.20003674924373627,0.3770361840724945,0.0610969252884388,0.04468191787600517,0.22987200319766998,-0.20676572620868683,-0.06735397130250931,0.07381661981344223,-0.06936194747686386,0.11286718398332596,0.09146425873041153,-0.16580505669116974,-0.19001378118991852,0.2128448188304901,-0.03479132428765297,-0.08196842670440674,-0.2040225714445114,-0.027935607358813286,0.10880419611930847,0.0907130166888237,-0.1966855376958847,-0.03794582560658455,-0.13315512239933014,0.02791895717382431,-0.024666287004947662,0.010956743732094765,-0.26862427592277527,-0.11489768326282501,-0.12859930098056793,0.23272551596164703,0.029355380684137344,-0.3663944602012634,0.12894362211227417,-0.11852028965950012,0.07665161788463593,0.10101991891860962,-0.015127988532185555
目标,0.16112320125102997,0.02869407832622528,0.08591993898153305,0.20513707399368286,0.10218910872936249,0.08468878269195557,-0.07408076524734497,-0.05345922335982323,-0.22719962894916534,0.07676790654659271,-0.049002617597579956,0.08867527544498444,0.1030431017279625,-0.17354807257652283,-0.06542187929153442,0.008049829863011837,0.003081089351326227,0.15205788612365723,0.05252803489565849,0.17317573726177216,-0.1014041006565094,0.03240974247455597,-0.04076312482357025,0.04119902849197388,-0.24134260416030884,0.15467330813407898,0.04205801337957382,0.017782989889383316,-0.08715903759002686,0.16037718951702118,-0.19808325171470642,-0.04554333537817001,-0.1853708177804947,0.05004822835326195,0.23630265891551971,0.18534550070762634,-0.10606466233730316,-0.11788228899240494,0.13877393305301666,0.08274708688259125,0.1076371967792511,0.07690917700529099,-0.0983792170882225,-0.12314657121896744,0.16097767651081085,-0.012236491777002811,-0.1091117113828659,-0.05083310604095459,0.02156253345310688,0.15577977895736694,0.02416176162660122,-0.11903180927038193,-0.12294912338256836,-0.023034987971186638,-0.0852879136800766,-0.06885244697332382,0.21546748280525208,0.22735537588596344,0.0708155706524849,-0.11537016928195953,0.05395716056227684,0.10009945929050446,-0.04389839619398117,0.10729623585939407,-0.1330529898405075,-0.022749409079551697,0.17888681590557098,0.0499664731323719,0.06488925963640213,-0.23373234272003174,0.03496363386511803,-0.08613042533397675,0.022839372977614403,-0.2554488480091095,-0.0072591835632920265,0.01748059317469597,0.14272038638591766,2.9506260034395382e-05,0.32690855860710144,0.24278485774993896,-0.02999606728553772,-0.057275593280792236,0.15508975088596344,-0.08299589157104492,0.003504230175167322,0.11418437212705612,-0.08250948041677475,0.06413143128156662,-0.005985356401652098,-0.029665570706129074,-0.004864458926022053,0.16451354324817657,0.14081837236881256,-0.10602743923664093,0.01820135861635208,0.09023147076368332,-0.17337074875831604,0.19735132157802582,0.008002165704965591,-0.06772173196077347,-0.022742385044693947,-0.11031004041433334,-0.19394125044345856,0.1602068841457367,0.1881941258907318,-0.22723381221294403,0.01617843471467495,-0.12245906889438629,0.12254025042057037,-0.09373905509710312,-0.20953617990016937,-0.06151851639151573,0.101689912378788,-0.09949859231710434,0.026198575273156166,-0.0988185852766037,0.08450112491846085,-0.12281970679759979,0.14362791180610657,0.044757481664419174,-0.03095240145921707,-0.11693205684423447,-0.04313032329082489,-0.02620013803243637,0.10642055422067642,0.06218988820910454,0.2704430818557739,0.017083365470170975,0.12767243385314941,-0.1198151558637619,0.20124581456184387,-0.04341349005699158,0.029045583680272102,0.010828319936990738,-0.30224332213401794,0.020135946571826935,0.05107108876109123,-0.08825447410345078,0.049292922019958496,-0.07762710005044937,-0.1875673085451126,0.02629791386425495,0.015565388835966587,0.2122378945350647,-0.25941145420074463,-0.06433520466089249,0.06772127002477646,-0.03334559127688408,-0.014436126686632633,-0.08145750313997269,-0.11619570106267929,-0.18859858810901642,0.030423803254961967,-0.22088167071342468,-0.12609021365642548,0.020850175991654396,0.003253755858168006,-0.14533650875091553,-0.11198560893535614,-0.10465405881404877,0.07950060069561005,-0.018765417858958244,0.09560877829790115,0.23653428256511688,0.010151431895792484,-0.0775827094912529,-0.30300024151802063,0.12497761100530624,0.16211847960948944,0.022264894098043442,-0.05818945914506912,0.12117418646812439,0.17715245485305786,-0.04704001545906067,0.02055232971906662,-0.07090020924806595,0.001621984294615686,-0.1521739959716797,0.012826459482312202,-0.007616997230798006,0.18569350242614746,-0.08381945639848709,0.007275357376784086,0.1932014524936676,-0.027887502685189247,-0.02186506986618042,0.10252733528614044,-0.041030120104551315,0.05821232125163078,0.14957357943058014,0.1928306519985199,0.008704883977770805,0.10040594637393951,0.03085738979279995,0.025410134345293045,0.0006018438143655658,-0.014641094021499157,0.101778544485569,-0.09603964537382126,0.0028135187458246946,0.06232067570090294,0.14075149595737457,0.2114838808774948,-0.050950925797224045,-0.1394617259502411,0.15621702373027802,-0.04498188942670822,-0.1635953187942505,-0.17866824567317963,0.03547895327210426,-0.01404176838696003,0.10394254326820374,-0.04099784046411514,0.15007221698760986,-0.020986368879675865,-0.046112168580293655,0.05561797693371773,0.23333300650119781,0.030266178771853447,0.13829338550567627,0.29438331723213196,-0.03331310302019119,-0.003912278451025486,0.17531254887580872,-0.26147279143333435,0.0352388471364975,0.14582735300064087,-0.11851371824741364,0.08998130261898041,0.09441488981246948,-0.11452656239271164,-0.20352986454963684,0.13103996217250824,-0.08874647319316864,-0.12802325189113617,-0.07482600957155228,-0.11248322576284409,-0.008353820070624352,0.15212051570415497,-0.07018626481294632,-0.1548772007226944,-0.0947822853922844,-0.00987518671900034,-0.1011214479804039,0.0770786926150322,-0.2461562305688858,-0.038956306874752045,0.07383735477924347,0.2619319260120392,0.019916677847504616,-0.33185118436813354,0.08665745705366135,-0.04750584810972214,0.08337651193141937,0.04833226278424263,0.08252125233411789
设置,0.1520405113697052,0.0551828034222126,0.051484253257513046,0.11604191362857819,0.17689427733421326,-0.13028022646903992,-0.021465640515089035,-0.21513935923576355,-0.3022242486476898,0.13860322535037994,0.04764959216117859,0.0783916786313057,0.07614763081073761,-0.2277151495218277,0.0700288638472557,-0.08823982626199722,0.08977676928043365,0.02854348160326481,-0.032518792897462845,0.1780097335577011,-0.10691916942596436,0.04592711478471756,-0.035109374672174454,0.2965225577354431,-0.3436751961708069,0.01157818641513586,0.08894473314285278,0.09584314376115799,-0.25827330350875854,0.12911354005336761,-0.19637377560138702,-0.04282808676362038,-0.08594074845314026,0.008327025920152664,0.2005312293767929,0.16564226150512695,0.13755100965499878,-0.21844804286956787,0.1754179447889328,0.19663028419017792,0.0810476616024971,0.17329224944114685,-0.10114773362874985,-0.07663093507289886,0.24014076590538025,-0.053056105971336365,-0.268219918012619,-0.07927604019641876,0.21052299439907074,0.1762683391571045,-0.08814532309770584,-0.09926781058311462,-0.10531327873468399,-0.006670990027487278,-0.14208301901817322,-0.2478046715259552,0.2600231170654297,0.08627848327159882,0.08340920507907867,0.0006290141609497368,0.08242006599903107,0.08802128583192825,-0.10290758311748505,0.033448055386543274,-0.14786647260189056,-0.11882052570581436,0.22224485874176025,0.09321321547031403,0.09074708819389343,-0.2121603786945343,0.12566910684108734,-0.1337655633687973,0.1010216698050499,-0.2256646752357483,-0.18997928500175476,-0.18291348218917847,0.05326990783214569,-0.011018025688827038,0.23952604830265045,0.37537819147109985,0.07827755063772202,0.06156438961625099,0.14200451970100403,-0.0795615091919899,0.07685669511556625,0.12646159529685974,-0.03168885037302971,-0.04622576758265495,-0.048695631325244904,-0.026532338932156563,0.01263347826898098,0.17334677278995514,0.018507109954953194,-0.06405247002840042,0.028189918026328087,-0.03462803736329079,-0.18317463994026184,0.07880690693855286,0.11688121408224106,-0.17648367583751678,0.11843565106391907,-0.02575542964041233,-0.23382677137851715,0.10123542696237564,0.017291229218244553,-0.29967400431632996,0.09303265810012817,-0.2071916162967682,0.05825107544660568,-0.14589494466781616,-0.10744836926460266,0.10082274675369263,-0.05049460753798485,0.0640561655163765,0.06662693619728088,-0.22420737147331238,0.08445116132497787,-0.04864336922764778,0.12319305539131165,-0.0017054472118616104,-0.02322234772145748,-0.18287187814712524,-0.036881912499666214,-0.185115247964859,0.10246037691831589,-0.05978142097592354,0.16154949367046356,0.02389824576675892,0.0601099357008934,-0.0333125963807106,0.13135170936584473,-0.08990437537431717,0.0024099263828247786,0.059020958840847015,-0.3019177317619324,-0.09078305959701538,0.0770699679851532,0.024468477815389633,0.10413943231105804,-0.07335977256298065,-0.11851925402879715,-0.029507528990507126,-0.01798113062977791,0.20954540371894836,-0.28269994258880615,-0.05157275125384331,-0.022165469825267792,-0.0846925601363182,-0.00700506241992116,-0.06289099901914597,-0.15192623436450958,-0.06442003697156906,0.01094829011708498,-0.19112633168697357,-0.1462935507297516,0.00853465124964714,-0.012876744382083416,-0.08604158461093903,-0.022530941292643547,-0.12256111949682236,-0.23485936224460602,-0.08162419497966766,-0.12646892666816711,0.1989513784646988,-0.03744344413280487,0.06379926949739456,-0.3030317425727844,0.06589093804359436,0.2238161563873291,-0.009565806947648525,-0.12300631403923035,0.23688364028930664,0.14954933524131775,-0.11584792286157608,0.1286759227514267,-0.08035247772932053,-0.13488148152828217,-0.07734954357147217,-0.05862937122583389,-0.15876954793930054,0.18606647849082947,-0.046155139803886414,0.016648104414343834,0.11187093704938889,-0.04215952381491661,-0.15668706595897675,0.0781019851565361,0.13296253979206085,0.07740315794944763,0.21493259072303772,0.042301177978515625,0.15473949909210205,0.10173827409744263,0.1320052593946457,0.08907225728034973,0.08634127676486969,0.006965379696339369,0.15157075226306915,-0.05203872174024582,0.1185285821557045,0.1327667385339737,0.10301117599010468,0.26836562156677246,0.015150877647101879,-0.03438328206539154,0.06794396787881851,-0.06359556317329407,-0.1628514975309372,-0.29320603609085083,-0.09724261611700058,-0.13335438072681427,0.0717010423541069,-0.047472529113292694,0.17198976874351501,0.07613345980644226,-0.039776526391506195,-0.03717413917183876,0.3146997392177582,-0.062419064342975616,0.2546828091144562,0.15972696244716644,-0.0001943783281603828,0.06922145932912827,0.15939773619174957,-0.2919129729270935,-0.041039105504751205,0.19582974910736084,-0.025423524901270866,0.08311586827039719,0.21648383140563965,-0.1524074822664261,-0.245121031999588,0.12768757343292236,-0.04109037294983864,-0.07486894726753235,-0.23871932923793793,-0.12888240814208984,0.12556691467761993,0.0996190756559372,-0.07361956685781479,-0.1340382695198059,0.02254919335246086,0.09033612161874771,0.018647268414497375,-0.042258039116859436,-0.2897091507911682,0.04534989222884178,-0.04554379731416702,0.12884025275707245,-0.019163208082318306,-0.3169647753238678,0.054214294999837875,0.02573712356388569,0.15228858590126038,0.0007311995141208172,0.226664200425148
目的,0.21815335750579834,0.009097382426261902,0.15805892646312714,0.24616985023021698,0.30880969762802124,-0.007994232699275017,-0.14121295511722565,-0.09592162072658539,-0.3657507002353668,0.24603629112243652,-0.09714388847351074,0.04513758420944214,0.21763865649700165,-0.2465808093547821,-0.05290849134325981,-0.02307765558362007,0.12039585411548615,0.3457099497318268,-0.16464626789093018,0.44789600372314453,-0.07593528926372528,0.06243409961462021,-0.1660858392715454,0.1433081477880478,-0.3945709466934204,0.06646770983934402,0.14033783972263336,0.0457550510764122,-0.3170214295387268,0.3646676242351532,-0.2770276367664337,0.014005501754581928,-0.18839479982852936,0.10447996109724045,0.26247701048851013,0.3355938792228699,-0.08242073655128479,-0.2406632900238037,0.14219459891319275,0.23244598507881165,0.037839509546756744,-0.002049161121249199,-0.13578441739082336,-0.19954082369804382,0.19968850910663605,0.03919849172234535,-0.3421277701854706,0.009000752121210098,0.1722055971622467,0.24189411103725433,-0.20617592334747314,-0.14864714443683624,-0.13522419333457947,-0.19137351214885712,-0.25677913427352905,-0.22547607123851776,0.3112848997116089,0.17081430554389954,0.20182248950004578,-0.1527860015630722,0.0677110031247139,0.09435462206602097,-0.027405958622694016,-0.04912913218140602,-0.2056814432144165,0.015677323564887047,0.2792207896709442,0.07350151985883713,0.0002600746229290962,-0.31650760769844055,0.01111038401722908,0.04684273526072502,-0.023409392684698105,-0.36812910437583923,0.10301314294338226,-0.21007271111011505,0.20990875363349915,0.10830450803041458,0.35017749667167664,0.22394412755966187,0.0879986584186554,-0.0618029348552227,0.24167941510677338,-0.05050787329673767,0.08674425631761551,0.12303057312965393,-0.14360593259334564,0.07575172185897827,-0.06087213382124901,-0.019282588735222816,-0.009152000769972801,0.251222163438797,0.049648262560367584,-0.023885361850261688,0.013764050789177418,0.1939314752817154,-0.21931007504463196,0.20162972807884216,0.06009575352072716,-0.16897249221801758,0.08076765388250351,-0.27114829421043396,-0.15853150188922882,0.2197033166885376,0.05032174289226532,-0.3677889108657837,0.018490271642804146,-0.19137990474700928,0.14631640911102295,-0.1226065382361412,-0.28127989172935486,0.06951840966939926,0.19087722897529602,-0.0524396114051342,-0.00480795418843627,-0.06497479975223541,-0.09370919317007065,-0.09949801117181778,0.025794142857193947,-0.11118372529745102,-0.07325531542301178,-0.16536347568035126,0.12100980430841446,0.02142338827252388,0.09024229645729065,0.16864201426506042,0.41537192463874817,0.20217689871788025,0.09860502928495407,-0.1006312444806099,0.36534491181373596,-0.08706115186214447,0.0030905376188457012,-0.05459487438201904,-0.3249319791793823,0.032089751213788986,0.044826652854681015,-0.06171228364109993,0.10079970955848694,-0.1779462993144989,-0.17320726811885834,-0.03388484567403793,0.055304139852523804,0.26463282108306885,-0.3351725935935974,-0.08216673880815506,0.1163223385810852,0.04266506806015968,-0.027547812089323997,-0.09453903138637543,-0.40960201621055603,-0.21027618646621704,-0.043732427060604095,-0.28691911697387695,-0.09082510322332382,0.1640956699848175,-0.17418703436851501,-0.16025982797145844,0.003105792449787259,-0.2390231192111969,-0.12114087492227554,-0.04875640943646431,-0.09476815909147263,0.23073527216911316,-0.04317937046289444,-0.11043263971805573,-0.4705657958984375,0.014518870040774345,0.14619071781635284,0.20789523422718048,-0.0975068211555481,0.11273729056119919,0.17761683464050293,-0.014567418955266476,-0.004980266094207764,-0.08693418651819229,0.06850604712963104,-0.1317565143108368,0.14189347624778748,-0.20313754677772522,0.18443886935710907,-0.1414962261915207,-0.01921132765710354,0.12138717621564865,0.01763060688972473,-0.25206246972084045,0.10895074158906937,0.03170975297689438,0.19247418642044067,0.22062915563583374,-0.044919244945049286,0.03220231831073761,0.20378300547599792,0.02882806584239006,-0.06433061510324478,0.06559021025896072,0.0966632142663002,0.18680685758590698,-0.16573606431484222,0.09691330790519714,0.04501313343644142,0.2458478957414627,0.3506705164909363,-0.10022498667240143,-0.22352366149425507,0.12432466447353363,-0.20302964746952057,-0.1349879503250122,-0.46525827050209045,-0.03934171050786972,0.01632256805896759,0.13753004372119904,0.0077313450165092945,0.1783267855644226,0.17998544871807098,-0.005705349147319794,0.07901932299137115,0.2773404121398926,0.06465882807970047,0.19687508046627045,0.17193850874900818,0.12654338777065277,0.03070586733520031,0.3161270022392273,-0.37047237157821655,-0.05036468058824539,0.2594529390335083,-0.04180452972650528,0.009714292362332344,0.22912263870239258,-0.1657889038324356,-0.3257143199443817,0.06668130308389664,-0.10156231373548508,-0.09386922419071198,-0.22351576387882233,-0.058182068169116974,0.24893322587013245,0.2011978179216385,-0.10794228315353394,-0.17604756355285645,-0.02442278526723385,-0.02498423308134079,-0.04707368463277817,0.14190860092639923,-0.3750108480453491,-0.07090343534946442,-0.08492746949195862,0.10828307271003723,-0.044306058436632156,-0.40995702147483826,0.08645850419998169,-0.07851562649011612,0.06670402735471725,0.039206936955451965,0.20399506390094757
限制,0.1815803200006485,0.11889529973268509,0.02946828305721283,0.09341204166412354,0.25817805528640747,-0.14371421933174133,-0.038200102746486664,-0.08611943572759628,-0.2598785161972046,0.2018744796514511,-0.07559316605329514,-0.024695735424757004,0.2198389321565628,-0.14080089330673218,0.10095774382352829,-0.0706387609243393,0.06359714269638062,0.07789408415555954,-0.10529719293117523,0.3793725073337555,-0.059309348464012146,-0.0511610209941864,-0.19232957065105438,0.26580286026000977,-0.3140048086643219,0.035418879240751266,0.040803104639053345,0.07288430631160736,-0.2278316617012024,0.36441177129745483,-0.2012586146593094,-0.008543630130589008,-0.0939069464802742,-0.016376333311200142,0.19128793478012085,0.2943216562271118,0.023902708664536476,-0.14078471064567566,0.146457701921463,0.18437457084655762,0.028955362737178802,0.1746026575565338,-0.11477960646152496,-0.10538908839225769,0.21135781705379486,0.003756840480491519,-0.288165807723999,0.05848897248506546,0.18401320278644562,0.20097562670707703,-0.12568193674087524,-0.15964697301387787,-0.12056869268417358,0.004125859122723341,-0.12494242936372757,-0.31318533420562744,0.21511615812778473,0.2017114758491516,0.1698020100593567,-0.02163478173315525,0.0015454982640221715,-0.006239657290279865,-0.029996072873473167,-0.08206722885370255,-0.08777539432048798,-0.057878363877534866,0.267661988735199,0.02934606373310089,0.07340459525585175,-0.27350887656211853,0.1254047006368637,0.04855302721261978,0.06017227843403816,-0.29017677903175354,0.004770526196807623,-0.26820898056030273,0.10917804390192032,0.1733708679676056,0.161582350730896,0.18520687520503998,-0.05705961585044861,-0.07978922873735428,0.17430521547794342,-0.043545108288526535,0.13757550716400146,-0.04382774978876114,-0.038153525441884995,0.11862873286008835,-0.034885797649621964,-0.0070582907646894455,0.052646756172180176,0.24709005653858185,-0.2304748147726059,-0.01269130501896143,0.10618454962968826,0.022414598613977432,-0.10200185328722,0.08577631413936615,0.08853895962238312,-0.14751127362251282,0.06666011363267899,-0.006755760870873928,-0.20419608056545258,0.12460760772228241,-0.021143954247236252,-0.35148629546165466,0.04957542195916176,-0.1811228096485138,0.11629215627908707,-0.09930366277694702,-0.0859447494149208,0.1585044264793396,-0.03900429978966713,-0.03554508835077286,0.017496736720204353,-0.02901298925280571,-0.09794645756483078,-0.10384288430213928,0.13663096725940704,0.052104778587818146,-0.05953286960721016,-0.09408321976661682,0.0936577096581459,-0.014547971077263355,0.08591938018798828,-0.1304536908864975,0.1297241598367691,0.12988558411598206,0.10639239102602005,0.024066302925348282,0.24009187519550323,-0.15440693497657776,0.031297847628593445,-0.07365527004003525,-0.22131335735321045,0.03339652344584465,0.1305280476808548,-0.0024493474047631025,0.0416899248957634,-0.13488532602787018,-0.009776760824024677,-0.029445558786392212,0.03522329032421112,0.18779584765434265,-0.30990302562713623,-0.09728555381298065,0.010809809900820255,0.07382173091173172,-0.037461478263139725,-0.04914083331823349,-0.22350628674030304,-0.07751172035932541,-0.07029454410076141,-0.23062299191951752,-0.07466141134500504,0.06680743396282196,-0.06902255117893219,-0.14504319429397583,-0.002823152579367161,-0.09803131222724915,-0.3108220398426056,-0.08721426129341125,-0.23629239201545715,0.22393982112407684,0.025157228112220764,0.06161879003047943,-0.43493086099624634,-0.016618726775050163,0.13588112592697144,0.20885014533996582,-0.08514288067817688,0.2185514122247696,0.13869932293891907,-0.03675488382577896,0.04007136449217796,-0.0486101396381855,0.03982949256896973,-0.03950297832489014,0.07450796663761139,-0.20704418420791626,0.161198690533638,-0.05262643098831177,-0.05554470047354698,0.028850778937339783,-0.03614889457821846,-0.25202417373657227,0.08087500184774399,0.07632797956466675,0.1287183165550232,0.14501217007637024,-0.17729483544826508,0.0859844759106636,0.20595858991146088,0.13002538681030273,-0.06942307949066162,0.06830910593271255,-0.053727712482213974,0.11656484007835388,-0.13588139414787292,0.13126260042190552,0.09805935621261597,0.19956371188163757,0.25049275159835815,-0.11312570422887802,-0.048034071922302246,0.03219408541917801,-0.053361061960458755,0.002850548829883337,-0.3016971945762634,-0.19154015183448792,-0.13399115204811096,0.0010395956924185157,0.012386934831738472,0.06563286483287811,0.17999005317687988,-0.040328867733478546,0.027067385613918304,0.22684375941753387,-0.12509006261825562,0.12867605686187744,0.07344900816679001,0.05008617043495178,-0.021453723311424255,0.1861342489719391,-0.22976753115653992,-0.06697064638137817,0.1752530187368393,0.08371297270059586,-0.09020329266786575,0.17672860622406006,-0.06748015433549881,-0.23436293005943298,0.12061590701341629,-0.10341408848762512,-0.05505497381091118,-0.1963818073272705,-0.22682207822799683,0.17231321334838867,0.12007349729537964,-0.08407384902238846,-0.1392255574464798,-0.027828766033053398,0.1457643061876297,-0.05256740376353264,0.03200116753578186,-0.2721158266067505,0.03561637923121452,-0.03824233636260033,0.024082181975245476,-0.057607464492321014,-0.3251354694366455,0.04901814088225365,0.04159962385892868,0.0870659351348877,-0.02577781304717064,0.20760977268218994
检测,0.026017483323812485,0.041105952113866806,0.00804140791296959,0.05517883598804474,0.07189135998487473,-0.04206240922212601,-0.0032897822093218565,-0.05052931606769562,-0.0936545580625534,0.0832185298204422,0.0008366958354599774,0.016188472509384155,0.07253126800060272,-0.07561854273080826,0.013170534744858742,-0.02032771147787571,0.06706476956605911,0.038928523659706116,-0.03126898407936096,0.12367388606071472,-0.0469224788248539,0.029830869287252426,-0.05264887586236,0.08264753967523575,-0.12068667262792587,-0.022383153438568115,0.0047391001135110855,-0.002224626950919628,-0.09512854367494583,0.07047777622938156,-0.06708038598299026,0.00035871329600922763,-0.05374954268336296,-0.013473976403474808,0.08908337354660034,0.05832597613334656,0.013242717832326889,-0.06254264712333679,0.05154183879494667,0.07859722524881363,0.011254964396357536,0.03095969371497631,-0.021918579936027527,-0.038425102829933167,0.06993500888347626,0.027101116254925728,-0.11161354929208755,-0.0033434813376516104,0.05156503617763519,0.08965205401182175,-0.024478422477841377,0.0013520967913791537,-0.010144710540771484,-0.07390254735946655,-0.05948767438530922,-0.09202207624912262,0.07462850958108902,0.03772984817624092,0.08509097248315811,-0.006292711943387985,0.011014355346560478,0.02556583657860756,-0.017916616052389145,-0.006680615711957216,-0.05462999641895294,-0.03891793265938759,0.05973257124423981,0.03535494953393936,0.00995717290788889,-0.07154884934425354,0.022942785173654556,-0.0017898688092827797,0.006186590995639563,-0.09833968430757523,-0.0361141674220562,-0.07815565168857574,0.05132162943482399,0.035089053213596344,0.042089059948921204,0.11761831492185593,0.057743676006793976,0.0062147872522473335,0.03612171486020088,0.0076866475865244865,0.06281290203332901,0.04040686413645744,-0.013851935043931007,0.023908885195851326,-0.010405915789306164,0.028079409152269363,0.016397764906287193,0.06363514810800552,-0.005781603045761585,-0.010264920070767403,0.00458291731774807,0.01860339380800724,-0.051074590533971786,0.012882047332823277,0.03776727616786957,-0.06697715073823929,0.04873272404074669,-0.05087804049253464,-0.06824959814548492,0.050197891891002655,-0.01961931400001049,-0.10598338395357132,0.031080834567546844,-0.04892512038350105,0.02120194211602211,-0.05510467290878296,-0.014437315985560417,0.05060584470629692,0.03492477163672447,0.017761534079909325,-0.0168320182710886,-0.08770106732845306,0.004309291020035744,-0.001271638902835548,0.005161673296242952,-0.000904323358554393,-0.02521054446697235,-0.040396548807621,0.015544177033007145,-0.051099248230457306,0.0325806550681591,0.008610822260379791,0.07684503495693207,0.021610325202345848,0.04773552343249321,-0.00979262962937355,0.046867795288562775,-0.040806714445352554,-0.006691680755466223,-0.0024370343890041113,-0.10705098509788513,-0.00895658414810896,0.026378648355603218,0.020390473306179047,0.03360223397612572,-0.0316816046833992,-0.023240823298692703,-0.0013482215581461787,0.018103303387761116,0.068783700466156,-0.11311858147382736,0.0020117219537496567,0.0016640516696497798,0.004260228015482426,0.007890413515269756,-0.009306073188781738,-0.09881523996591568,-0.008451837114989758,-0.017954254522919655,-0.0436864048242569,-0.05893945321440697,0.008795534260571003,-0.02417731285095215,0.004647511523216963,0.0009016754338517785,-0.057716261595487595,-0.04889892041683197,0.01696486957371235,-0.05157057195901871,0.03987263888120651,-0.004222420509904623,0.0004210774495732039,-0.12575124204158783,-0.0005820667720399797,0.01447965670377016,0.04452649876475334,-0.014825666323304176,0.06309912353754044,0.016900815069675446,-0.06430188566446304,0.016376379877328873,-0.04485349357128143,-0.018046678975224495,-0.038542263209819794,0.049996405839920044,-0.09325580298900604,0.035302482545375824,-0.039118826389312744,0.004141778219491243,0.054837051779031754,0.001461464911699295,-0.06060916185379028,-0.003311605891212821,0.029328899458050728,0.0007350029773078859,0.052397605031728745,-0.03713983669877052,-0.0038680490106344223,0.0567358136177063,0.030540596693754196,0.045905500650405884,-0.01366365049034357,0.017213109880685806,0.048391759395599365,-0.01955031231045723,0.06851668655872345,-0.0026474965270608664,0.043000057339668274,0.06694044917821884,-0.022178592160344124,-0.004924508277326822,0.013479109853506088,-0.03015104867517948,-0.01868824101984501,-0.10724716633558273,-0.03856217488646507,-0.00991610623896122,-0.0018178040627390146,-0.03153829276561737,0.021607637405395508,0.05429946631193161,-0.028108738362789154,0.003990653436630964,0.12610840797424316,0.0067998687736690044,0.07885077595710754,0.0019106032559648156,-0.010091504082083702,0.061336398124694824,0.03714809939265251,-0.10746334493160248,-0.032896123826503754,0.07333129644393921,0.00613620737567544,0.01968381740152836,0.05924283713102341,-0.05178702250123024,-0.11456908285617828,-0.021810242906212807,-0.019930118694901466,-0.011554873548448086,-0.061541054397821426,-0.05847044289112091,0.07648453116416931,0.06622902303934097,-0.014577626250684261,-0.026557113975286484,0.019263770431280136,0.017410555854439735,0.0015522869070991874,-0.016600770875811577,-0.06296492367982864,0.003489543916657567,-0.005827902816236019,0.023349836468696594,-0.03957602381706238,-0.10794772207736969,0.017936905845999718,0.026636237278580666,0.04680851474404335,-0.031176457181572914,0.07336877286434174
位置,-0.16477583348751068,0.9070510268211365,0.25918048620224,-1.028791904449463,0.29467445611953735,-0.5548372864723206,0.2803550958633423,-0.16810202598571777,-1.0478367805480957,0.30889448523521423,0.6534386277198792,-0.36560872197151184,-0.8206945061683655,-0.6567437648773193,-0.274934321641922,-0.3085867464542389,0.3949275314807892,-0.18636691570281982,0.4501607418060303,0.030223418027162552,-0.6858369708061218,-0.4117387533187866,0.04785137251019478,1.1310492753982544,-0.9935842752456665,-0.4905930459499359,0.03501855209469795,1.047996997833252,-1.1442415714263916,-0.5982152223587036,-0.5605748295783997,-0.10251718759536743,-0.8036637902259827,-0.17165905237197876,0.4109019935131073,0.48514699935913086,0.3856630027294159,-0.2683245837688446,0.36375170946121216,-0.49050846695899963,0.676476001739502,0.9564065337181091,0.2789479196071625,-0.052292779088020325,-0.06425045430660248,-0.7603277564048767,0.7913766503334045,-0.6298263072967529,0.3889561593532562,-0.1444699615240097,0.5626010298728943,-0.25948378443717957,0.1520608812570572,0.3128056228160858,0.6908882260322571,-1.0375720262527466,0.8566924929618835,-0.020500242710113525,0.19898106157779694,-0.17714010179042816,0.8491090536117554,0.11206268519163132,-1.0817469358444214,-0.9894933104515076,0.41939330101013184,-0.7132288813591003,-0.3768974244594574,0.5628767609596252,0.22047783434391022,-1.2291259765625,0.8364331722259521,-1.0720795392990112,0.0399603396654129,-0.8741747736930847,-1.1972554922103882,-0.3433307707309723,-0.6576595902442932,-0.8177047967910767,0.25174686312675476,1.3481050729751587,0.033924687653779984,-0.4496782124042511,0.19683688879013062,-0.6643396019935608,0.6779384016990662,0.5009528994560242,0.23811008036136627,-0.9817285537719727,0.06569747626781464,-0.09540259093046188,-0.3291512727737427,0.5421465635299683,0.13630907237529755,0.45509520173072815,-0.23050136864185333,-0.7298310399055481,-0.6474413275718689,-0.042905960232019424,1.0029935836791992,-0.6058523654937744,0.02669701911509037,0.6886630058288574,-1.442021369934082,0.061922334134578705,0.6963966488838196,-0.3207138776779175,-0.24182237684726715,-0.8941778540611267,-0.024166636168956757,-1.2983300685882568,-0.3917076289653778,-0.42500898241996765,-0.04148489609360695,-0.2020861655473709,1.1522783041000366,-1.0891329050064087,0.6213076710700989,-0.061748143285512924,0.5237196087837219,0.0698208436369896,-0.19818902015686035,-0.2495621293783188,-1.2484838962554932,-1.3497650623321533,0.27844467759132385,-0.8413474559783936,0.33818453550338745,-0.6583906412124634,0.6756604909896851,-0.37344908714294434,0.6913953423500061,-0.8704332709312439,0.2822606861591339,0.5264100432395935,-0.6135023236274719,-0.27295249700546265,0.10283456742763519,0.25487619638442993,-0.245192289352417,0.39411166310310364,-0.84298175573349,-0.08822007477283478,1.0301330089569092,-0.0048325988464057446,-0.10006777942180634,-0.3482394218444824,-0.10104701668024063,0.08133598417043686,0.19506755471229553,-0.27615442872047424,-0.754276692867279,0.5420628786087036,0.02467801235616207,-0.4603866636753082,-0.18621650338172913,0.5634622573852539,0.9672220945358276,-0.44004419445991516,0.08754362165927887,0.9958376884460449,-0.40769028663635254,-0.19193053245544434,-0.10101447999477386,0.03148281201720238,0.4473675489425659,0.15136153995990753,-0.4358471930027008,0.8668697476387024,0.3737650215625763,-0.47952955961227417,-0.8565146327018738,0.9740970134735107,1.395756721496582,-0.5549668669700623,0.9329309463500977,-0.17438575625419617,-1.0780224800109863,0.1692924052476883,-0.7150734066963196,-0.46517595648765564,0.2669025659561157,-0.204926997423172,0.7004784941673279,1.4631036520004272,-0.1701865792274475,0.17375421524047852,0.3804457485675812,0.3867306709289551,-0.6151034832000732,-0.1266506314277649,0.846962571144104,1.3449634313583374,-0.32987290620803833,0.8608304262161255,0.3761275112628937,-0.2679558992385864,-0.7971773147583008,0.31853386759757996,0.3677978217601776,0.43237370252609253,0.4153388738632202,0.16336405277252197,1.07822847366333,0.6797902584075928,0.11790952831506729,-0.6583194732666016,0.7021281719207764,-0.9377676248550415,-0.5840256214141846,-0.5908968448638916,-1.0559625625610352,-0.39719027280807495,-0.7211658358573914,0.12462159246206284,-0.6563877463340759,-0.23558971285820007,0.15866994857788086,0.9892241358757019,-0.855294942855835,0.5743656754493713,1.4588346481323242,0.3126683831214905,0.4256250560283661,1.3545706272125244,-1.1106849908828735,-0.43222010135650635,0.9911451935768127,0.2752949595451355,0.07761718332767487,0.6049007177352905,-0.620608389377594,-0.6491232514381409,0.06687144935131073,0.7156282067298889,-0.5472801327705383,-0.9997520446777344,-0.49538493156433105,0.27892276644706726,-0.3154386579990387,-0.5209607481956482,-0.44815418124198914,-0.156444251537323,0.5925496816635132,0.15610955655574799,-0.10490582138299942,-0.7878919243812561,0.27433454990386963,0.5873121619224548,0.5661447048187256,-0.6597743034362793,-1.0882222652435303,0.2013482004404068,0.023781757801771164,0.23575517535209656,-0.4624595046043396,0.6565581560134888
大于,-0.0008399793296121061,0.10150185227394104,0.12080435454845428,0.10673385113477707,0.26262494921684265,-0.20544718205928802,-0.011995402164757252,-0.12346332520246506,-0.18852727115154266,0.12786856293678284,0.12416795641183853,0.04373897984623909,0.0756283551454544,-0.23521381616592407,0.056239593774080276,-0.1249728724360466,0.25789329409599304,0.024536415934562683,-0.1268901377916336,0.42509233951568604,-0.11607994884252548,0.04699272662401199,-0.14639973640441895,0.26085934042930603,-0.5169585943222046,-0.09112104028463364,0.006377951242029667,0.011316288262605667,-0.26971232891082764,0.21231815218925476,-0.16365571320056915,0.0495414100587368,-0.23139365017414093,-0.023372676223516464,0.31351935863494873,0.16885508596897125,0.21591782569885254,-0.16363845765590668,0.1964883804321289,0.2709845304489136,0.00025468014064244926,0.13298901915550232,-0.04864117503166199,-0.04143267124891281,0.3439701795578003,-0.02680661529302597,-0.2725202739238739,-0.03432561457157135,0.16588382422924042,0.2418815791606903,-0.06282428652048111,-0.09109945595264435,0.015552409924566746,-0.17142510414123535,-0.1808687448501587,-0.3236365020275116,0.24814242124557495,0.014371398836374283,0.20620103180408478,0.08091609179973602,0.007955163717269897,0.024799257516860962,0.0025709597393870354,-0.10822707414627075,-0.18706180155277252,-0.03271884843707085,0.08165572583675385,0.1370059847831726,0.05378255993127823,-0.21901912987232208,0.1321471631526947,-0.20385992527008057,-0.005820601247251034,-0.3091294467449188,-0.17528009414672852,-0.23116491734981537,0.12543343007564545,0.0024984462652355433,0.06058621034026146,0.45751479268074036,0.12027304619550705,-0.02788640931248665,0.09778865426778793,0.005521329585462809,0.12172406911849976,0.16330258548259735,-0.026876511052250862,0.03785048797726631,0.06942465901374817,0.002913478994742036,0.08332905173301697,0.13086791336536407,-0.044230103492736816,-0.02476184256374836,0.03441891819238663,0.012925906106829643,-0.16991744935512543,0.06348982453346252,0.13658995926380157,-0.2701607644557953,0.13440044224262238,-0.11374038457870483,-0.3417154848575592,0.24927009642124176,0.030765729025006294,-0.27361300587654114,0.15329836308956146,-0.1953410506248474,0.03583411127328873,-0.1701955944299698,0.004300982691347599,0.19211944937705994,0.08586005121469498,0.10170432180166245,0.0031696201767772436,-0.33226388692855835,0.13452936708927155,0.10405685752630234,0.1177583858370781,-0.057158373296260834,-0.07083301246166229,-0.19664375483989716,-0.054847970604896545,-0.12163791060447693,-0.03263815492391586,0.03808244690299034,0.14871607720851898,0.05879092961549759,0.2605348527431488,0.01725950837135315,0.08585648983716965,-0.24507400393486023,-0.04348094388842583,0.05683198943734169,-0.37472501397132874,-0.16797302663326263,0.03660133108496666,0.022487062960863113,-0.00450296513736248,-0.05462763085961342,-0.14196251332759857,-0.08476611226797104,0.03917223960161209,0.2510755956172943,-0.32578244805336,-0.038703739643096924,-0.03211488202214241,0.00970282219350338,0.018696419894695282,-0.03816274553537369,-0.2693157494068146,0.009362752549350262,-0.007922928780317307,-0.10212893784046173,-0.2174200564622879,-0.07308408617973328,-0.029712243005633354,-0.05465199425816536,0.005670469254255295,-0.13056890666484833,-0.16572730243206024,0.027136921882629395,-0.19193020462989807,0.14451108872890472,-0.035695984959602356,0.10682785511016846,-0.4496646225452423,0.02242083102464676,0.09144136309623718,0.13055214285850525,-0.13040375709533691,0.27444130182266235,0.09827724099159241,-0.24081310629844666,0.09204363822937012,-0.13232479989528656,-0.12822118401527405,-0.0894741639494896,0.11690007895231247,-0.3213280439376831,0.15178415179252625,-0.12635067105293274,0.15451264381408691,0.28822389245033264,0.0269326139241457,-0.09546609967947006,-0.044695090502500534,-0.0013191422913223505,-0.050372108817100525,0.16750860214233398,-0.022870516404509544,0.1369590014219284,0.12245389819145203,0.23151622712612152,0.23679116368293762,-0.009725648909807205,0.018924547359347343,0.059385672211647034,-0.044542986899614334,0.1878281533718109,0.10679026693105698,-0.004446004051715136,0.22265206277370453,0.05051291733980179,-0.007340194657444954,-0.003702879184857011,-0.07607094198465347,-0.17573733627796173,-0.30968013405799866,-0.1533275544643402,-0.04073621705174446,-0.09955442696809769,-0.1302116960287094,-0.046156756579875946,0.13800054788589478,0.018682679161429405,0.03235999494791031,0.43702301383018494,-0.16972006857395172,0.22592176496982574,0.01434517465531826,-0.059293102473020554,0.18470437824726105,0.18261605501174927,-0.3218567967414856,-0.07258540391921997,0.2919747233390808,0.020945262163877487,0.03513519838452339,0.3366449773311615,-0.1858110874891281,-0.2701643705368042,-0.12109076231718063,-0.053909946233034134,-0.06198790296912193,-0.21290864050388336,-0.25882434844970703,0.2077595740556717,0.15265581011772156,0.039277464151382446,-0.16283981502056122,0.04214809834957123,0.1427379846572876,-0.008128088898956776,-0.04355398938059807,-0.28325122594833374,0.08818826824426651,0.03913849592208862,0.060230057686567307,-0.2179212123155594,-0.2709243893623352,-0.019804075360298157,0.15633627772331238,0.1988493651151657,-0.042883601039648056,0.31518957018852234
结构,-0.049455203115940094,0.21153710782527924,0.47494807839393616,0.4106289744377136,0.5225257873535156,-0.1342681497335434,-0.2470453977584839,-0.3012099862098694,-0.5112128853797913,0.17669939994812012,0.3242346942424774,0.3561987280845642,0.05064531788229942,-0.7762330770492554,-0.28688764572143555,-0.10606618970632553,0.5855873823165894,0.5132768750190735,-0.2771940529346466,0.9501845836639404,-0.49695971608161926,0.05864967405796051,-0.3577422797679901,0.13489793241024017,-1.040933609008789,-0.15139999985694885,-0.11089619994163513,0.04733569175004959,-0.6485999226570129,0.4307895600795746,-0.27364274859428406,0.13224364817142487,-0.9290570616722107,-0.049956921488046646,0.9191561341285706,0.6182186603546143,0.22592037916183472,-0.3152230381965637,0.4690462350845337,0.4136974513530731,0.08398962765932083,0.3641715347766876,-0.19879554212093353,-0.3859975337982178,0.5948272943496704,-0.04387325793504715,-0.5220986604690552,-0.11893438547849655,0.20356647670269012,0.6326168179512024,-0.13631358742713928,-0.23231817781925201,0.08473939448595047,-0.6466167569160461,-0.2789231538772583,-0.40110018849372864,0.5455018877983093,0.26440292596817017,0.2968071401119232,-0.09629779309034348,0.043546322733163834,0.1742931604385376,0.15527400374412537,0.1086094081401825,-0.5035465955734253,0.15795646607875824,0.37234964966773987,0.2940097451210022,0.17821384966373444,-0.5349881649017334,0.07960962504148483,-0.3425798714160919,0.07837779819965363,-0.6510375738143921,-0.13920362293720245,-0.3720751106739044,0.4123172461986542,0.040121134370565414,0.5066313743591309,1.132962942123413,0.5168213248252869,-0.04405732452869415,0.5022789239883423,0.004141516983509064,0.24801011383533478,0.6105207800865173,-0.04713129624724388,0.19897128641605377,0.10745848715305328,-0.0954945906996727,0.06536805629730225,0.5454229712486267,0.24453498423099518,0.042522504925727844,-0.12409123033285141,0.20213545858860016,-0.5933082103729248,0.18332143127918243,0.1841987520456314,-0.7965535521507263,-0.07280782610177994,-0.705825686454773,-0.46804988384246826,0.786737859249115,0.3397766351699829,-0.6384167671203613,0.24026049673557281,-0.3998197317123413,0.33231672644615173,-0.29018232226371765,-0.1852373331785202,0.34406283497810364,0.3901746869087219,0.19199822843074799,-0.2702212333679199,-0.9127529859542847,0.3416518568992615,0.08504229038953781,0.2772747576236725,0.0754302367568016,-0.17114195227622986,-0.3402766287326813,-0.019645581021904945,-0.2288035750389099,0.13713338971138,0.34011372923851013,0.7062402367591858,0.18197853863239288,0.7657871246337891,-0.2106524109840393,0.5778094530105591,-0.5154815912246704,-0.08709550648927689,0.032924387603998184,-0.9342864155769348,-0.22627480328083038,0.12202885746955872,-0.14840570092201233,0.05471094697713852,-0.35477763414382935,-0.48586738109588623,0.1531803011894226,0.06031329929828644,0.587064802646637,-0.8536975979804993,-0.13632427155971527,0.07165589183568954,-0.07307826727628708,0.04520982503890991,-0.21383081376552582,-0.8108319044113159,-0.0877392515540123,0.03974778205156326,-0.22296269237995148,-0.5141600966453552,-0.20596148073673248,0.018260853365063667,-0.12879955768585205,0.025083309039473534,-0.24364446103572845,0.14862950146198273,-0.006201475393027067,-0.16726849973201752,0.30705955624580383,0.12595827877521515,0.04349566251039505,-0.9599646925926208,0.13095301389694214,0.06124182045459747,0.22758197784423828,-0.1617211252450943,0.5802913308143616,0.25987815856933594,-0.44765281677246094,0.0426069013774395,-0.3712717592716217,-0.11292438209056854,-0.23890380561351776,0.16128313541412354,-0.6706063151359558,0.36715421080589294,-0.35929450392723083,0.4494335949420929,0.9702647924423218,0.2354760766029358,-0.2029482126235962,-0.19652916491031647,-0.2670632004737854,0.04912218078970909,0.4545917212963104,0.05905545875430107,0.09565598517656326,0.5389604568481445,0.2911865711212158,0.346023291349411,-0.06449282169342041,0.13313624262809753,0.20067466795444489,-0.1217118501663208,0.4066563546657562,0.0698760375380516,0.238961324095726,0.4696790874004364,0.06414426118135452,-0.3235236406326294,0.08353924751281738,-0.27634671330451965,-0.427863746881485,-0.7926897406578064,-0.1808607280254364,0.13777144253253937,-0.2360549122095108,-0.4827812612056732,0.09195077419281006,0.19179701805114746,0.1609850376844406,0.19338403642177582,1.1424381732940674,-0.18843863904476166,0.7023336887359619,0.20003154873847961,-0.10016744583845139,0.4317101538181305,0.7030749917030334,-1.0279134511947632,-0.03900432959198952,0.814695417881012,-0.17414721846580505,0.30941587686538696,0.8500986695289612,-0.7017703652381897,-0.8918903470039368,-0.4084564447402954,-0.11367808282375336,-0.28415024280548096,-0.4071851074695587,-0.5365288853645325,0.36472395062446594,0.5823484063148499,0.003434997284784913,-0.5572750568389893,0.10187393426895142,0.04902318865060806,-0.22681120038032532,-0.2322877198457718,-0.7279338836669922,0.04555756598711014,0.1064903512597084,0.5746118426322937,-0.43745186924934387,-0.7084598541259766,0.07101155817508698,0.10290589928627014,0.4571031928062439,-0.14773322641849518,0.8346545100212097
产生,0.05772430822253227,0.05262528359889984,0.09533412754535675,0.1586766093969345,0.1016751378774643,-0.0662522166967392,-0.06296179443597794,-0.0757477730512619,-0.21133257448673248,0.14281652867794037,-0.08819205313920975,0.10758247971534729,0.1382574588060379,-0.0923096090555191,0.022620396688580513,0.014867850579321384,0.02074582315981388,0.15964308381080627,-0.06085818633437157,0.3113795816898346,-0.09305289387702942,-0.0284225195646286,-0.11032800376415253,0.15707021951675415,-0.13901545107364655,-0.005863246973603964,0.021358462050557137,0.02381742000579834,-0.12272948771715164,0.22542183101177216,-0.11635460704565048,0.005161548499017954,-0.05625733733177185,0.00012993522977922112,0.19388453662395477,0.24323482811450958,0.00033781060483306646,-0.08642025291919708,0.08607952296733856,0.17510665953159332,-0.023451359942555428,0.10319948941469193,-0.05481726676225662,-0.11036785691976547,0.12295622378587723,0.0041966624557971954,-0.15964460372924805,0.04187185689806938,0.14361098408699036,0.1773943305015564,-0.03922359645366669,-0.05959203094244003,-0.07113996148109436,-0.07404123246669769,-0.12785640358924866,-0.09304922074079514,0.1284896582365036,0.1692744940519333,0.1839175820350647,-0.0504533015191555,-0.08300753682851791,0.043256744742393494,0.06635340303182602,0.016032161191105843,-0.1651897430419922,-0.01745539903640747,0.21099357306957245,-0.031066546216607094,0.08676747232675552,-0.07421960681676865,0.08025023341178894,0.06267518550157547,0.011473149992525578,-0.11089754104614258,0.05364498496055603,-0.22946421802043915,0.09727570414543152,0.13999193906784058,0.18939271569252014,0.22474755346775055,0.01727694272994995,-0.0014796520117670298,0.09805696457624435,-0.022368745878338814,0.04873737692832947,-0.03139743581414223,-0.03481999784708023,0.19184763729572296,-0.0011240902822464705,-0.0015836918028071523,0.09642209112644196,0.12418336421251297,-0.08271834999322891,-0.09660372883081436,0.1410745233297348,0.07915069162845612,-0.09166178107261658,0.147007554769516,-0.015690218657255173,-0.060124002397060394,-0.0018011979991570115,-0.10414666682481766,-0.0214291550219059,0.10432909429073334,0.048445239663124084,-0.1861777901649475,0.11377940326929092,-0.07860267907381058,0.10419115424156189,0.011819234117865562,-0.036015961319208145,0.07853171229362488,-0.004024661146104336,0.035503730177879333,-0.006881840992718935,-0.09539805352687836,0.024329882115125656,-0.033777255564928055,0.08166887611150742,0.06200001388788223,0.02319752797484398,-0.09864535927772522,0.09139546751976013,0.022787734866142273,0.039782918989658356,-0.053293731063604355,0.035450782626867294,0.12122778594493866,0.04968796297907829,0.07835137099027634,0.20875366032123566,-0.1554708331823349,0.03578123450279236,-0.09073475748300552,-0.2156510055065155,0.05535714700818062,0.14326636493206024,-0.06141243129968643,0.022516261786222458,-0.11410397291183472,-0.02685367316007614,-0.06467762589454651,-0.049826037138700485,0.10705303400754929,-0.2648921310901642,-0.021845459938049316,0.052899133414030075,-0.009108620695769787,-0.01195460930466652,-0.1070358008146286,-0.1626158505678177,-0.08123128861188889,-0.05423878878355026,-0.20907635986804962,-0.09719707816839218,-0.07431045174598694,-0.08174365758895874,-0.03813991695642471,0.04192862659692764,-0.13274286687374115,-0.11690563708543777,-0.01127276849001646,-0.14788173139095306,0.13273689150810242,0.035999953746795654,-0.06851942092180252,-0.31161341071128845,-0.04432770609855652,0.08077934384346008,0.09006747603416443,-0.07592238485813141,0.12666210532188416,-0.0035155550576746464,-0.03843707963824272,0.0410308763384819,-0.12026321142911911,0.09126918017864227,-0.11159489303827286,0.1397264301776886,-0.1130245178937912,0.04811013862490654,-0.010727024637162685,-0.05332871899008751,-0.0459272600710392,0.09157004207372665,-0.14952130615711212,0.03221287950873375,-0.06112639978528023,0.11495357006788254,0.12240021675825119,-0.09846245497465134,-0.06117308884859085,0.2130737602710724,0.05283457785844803,-0.0656762421131134,0.07036612927913666,-0.00594578729942441,0.11484117060899734,-0.11635684967041016,0.18915235996246338,0.07742001116275787,0.16388437151908875,0.0767415314912796,-0.05552496016025543,-0.07646209746599197,0.09522618353366852,-0.030065184459090233,0.09376151114702225,-0.259091317653656,-0.0253496915102005,0.0018980305176228285,-0.0017935342621058226,0.023111563175916672,0.11521560698747635,0.11638003587722778,0.018731839954853058,-0.018464038148522377,0.23470456898212433,-0.07188138365745544,0.09410317987203598,-0.03182120621204376,-0.0007546722190454602,-0.05621238797903061,0.06305010616779327,-0.27642759680747986,-0.01881646178662777,0.18116317689418793,0.04903053492307663,-0.01008645910769701,0.16905848681926727,-0.11419776827096939,-0.18014733493328094,0.041907571256160736,-0.0793541744351387,-0.04598148912191391,-0.05997158959507942,-0.07776928693056107,0.1151532456278801,0.097620390355587,-0.029228784143924713,-0.15540531277656555,0.09297385811805725,0.024249384179711342,-0.0796116441488266,-0.008288365788757801,-0.1926656812429428,0.05261208489537239,-0.0038758714217692614,0.04245917126536369,-0.03247321397066116,-0.16379322111606598,0.08059626817703247,0.06992826610803604,0.03428349643945694,-0.020753057673573494,0.315451979637146
输出,0.04124051332473755,0.08510210365056992,0.006343532353639603,0.12607915699481964,0.20405778288841248,-0.17055147886276245,0.02155858278274536,-0.13339228928089142,-0.2715633809566498,0.2081488072872162,-0.0470905639231205,0.06628561019897461,0.16289488971233368,-0.1406264305114746,0.110478974878788,-0.0739741250872612,0.16349974274635315,0.07668653130531311,-0.10697715729475021,0.34745195508003235,-0.06347999721765518,0.06648281216621399,-0.13100449740886688,0.3034366965293884,-0.33710891008377075,-0.05849312245845795,-0.006224389653652906,0.02164478972554207,-0.22305993735790253,0.24470975995063782,-0.15372078120708466,0.03869233280420303,-0.04837670549750328,-0.03991566225886345,0.23322747647762299,0.2013559192419052,0.06835398077964783,-0.18328039348125458,0.16218054294586182,0.25692957639694214,0.002377375029027462,0.15474167466163635,-0.08771730214357376,-0.07700309157371521,0.2620854675769806,0.041399769484996796,-0.309108167886734,0.022773103788495064,0.1719687432050705,0.24869392812252045,-0.09226611256599426,-0.05849793925881386,-0.05925166234374046,-0.12710846960544586,-0.21011142432689667,-0.26284781098365784,0.19966360926628113,0.0566193051636219,0.25800561904907227,0.05139513686299324,0.021756449714303017,0.013829981908202171,-0.012897619977593422,-0.04868479073047638,-0.18033097684383392,-0.08940313011407852,0.19122759997844696,0.08773542940616608,0.08383429050445557,-0.1881033331155777,0.13069544732570648,-0.015810849145054817,0.029870767146348953,-0.2524682283401489,-0.0880335196852684,-0.2563461661338806,0.09891408681869507,0.15794456005096436,0.11213050037622452,0.30781638622283936,0.08039139956235886,-0.003194427117705345,0.08669640123844147,0.03254440054297447,0.14654125273227692,0.042604610323905945,-0.03557739406824112,0.10864459723234177,0.028683073818683624,0.06847791373729706,0.08064357191324234,0.16635192930698395,-0.14686453342437744,-0.06761455535888672,0.1292749047279358,0.002130471169948578,-0.11115468293428421,0.06680002063512802,0.10538686811923981,-0.14010772109031677,0.11011248081922531,-0.03666207566857338,-0.1541699320077896,0.1240026131272316,-0.06043493375182152,-0.3205985426902771,0.1283199042081833,-0.1966070532798767,0.09007366001605988,-0.10242430865764618,0.04549114406108856,0.17383402585983276,0.00909977313131094,0.0830988809466362,-0.032533131539821625,-0.19401578605175018,-0.0032580529805272818,0.013846714049577713,0.07383143156766891,-0.017703840509057045,-0.0817437544465065,-0.14688825607299805,0.026321204379200935,-0.09024889022111893,0.013331707566976547,-0.10623446106910706,0.050794098526239395,0.051563847810029984,0.13424770534038544,0.052184149622917175,0.13771399855613708,-0.1523066610097885,0.017798366025090218,-0.05574790760874748,-0.2852698862552643,-0.06827180087566376,0.13915637135505676,0.025941571220755577,0.08315625786781311,-0.10283910483121872,-0.037430405616760254,-0.07816530764102936,0.023626213893294334,0.1429091840982437,-0.3515525758266449,-0.05632546916604042,-0.011046577244997025,-0.034403927624225616,-0.007178869564086199,-0.028590120375156403,-0.2394268810749054,-0.03228471428155899,-0.07257414609193802,-0.14799857139587402,-0.15380610525608063,-0.03400638327002525,-0.10854209214448929,-0.04928835108876228,-0.0018570675747469068,-0.19060081243515015,-0.23540277779102325,0.05758604407310486,-0.21414141356945038,0.1307877153158188,0.0014827492414042354,0.03348810225725174,-0.37938252091407776,-0.050589967519044876,0.11652489006519318,0.1435353308916092,-0.07253269106149673,0.19990800321102142,0.028425266966223717,-0.13520945608615875,0.0726267471909523,-0.09529097378253937,-0.022714661434292793,-0.10906718671321869,0.17121531069278717,-0.3039170503616333,0.09684697538614273,-0.11147825419902802,0.007883735932409763,0.0621597096323967,0.04137999936938286,-0.18239213526248932,-0.038936469703912735,0.10620999336242676,0.05603349953889847,0.1411173939704895,-0.1909656524658203,0.02618257701396942,0.14900124073028564,0.11113059520721436,0.07855845987796783,0.05060413107275963,-0.000645157415419817,0.08872109651565552,-0.09246599674224854,0.1806344836950302,0.03868389502167702,0.08344622701406479,0.17265847325325012,-0.08137432485818863,0.05242333188652992,0.03385841101408005,-0.07624202966690063,-0.04114643484354019,-0.31856048107147217,-0.14142005145549774,-0.05933012813329697,-0.008827411569654942,-0.029464684426784515,0.07215848565101624,0.22609664499759674,-0.03357852250337601,-0.014267045073211193,0.34785333275794983,-0.0913577601313591,0.20166075229644775,-0.07193460315465927,-0.0035472691524773836,0.0892852395772934,0.0641937106847763,-0.2815277576446533,-0.09418129920959473,0.17131538689136505,0.07874005287885666,0.01903325319290161,0.1973884403705597,-0.11688005179166794,-0.2535018026828766,-0.007290946319699287,-0.136257603764534,-0.02476767636835575,-0.15880976617336273,-0.1410413533449173,0.2124205082654953,0.13260139524936676,-0.007693111430853605,-0.07046961039304733,0.07100662589073181,0.05457589402794838,-0.016925640404224396,-0.07205238938331604,-0.18437738716602325,0.05507756769657135,-0.07687700539827347,-0.043564263731241226,-0.1185377761721611,-0.241974338889122,0.06475311517715454,0.13246256113052368,0.15226851403713226,-0.052333664149045944,0.3000749349594116
实现,0.17477427423000336,0.16064199805259705,-0.028565116226673126,0.2967841327190399,0.36286410689353943,-0.22042885422706604,0.05073190852999687,-0.24066653847694397,-0.3577847480773926,0.3282926678657532,-0.09514506906270981,0.055998507887125015,0.40703433752059937,-0.23032499849796295,0.23071140050888062,-0.1345657855272293,0.2533490061759949,0.08447787910699844,-0.2236560732126236,0.5192413926124573,-0.05740087851881981,0.14371399581432343,-0.25478076934814453,0.3899590075016022,-0.5301960110664368,-0.060785338282585144,0.02156907692551613,0.004972077906131744,-0.31212496757507324,0.434095561504364,-0.27626752853393555,0.06238789111375809,-0.08640804141759872,-0.09406179934740067,0.35359057784080505,0.280534029006958,0.05812864005565643,-0.3378990888595581,0.23824429512023926,0.46349596977233887,-0.01064092107117176,0.18069840967655182,-0.15385490655899048,-0.13686008751392365,0.3985481858253479,0.16771188378334045,-0.6650760173797607,0.050911638885736465,0.3099914789199829,0.39009374380111694,-0.18950580060482025,-0.07790188491344452,-0.13535445928573608,-0.24119167029857635,-0.3421878516674042,-0.414985716342926,0.30079343914985657,0.10399497300386429,0.3180401921272278,0.0800851434469223,0.020107584074139595,0.023047877475619316,-0.05037938803434372,-0.0031594422180205584,-0.3004557490348816,-0.15395648777484894,0.3790212869644165,0.14500950276851654,0.11195220053195953,-0.2933981418609619,0.07696998119354248,0.102973572909832,0.07430477440357208,-0.39873188734054565,-0.062373675405979156,-0.3706777095794678,0.24578236043453217,0.26989126205444336,0.18935342133045197,0.3727816045284271,0.1741715520620346,0.04318443685770035,0.19755800068378448,0.02858556993305683,0.2904949188232422,0.07325704395771027,-0.109806589782238,0.1965569406747818,-0.03942010551691055,0.09844089299440384,0.06992264837026596,0.35956376791000366,-0.23297889530658722,-0.031359847635030746,0.11143380403518677,0.054552048444747925,-0.14821700751781464,0.09076377004384995,0.12290345132350922,-0.3059079051017761,0.23385977745056152,-0.121428482234478,-0.19544480741024017,0.20481005311012268,-0.17791017889976501,-0.5856513977050781,0.18664924800395966,-0.3015744984149933,0.17365887761116028,-0.1164441853761673,0.05725381523370743,0.3586829602718353,0.007612668443471193,0.10763613879680634,-0.09405303001403809,-0.21617962419986725,-0.1458835005760193,-0.04430507495999336,0.035888031125068665,-0.0038265385664999485,-0.12043431401252747,-0.20407608151435852,0.15467683970928192,-0.10153364390134811,0.0936623066663742,-0.09235081821680069,0.13548776507377625,0.09475047141313553,0.1789442002773285,0.026866942644119263,0.1094532161951065,-0.14598765969276428,0.007891871966421604,-0.019526397809386253,-0.382743775844574,-0.13099226355552673,0.1811225861310959,0.08840087801218033,0.1848423033952713,-0.20161756873130798,0.034280333667993546,-0.030463911592960358,-0.010698824189603329,0.2879191040992737,-0.5477515459060669,-0.09458529949188232,-0.01648518443107605,-0.06674057245254517,-0.06376899033784866,0.018697477877140045,-0.404725581407547,-0.030510416254401207,-0.10405277460813522,-0.22699691355228424,-0.19941399991512299,-0.032239560037851334,-0.2445908784866333,-0.04238966479897499,-0.03875182569026947,-0.3682003915309906,-0.4252362847328186,0.008565107360482216,-0.3737235367298126,0.27607107162475586,-0.06215284392237663,0.0743836909532547,-0.5533803701400757,-0.12881726026535034,0.1388579159975052,0.2587440609931946,-0.04195532202720642,0.2767893970012665,0.03495720773935318,-0.19160687923431396,0.008238322101533413,-0.046936143189668655,-0.022186992689967155,-0.13602526485919952,0.2392427772283554,-0.49001526832580566,0.1763889342546463,-0.1962834894657135,-0.05692406743764877,0.038458142429590225,-0.043388932943344116,-0.3716888129711151,-0.08323501795530319,0.23543483018875122,0.09510957449674606,0.2719907760620117,-0.3902833163738251,-0.013033755123615265,0.2839645743370056,0.09668835997581482,0.06039814278483391,0.05575765296816826,0.10586243122816086,0.14832758903503418,-0.16111893951892853,0.22321714460849762,0.04783231019973755,0.1542261242866516,0.2800818681716919,-0.1856594830751419,0.048748843371868134,0.08922630548477173,-0.18630461394786835,-0.0037465051282197237,-0.44414201378822327,-0.2476445585489273,-0.10790818929672241,0.02038920484483242,-0.0555366650223732,0.0918736532330513,0.40167465806007385,-0.08848690986633301,-0.023197151720523834,0.5047092437744141,-0.015292380005121231,0.34276679158210754,-0.11416687816381454,0.04257795587182045,0.21608567237854004,0.0949292704463005,-0.40412065386772156,-0.1526685655117035,0.1832137405872345,0.08622464537620544,0.04206376522779465,0.28514719009399414,-0.20043335855007172,-0.4334598481655121,-0.006463510915637016,-0.25013259053230286,-0.015780577436089516,-0.225013867020607,-0.2593972384929657,0.3945363163948059,0.2799268066883087,-0.08207201957702637,-0.054696645587682724,0.06134472042322159,0.06750337034463882,-0.014136328361928463,-0.08939418941736221,-0.30339959263801575,0.04162880778312683,-0.17816881835460663,0.00455839280039072,-0.17271970212459564,-0.4526580572128296,0.10857222974300385,0.1566353142261505,0.23880411684513092,-0.09097299724817276,0.3407739996910095
单元,0.16983096301555634,0.05019635334610939,-0.0414075143635273,0.012903978116810322,0.1185941994190216,-0.08883880823850632,-0.015390241518616676,-0.06854455173015594,-0.2263392060995102,0.09212306141853333,-0.13011443614959717,0.018332216888666153,0.17080806195735931,-0.024589115753769875,0.1263795793056488,-0.08880537748336792,-0.0632164254784584,0.022662902250885963,-0.02084633708000183,0.05906321853399277,0.01752873882651329,-0.024463627487421036,0.010163978673517704,0.2580667734146118,-0.12428617477416992,0.08465839922428131,0.10851934552192688,0.09144189208745956,-0.05747988075017929,0.21863599121570587,-0.17213691771030426,-0.01577569916844368,0.028162965551018715,0.023463934659957886,0.060241103172302246,0.0893426463007927,-0.03707979619503021,-0.09922772645950317,0.06395833939313889,0.19930045306682587,0.09315355122089386,0.12933184206485748,-0.07583516836166382,-0.025947140529751778,0.07865072786808014,0.007385915610939264,-0.1673365980386734,-0.02589823305606842,0.16822904348373413,0.04653436318039894,-0.08139900118112564,-0.12755177915096283,-0.18722517788410187,0.13619746267795563,-0.09452517330646515,-0.13643227517604828,0.11129695922136307,0.10959873348474503,0.09135020524263382,0.029390979558229446,0.0970192551612854,0.033013466745615005,-0.10036731511354446,-0.06042404845356941,-0.05208446457982063,-0.1018410176038742,0.15217921137809753,-0.02706921473145485,0.08092277497053146,-0.24998421967029572,0.0952250212430954,0.009722399525344372,0.04645051434636116,-0.19002816081047058,-0.008890019729733467,-0.1067848950624466,0.06939011067152023,0.09918345510959625,0.14888165891170502,0.10206238180398941,-0.07298029214143753,-0.029346823692321777,0.093446746468544,-0.1223907321691513,0.08424851298332214,-0.006442233920097351,-0.09303593635559082,0.0384201817214489,-0.0532219223678112,-0.015129403211176395,-0.004128273110836744,0.1554839015007019,-0.104505255818367,-0.058532364666461945,0.10516875237226486,-0.03240274637937546,-0.03688567131757736,0.10481764376163483,0.048533521592617035,0.020653393119573593,0.06837955862283707,0.0930071622133255,-0.09981677681207657,-0.00042450413457117975,-0.09809129685163498,-0.28150880336761475,0.02055942267179489,-0.17119969427585602,0.05968939885497093,-0.04277731478214264,-0.10482750087976456,0.05274054408073425,-0.07810799032449722,0.004451832268387079,0.048535753041505814,0.027475746348500252,-0.052321214228868484,-0.1143198162317276,0.13894154131412506,-0.023110920563340187,-0.043612584471702576,-0.08631890267133713,-0.008049672469496727,0.051797132939100266,0.04202183708548546,-0.17332324385643005,-0.0038950613234192133,-0.012015189975500107,-0.015369746834039688,-0.007145294453948736,0.12746597826480865,0.009550121612846851,0.028384823352098465,-0.019590716809034348,-0.11937499046325684,-1.2756150681525469e-05,0.07155074179172516,-0.025990348309278488,0.06339340656995773,-0.06598907709121704,-0.0034374636597931385,-0.08891461789608002,0.0037030279636383057,0.09692271053791046,-0.1555648297071457,-0.12172473967075348,0.043776869773864746,-0.07839615643024445,-0.05751444399356842,-0.017548225820064545,-0.07635319977998734,-0.06433038413524628,0.001519366167485714,-0.19629202783107758,-0.026415357366204262,0.05701608583331108,-0.12899187207221985,-0.12888778746128082,-0.004990049172192812,-0.08983605355024338,-0.20681554079055786,-0.07062304764986038,-0.13413996994495392,0.1435934156179428,-0.017079530283808708,-0.0055821542628109455,-0.22216035425662994,0.021311331540346146,0.1481873244047165,0.06139769032597542,-0.09942709654569626,0.09914568066596985,0.0952562689781189,-0.000490770151372999,0.08414076268672943,-0.013551736250519753,0.03701556846499443,-0.06913581490516663,-0.024530284106731415,-0.05818560719490051,0.1335325390100479,-0.05231012403964996,-0.09720563143491745,-0.03922145068645477,-0.09855343401432037,-0.19635240733623505,0.12096696346998215,0.17749425768852234,0.17280742526054382,0.11101691424846649,-0.04117508605122566,0.1631249040365219,0.040377143770456314,0.04957877844572067,-0.1007135808467865,0.07034853100776672,-0.05760306492447853,0.1039435863494873,-0.05457421392202377,0.022504275664687157,0.08987981081008911,0.10523536801338196,0.2237783521413803,-0.10040584951639175,-0.027665741741657257,0.05677977576851845,0.0005093459622003138,0.0016721333377063274,-0.15905313193798065,-0.08335307985544205,-0.12667322158813477,0.08715011924505234,-0.023118024691939354,0.11156179755926132,0.08314374089241028,-0.026130907237529755,-0.0020442428067326546,0.10349571704864502,-0.014957890845835209,0.08985713124275208,0.11042914539575577,0.03692891448736191,-0.06120894104242325,0.08167679607868195,-0.10787313431501389,-0.05252526327967644,0.014999098144471645,0.05375554785132408,-0.005444655194878578,0.055857010185718536,-0.06343959271907806,-0.08105643093585968,0.17636331915855408,-0.082451730966568,-0.022318035364151,-0.13628095388412476,-0.003699204418808222,0.08361939340829849,0.04608848690986633,-0.07333261519670486,-0.03542204201221466,-0.06318431347608566,0.012885978445410728,-0.031222134828567505,0.021309085190296173,-0.16624175012111664,-0.03249282389879227,-0.10693871229887009,0.007464428897947073,0.017284313216805458,-0.20400755107402802,0.11963511258363724,0.018660783767700195,0.06259722262620926,0.09571157395839691,0.07259579002857208
