word,0,1,2,3,4,5,6,7,8,9,10,11,12,13,14,15,16,17,18,19,20,21,22,23,24,25,26,27,28,29,30,31,32,33,34,35,36,37,38,39,40,41,42,43,44,45,46,47,48,49,50,51,52,53,54,55,56,57,58,59,60,61,62,63,64,65,66,67,68,69,70,71,72,73,74,75,76,77,78,79,80,81,82,83,84,85,86,87,88,89,90,91,92,93,94,95,96,97,98,99,100,101,102,103,104,105,106,107,108,109,110,111,112,113,114,115,116,117,118,119,120,121,122,123,124,125,126,127,128,129,130,131,132,133,134,135,136,137,138,139,140,141,142,143,144,145,146,147,148,149,150,151,152,153,154,155,156,157,158,159,160,161,162,163,164,165,166,167,168,169,170,171,172,173,174,175,176,177,178,179,180,181,182,183,184,185,186,187,188,189,190,191,192,193,194,195,196,197,198,199,200,201,202,203,204,205,206,207,208,209,210,211,212,213,214,215,216,217,218,219,220,221,222,223,224,225,226,227,228,229,230,231,232,233,234,235,236,237,238,239,240,241,242,243,244,245,246,247,248,249,250,251,252,253,254,255
形成,0.03208993375301361,0.16998378932476044,0.575725257396698,0.4248810410499573,0.5881757736206055,-0.027863599359989166,-0.3412059545516968,-0.30655187368392944,-0.7422652840614319,0.23794707655906677,0.5250145792961121,0.18598121404647827,-0.06864681839942932,-0.88116055727005,-0.5503921508789062,-0.3594016432762146,0.5511569976806641,0.7477337121963501,-0.04346589744091034,0.5703884959220886,-0.4663165807723999,0.28072601556777954,-0.17340654134750366,0.030449949204921722,-1.0655624866485596,0.04942335560917854,0.14635248482227325,0.3219405710697174,-0.7801806330680847,0.06278391182422638,-0.5482427477836609,-0.022388679906725883,-0.977599561214447,0.1596716046333313,0.9943290948867798,0.3382471203804016,0.13127188384532928,-0.4386766254901886,0.4495411217212677,0.411514550447464,0.11660271883010864,0.11477546393871307,0.06871584802865982,-0.6555061936378479,0.6655301451683044,-0.2943633198738098,-0.34617990255355835,-0.3568654954433441,0.3132294714450836,0.606151282787323,-0.2951402962207794,0.07597672939300537,0.044160351157188416,-0.5860826969146729,-0.12897169589996338,-0.569257915019989,0.8502252101898193,0.006306120194494724,-0.0819564238190651,-0.21932142972946167,0.3993907570838928,0.4206586480140686,-0.2649761438369751,-0.3054308593273163,-0.30844470858573914,0.05560250207781792,0.36845535039901733,0.5006770491600037,-0.21838310360908508,-0.6678376197814941,-0.14869758486747742,-0.5534439086914062,-0.11663051694631577,-0.9582517147064209,-0.29103410243988037,-0.11165925115346909,0.36835622787475586,-0.5495250225067139,0.887791097164154,1.2607163190841675,0.6826804280281067,-0.059314362704753876,0.4639732837677002,-0.3455526828765869,0.29998406767845154,0.8283185958862305,0.007735664956271648,-0.19878053665161133,-0.023104332387447357,-0.04539106786251068,-0.11800980567932129,0.7109963893890381,0.9981911778450012,0.09309137612581253,-0.37248677015304565,0.5093023180961609,-0.7292616367340088,0.3572269082069397,0.09392605721950531,-0.6467751860618591,-0.06944690644741058,-0.8853049874305725,-0.6441023349761963,0.8465476036071777,0.5558081865310669,-0.7069351077079773,-0.10868281126022339,-0.6473973989486694,0.2581462562084198,-0.6466941833496094,-0.7470453381538391,-0.16047224402427673,0.7049789428710938,-0.11069285869598389,0.05454813316464424,-0.9911296963691711,0.4462224245071411,-0.003013112349435687,-0.11281789094209671,-0.4728452265262604,-0.17010946571826935,-0.4593917429447174,-0.2719627320766449,-0.49819082021713257,0.16179564595222473,0.5250572562217712,1.3994271755218506,0.132659450173378,0.7913979291915894,-0.40757033228874207,0.9317898750305176,-0.4420170783996582,-0.19208380579948425,0.275915265083313,-0.9373243451118469,-0.0778409019112587,-0.20597098767757416,-0.08888173848390579,0.3495757579803467,-0.04661545157432556,-0.6777227520942688,0.1324240118265152,0.2631608545780182,0.8137924671173096,-0.6283293962478638,0.05441673472523689,0.2167896181344986,-0.05776778981089592,0.10884193331003189,-0.3107522428035736,-0.8563604354858398,-0.32716450095176697,0.3321720063686371,-0.24738430976867676,-0.5417162179946899,0.3518257141113281,0.25526162981987,-0.31406232714653015,0.006373591721057892,-0.012344302609562874,0.2795685827732086,-0.17248710989952087,0.1508447825908661,0.42616719007492065,-0.007542905863374472,-0.07394642382860184,-1.0804376602172852,0.570798933506012,0.3132634162902832,0.06899826228618622,-0.3989339768886566,0.4784618616104126,0.5849820971488953,-0.2963919937610626,0.07189840823411942,-0.38668516278266907,-0.19332019984722137,-0.30225521326065063,-0.133249893784523,-0.3605206310749054,0.5853840708732605,-0.17518138885498047,0.5528026223182678,1.2536921501159668,-0.18222542107105255,0.0351036861538887,0.07504983246326447,-0.2411961853504181,-0.04695513844490051,0.5643808245658875,0.6406167149543762,0.28942179679870605,0.19299252331256866,0.2223222553730011,0.4717101752758026,-0.25658130645751953,0.27900657057762146,0.5311452150344849,0.03193356841802597,0.0019568076822906733,0.10367899388074875,-0.0296299047768116,0.822148859500885,0.3565751314163208,-0.6747696995735168,-0.00038073104224167764,-0.29867395758628845,-0.7780910730361938,-0.9505617022514343,0.04445458576083183,0.2541983425617218,0.032272398471832275,-0.4861249625682831,0.3622053265571594,-0.21708445250988007,-0.07656335830688477,0.18298661708831787,1.2970455884933472,0.04044226184487343,0.8082531094551086,0.9790297150611877,0.17688311636447906,0.5836915969848633,0.9624399542808533,-0.938615620136261,-0.12581056356430054,1.0431249141693115,-0.6610071659088135,0.469276487827301,0.8182080984115601,-0.8807235360145569,-1.0790623426437378,-0.15816634893417358,0.10175447911024094,-0.2879859507083893,-0.6004270911216736,-0.22029846906661987,0.28519564867019653,0.41791170835494995,-0.2815376818180084,-0.5251630544662476,-0.2939644157886505,0.01286463625729084,-0.013006242923438549,-0.08242032676935196,-1.0047916173934937,-0.312953382730484,0.18030387163162231,0.9708932638168335,-0.46649229526519775,-0.8484789133071899,-0.023687725886702538,-0.405784010887146,0.31691718101501465,-0.050584327429533005,0.5252040028572083
主体,0.06559405475854874,0.013412912376224995,0.007559125777333975,0.03665029630064964,0.029512597247958183,0.004535040818154812,-0.017767859622836113,-0.027687737718224525,-0.0867234468460083,0.02769094705581665,-0.026923947036266327,0.024246269837021828,0.05380786955356598,-0.03961934521794319,0.005221642088145018,-0.023305926471948624,-0.016378985717892647,0.033697862178087234,-0.008441947400569916,0.006173886824399233,-0.0033689483534544706,0.011468364857137203,0.015108227729797363,0.04458482936024666,-0.05629894882440567,0.04519781097769737,0.04701804369688034,0.037473615258932114,-0.03516250103712082,0.04987061023712158,-0.07538636028766632,0.0026085833087563515,-0.029415743425488472,0.01934194006025791,0.04377691447734833,0.018620269373059273,-0.032347988337278366,-0.04893246293067932,0.020308230072259903,0.05921061336994171,0.03578110784292221,0.025353441014885902,-0.03784210979938507,-0.02032708004117012,0.025996822863817215,0.012996600940823555,-0.055568549782037735,-0.025272823870182037,0.04626297578215599,0.022225849330425262,-0.023776985704898834,-0.031453415751457214,-0.07191202044487,0.011985361576080322,-0.032719146460294724,-0.027046944946050644,0.05971399322152138,0.04508541151881218,0.011284560896456242,-0.018587790429592133,0.05043088272213936,0.03469351306557655,-0.041704460978507996,0.01854023151099682,-0.03318903222680092,-0.023705564439296722,0.05130141228437424,0.020580310374498367,0.03225411847233772,-0.08848658949136734,0.0028161590453237295,-0.012358874082565308,0.011721123941242695,-0.08013789355754852,-0.013970852829515934,0.001668155426159501,0.048679519444704056,-0.005375210661441088,0.09473046660423279,0.0313606858253479,0.013909198343753815,0.008459966629743576,0.04212440177798271,-0.06277129799127579,0.021948134526610374,0.04974585399031639,-0.04279989376664162,-0.0050522214733064175,-0.037198755890131,-0.021249784156680107,-0.026853352785110474,0.06343576312065125,0.03648810833692551,-0.02179650217294693,-0.0016466914676129818,0.014409157447516918,-0.040309008210897446,0.049001503735780716,0.020160173997282982,-0.026620522141456604,0.016545217484235764,-0.01540818065404892,-0.03521651774644852,0.030286207795143127,0.0028734493535012007,-0.09215113520622253,-0.008414222858846188,-0.054796598851680756,0.027641961351037025,-0.02559199184179306,-0.08317600935697556,-0.0018133596749976277,0.013456720858812332,-0.00464938348159194,0.01736241765320301,-0.012516473419964314,0.007128377910703421,-0.0402984693646431,0.02573118731379509,-0.01596548967063427,-0.006921478547155857,-0.03875105082988739,-0.006244834046810865,-0.009725766256451607,0.03267907351255417,0.007281857542693615,0.06473411619663239,-0.009813263081014156,0.005031399428844452,-0.03932075574994087,0.04724206030368805,0.028945615515112877,-0.004234351683408022,0.015933960676193237,-0.06587496399879456,-0.010503973811864853,0.014336694031953812,-0.010016566142439842,0.027445847168564796,-0.0170483086258173,-0.03492189198732376,-0.004376535769551992,0.010269188322126865,0.06028624251484871,-0.05446838214993477,-0.038016606122255325,0.024477649480104446,-0.032925084233284,-0.012447766028344631,-0.011928609572350979,-0.05390188843011856,-0.04053611680865288,0.013403217308223248,-0.06873450428247452,-0.017198262736201286,0.03664056211709976,-0.030135834589600563,-0.03949367254972458,-0.012962773442268372,-0.027937401086091995,-0.0269162617623806,-0.030092906206846237,0.0014516472583636642,0.05699661374092102,-0.007332626264542341,-0.013299776241183281,-0.05349540337920189,0.040343161672353745,0.05227833613753319,-0.009329808875918388,-0.03035927005112171,0.019907593727111816,0.06222858279943466,-0.0006486214697360992,0.010486224666237831,-0.0046625989489257336,-0.0025017729494720697,-0.034838367253541946,-0.027553075924515724,-0.005758947692811489,0.061949171125888824,-0.02761475183069706,-0.008941282518208027,0.03315892815589905,-0.040535055100917816,-0.047215718775987625,0.04537167027592659,0.052760183811187744,0.05878822132945061,0.05395038053393364,0.03863023594021797,0.05611490085721016,0.008931799791753292,-0.000901849300134927,-0.01893162727355957,0.008642868138849735,0.002592431614175439,0.04322666674852371,-0.011592863127589226,-0.013952159322798252,0.018037086352705956,0.04186950996518135,0.09908086806535721,-0.01720033958554268,-0.04186535254120827,0.043836504220962524,-0.015129713341593742,-0.03895651176571846,-0.06040862202644348,0.0024567509535700083,-0.021944422274827957,0.057673245668411255,-0.02258668839931488,0.06190362200140953,0.010500289499759674,-0.010478387586772442,0.005964502226561308,0.06276489049196243,0.030276337638497353,0.05042749643325806,0.08014737814664841,0.019579553976655006,0.007261660881340504,0.05497286468744278,-0.05744162201881409,-0.006741772405803204,0.024855995550751686,-0.025526275858283043,0.033145274966955185,0.027478886768221855,-0.03389928117394447,-0.05088179185986519,0.05447334796190262,-0.013903613202273846,-0.026430780068039894,-0.04823250696063042,0.012225877493619919,0.03322199732065201,0.038697827607393265,-0.04074827581644058,-0.023169303312897682,-0.03194763511419296,-0.010368645191192627,-0.008615938946604729,0.007288109045475721,-0.08086829632520676,-0.034341055899858475,-0.030316464602947235,0.06260676681995392,0.012157965451478958,-0.09560079872608185,0.039283256977796555,-0.027494603767991066,0.02538357302546501,0.03870087116956711,-0.004943620413541794
分隔,0.018612777814269066,0.008181234821677208,0.001048570149578154,0.019256893545389175,0.02817721478641033,-0.0028606606647372246,0.007796791847795248,-0.01487541850656271,-0.04027260094881058,0.0267654899507761,0.02216765470802784,0.0001827819214668125,0.0043848007917404175,-0.05498495697975159,-0.04452229291200638,-0.010576033964753151,0.026420464739203453,0.012920664623379707,0.02369551919400692,0.05001159384846687,-0.04019066318869591,0.02444063313305378,-0.01918635703623295,0.00390969542786479,-0.07001695036888123,0.005317376926541328,-0.02466079220175743,0.016948431730270386,-0.06667857617139816,0.004672480281442404,-0.030473101884126663,-0.02676260657608509,-0.04113617166876793,0.004900738596916199,0.06756866723299026,0.02693951316177845,0.0181244146078825,-0.009357163682579994,0.058706074953079224,-0.005436784587800503,0.01592584326863289,0.0231582410633564,-0.013581430539488792,-0.051861733198165894,0.05212034657597542,-0.02906952239573002,-0.030662966892123222,0.010673530399799347,0.025150390341877937,0.05016234889626503,-0.019713742658495903,0.0014787066029384732,0.0024884974118322134,-0.01223794650286436,-0.00963883101940155,-0.05129399523139,0.042806293815374374,0.002436224836856127,0.002836958272382617,0.007952365092933178,0.002500136150047183,0.0002098766854032874,-0.01803009770810604,0.0041713411919772625,0.002932731993496418,-0.005373677704483271,0.05545796453952789,0.039960384368896484,-0.007396065164357424,-0.039640169590711594,-0.0017289804527536035,-0.029347142204642296,0.015340804122388363,-0.057847410440444946,-0.052053485065698624,4.0202321542892605e-06,0.027083413675427437,-0.024021564051508904,0.044401515275239944,0.07586079090833664,0.021179886534810066,0.0022521456703543663,0.024962354451417923,0.02104649506509304,0.019739771261811256,0.031098755076527596,0.03245287016034126,0.00809728167951107,0.00930167268961668,0.008801224641501904,-0.0009770848555490375,0.046337541192770004,0.016976896673440933,0.006291433237493038,-0.016238432377576828,-0.0022492280695587397,-0.05134756118059158,-0.005315613467246294,0.031040923669934273,-0.02004144713282585,-0.002870238618925214,-0.011365510523319244,-0.0673554390668869,0.06345635652542114,0.027355296537280083,-0.047726333141326904,0.0032329715322703123,-0.04354027658700943,0.019670749083161354,-0.052137523889541626,-0.039025697857141495,-0.005173071753233671,0.01112780999392271,-0.018111854791641235,-0.00873423833400011,-0.06810582429170609,0.02129833586513996,-0.016848783940076828,0.0018196803284808993,0.0026739691384136677,-0.0380987673997879,-0.005797529127448797,0.0008183990721590817,-0.058337047696113586,0.03473406657576561,0.006734711118042469,0.07097949832677841,0.0022961667273193598,0.045175932347774506,-0.03347909078001976,0.0461164228618145,-0.011927859857678413,-0.011189260520040989,0.014913324266672134,-0.07639990746974945,0.006612139753997326,0.014325364492833614,0.009834818542003632,0.013364880345761776,0.0012921987799927592,-0.020666228607296944,0.026760101318359375,0.012815972790122032,0.06580916792154312,-0.06517724692821503,0.031137097626924515,-0.019733594730496407,0.009576846845448017,0.021025722846388817,-0.0026952875778079033,-0.017954329028725624,-0.031348250806331635,0.0242573544383049,-0.007840762846171856,-0.03258444368839264,0.02237836830317974,0.02642461284995079,-0.012816468253731728,-0.02281237207353115,-0.006020285189151764,-0.011032575741410255,-0.01431822869926691,-0.0036202932242304087,0.018863070756196976,0.012361816130578518,0.03159622848033905,-0.07791108638048172,0.024226685985922813,0.029606273397803307,0.009834970347583294,-0.003358993213623762,0.044290006160736084,0.02841675654053688,-0.016251113265752792,0.0074907164089381695,-0.030957994982600212,-0.02129511348903179,-0.011767040938138962,-0.0062065632082521915,-0.03788790851831436,0.06024079769849777,-0.0034899194724857807,0.032109808176755905,0.07592755556106567,0.01690606027841568,0.0012985377106815577,-0.0037510257679969072,-0.0028448060620576143,-0.01740524359047413,0.008756372146308422,0.02427445352077484,-0.0034032503608614206,0.0016840704483911395,0.028850767761468887,0.03871671110391617,-0.005478955339640379,-0.016091736033558846,0.04985407367348671,-0.003798660123720765,0.0066515058279037476,0.003522054525092244,0.02466743253171444,0.046744026243686676,0.002026010537520051,-0.009296553209424019,-0.015663210302591324,-0.022382425144314766,-0.0413614846765995,-0.04914836585521698,-0.010517826303839684,-0.009942831471562386,0.0020217453129589558,-0.006866443902254105,0.014566575177013874,-0.0025236227083951235,-0.032168831676244736,0.0014506552834063768,0.07238771766424179,-0.019125405699014664,0.05099214240908623,0.04126185551285744,-0.008751779794692993,0.034719593822956085,0.030878709629178047,-0.024724265560507774,0.015483693219721317,0.04990537092089653,-0.03402407839894295,0.007656305097043514,0.03577001765370369,-0.018181655555963516,-0.06273197382688522,0.003725428832694888,-0.015573672950267792,-0.002630203031003475,-0.04268035665154457,-0.05288077890872955,-0.001173403230495751,0.024381283670663834,-0.014562204480171204,-0.0298894252628088,-0.005262132268399,0.0398569293320179,0.011702860705554485,-0.01291507575660944,-0.05027436837553978,-0.006357586942613125,0.018005196005105972,0.04581041261553764,-0.009329487569630146,-0.05922567471861839,-0.029446015134453773,0.007833585143089294,0.024603430181741714,-0.01737298257648945,0.015584389679133892
设置,0.1520405113697052,0.0551828034222126,0.051484253257513046,0.11604191362857819,0.17689427733421326,-0.13028022646903992,-0.021465640515089035,-0.21513935923576355,-0.3022242486476898,0.13860322535037994,0.04764959216117859,0.0783916786313057,0.07614763081073761,-0.2277151495218277,0.0700288638472557,-0.08823982626199722,0.08977676928043365,0.02854348160326481,-0.032518792897462845,0.1780097335577011,-0.10691916942596436,0.04592711478471756,-0.035109374672174454,0.2965225577354431,-0.3436751961708069,0.01157818641513586,0.08894473314285278,0.09584314376115799,-0.25827330350875854,0.12911354005336761,-0.19637377560138702,-0.04282808676362038,-0.08594074845314026,0.008327025920152664,0.2005312293767929,0.16564226150512695,0.13755100965499878,-0.21844804286956787,0.1754179447889328,0.19663028419017792,0.0810476616024971,0.17329224944114685,-0.10114773362874985,-0.07663093507289886,0.24014076590538025,-0.053056105971336365,-0.268219918012619,-0.07927604019641876,0.21052299439907074,0.1762683391571045,-0.08814532309770584,-0.09926781058311462,-0.10531327873468399,-0.006670990027487278,-0.14208301901817322,-0.2478046715259552,0.2600231170654297,0.08627848327159882,0.08340920507907867,0.0006290141609497368,0.08242006599903107,0.08802128583192825,-0.10290758311748505,0.033448055386543274,-0.14786647260189056,-0.11882052570581436,0.22224485874176025,0.09321321547031403,0.09074708819389343,-0.2121603786945343,0.12566910684108734,-0.1337655633687973,0.1010216698050499,-0.2256646752357483,-0.18997928500175476,-0.18291348218917847,0.05326990783214569,-0.011018025688827038,0.23952604830265045,0.37537819147109985,0.07827755063772202,0.06156438961625099,0.14200451970100403,-0.0795615091919899,0.07685669511556625,0.12646159529685974,-0.03168885037302971,-0.04622576758265495,-0.048695631325244904,-0.026532338932156563,0.01263347826898098,0.17334677278995514,0.018507109954953194,-0.06405247002840042,0.028189918026328087,-0.03462803736329079,-0.18317463994026184,0.07880690693855286,0.11688121408224106,-0.17648367583751678,0.11843565106391907,-0.02575542964041233,-0.23382677137851715,0.10123542696237564,0.017291229218244553,-0.29967400431632996,0.09303265810012817,-0.2071916162967682,0.05825107544660568,-0.14589494466781616,-0.10744836926460266,0.10082274675369263,-0.05049460753798485,0.0640561655163765,0.06662693619728088,-0.22420737147331238,0.08445116132497787,-0.04864336922764778,0.12319305539131165,-0.0017054472118616104,-0.02322234772145748,-0.18287187814712524,-0.036881912499666214,-0.185115247964859,0.10246037691831589,-0.05978142097592354,0.16154949367046356,0.02389824576675892,0.0601099357008934,-0.0333125963807106,0.13135170936584473,-0.08990437537431717,0.0024099263828247786,0.059020958840847015,-0.3019177317619324,-0.09078305959701538,0.0770699679851532,0.024468477815389633,0.10413943231105804,-0.07335977256298065,-0.11851925402879715,-0.029507528990507126,-0.01798113062977791,0.20954540371894836,-0.28269994258880615,-0.05157275125384331,-0.022165469825267792,-0.0846925601363182,-0.00700506241992116,-0.06289099901914597,-0.15192623436450958,-0.06442003697156906,0.01094829011708498,-0.19112633168697357,-0.1462935507297516,0.00853465124964714,-0.012876744382083416,-0.08604158461093903,-0.022530941292643547,-0.12256111949682236,-0.23485936224460602,-0.08162419497966766,-0.12646892666816711,0.1989513784646988,-0.03744344413280487,0.06379926949739456,-0.3030317425727844,0.06589093804359436,0.2238161563873291,-0.009565806947648525,-0.12300631403923035,0.23688364028930664,0.14954933524131775,-0.11584792286157608,0.1286759227514267,-0.08035247772932053,-0.13488148152828217,-0.07734954357147217,-0.05862937122583389,-0.15876954793930054,0.18606647849082947,-0.046155139803886414,0.016648104414343834,0.11187093704938889,-0.04215952381491661,-0.15668706595897675,0.0781019851565361,0.13296253979206085,0.07740315794944763,0.21493259072303772,0.042301177978515625,0.15473949909210205,0.10173827409744263,0.1320052593946457,0.08907225728034973,0.08634127676486969,0.006965379696339369,0.15157075226306915,-0.05203872174024582,0.1185285821557045,0.1327667385339737,0.10301117599010468,0.26836562156677246,0.015150877647101879,-0.03438328206539154,0.06794396787881851,-0.06359556317329407,-0.1628514975309372,-0.29320603609085083,-0.09724261611700058,-0.13335438072681427,0.0717010423541069,-0.047472529113292694,0.17198976874351501,0.07613345980644226,-0.039776526391506195,-0.03717413917183876,0.3146997392177582,-0.062419064342975616,0.2546828091144562,0.15972696244716644,-0.0001943783281603828,0.06922145932912827,0.15939773619174957,-0.2919129729270935,-0.041039105504751205,0.19582974910736084,-0.025423524901270866,0.08311586827039719,0.21648383140563965,-0.1524074822664261,-0.245121031999588,0.12768757343292236,-0.04109037294983864,-0.07486894726753235,-0.23871932923793793,-0.12888240814208984,0.12556691467761993,0.0996190756559372,-0.07361956685781479,-0.1340382695198059,0.02254919335246086,0.09033612161874771,0.018647268414497375,-0.042258039116859436,-0.2897091507911682,0.04534989222884178,-0.04554379731416702,0.12884025275707245,-0.019163208082318306,-0.3169647753238678,0.054214294999837875,0.02573712356388569,0.15228858590126038,0.0007311995141208172,0.226664200425148
膨胀,0.05936732888221741,0.0349898524582386,0.003764587687328458,0.009947188198566437,0.03148661553859711,-0.022453440353274345,-0.010258273221552372,-0.032978057861328125,-0.06413602083921432,0.030251238495111465,-0.036432504653930664,0.009545776061713696,0.05274595692753792,-0.024959566071629524,0.031793300062417984,-0.025172756984829903,-0.018590601161122322,0.008082752116024494,-0.007687986362725496,0.019990824162960052,-0.016083654016256332,-0.012185130268335342,-0.0034926515072584152,0.06978227943181992,-0.061481889337301254,0.018742820248007774,0.045907940715551376,0.03253263235092163,-0.030752846971154213,0.06287313997745514,-0.05456637963652611,-0.00754201365634799,-0.018292300403118134,0.0058916062116622925,0.020802563056349754,0.03072306700050831,-0.02058015763759613,-0.04109775647521019,0.019091326743364334,0.04816080629825592,0.03073822893202305,0.05039023235440254,-0.0334559790790081,-0.0071547264233231544,0.014987590722739697,0.014900179579854012,-0.05666174367070198,-0.01974702626466751,0.053484655916690826,0.004746324848383665,-0.014995889738202095,-0.049850255250930786,-0.06333271414041519,0.02238129824399948,-0.024958383291959763,-0.025435125455260277,0.04084921255707741,0.05150715261697769,0.027712799608707428,-0.006951659917831421,0.03933383896946907,0.022260233759880066,-0.043221794068813324,0.0011324331862851977,-0.02212277427315712,-0.034643542021512985,0.03733593970537186,-0.0013684978475794196,0.03655093535780907,-0.08587837964296341,0.017830301076173782,-0.0007347583305090666,0.004233348648995161,-0.06066915765404701,-0.013178084045648575,-0.028058234602212906,0.03029230795800686,0.024163635447621346,0.05427513271570206,0.037118613719940186,0.007416828069835901,0.013129953294992447,0.039476264268159866,-0.050239596515893936,0.03650178015232086,0.02182934805750847,-0.04252670705318451,-0.011276904493570328,-0.030727403238415718,-0.013911228626966476,-0.008350801654160023,0.053141020238399506,-0.019708769395947456,-0.0035140097606927156,0.007799496408551931,-0.008407112210988998,-0.03810741379857063,0.029436932876706123,0.03697904944419861,-0.021517042070627213,0.029846863821148872,0.005321236327290535,-0.03205114230513573,0.010143843479454517,-0.017680449411273003,-0.07675183564424515,0.0021102780010551214,-0.049629174172878265,0.020894696936011314,-0.02382030338048935,-0.04700349271297455,0.01442002598196268,-0.021451199427247047,0.012685898691415787,0.01927308924496174,-0.004576275125145912,-0.015278870239853859,-0.03303181380033493,0.04586848244071007,0.009447087533771992,-0.011084466241300106,-0.022884313017129898,-0.0027506945189088583,-0.0021724628750234842,0.03221758082509041,-0.03790789470076561,0.02304820902645588,-0.024332914501428604,0.0015698071802034974,-0.025459278374910355,0.02914164587855339,0.003997534513473511,0.0014443898107856512,0.008934254758059978,-0.0444146990776062,-0.024205252528190613,0.03257177397608757,0.0034342920407652855,0.013622854836285114,-0.023687290027737617,-0.02573544904589653,-0.010600810870528221,0.016993680968880653,0.03147587925195694,-0.05175540968775749,-0.04917478561401367,0.011588966473937035,-0.023084014654159546,-0.022331928834319115,-0.0001745233021210879,-0.04722573980689049,-0.009180238470435143,0.0017860695952549577,-0.05957816168665886,-0.006185255479067564,0.014899048022925854,-0.026945050805807114,-0.02477666549384594,-0.009573805145919323,-0.026656536385416985,-0.03897986561059952,-0.039787180721759796,-0.03253326937556267,0.04486260935664177,-0.00038222226430661976,-0.007075909525156021,-0.042311906814575195,0.020666811615228653,0.038823485374450684,0.00012215549941174686,-0.03893052041530609,0.03727580979466438,0.0444820336997509,-0.00925388466566801,0.023999705910682678,0.0027225224766880274,-0.003193383105099201,-0.021123507991433144,-0.033576346933841705,-0.017576348036527634,0.0452582910656929,-0.032028403133153915,-0.02278316207230091,0.01170326117426157,-0.03816001117229462,-0.06674601137638092,0.033252183347940445,0.06262532621622086,0.04784730449318886,0.03791709244251251,0.0004031496064271778,0.057342980057001114,0.015528951771557331,0.012780324555933475,-0.036613915115594864,0.016312800347805023,-0.009144632145762444,0.0379461832344532,-0.006926186848431826,0.0205876175314188,0.03155936673283577,0.04969464987516403,0.09145133197307587,-0.01906714029610157,-0.025594880804419518,0.03438365459442139,0.000402080244384706,-0.010150055401027203,-0.050346218049526215,-0.023742303252220154,-0.050402261316776276,0.028466183692216873,-0.030814094468951225,0.03726056590676308,0.02465093322098255,-0.004289005417376757,0.005278745200484991,0.062080018222332,0.008263370022177696,0.04319164529442787,0.046708304435014725,0.012867084704339504,-0.0019501150818541646,0.036815185099840164,-0.07296649366617203,-0.018851440399885178,0.015662606805562973,0.01600591465830803,0.009800908155739307,0.032228849828243256,-0.03583536669611931,-0.043538495898246765,0.030548615381121635,-0.008479121141135693,-0.01716676913201809,-0.05116354301571846,-0.0024714607279747725,0.03896898776292801,0.030602775514125824,-0.027039669454097748,-0.01156328059732914,-0.012657874263823032,-0.0038620480336248875,-0.017558738589286804,0.0016662082634866238,-0.0563042052090168,-0.00913698785007,-0.02551146037876606,0.02186954952776432,0.00835026428103447,-0.0812479555606842,0.049404077231884,-0.00211400561966002,0.012460916303098202,0.029444796964526176,0.01766343042254448
结构,-0.049455203115940094,0.21153710782527924,0.47494807839393616,0.4106289744377136,0.5225257873535156,-0.1342681497335434,-0.2470453977584839,-0.3012099862098694,-0.5112128853797913,0.17669939994812012,0.3242346942424774,0.3561987280845642,0.05064531788229942,-0.7762330770492554,-0.28688764572143555,-0.10606618970632553,0.5855873823165894,0.5132768750190735,-0.2771940529346466,0.9501845836639404,-0.49695971608161926,0.05864967405796051,-0.3577422797679901,0.13489793241024017,-1.040933609008789,-0.15139999985694885,-0.11089619994163513,0.04733569175004959,-0.6485999226570129,0.4307895600795746,-0.27364274859428406,0.13224364817142487,-0.9290570616722107,-0.049956921488046646,0.9191561341285706,0.6182186603546143,0.22592037916183472,-0.3152230381965637,0.4690462350845337,0.4136974513530731,0.08398962765932083,0.3641715347766876,-0.19879554212093353,-0.3859975337982178,0.5948272943496704,-0.04387325793504715,-0.5220986604690552,-0.11893438547849655,0.20356647670269012,0.6326168179512024,-0.13631358742713928,-0.23231817781925201,0.08473939448595047,-0.6466167569160461,-0.2789231538772583,-0.40110018849372864,0.5455018877983093,0.26440292596817017,0.2968071401119232,-0.09629779309034348,0.043546322733163834,0.1742931604385376,0.15527400374412537,0.1086094081401825,-0.5035465955734253,0.15795646607875824,0.37234964966773987,0.2940097451210022,0.17821384966373444,-0.5349881649017334,0.07960962504148483,-0.3425798714160919,0.07837779819965363,-0.6510375738143921,-0.13920362293720245,-0.3720751106739044,0.4123172461986542,0.040121134370565414,0.5066313743591309,1.132962942123413,0.5168213248252869,-0.04405732452869415,0.5022789239883423,0.004141516983509064,0.24801011383533478,0.6105207800865173,-0.04713129624724388,0.19897128641605377,0.10745848715305328,-0.0954945906996727,0.06536805629730225,0.5454229712486267,0.24453498423099518,0.042522504925727844,-0.12409123033285141,0.20213545858860016,-0.5933082103729248,0.18332143127918243,0.1841987520456314,-0.7965535521507263,-0.07280782610177994,-0.705825686454773,-0.46804988384246826,0.786737859249115,0.3397766351699829,-0.6384167671203613,0.24026049673557281,-0.3998197317123413,0.33231672644615173,-0.29018232226371765,-0.1852373331785202,0.34406283497810364,0.3901746869087219,0.19199822843074799,-0.2702212333679199,-0.9127529859542847,0.3416518568992615,0.08504229038953781,0.2772747576236725,0.0754302367568016,-0.17114195227622986,-0.3402766287326813,-0.019645581021904945,-0.2288035750389099,0.13713338971138,0.34011372923851013,0.7062402367591858,0.18197853863239288,0.7657871246337891,-0.2106524109840393,0.5778094530105591,-0.5154815912246704,-0.08709550648927689,0.032924387603998184,-0.9342864155769348,-0.22627480328083038,0.12202885746955872,-0.14840570092201233,0.05471094697713852,-0.35477763414382935,-0.48586738109588623,0.1531803011894226,0.06031329929828644,0.587064802646637,-0.8536975979804993,-0.13632427155971527,0.07165589183568954,-0.07307826727628708,0.04520982503890991,-0.21383081376552582,-0.8108319044113159,-0.0877392515540123,0.03974778205156326,-0.22296269237995148,-0.5141600966453552,-0.20596148073673248,0.018260853365063667,-0.12879955768585205,0.025083309039473534,-0.24364446103572845,0.14862950146198273,-0.006201475393027067,-0.16726849973201752,0.30705955624580383,0.12595827877521515,0.04349566251039505,-0.9599646925926208,0.13095301389694214,0.06124182045459747,0.22758197784423828,-0.1617211252450943,0.5802913308143616,0.25987815856933594,-0.44765281677246094,0.0426069013774395,-0.3712717592716217,-0.11292438209056854,-0.23890380561351776,0.16128313541412354,-0.6706063151359558,0.36715421080589294,-0.35929450392723083,0.4494335949420929,0.9702647924423218,0.2354760766029358,-0.2029482126235962,-0.19652916491031647,-0.2670632004737854,0.04912218078970909,0.4545917212963104,0.05905545875430107,0.09565598517656326,0.5389604568481445,0.2911865711212158,0.346023291349411,-0.06449282169342041,0.13313624262809753,0.20067466795444489,-0.1217118501663208,0.4066563546657562,0.0698760375380516,0.238961324095726,0.4696790874004364,0.06414426118135452,-0.3235236406326294,0.08353924751281738,-0.27634671330451965,-0.427863746881485,-0.7926897406578064,-0.1808607280254364,0.13777144253253937,-0.2360549122095108,-0.4827812612056732,0.09195077419281006,0.19179701805114746,0.1609850376844406,0.19338403642177582,1.1424381732940674,-0.18843863904476166,0.7023336887359619,0.20003154873847961,-0.10016744583845139,0.4317101538181305,0.7030749917030334,-1.0279134511947632,-0.03900432959198952,0.814695417881012,-0.17414721846580505,0.30941587686538696,0.8500986695289612,-0.7017703652381897,-0.8918903470039368,-0.4084564447402954,-0.11367808282375336,-0.28415024280548096,-0.4071851074695587,-0.5365288853645325,0.36472395062446594,0.5823484063148499,0.003434997284784913,-0.5572750568389893,0.10187393426895142,0.04902318865060806,-0.22681120038032532,-0.2322877198457718,-0.7279338836669922,0.04555756598711014,0.1064903512597084,0.5746118426322937,-0.43745186924934387,-0.7084598541259766,0.07101155817508698,0.10290589928627014,0.4571031928062439,-0.14773322641849518,0.8346545100212097
相交,0.06820393353700638,0.01874691992998123,0.009410310536623001,-0.028361322358250618,0.0726393610239029,-0.04515087604522705,-0.010044841095805168,-0.024930458515882492,-0.09306752681732178,0.03314179554581642,-0.03125426545739174,-0.0006057339487597346,0.04532114788889885,-0.015196680091321468,0.06751751899719238,-0.031216593459248543,-0.008174684830009937,0.008534605614840984,-0.009507477283477783,0.04110284894704819,-0.013132763095200062,-0.03885216638445854,5.332050932338461e-05,0.1265556961297989,-0.10883250087499619,0.01649429090321064,0.06697657704353333,0.029359446838498116,-0.044289782643318176,0.08088880032300949,-0.0821298360824585,-0.007062186952680349,-0.00906843226402998,0.014025546610355377,0.011491558514535427,0.05510536581277847,0.0013002543710172176,-0.03492804244160652,0.018872762098908424,0.04914476349949837,0.03555256500840187,0.05423619970679283,-0.020923033356666565,0.02553461119532585,0.028143038973212242,-0.013557398691773415,-0.02851947210729122,-0.029512787237763405,0.04221629723906517,-0.00043633708264678717,-0.006917429622262716,-0.07949256151914597,-0.046347182244062424,0.06692595779895782,-0.03080463781952858,-0.0661584734916687,0.06604991108179092,0.06995135545730591,0.05360289290547371,0.0021448652260005474,0.04503432288765907,0.030820675194263458,-0.061451129615306854,-0.040466729551553726,-0.0030456625390797853,-0.044314268976449966,0.019198456779122353,-0.01777167059481144,0.029575126245617867,-0.11002170294523239,0.079694002866745,-0.025889182463288307,0.010422536171972752,-0.09916011989116669,-0.03354218974709511,-0.04163002967834473,0.004401330836117268,0.04286711663007736,0.04608755186200142,0.08298974484205246,-0.039411839097738266,-0.029114054515957832,0.03588609769940376,-0.03605375438928604,0.010230938903987408,0.0014343815855681896,-0.04210859537124634,-0.03472964093089104,-0.0101432204246521,-0.024520576000213623,-0.0030133032705634832,0.020835641771554947,-0.04490284249186516,-0.02627178654074669,0.03994803503155708,-0.022828321903944016,-0.024511126801371574,0.03803189843893051,0.05772492289543152,-0.02242022007703781,0.029093602672219276,0.031101146712899208,-0.08248245716094971,0.004963594954460859,-0.020198652520775795,-0.08594761788845062,0.016766507178544998,-0.07017069309949875,0.012276341207325459,-0.04815465584397316,-0.04965418949723244,0.013008696027100086,-0.007465318311005831,0.0014749974943697453,0.05320782959461212,0.0027555348351597786,-0.0036037745885550976,-0.027986008673906326,0.09536851197481155,0.0016108722193166614,-0.017834967002272606,-0.05008788779377937,-0.02913009189069271,0.009569062851369381,-0.0081627257168293,-0.06528268754482269,0.02184823900461197,-0.016005296260118484,0.0031254540663212538,-0.010937908664345741,0.061781056225299835,-0.02502782829105854,0.002364401239901781,-0.005751322489231825,-0.05076949670910835,-0.013508228585124016,0.00674049649387598,0.01445377804338932,0.004467031918466091,-0.027349162846803665,-0.05598839744925499,-0.04036608710885048,0.04010789096355438,0.04155958443880081,-0.06722956150770187,-0.06944309920072556,0.015045225620269775,-0.002388331340625882,-0.015635237097740173,0.006304388865828514,-0.039592862129211426,-0.01587679795920849,-0.01312640868127346,-0.08917485922574997,-0.013918311335146427,0.04771427437663078,-0.014276241883635521,-0.07192050665616989,-0.00669076107442379,-0.01515303272753954,-0.07823657244443893,-0.018081936985254288,-0.05292719230055809,0.06883735954761505,-0.0048562949523329735,0.00673002190887928,-0.08240582048892975,0.042985107749700546,0.046554241329431534,0.020537976175546646,-0.06642793864011765,0.04899507761001587,0.06390845030546188,-0.01753903180360794,0.053924284875392914,-0.002850873861461878,-0.0074045853689312935,-0.023526495322585106,-0.008488570339977741,-0.020485831424593925,0.06437772512435913,-0.026758896186947823,-0.028290921822190285,0.01865006797015667,-0.030376112088561058,-0.06510787457227707,0.06971138715744019,0.07477718591690063,0.04432045668363571,0.030378803610801697,0.00895150750875473,0.09117072075605392,0.016543349251151085,0.0331488698720932,-0.017594771459698677,0.02866382524371147,-0.03499249368906021,0.012059006839990616,-0.016512343659996986,0.030886366963386536,0.04867830500006676,0.036115776747465134,0.10121701657772064,-0.03225012496113777,-0.020096752792596817,0.03254741430282593,0.023556344211101532,-0.026544518768787384,-0.06597233563661575,-0.04158578813076019,-0.06690215319395065,0.03919590264558792,-0.02131551131606102,0.029709385707974434,0.01547771506011486,-0.0009818668477237225,0.01990465074777603,0.041278790682554245,-0.029994064942002296,0.014181513339281082,0.06682099401950836,0.011928162537515163,-0.027586795389652252,0.051642391830682755,-0.06680499762296677,-0.0337166003882885,0.009912010282278061,0.032850269228219986,-0.02370201237499714,0.01366952434182167,-0.03312762826681137,-0.020090771839022636,0.07425270229578018,-0.012539367191493511,-0.033592645078897476,-0.07114749401807785,-0.01409208495169878,0.029711369425058365,0.01009178813546896,-0.022828787565231323,-0.0295085571706295,-0.021053722128272057,0.01625296287238598,-0.005175115540623665,0.041807763278484344,-0.07065561413764954,-0.00335867702960968,-0.005644204560667276,-0.015299669466912746,-0.0011296472512185574,-0.11180644482374191,0.04688990116119385,0.004518080037087202,0.021444261074066162,0.04138365760445595,0.042040761560201645
具有,0.22538524866104126,0.17229938507080078,0.15562570095062256,0.18745960295200348,0.32698237895965576,-0.23284636437892914,-0.09839512407779694,-0.2524012625217438,-0.5060232877731323,0.24997073411941528,0.017099592834711075,0.13990330696105957,0.13482330739498138,-0.38536980748176575,0.03258727490901947,-0.14182783663272858,0.22336293756961823,0.21430011093616486,-0.10609003156423569,0.4492090046405792,-0.19216227531433105,0.05641794204711914,-0.14785298705101013,0.48875609040260315,-0.6538648009300232,-0.05634632706642151,0.11537008732557297,0.18579864501953125,-0.4480021297931671,0.30185940861701965,-0.3372410833835602,0.004097938537597656,-0.29470235109329224,-0.012089627794921398,0.45267635583877563,0.38703128695487976,0.12584902346134186,-0.3336913585662842,0.3166482448577881,0.34320855140686035,0.11960669606924057,0.3165110945701599,-0.17878389358520508,-0.24192705750465393,0.37932074069976807,-0.017324460670351982,-0.42235660552978516,-0.12454584240913391,0.3491601049900055,0.3247973620891571,-0.18067963421344757,-0.22389733791351318,-0.14271749556064606,-0.19353488087654114,-0.2355186641216278,-0.42755380272865295,0.45805302262306213,0.1738395392894745,0.23783043026924133,-0.056809425354003906,0.1709565818309784,0.16184985637664795,-0.15175680816173553,-0.02905770018696785,-0.26648327708244324,-0.12858787178993225,0.33417704701423645,0.2066546231508255,0.1308346837759018,-0.481374055147171,0.16677530109882355,-0.1720014214515686,0.0950455442070961,-0.5035611987113953,-0.22996774315834045,-0.329293429851532,0.16418761014938354,0.04372970387339592,0.4106982350349426,0.6522638201713562,0.2635692059993744,0.011731951497495174,0.2772984206676483,-0.15208706259727478,0.26526930928230286,0.26249098777770996,-0.09896763414144516,0.0013101757504045963,-0.05984032154083252,-0.013399884104728699,0.024370327591896057,0.42378857731819153,0.02002515271306038,-0.011936594732105732,0.031174885109066963,0.01804841123521328,-0.3805673122406006,0.1470431089401245,0.2085816115140915,-0.3431738317012787,0.1375890076160431,-0.15332050621509552,-0.3523801267147064,0.26933494210243225,0.07506965100765228,-0.5747610330581665,0.11165783554315567,-0.3942646086215973,0.18713927268981934,-0.24682484567165375,-0.2104412466287613,0.16572324931621552,0.08607705682516098,0.08606601506471634,0.041976168751716614,-0.4253465533256531,0.040662981569767,-0.052892521023750305,0.1971805989742279,-0.04378192871809006,-0.12424919009208679,-0.29732465744018555,-0.04676547646522522,-0.28107208013534546,0.162177175283432,-0.10407795011997223,0.3774036467075348,0.04138665273785591,0.2501230537891388,-0.07470265030860901,0.3812636435031891,-0.2011638730764389,0.036730822175741196,0.054020170122385025,-0.5158984661102295,-0.14231248199939728,0.12758104503154755,0.020293163135647774,0.163512721657753,-0.15861175954341888,-0.26111412048339844,-0.02703162282705307,0.10199286043643951,0.3305650055408478,-0.5286701321601868,-0.16346779465675354,0.020564936101436615,-0.10826227813959122,-0.05794062837958336,-0.11712945997714996,-0.4963008165359497,-0.0868494063615799,0.019953519105911255,-0.30219730734825134,-0.2230091542005539,0.07461050152778625,-0.07793188095092773,-0.21191364526748657,0.016564078629016876,-0.20574018359184265,-0.3142947256565094,-0.08836213499307632,-0.26348933577537537,0.30254778265953064,0.011984609998762608,0.039371639490127563,-0.6046761870384216,0.13644564151763916,0.27786538004875183,0.04360334947705269,-0.23083099722862244,0.42916956543922424,0.29306408762931824,-0.19589796662330627,0.1413436233997345,-0.15568631887435913,-0.1758064180612564,-0.1319231390953064,-0.015020731836557388,-0.36613890528678894,0.3150123953819275,-0.1852206289768219,0.09656601399183273,0.3504309356212616,-0.04448871314525604,-0.2903960645198822,0.05420498549938202,0.20603010058403015,0.12848618626594543,0.34280267357826233,-0.008414090611040592,0.2862309515476227,0.25078538060188293,0.20447683334350586,0.09239767491817474,0.08897817879915237,0.018780404701828957,0.24715599417686462,-0.08957261592149734,0.20801201462745667,0.1569870114326477,0.1877819448709488,0.5482946634292603,-0.011787044815719128,-0.1478271782398224,0.05740510672330856,-0.13008908927440643,-0.2691330015659332,-0.6061072945594788,-0.17151980102062225,-0.18912599980831146,0.0476435050368309,-0.2205144315958023,0.23091596364974976,0.23577509820461273,-0.03064124658703804,0.027472568675875664,0.6954338550567627,-0.10109824687242508,0.46737754344940186,0.26761582493782043,0.07541611790657043,0.1819475144147873,0.4094940721988678,-0.6319732666015625,-0.14886929094791412,0.43044087290763855,0.00992703065276146,0.11781178414821625,0.44407716393470764,-0.3411930203437805,-0.541763424873352,0.027183063328266144,-0.08319664746522903,-0.1090506985783577,-0.4235159158706665,-0.2129649817943573,0.332025408744812,0.2556600272655487,-0.13066434860229492,-0.2074565291404724,-0.01302834041416645,0.07494989037513733,-0.06604937463998795,-0.08139486610889435,-0.4956743121147156,0.04072859138250351,-0.09528442472219467,0.2214183211326599,-0.13525806367397308,-0.585106611251831,0.12544742226600647,0.023132214322686195,0.20980116724967957,-0.0287636686116457,0.442841500043869
横向,0.01804635487496853,0.0002953052462544292,0.0209488682448864,0.022803187370300293,0.00872846320271492,-0.017089521512389183,-0.015736030414700508,-0.01689092069864273,-0.03240971639752388,0.015594718977808952,-0.010775906965136528,0.019709784537553787,0.015536369755864143,-0.009719891473650932,0.009407858364284039,0.005577110685408115,-0.0008847748395055532,0.017888030037283897,-0.003789655864238739,0.025502018630504608,-0.012655919417738914,0.012857296504080296,0.0018601433839648962,0.03544583171606064,-0.014028949663043022,-0.0003540122997947037,0.015412881039083004,0.0055292751640081406,-0.015629461035132408,0.024132588878273964,-0.01890052855014801,-0.013587763532996178,0.0012769221793860197,-0.0034542533103376627,0.018604401499032974,0.02428571879863739,0.010445905849337578,-0.021689359098672867,0.013262025080621243,0.031221071258187294,0.011990736238658428,0.009876057505607605,-0.001215197378769517,-0.017507480457425117,0.013434669002890587,0.009334169328212738,-0.0223922748118639,-0.017379963770508766,0.023195205256342888,0.0074013713747262955,-0.0051070344634354115,-0.010229438543319702,-0.01283189095556736,-0.022216975688934326,-0.02251041866838932,-0.01441399659961462,0.025730552151799202,0.020805656909942627,0.022779816761612892,-0.012074645608663559,-0.002337140729650855,0.025850431993603706,-0.005529507994651794,0.007891746237874031,-0.0210436824709177,-0.00923384353518486,0.02533048577606678,-0.002380720805376768,0.0040597799234092236,-0.021445926278829575,0.014661484397947788,0.0003509896050672978,0.0024523939937353134,-0.018037045374512672,-0.005283252336084843,-0.021632743999361992,0.004054259043186903,0.011644397862255573,0.028866130858659744,0.041956234723329544,0.020422883331775665,0.00732972240075469,0.009217803366482258,-0.016225231811404228,0.009484882466495037,0.02460741065442562,-0.02700820378959179,0.012386956252157688,-0.00376443681307137,0.009373018518090248,0.006466865073889494,0.037152670323848724,0.020140955224633217,-0.006207696162164211,0.013955929316580296,0.014853909611701965,-0.023198235780000687,0.010850944556295872,0.00667498167604208,-0.002299283631145954,0.019220247864723206,-0.010428220964968204,-0.004921521991491318,0.0156279094517231,-0.0020289903040975332,-0.039119478315114975,0.016458725556731224,-0.0020062087569385767,0.013735948130488396,0.006916010286659002,-0.005717350635677576,0.009678098373115063,-0.0013726959004998207,0.01996530406177044,0.005049131810665131,-0.028025375679135323,0.00324035482481122,-0.0013762485468760133,0.014879109337925911,-0.0019163669785484672,0.0019562435336411,-0.029039641842246056,-0.0007213593344204128,-0.006266499869525433,0.011328257620334625,-0.010766115970909595,0.009572898969054222,0.008645596913993359,0.00460916617885232,0.006973530165851116,0.024429650977253914,-0.012164540588855743,0.005446037743240595,-0.0036324909888207912,-0.03260466828942299,-0.00808712001889944,0.012379503808915615,0.00900985300540924,0.00946925301104784,-0.01218507345765829,-0.010714905336499214,-0.005917060654610395,-0.013319863937795162,0.03095640055835247,-0.03456719219684601,-0.005929216276854277,0.006444735452532768,-0.009488997049629688,-0.0022836546413600445,-0.005665743723511696,-0.025073610246181488,-0.005520004779100418,0.009474125690758228,-0.018753111362457275,-0.015661993995308876,-0.003986291121691465,-0.016602495685219765,-0.016195090487599373,0.012726455926895142,-0.033741649240255356,-0.010344384238123894,-0.002219890244305134,-0.02460029162466526,0.02976628951728344,-0.0059549943543970585,-0.02664625085890293,-0.047352831810712814,0.0024712884332984686,0.01865675300359726,-0.007321649696677923,-0.025996100157499313,0.020412079989910126,0.0027143703773617744,-0.008773664012551308,0.015798769891262054,-0.01801409386098385,-0.010592631064355373,-0.02586594969034195,0.008799292147159576,-0.011058078147470951,0.019283045083284378,-0.021943259984254837,-6.809412298025563e-05,-0.007068215869367123,-0.0038719046860933304,-0.014903672970831394,-0.0012408201582729816,0.0020952438935637474,0.010618510656058788,0.03035464510321617,0.014047796837985516,0.01189256738871336,0.03138183429837227,0.01490270160138607,-0.0032504568807780743,0.007382816635072231,0.0056218840181827545,0.023481957614421844,-0.005085377022624016,0.03439352661371231,0.008148095570504665,0.014687313698232174,0.016564350575208664,-0.0023477922659367323,-0.011598119512200356,0.003878941759467125,0.00024629541439935565,-0.002700518351048231,-0.04226190596818924,0.0024735168553888798,-0.013488071039319038,0.006237448658794165,-0.010174589231610298,0.02208353765308857,0.015509074553847313,-0.0010687430622056127,-0.0023370925337076187,0.039630990475416183,0.008354966528713703,0.02693583257496357,0.016753140836954117,-0.004794428590685129,-0.00029898699722252786,-0.0011000367812812328,-0.042734939604997635,-0.009654131717979908,0.034493133425712585,-0.0035626080352813005,0.010519327595829964,0.026046747341752052,-0.033438485115766525,-0.0310367438942194,-0.006024131551384926,-0.021125150844454765,-0.005118530709296465,-0.016759270802140236,-0.004871301352977753,0.00958000123500824,0.016703981906175613,-0.008966457098722458,-0.013651964254677296,0.0037795682437717915,-0.016589857637882233,-0.008634579367935658,0.0034828828647732735,-0.022746089845895767,-0.0003624506061896682,-0.008570102043449879,0.010896778665482998,0.0007230501505546272,-0.035354144871234894,0.018462367355823517,-0.0005640513263642788,-0.004901602398604155,0.003366301767528057,0.04020875692367554
部分,0.15644365549087524,0.6206849217414856,0.1594998985528946,0.33292627334594727,0.675206184387207,-0.48401013016700745,0.053136926144361496,-0.12654663622379303,-0.4435649514198303,0.4550369381904602,0.5211390256881714,-0.705369770526886,0.06107359752058983,-0.6803971529006958,-0.2054540067911148,-0.5187713503837585,0.47712522745132446,0.01926705241203308,0.17206840217113495,0.9368866086006165,-0.11112387478351593,0.054676081985235214,-0.39847514033317566,0.43076223134994507,-1.3198516368865967,-0.1527465134859085,-0.3245104253292084,0.568279504776001,-0.7188165783882141,0.18913644552230835,-0.4117959439754486,-0.07733470946550369,-0.8867340087890625,-0.03760518506169319,0.9310441613197327,0.3239527940750122,0.46247151494026184,-0.45976734161376953,0.7015526294708252,0.4060669243335724,-0.2692970633506775,0.3597892224788666,0.2222641259431839,-0.651836633682251,0.9930570721626282,-0.2553371489048004,-0.4989418089389801,0.13078494369983673,0.48760855197906494,0.6549299359321594,-0.241614431142807,0.10573635250329971,-0.031821757555007935,-0.16097867488861084,0.2283763587474823,-1.145649790763855,0.8615896105766296,-0.018809178844094276,-0.059025611728429794,0.026161883026361465,0.10014153271913528,-0.15346521139144897,-0.37470337748527527,-0.5766317248344421,0.013450122438371181,-0.10783958435058594,0.6404229402542114,0.6735048294067383,-0.1514805555343628,-0.3412068784236908,0.01639091968536377,-0.528583288192749,-0.013826347887516022,-0.7244316935539246,-0.679623544216156,-0.5913763046264648,0.35393044352531433,-0.42020323872566223,0.4016050100326538,0.9924252033233643,0.2986172139644623,0.04326575994491577,0.2879311740398407,-0.25702065229415894,0.7214102745056152,0.22856134176254272,0.5367233753204346,-0.07052024453878403,-0.03850075602531433,0.17353446781635284,0.09803994745016098,0.6665339469909668,-0.11070465296506882,0.03251412883400917,-0.1031116470694542,0.07692372053861618,-0.3881402909755707,-0.0460805781185627,0.1810160130262375,-0.6075495481491089,0.049426134675741196,-0.17812010645866394,-1.0131808519363403,0.43932947516441345,0.3786487281322479,-0.637231707572937,-0.2608530819416046,-0.8391777873039246,0.06376050412654877,-1.0162341594696045,-0.4132683575153351,0.30130478739738464,0.12056617438793182,-0.49622678756713867,0.43018394708633423,-0.7024285793304443,0.3460805118083954,0.15774327516555786,-0.3386118710041046,-0.28234800696372986,-0.13175737857818604,-0.13489775359630585,-0.19294703006744385,-0.7500980496406555,0.14758101105690002,-0.09641452133655548,0.9712008833885193,0.1940387338399887,0.7251484990119934,0.09003262221813202,0.5275346040725708,-0.503158450126648,-0.2534380257129669,0.35996147990226746,-0.7717736959457397,0.22099626064300537,0.07072669267654419,0.17705200612545013,0.21629050374031067,0.28030234575271606,-0.136775940656662,0.17130941152572632,0.3156715929508209,0.6266442537307739,-0.6012887358665466,0.1789013147354126,-0.41228869557380676,0.4028227925300598,0.0703805610537529,-0.25472292304039,-0.5921846628189087,-0.16362115740776062,0.07775767892599106,-0.12491723150014877,-0.41004040837287903,0.30351030826568604,0.5938418507575989,-0.24558548629283905,-0.28362154960632324,0.3866942822933197,-0.9106692671775818,-0.3415612578392029,-0.12783384323120117,0.5623027086257935,0.12870140373706818,0.6666151285171509,-1.077183485031128,0.4262717664241791,0.3745875954627991,0.29955291748046875,-0.12972982227802277,0.7648322582244873,0.5432185530662537,-0.3457677364349365,0.0029762927442789078,-0.2501980662345886,-0.3928516209125519,0.06791095435619354,-0.033509738743305206,-0.6435598731040955,0.5948574542999268,0.3855695128440857,0.3866322338581085,0.7255814075469971,-0.5120792984962463,-0.1322014480829239,0.04734312370419502,-0.01281186006963253,-0.4451894462108612,0.20504257082939148,-0.013535003177821636,0.08090312033891678,0.034879300743341446,0.5094437599182129,0.615665078163147,-0.1008678525686264,-0.11335654556751251,0.2976013123989105,-0.1477840691804886,-0.21280506253242493,0.29809194803237915,-0.0762830376625061,0.5962026119232178,0.32378101348876953,-0.0951455757021904,-0.30826351046562195,-0.03916242718696594,-0.41713017225265503,-0.578982949256897,-0.5672079920768738,-0.007698074448853731,-0.17507529258728027,-0.2791540324687958,-0.06379449367523193,0.12895752489566803,-0.19459731876850128,-0.13806268572807312,0.9024466872215271,-0.4824472963809967,0.678107738494873,0.6741439700126648,0.253714919090271,0.5834462642669678,0.7171322703361511,-0.4880397915840149,-0.04677238687872887,0.8696322441101074,-0.5530887842178345,0.09969480335712433,0.7653709053993225,-0.2314252108335495,-0.9741715788841248,0.30489474534988403,-0.029843589290976524,0.1490500569343567,-0.9168211817741394,-0.9977560639381409,0.25492432713508606,0.30166441202163696,-0.419015109539032,-0.27681902050971985,-0.3675817549228668,0.9353689551353455,0.1736253947019577,-0.20997260510921478,-0.7793110013008118,0.10303805768489838,0.2747120261192322,0.7580113410949707,-0.5166065096855164,-0.7123202085494995,-0.4744177460670471,-0.21353857219219208,0.6075319051742554,-0.4105307459831238,0.24881231784820557
延伸,0.1327226459980011,0.08993420004844666,0.10031664371490479,0.11884517222642899,0.14192479848861694,-0.09008265286684036,-0.03484044969081879,-0.18361270427703857,-0.3285408020019531,0.1612718254327774,-0.0062813409604132175,0.07813047617673874,0.07187996804714203,-0.19291920959949493,0.04747246578335762,-0.054410528391599655,0.056097906082868576,0.1205771341919899,-0.03665679320693016,0.18861021101474762,-0.09714733064174652,0.0302878487855196,-0.04962864890694618,0.24944248795509338,-0.26448869705200195,-0.02888321876525879,0.07340366393327713,0.1189877986907959,-0.21813450753688812,0.14921347796916962,-0.17808163166046143,-0.01163883414119482,-0.07542455941438675,-0.0024490852374583483,0.19081860780715942,0.19282440841197968,0.045027956366539,-0.202752023935318,0.1247803196310997,0.1933186650276184,0.05421809107065201,0.1481962949037552,-0.08339224755764008,-0.1015598401427269,0.1765526831150055,-0.03160546347498894,-0.23884955048561096,-0.061504606157541275,0.21218954026699066,0.17484690248966217,-0.047851886600255966,-0.0932336375117302,-0.11506075412034988,-0.062202297151088715,-0.16641052067279816,-0.16005238890647888,0.23227764666080475,0.08905572444200516,0.11601435393095016,-0.028110645711421967,0.0646262913942337,0.0891532376408577,-0.10039334744215012,0.016800949349999428,-0.1675117313861847,-0.11382348835468292,0.20358844101428986,0.07585926353931427,0.0677652657032013,-0.19372782111167908,0.0862373411655426,-0.06629004329442978,0.04303339868783951,-0.23566298186779022,-0.1099633127450943,-0.20784592628479004,0.06517960131168365,0.03701644763350487,0.26673954725265503,0.32196006178855896,0.10425740480422974,0.0533357709646225,0.1488191783428192,-0.07808467745780945,0.09944073855876923,0.09123539179563522,-0.06548450142145157,0.008009184151887894,-0.03820934146642685,-0.018868865445256233,0.01820771023631096,0.16596350073814392,0.04289134219288826,-0.04587683081626892,0.04665886610746384,0.001379441935569048,-0.17275334894657135,0.11429963260889053,0.0759819820523262,-0.13664543628692627,0.07614907622337341,-0.06028993800282478,-0.13659702241420746,0.10415105521678925,0.045279644429683685,-0.2619090676307678,0.09102539718151093,-0.1899772733449936,0.0925208181142807,-0.12490100413560867,-0.08572392165660858,0.052520811557769775,-0.003580378368496895,0.054267268627882004,0.07051128149032593,-0.17679308354854584,0.05004900321364403,-0.03520584478974342,0.09871073067188263,-0.01303081028163433,-0.01847231574356556,-0.1668694019317627,-0.027205277234315872,-0.14275917410850525,0.08527165651321411,-0.042934104800224304,0.1314655989408493,0.007144029252231121,0.03648168593645096,-0.052489422261714935,0.1772952824831009,-0.12012645602226257,0.036599136888980865,0.048964232206344604,-0.2609846591949463,-0.04419417679309845,0.09775100648403168,0.007563299499452114,0.09822089225053787,-0.08234287798404694,-0.1451023668050766,-0.03799889236688614,0.015888329595327377,0.16146481037139893,-0.27244076132774353,-0.059920534491539,-0.007642580661922693,-0.10835748165845871,-0.028478624299168587,-0.06317753344774246,-0.21994313597679138,-0.0816325917840004,-0.011210090480744839,-0.235646590590477,-0.1265602856874466,0.02342398464679718,-0.04920690134167671,-0.07428368180990219,0.015677953138947487,-0.1328052431344986,-0.19779573380947113,-0.05800456926226616,-0.10724501311779022,0.16058816015720367,-0.010273312218487263,-0.04978058487176895,-0.2679383456707001,0.04543142020702362,0.18510320782661438,-0.032682280987501144,-0.14555510878562927,0.19097478687763214,0.14653527736663818,-0.0904412493109703,0.10794951021671295,-0.0946461632847786,-0.0869380459189415,-0.10090712457895279,0.006515358109027147,-0.16665314137935638,0.12838484346866608,-0.04823210835456848,0.027597518637776375,0.05328192561864853,0.0005782251246273518,-0.16630439460277557,0.05709768459200859,0.12806156277656555,0.08942703157663345,0.19033129513263702,0.017032310366630554,0.12065499275922775,0.12068347632884979,0.09218884259462357,-0.0002739466726779938,0.10649775713682175,0.016307881101965904,0.15219075977802277,-0.05113298073410988,0.1468237042427063,0.12567095458507538,0.12573601305484772,0.25391605496406555,-0.00850288663059473,-0.09269403666257858,0.09858008474111557,-0.06099025532603264,-0.11419805884361267,-0.29342663288116455,-0.05555373430252075,-0.09304194152355194,0.051368746906518936,-0.03889532759785652,0.1937485635280609,0.09005066007375717,-0.018663326278328896,-0.05049462616443634,0.3356376588344574,-0.03229665383696556,0.22282558679580688,0.12136273086071014,0.021381331607699394,0.07125270366668701,0.15662382543087006,-0.31854093074798584,-0.060938894748687744,0.18789519369602203,0.000603045686148107,0.0957350879907608,0.20668502151966095,-0.1873117834329605,-0.2602822482585907,0.08375191688537598,-0.03258701041340828,-0.09602783620357513,-0.17166823148727417,-0.056615088135004044,0.1678992360830307,0.10243736952543259,-0.07502541691064835,-0.11707038432359695,0.04398440569639206,0.03909502923488617,-0.020048515871167183,-0.03741474449634552,-0.262057363986969,0.02557247318327427,-0.030991286039352417,0.11046344041824341,-0.017521042376756668,-0.31380587816238403,0.0917087271809578,0.02025977522134781,0.10661419481039047,-0.016547491773962975,0.26419714093208313
