word,0,1,2,3,4,5,6,7,8,9,10,11,12,13,14,15,16,17,18,19,20,21,22,23,24,25,26,27,28,29,30,31,32,33,34,35,36,37,38,39,40,41,42,43,44,45,46,47,48,49,50,51,52,53,54,55,56,57,58,59,60,61,62,63,64,65,66,67,68,69,70,71,72,73,74,75,76,77,78,79,80,81,82,83,84,85,86,87,88,89,90,91,92,93,94,95,96,97,98,99,100,101,102,103,104,105,106,107,108,109,110,111,112,113,114,115,116,117,118,119,120,121,122,123,124,125,126,127,128,129,130,131,132,133,134,135,136,137,138,139,140,141,142,143,144,145,146,147,148,149,150,151,152,153,154,155,156,157,158,159,160,161,162,163,164,165,166,167,168,169,170,171,172,173,174,175,176,177,178,179,180,181,182,183,184,185,186,187,188,189,190,191,192,193,194,195,196,197,198,199,200,201,202,203,204,205,206,207,208,209,210,211,212,213,214,215,216,217,218,219,220,221,222,223,224,225,226,227,228,229,230,231,232,233,234,235,236,237,238,239,240,241,242,243,244,245,246,247,248,249,250,251,252,253,254,255
满足,0.11799921095371246,-0.04392698407173157,0.09983855485916138,0.23432989418506622,0.31436848640441895,-0.20661817491054535,-0.0418650321662426,-0.2886425852775574,-0.4827529788017273,0.25522446632385254,-0.044079236686229706,0.2827346920967102,0.21921217441558838,-0.2882811725139618,0.053967759013175964,-0.04921378195285797,0.2408386766910553,0.20068858563899994,-0.18902602791786194,0.5891917943954468,-0.11885017901659012,0.10279986262321472,-0.16415339708328247,0.464517742395401,-0.5395117402076721,-0.016998516395688057,0.06771335750818253,0.015876900404691696,-0.4212656021118164,0.3830021917819977,-0.27993565797805786,0.02552567608654499,-0.10425746440887451,0.09443515539169312,0.38063061237335205,0.34735435247421265,0.13781484961509705,-0.3329276144504547,0.23085488379001617,0.4487473666667938,0.01560310460627079,0.2053006887435913,-0.12756064534187317,-0.12546974420547485,0.424193799495697,-0.06919331848621368,-0.4380628168582916,0.004872849211096764,0.3139902949333191,0.3812197148799896,-0.23679815232753754,-0.12453442066907883,-0.1334146410226822,-0.16268952190876007,-0.4272875189781189,-0.34855613112449646,0.37572774291038513,0.08447161316871643,0.4059762954711914,0.01609046570956707,0.07284872978925705,0.07895202189683914,-0.03310851380228996,0.012552357278764248,-0.36919230222702026,-0.056368742138147354,0.33989572525024414,0.13789689540863037,0.12343049049377441,-0.325541228055954,0.23810561001300812,-0.11348987370729446,0.03197963535785675,-0.3584161400794983,-0.1692771017551422,-0.39167988300323486,0.1727190613746643,0.11501039564609528,0.3611881136894226,0.5222559571266174,0.10915975272655487,-0.0007209865725599229,0.17202617228031158,0.03936891630291939,0.0802675187587738,0.16131867468357086,-0.06056946888566017,0.15667791664600372,0.08527624607086182,0.018014907836914062,0.08994950354099274,0.23805175721645355,-0.14703811705112457,-0.20155686140060425,0.23458103835582733,0.04293090105056763,-0.20026205480098724,0.23118767142295837,0.15419210493564606,-0.24159513413906097,0.2041393667459488,-0.174215629696846,-0.22986479103565216,0.2433939427137375,-0.01370617002248764,-0.4695160984992981,0.23002086579799652,-0.3623387813568115,0.18528540432453156,-0.06799297034740448,-0.08527713268995285,0.2785487771034241,0.06283189356327057,0.16709817945957184,-0.013254119083285332,-0.34864354133605957,0.09019714593887329,-0.03038298897445202,0.11418785154819489,-0.11411469429731369,-0.0004496439651120454,-0.28331783413887024,0.08191066235303879,-0.11490808427333832,-0.05666395649313927,-0.07777448743581772,0.18574956059455872,0.12097194790840149,0.17060233652591705,0.044837385416030884,0.2772941291332245,-0.13841761648654938,0.029056333005428314,-0.07191114872694016,-0.5932493209838867,-0.1054014042019844,0.2231668382883072,-0.029951006174087524,0.10116971284151077,-0.1784045249223709,-0.11618489027023315,-0.16378597915172577,-0.018040258437395096,0.29322317242622375,-0.5673419237136841,-0.07821102440357208,0.07577112317085266,-0.0511784665286541,0.03967684134840965,-0.15328316390514374,-0.41976672410964966,-0.1383715569972992,-0.06552472710609436,-0.31013020873069763,-0.23775455355644226,-0.035680606961250305,-0.23562942445278168,-0.11396253854036331,0.0050176698714494705,-0.3704708516597748,-0.2977549731731415,0.057627201080322266,-0.25541412830352783,0.21157406270503998,-0.060206007212400436,0.013212055899202824,-0.6604185104370117,-0.01521819643676281,0.28296366333961487,0.15720579028129578,-0.23803086578845978,0.32591500878334045,0.037163253873586655,-0.17269301414489746,0.13802307844161987,-0.16738170385360718,-0.018547706305980682,-0.2093038558959961,0.24605774879455566,-0.39465606212615967,0.2145209014415741,-0.13360178470611572,0.03285089507699013,0.08934825658798218,0.1812492311000824,-0.23929546773433685,0.013072107918560505,0.09256257116794586,0.20389047265052795,0.2797737419605255,-0.07512073963880539,0.09077788144350052,0.21388092637062073,0.16287268698215485,0.10871820896863937,0.13716214895248413,0.038640182465314865,0.1858440488576889,-0.20582804083824158,0.21828623116016388,0.1090269386768341,0.1956072896718979,0.3148147165775299,-0.07955843955278397,0.048337146639823914,0.08294975757598877,-0.22199860215187073,-0.13151000440120697,-0.6121085286140442,-0.08027856796979904,-0.045021526515483856,0.110894575715065,-0.03994143009185791,0.19849273562431335,0.3075976073741913,0.010796887800097466,-0.045018989592790604,0.5062015652656555,-0.1381509006023407,0.3214348554611206,-0.0489705353975296,0.018072552978992462,0.08326487243175507,0.18447838723659515,-0.4956567585468292,-0.10490955412387848,0.3590790033340454,0.05099106207489967,0.06510647386312485,0.4066370129585266,-0.19871079921722412,-0.3609008491039276,0.07623538374900818,-0.19493047893047333,-0.09599262475967407,-0.273968905210495,-0.09167122840881348,0.3273971974849701,0.15466614067554474,-0.026396356523036957,-0.22373329102993011,0.1227966919541359,0.019625907763838768,0.010058967396616936,-0.0861976370215416,-0.447308212518692,0.06052166968584061,-0.15019690990447998,-0.0310832466930151,-0.10826820135116577,-0.3571149408817291,0.0978635922074318,0.21046653389930725,0.24712057411670685,-0.02371019870042801,0.5326740145683289
操作,-0.019626684486865997,0.14853958785533905,0.14761462807655334,0.20456235110759735,0.24102595448493958,-0.22960059344768524,-0.03897516429424286,-0.21542182564735413,-0.39122331142425537,0.2618802487850189,-0.04653741419315338,0.14302630722522736,0.17915919423103333,-0.21258927881717682,0.10996565222740173,-0.07924317568540573,0.23896832764148712,0.2137438803911209,-0.13905204832553864,0.5159609317779541,-0.15204764902591705,0.046017568558454514,-0.23738837242126465,0.33441320061683655,-0.32481124997138977,-0.17805230617523193,-0.0468733087182045,0.03943294659256935,-0.24853269755840302,0.3388685882091522,-0.12141355127096176,0.03906076401472092,-0.09142109006643295,-0.1146424263715744,0.373737633228302,0.3593795895576477,0.12255494296550751,-0.21363714337348938,0.21490928530693054,0.3749603033065796,-0.027762092649936676,0.21800464391708374,-0.0491640642285347,-0.20681147277355194,0.3159725069999695,0.04059315845370293,-0.41615229845046997,0.035669002681970596,0.2969829738140106,0.374866783618927,-0.07497764378786087,-0.08354618400335312,-0.04972875490784645,-0.2375660389661789,-0.308366596698761,-0.27735140919685364,0.2109716385602951,0.061311740428209305,0.344088613986969,0.05626331642270088,-0.07651171088218689,0.005727018695324659,0.04900999739766121,-0.09416571259498596,-0.33613666892051697,-0.08432691544294357,0.3096001148223877,0.05730653926730156,0.060754209756851196,-0.20663988590240479,0.13750696182250977,-0.004091519862413406,0.012691115960478783,-0.30497339367866516,-0.04064211621880531,-0.4628949761390686,0.13328881561756134,0.22675126791000366,0.1952812522649765,0.5219257473945618,0.1758837103843689,0.04680502787232399,0.14786316454410553,0.08332982659339905,0.23182541131973267,0.030330032110214233,-0.05094205215573311,0.2838881015777588,0.09383262693881989,0.10005039721727371,0.1638168841600418,0.28570014238357544,-0.1161327064037323,-0.0031423037871718407,0.22434870898723602,0.05929291620850563,-0.16741728782653809,0.1258559226989746,-0.0151788629591465,-0.17498917877674103,0.06529556214809418,-0.1480923295021057,-0.06273075193166733,0.2020372748374939,-0.015596525743603706,-0.4215174615383148,0.24720335006713867,-0.2498939037322998,0.17731036245822906,-0.053688887506723404,0.15025067329406738,0.23774489760398865,0.010935003869235516,0.17107002437114716,-0.06775479763746262,-0.3045722246170044,-0.0002778203343041241,0.04900866374373436,0.09028764814138412,0.0018463123124092817,-0.06630729883909225,-0.23023460805416107,0.048659879714250565,-0.08462166786193848,0.013307126238942146,-0.19104695320129395,-0.014385492540895939,0.11161135882139206,0.18960681557655334,0.10534624755382538,0.25803107023239136,-0.3755604326725006,0.08543158322572708,-0.0641578659415245,-0.383247971534729,-0.04826675355434418,0.2069709748029709,-0.010051770135760307,0.08932656049728394,-0.1871892660856247,-0.030357444658875465,-0.11650358140468597,-0.0405571311712265,0.1738288551568985,-0.5072425007820129,-0.051685892045497894,-0.01011680718511343,-0.10228972882032394,-0.027976911514997482,-0.08323246240615845,-0.37690696120262146,-0.011040842160582542,-0.05057875066995621,-0.225249782204628,-0.25062358379364014,-0.14256475865840912,-0.20505526661872864,-0.03785347566008568,0.09233331680297852,-0.27179890871047974,-0.25018927454948425,0.02957359328866005,-0.3434218168258667,0.1669561266899109,0.02132589928805828,-0.08710256218910217,-0.6070697903633118,-0.1520143449306488,0.12771408259868622,0.15888537466526031,-0.18203204870224,0.3359690010547638,-0.05820002406835556,-0.16973507404327393,0.13974158465862274,-0.2235971838235855,-0.01766003854572773,-0.1726042926311493,0.26782938838005066,-0.39830896258354187,0.06685492396354675,-0.11350324004888535,0.0727691501379013,0.0012517353752627969,0.14386290311813354,-0.23191064596176147,-0.11886528879404068,0.049954380840063095,0.08928756415843964,0.24910366535186768,-0.28013482689857483,-0.0058396910317242146,0.3344012200832367,0.19123654067516327,0.03699382767081261,0.08403385430574417,0.03011051006615162,0.18810857832431793,-0.15555784106254578,0.36591246724128723,0.09520179033279419,0.1126202940940857,0.1396900862455368,-0.0803084671497345,-0.03823419660329819,0.023754604160785675,-0.1243210956454277,0.025148889049887657,-0.47224947810173035,-0.15886051952838898,-0.0008775849128141999,-0.1591632068157196,-0.05814359709620476,0.12181837856769562,0.30222123861312866,0.005078593268990517,-0.06504244357347488,0.5805778503417969,-0.15571823716163635,0.2922418415546417,-0.17469358444213867,-0.033481694757938385,0.11327731609344482,0.03846587985754013,-0.4935154914855957,-0.12878592312335968,0.31867098808288574,0.11744136363267899,0.08387906104326248,0.3825690746307373,-0.3161848187446594,-0.4578225612640381,-0.1091681495308876,-0.19382092356681824,-0.05986112728714943,-0.141191303730011,-0.15184971690177917,0.27941158413887024,0.20105235278606415,0.011417925357818604,-0.1590253859758377,0.15875327587127686,0.02997143566608429,-0.07337766885757446,-0.10872248560190201,-0.281749427318573,0.10583650320768356,-0.030564479529857635,-0.0024683172814548016,-0.20803099870681763,-0.31488552689552307,0.12274850904941559,0.21817681193351746,0.17516447603702545,-0.08843492716550827,0.5969313383102417
运行,-0.011467676609754562,0.05726943910121918,-0.026202097535133362,0.05333930253982544,0.08088074624538422,-0.05147439241409302,0.049888551235198975,-0.03493207320570946,-0.037384867668151855,0.11759938299655914,0.045011524111032486,0.00554879754781723,0.10781920701265335,-0.0719020664691925,0.03877144679427147,-0.0027048042975366116,0.1521630883216858,-0.014682185836136341,-0.0532737635076046,0.13222572207450867,-0.08932725340127945,0.06759930402040482,-0.05460191145539284,0.062141451984643936,-0.1523890346288681,-0.07409308850765228,-0.005194463301450014,-0.06336569041013718,-0.13786901533603668,0.058879103511571884,-0.0629580169916153,0.026778291910886765,-0.0777927115559578,-0.03478104993700981,0.03445024788379669,-0.017005670815706253,-0.005041475873440504,-0.06193960830569267,0.02526756376028061,0.05691894143819809,-0.004776328336447477,-0.011598632670938969,0.00862216204404831,0.0298476405441761,0.062143728137016296,0.06167362630367279,-0.12539184093475342,0.004356549121439457,-0.04169521853327751,0.07693769782781601,-0.000822105968836695,0.06824958324432373,0.07257483154535294,-0.16815103590488434,-0.03719518706202507,-0.12303938716650009,0.06212695688009262,0.0446346290409565,0.1167444959282875,0.005143317393958569,0.011020490899682045,0.047615550458431244,-0.026715120300650597,-0.015657296404242516,0.01852901093661785,-0.0515909306704998,-0.04943690821528435,0.03181144967675209,-0.010936819016933441,-0.053601451218128204,0.027657954022288322,0.04219374805688858,-0.009550073184072971,-0.09762610495090485,-0.06260240823030472,-0.04463384300470352,0.056341566145420074,0.043001603335142136,-0.06619353592395782,0.08017567545175552,0.08759984374046326,0.00735726160928607,0.017213018611073494,0.04977576434612274,0.06804819405078888,0.08029831200838089,-0.002963610226288438,-0.018933525308966637,-0.029668617993593216,0.08179937303066254,-0.017490722239017487,0.0268422719091177,-0.014858564361929893,0.005067214369773865,-0.04679879546165466,0.03625798597931862,0.004857311490923166,-0.06644491851329803,0.11891558021306992,-0.14307348430156708,0.07690304517745972,-0.09382907301187515,-0.08663801848888397,0.07918731123209,-0.08740689605474472,-0.11023251712322235,0.0005690138787031174,-0.0034321064595133066,-0.024163775146007538,-0.06570246815681458,0.025892632082104683,0.10197686403989792,0.06272143870592117,0.03905852138996124,-0.057487327605485916,-0.12525860965251923,-0.016127871349453926,0.02150191180408001,-0.03798926621675491,0.01603316329419613,-0.04698915779590607,-0.021443940699100494,0.023518633097410202,-0.05697790905833244,0.035673897713422775,0.04119492694735527,0.11169534176588058,-0.0053451028652489185,0.09580055624246597,-0.008251642808318138,-0.007456936873495579,-0.0073245675303041935,-0.05846931040287018,0.004712042398750782,-0.09089493751525879,-0.03563762083649635,0.017553910613059998,0.10071161389350891,0.02258797362446785,-0.0383438766002655,0.019578570500016212,0.058265816420316696,0.059154387563467026,0.07578491419553757,-0.07684757560491562,0.00912878755480051,0.013673434033989906,0.0932166576385498,0.032867658883333206,0.04738586023449898,-0.11333804577589035,0.0556558258831501,-0.033193089067935944,0.0421457476913929,-0.055644501000642776,0.02851961925625801,0.010032499209046364,0.06032542884349823,-0.020360751077532768,-0.037676867097616196,-0.0040684957057237625,0.0652194544672966,-0.026423364877700806,0.0019097765907645226,-0.0074830688536167145,0.07170240581035614,-0.07118993997573853,0.009525037370622158,-0.06166861206293106,0.08162777125835419,0.054415151476860046,0.019088702276349068,-0.02570621855556965,-0.11791589111089706,-0.009926008991897106,-0.011055754497647285,-0.04179059714078903,-0.02293107844889164,0.09542109072208405,-0.13513660430908203,0.014681605622172356,-0.09746943414211273,0.008870544843375683,0.13170310854911804,-0.0211061779409647,-0.0486750528216362,-0.03208715096116066,0.024933066219091415,-0.05506264045834541,0.016509652137756348,-0.07427842170000076,-0.051219452172517776,0.028376827016472816,-0.0010348582873120904,0.12730500102043152,-0.09338546544313431,0.04711516201496124,-0.011678962968289852,0.0024522789753973484,0.08576498180627823,-0.05800974369049072,0.04530264064669609,0.025013014674186707,-0.018682317808270454,0.07416006177663803,0.016369856894016266,-0.011878600344061852,0.010106250643730164,-0.07590674608945847,-0.05961688607931137,-0.03443010151386261,0.00024557954748161137,-0.07807424664497375,-0.034019604325294495,0.07002149522304535,-0.07491065561771393,0.03180088847875595,0.07682735472917557,0.04938533902168274,0.03136176988482475,-0.04282091185450554,-0.045268140733242035,0.1155148446559906,0.003446019720286131,-0.05692296102643013,-0.05323336645960808,0.038105059415102005,0.01229235902428627,0.012807238847017288,0.008542095310986042,-0.027139827609062195,-0.09306685626506805,-0.09087884426116943,0.00014157647092361003,0.020878035575151443,-0.06143244355916977,-0.108205646276474,0.06818461418151855,0.07348039746284485,-0.01183830015361309,0.009807231836020947,0.017007673159241676,-0.010469748638570309,0.022757429629564285,-0.00567670539021492,0.00194236368406564,-0.03875172138214111,0.0032985589932650328,0.013543817214667797,-0.09681560844182968,-0.09864741563796997,-0.0007303190068341792,0.019216736778616905,0.08058915287256241,-0.09862827509641647,0.013341501355171204
信号,0.058572106063365936,0.13898417353630066,0.009121425449848175,0.12651273608207703,0.2113952785730362,-0.12242359668016434,0.025591565296053886,-0.16866706311702728,-0.2985250651836395,0.2234705239534378,-0.01932806707918644,0.0857463851571083,0.22119328379631042,-0.20692740380764008,0.09707629680633545,-0.0705641359090805,0.15701895952224731,0.07513987272977829,-0.07557284832000732,0.335740864276886,-0.1502850502729416,0.033025287091732025,-0.14583663642406464,0.283284455537796,-0.36451399326324463,-0.06205053627490997,0.03828679770231247,-0.0055693150497972965,-0.2685786783695221,0.2557225823402405,-0.216170996427536,0.026295538991689682,-0.1566319465637207,-0.03373698145151138,0.23200000822544098,0.18073144555091858,-0.0022307264152914286,-0.17571982741355896,0.13132552802562714,0.20488642156124115,0.04215310141444206,0.16186799108982086,-0.08098442107439041,-0.06085013225674629,0.21974481642246246,0.04776681959629059,-0.3208104074001312,-0.018575869500637054,0.15182234346866608,0.23129332065582275,-0.038191329687833786,-0.053584448993206024,-0.04782198369503021,-0.12217522412538528,-0.17584960162639618,-0.21989616751670837,0.1971506029367447,0.18441174924373627,0.24641601741313934,0.002286148490384221,0.03562752902507782,0.08639243245124817,-0.06946989893913269,-0.005857729818671942,-0.14375680685043335,-0.1330837607383728,0.15343822538852692,0.07764329761266708,0.09480920433998108,-0.22632987797260284,0.1166633665561676,-0.020240018144249916,0.019288765266537666,-0.29760661721229553,-0.10618182271718979,-0.2205142229795456,0.1443382054567337,0.14424076676368713,0.16301099956035614,0.3442037105560303,0.09660053253173828,0.021201180294156075,0.13013994693756104,0.02332206256687641,0.1461980640888214,0.0712013691663742,-0.03334484621882439,0.054190002381801605,-0.022257601842284203,0.027462266385555267,0.018871936947107315,0.13180652260780334,-0.0965784341096878,-0.06404460221529007,0.056502312421798706,0.013359223492443562,-0.1354709267616272,0.0612361766397953,0.1482107937335968,-0.2264997810125351,0.08373482525348663,-0.1115584746003151,-0.19186709821224213,0.14678487181663513,-0.06198546662926674,-0.3156432807445526,0.11012820899486542,-0.1936151385307312,0.07671813666820526,-0.14634816348552704,-0.03514542803168297,0.16797898709774017,0.029214058071374893,0.07649479061365128,-0.043982986360788345,-0.22606204450130463,0.017061255872249603,-0.02828286960721016,0.09325060248374939,0.0627400279045105,-0.07225316762924194,-0.1325768530368805,0.032873328775167465,-0.11605380475521088,0.07071314752101898,-0.05946648120880127,0.15354745090007782,0.0048119062557816505,0.1531495451927185,-0.030154265463352203,0.12788493931293488,-0.11350608617067337,-0.01235281117260456,-0.010175428353250027,-0.305776447057724,-0.047570787370204926,0.13161644339561462,0.028903134167194366,0.07727093994617462,-0.13719549775123596,-0.07671118527650833,-0.013668901287019253,0.06891900300979614,0.1856662482023239,-0.3470223844051361,-0.08088086545467377,0.012394496239721775,-0.0005035170470364392,0.013258494436740875,-0.009329191409051418,-0.2730697989463806,-0.018924690783023834,-0.0643627867102623,-0.18186542391777039,-0.15813706815242767,-0.010572768747806549,-0.04291541129350662,-0.011520073749125004,-0.02425782009959221,-0.14312098920345306,-0.1516834795475006,0.02749869041144848,-0.1503879725933075,0.15099729597568512,0.018896052613854408,0.05221833661198616,-0.33536991477012634,0.004564419388771057,0.08181051909923553,0.12007007747888565,-0.06799322366714478,0.19692683219909668,0.06091725081205368,-0.18329262733459473,0.07315515726804733,-0.11355245113372803,-0.017746571451425552,-0.0995783731341362,0.12910504639148712,-0.24476519227027893,0.12059188634157181,-0.12387306243181229,-0.007053987588733435,0.15714381635189056,0.02175082080066204,-0.1939130425453186,0.015435217879712582,0.11409124732017517,0.06442154943943024,0.14762555062770844,-0.1314292997121811,0.025705868378281593,0.15206827223300934,0.0776880607008934,0.08346279710531235,-0.021327050402760506,0.021641191095113754,0.10855571180582047,-0.07683563977479935,0.19173558056354523,0.033330753445625305,0.16494238376617432,0.210561603307724,-0.05818985030055046,0.003344898810610175,0.11713915318250656,-0.05389000475406647,-0.020957019180059433,-0.2828531861305237,-0.13012190163135529,-0.08774175494909286,0.006492234766483307,-0.1025739312171936,0.08240938931703568,0.15665128827095032,-0.06940165162086487,0.0037004342302680016,0.3577573895454407,-0.04328501224517822,0.200921431183815,-0.00447479821741581,-0.02622859552502632,0.12402446568012238,0.11325908452272415,-0.33515992760658264,-0.0824337750673294,0.14892596006393433,0.05854298919439316,0.05794115737080574,0.16785891354084015,-0.14791107177734375,-0.2804829180240631,-0.003345739096403122,-0.054033756256103516,-0.053994107991456985,-0.1650688350200653,-0.1638907641172409,0.20537571609020233,0.1864369809627533,-0.01922116056084633,-0.08948314934968948,0.05247750133275986,0.035079896450042725,-0.022160908207297325,-0.05738428607583046,-0.2191353291273117,0.015789145603775978,-0.0010832131374627352,0.044863276183605194,-0.11360637098550797,-0.3493002951145172,0.08633581548929214,0.09879446029663086,0.16336095333099365,-0.07741853594779968,0.2401256263256073
模式,0.28035926818847656,0.5147444009780884,-0.12301190942525864,0.10728010535240173,0.5143798589706421,-0.5524428486824036,0.1328093409538269,-0.4780036211013794,-0.44307205080986023,0.42919206619262695,0.41885361075401306,-0.23161427676677704,0.23805826902389526,-0.4832274615764618,0.2532045543193817,-0.5519117712974548,0.5404432415962219,-0.22923466563224792,-0.22725914418697357,0.33359238505363464,-0.15733736753463745,0.34903934597969055,-0.13953162729740143,0.7593044638633728,-0.9147942066192627,-0.2959238886833191,-0.020017098635435104,0.34122326970100403,-0.7379153966903687,0.1810409426689148,-0.3821556866168976,-0.029335487633943558,-0.28376448154449463,-0.2520190179347992,0.5800500512123108,0.009695364162325859,0.6356133818626404,-0.6229382157325745,0.4694691002368927,0.7012417912483215,0.17296959459781647,0.1931612491607666,-0.045093148946762085,-0.2611920237541199,0.5834168195724487,0.014965069480240345,-0.8881418704986572,-0.12798646092414856,0.697691023349762,0.44798800349235535,-0.3634466528892517,0.08808606117963791,-0.1044657826423645,-0.42506322264671326,-0.34186676144599915,-1.071895718574524,0.6860224008560181,-0.4221999943256378,0.03381546214222908,0.3726636469364166,0.26973146200180054,0.059954237192869186,-0.5303280353546143,-0.32319027185440063,-0.19108301401138306,-0.3993244171142578,0.4103250503540039,0.42822104692459106,-0.00707879476249218,-0.5698792338371277,0.0937066450715065,-0.22520007193088531,0.21890075504779816,-0.6343151330947876,-0.6427101492881775,-0.5496886968612671,0.2201898694038391,-0.07034210860729218,0.10417132079601288,0.8388077616691589,0.5727199912071228,0.1139545813202858,0.19234485924243927,-0.22745750844478607,0.6492602825164795,0.5089274048805237,0.025957055389881134,-0.14350564777851105,-0.20532141625881195,0.15528802573680878,-0.08481453359127045,0.7512224912643433,0.06406410783529282,0.3806665241718292,-0.3014208674430847,-0.11580299586057663,-0.3270319402217865,-0.2748134732246399,0.46924835443496704,-0.6758960485458374,0.5501901507377625,0.041427068412303925,-0.7628467082977295,0.43667930364608765,-0.3589235246181488,-0.873443067073822,0.10331978648900986,-0.5658905506134033,-0.03934343904256821,-0.6197897791862488,0.004261546768248081,0.4918666183948517,0.016206864267587662,0.15383531153202057,0.1595854014158249,-0.8679922819137573,-0.0771508514881134,0.03347897529602051,-0.19045628607273102,-0.326594740152359,-0.33762869238853455,-0.30052778124809265,-0.1164223775267601,-0.7298499941825867,0.2556694447994232,-0.15162737667560577,0.3304532766342163,-0.037969112396240234,0.3080097436904907,-0.08350870013237,0.09687647968530655,-0.24007776379585266,-0.041072778403759,0.42661985754966736,-0.4557938277721405,-0.4500461220741272,-0.05082927644252777,0.40122079849243164,0.363494336605072,0.06560172885656357,-0.03482210263609886,0.03241202235221863,0.0673452690243721,0.5038520097732544,-0.49153774976730347,0.13290749490261078,-0.2878584861755371,-0.15237517654895782,-0.12047842890024185,0.09640650451183319,-0.550260603427887,0.25399312376976013,0.14826081693172455,-0.02954530529677868,-0.25745394825935364,0.22729776799678802,-0.07009007781744003,-0.03505291789770126,0.19363802671432495,-0.27461153268814087,-0.9419734477996826,-0.147877499461174,-0.7009639739990234,0.25119999051094055,-0.18836785852909088,0.43966221809387207,-0.6103866696357727,0.047358687967061996,0.24317322671413422,0.14531441032886505,-0.17388321459293365,0.4906972050666809,0.3405417799949646,-0.5269315838813782,0.13720205426216125,-0.07059536874294281,-0.6329405307769775,-0.0013233948266133666,-0.1266973316669464,-0.922330915927887,0.4768010079860687,-0.12642350792884827,0.28682199120521545,0.5139505863189697,-0.4583365321159363,-0.4922841489315033,-0.06849618256092072,0.6309689283370972,-0.20366300642490387,0.411217600107193,-0.30758845806121826,0.41872453689575195,0.0200628861784935,0.40268951654434204,0.5048454403877258,-0.0071316794492304325,0.15935374796390533,0.3749350607395172,0.24002864956855774,0.3123701512813568,0.2623797059059143,-0.0400574691593647,0.6583890914916992,0.06067353114485741,0.12277692556381226,-0.23618534207344055,-0.17405103147029877,-0.48208320140838623,-0.5837247371673584,-0.539556086063385,-0.40945345163345337,-0.12712319195270538,-0.32073938846588135,0.10994242131710052,0.35048311948776245,-0.3147975504398346,-0.14940236508846283,0.9462144374847412,-0.12111742794513702,0.8125430941581726,0.22504167258739471,0.14757536351680756,0.8025169968605042,0.42846494913101196,-0.398516446352005,-0.22429627180099487,0.39951589703559875,-0.08883471041917801,0.24605262279510498,0.5284519791603088,-0.42297378182411194,-0.7523255348205566,-0.07772425562143326,-0.0417148731648922,0.14021936058998108,-0.7867770791053772,-0.5469613075256348,0.5223064422607422,0.32368940114974976,-0.32080909609794617,-0.02358471043407917,-0.08919576555490494,0.40162110328674316,0.1774827241897583,-0.3121080994606018,-0.4768478572368622,-0.07667843997478485,-0.334186851978302,0.2261057049036026,-0.5229693055152893,-0.6480225324630737,-0.14679063856601715,0.14495405554771423,0.47315114736557007,-0.2734205722808838,0.27806293964385986
行驶,0.1379343867301941,0.11474578082561493,0.03704885393381119,0.005772095639258623,0.056803688406944275,-0.1387813240289688,-0.00991444569081068,-0.0837027058005333,-0.2414626032114029,0.14757871627807617,-0.03626228868961334,0.033846668899059296,0.09923475980758667,-0.06519889086484909,0.11081603169441223,-0.03821560740470886,0.010326351970434189,0.018138376995921135,0.027284858748316765,0.03425798937678337,-0.11443565785884857,-0.0065219830721616745,0.051528412848711014,0.31459036469459534,-0.14097493886947632,-0.03951289877295494,0.1294202357530594,0.10373590886592865,-0.1394312083721161,0.07430830597877502,-0.17493131756782532,-0.0636824294924736,-0.025853196159005165,-0.022874241694808006,-0.025741463527083397,0.06963212043046951,-0.012675175443291664,-0.12177704274654388,0.04379686340689659,0.10850498825311661,0.09974983334541321,0.12246647477149963,0.01231011189520359,-0.00406922772526741,0.008273126557469368,0.01911529153585434,-0.06091858446598053,-0.10460160672664642,0.053321536630392075,-0.003514036303386092,0.0592789389193058,-0.0490487702190876,-0.07618515193462372,0.0033745018299669027,0.012408148497343063,-0.17252372205257416,0.19137164950370789,0.15970847010612488,0.1425592601299286,-0.07226169854402542,0.10721684247255325,0.14616084098815918,-0.1643025279045105,-0.06137664243578911,0.0331173874437809,-0.16938957571983337,0.017284562811255455,-0.011658887378871441,0.03986727073788643,-0.2114095687866211,0.17172931134700775,0.00754691194742918,0.005970597732812166,-0.16388645768165588,-0.15303343534469604,-0.11443649977445602,-0.028351936489343643,0.010488291271030903,0.06681031733751297,0.20858296751976013,0.043171241879463196,0.05326773598790169,0.0614045187830925,-0.17433394491672516,0.11587193608283997,0.11292191594839096,-0.11894875764846802,-0.10965687781572342,-0.08179928362369537,0.07323875278234482,-0.0032322027254849672,0.1485273838043213,0.05388425290584564,-0.03781932592391968,0.03746703267097473,-0.0035008927807211876,-0.0675843134522438,0.00712596857920289,0.14775735139846802,-0.07296352833509445,0.12405997514724731,0.04784586653113365,-0.16641263663768768,-0.023190302774310112,-0.05234420299530029,-0.2495916783809662,0.00529515603557229,-0.09515688568353653,0.015373733825981617,-0.10405440628528595,-0.08324816823005676,0.0022595259360969067,-0.04167938977479935,0.04241696000099182,0.14557166397571564,-0.10755710303783417,0.04341099411249161,-0.0518084391951561,0.1306333839893341,0.020184066146612167,-0.005606967955827713,-0.11994356662034988,-0.11071531474590302,-0.1012297198176384,0.10865053534507751,-0.17367026209831238,0.07747268676757812,-0.083685502409935,-0.009679156355559826,0.015613112598657608,0.1352284550666809,-0.03054165281355381,-0.007851090282201767,0.03526109457015991,-0.1230788305401802,-0.014704407192766666,0.04383298009634018,0.1402466893196106,0.04751543328166008,-0.044620711356401443,-0.06444140523672104,-0.012890996411442757,0.07517562061548233,0.08768969774246216,-0.12837685644626617,-0.0955456793308258,0.03952579200267792,0.00534801185131073,-0.02299860492348671,0.0036928714253008366,-0.11834406107664108,0.03108331747353077,0.00817686878144741,-0.125729501247406,-0.07313977926969528,0.0939163789153099,0.018200386315584183,-0.08657768368721008,-0.014727365225553513,-0.004902661312371492,-0.1384807974100113,-0.023515667766332626,-0.0694500207901001,0.1363813728094101,0.0006906399503350258,-0.037365347146987915,-0.15699738264083862,0.14614440500736237,0.07752984017133713,-0.05828401446342468,-0.14034371078014374,0.1351931393146515,0.11653254926204681,-0.057924460619688034,0.1555791199207306,-0.05399588495492935,-0.126564621925354,-0.08631794899702072,-0.029124392196536064,-0.028429560363292694,0.11310229450464249,-0.09555553644895554,-0.052179113030433655,0.059277087450027466,-0.12781137228012085,-0.10576294362545013,0.10545998811721802,0.1596716344356537,0.03863972797989845,0.11172062158584595,0.08446875959634781,0.168183371424675,0.060543615370988846,0.08103464543819427,0.017583921551704407,-0.0267468374222517,-0.06180643290281296,0.04184296354651451,-0.003910972736775875,0.1386551856994629,0.041064005345106125,0.09253809601068497,0.19402799010276794,-0.025067832320928574,0.017489010468125343,0.031486574560403824,0.108139269053936,-0.03411535546183586,-0.18541395664215088,-0.057320818305015564,-0.18004772067070007,0.07002612203359604,-0.1323452889919281,0.11713385581970215,0.005107484757900238,-0.0797288715839386,0.020503869280219078,0.1244492381811142,0.048507340252399445,0.07266468554735184,0.19584642350673676,-0.03886803984642029,0.010213223285973072,0.05587517097592354,-0.21533675491809845,-0.12095315754413605,0.11604228615760803,0.020312732085585594,0.015401880256831646,0.055251527577638626,-0.14013627171516418,-0.1434181183576584,0.07254958897829056,-0.00026038038777187467,-0.03030564822256565,-0.17410939931869507,-0.04566970840096474,0.04809050261974335,0.026768216863274574,-0.1363254189491272,-0.029176633805036545,-0.018545903265476227,-0.002314105397090316,-0.0006568837561644614,0.05994931980967522,-0.10232788324356079,-0.02547178976237774,-0.02510332129895687,0.10429245978593826,-0.004042897839099169,-0.2748095393180847,0.1518293172121048,-0.056515537202358246,0.032588448375463486,-0.009894095361232758,0.11522754281759262
关闭,0.07485871016979218,-0.028271591290831566,0.051873285323381424,0.01708267070353031,0.07167865335941315,0.005256365053355694,-0.05066731199622154,-0.007120122201740742,-0.05773792415857315,0.010027289390563965,0.024671826511621475,-0.014625870622694492,0.0023564372677356005,-0.05962180718779564,-0.041092660278081894,-0.016859209164977074,-0.004368709400296211,0.056704822927713394,-0.027629397809505463,0.022722624242305756,-0.020237719640135765,0.014335224404931068,0.024956269189715385,0.0081169493496418,-0.08841659873723984,0.03317960724234581,0.07058700174093246,0.031093908473849297,-0.06564569473266602,0.029545646160840988,-0.06605663150548935,-0.006538232788443565,-0.06004233658313751,0.026426324620842934,0.021453727036714554,0.031652290374040604,0.020745152607560158,-0.030192337930202484,0.015206815674901009,0.02344869263470173,0.05504576489329338,-0.030771944671869278,-0.005940892267972231,-0.02912837266921997,-0.013266205787658691,-0.0013251156779006124,-0.012126591056585312,-0.05002620071172714,0.02248295210301876,-0.005759664811193943,-0.01786983199417591,-0.060501642525196075,-0.025799255818128586,-0.024603255093097687,-0.020575467497110367,-0.05584973096847534,0.09016130864620209,0.00628667464479804,-0.023610549047589302,-0.04137127101421356,0.058004144579172134,0.04814254119992256,-0.018339192494750023,-0.01596803590655327,0.007378845009952784,0.019369887188076973,0.01997128687798977,0.0038727561477571726,-0.010222705081105232,-0.09791960567235947,0.011259098537266254,-0.026535745710134506,0.009145677089691162,-0.09024740755558014,0.01451024878770113,0.030720623210072517,0.020503513514995575,-0.04785407334566116,0.06257116049528122,0.04024738445878029,0.021193845197558403,-0.0338553860783577,0.04755742847919464,-0.0638447031378746,-0.01774556003510952,0.10189418494701385,-0.07114112377166748,-0.05464974045753479,-0.03883541747927666,-0.01929222047328949,-0.04376732185482979,0.07699582725763321,0.11017133295536041,0.026100799441337585,-0.06353192776441574,0.04831043630838394,-0.0582006461918354,0.010521559976041317,0.03371760994195938,-0.05920344591140747,0.02821776084601879,-0.031510211527347565,-0.09745178371667862,0.07348650693893433,0.02403578720986843,-0.07968523353338242,-0.021035298705101013,-0.018744900822639465,0.0044257016852498055,-0.03676021099090576,-0.1148015484213829,-0.025304364040493965,0.050413087010383606,-0.024986324831843376,0.04703247919678688,-0.023016618564724922,-0.005471563432365656,-0.023633837699890137,0.02975332736968994,-0.0424211248755455,-0.03969219699501991,-0.039471905678510666,-0.021535765379667282,0.015314173884689808,0.04366017132997513,0.07935861498117447,0.11661280691623688,0.036570921540260315,0.011481352150440216,-0.06459919363260269,0.0765199065208435,0.011231045238673687,-0.020485876128077507,0.03097887709736824,-0.04189538583159447,-0.02835538610816002,-0.04957042261958122,0.0051988097839057446,0.01106337271630764,-0.022821011021733284,-0.07233098149299622,-0.002166489837691188,0.010334437713027,0.10027791559696198,-0.024524684995412827,-0.03063657134771347,0.041896648705005646,0.005018995143473148,-0.014165676198899746,0.005465428810566664,-0.049455948173999786,-0.03553767129778862,0.033774085342884064,-0.04448631405830383,-0.005321693606674671,0.07528553158044815,-0.010519941337406635,-0.07700107246637344,0.006340381223708391,-0.030627764761447906,-0.0042184568010270596,-0.043640341609716415,-0.0012068270007148385,0.06454545259475708,-0.033197611570358276,-0.02192617394030094,-0.0610651895403862,0.05394100397825241,0.030943768098950386,0.004191208630800247,-0.027188308537006378,0.0029623887967318296,0.11229721456766129,0.02670135162770748,0.010193091817200184,0.0020532316993921995,-0.02792275883257389,-0.02909816987812519,-0.037720974534749985,-0.009372089989483356,0.07803935557603836,-0.047406841069459915,0.03045976534485817,0.08371418714523315,-0.03405603766441345,-0.033859360963106155,0.04459972679615021,0.005941546056419611,0.02000720053911209,0.0500868558883667,0.07512760162353516,0.07311531156301498,0.004665130749344826,0.0009438992710784078,0.010067093186080456,0.0005458241212181747,0.017829958349466324,0.025457395240664482,0.00046853869571350515,0.00026967484154738486,0.01683538779616356,0.03630458936095238,0.09438449889421463,-0.004951822105795145,-0.07934767752885818,-0.002429297426715493,-0.01583694852888584,-0.09984292089939117,-0.06402900815010071,0.0060662804171442986,-0.011364763602614403,0.06194748729467392,-0.024142596870660782,0.0371096134185791,-0.04571988061070442,-0.0005796414334326982,0.05136451870203018,0.005042638164013624,0.04552381485700607,0.03816976398229599,0.13532625138759613,0.014230761677026749,0.02039884589612484,0.10327628999948502,-0.03803154453635216,0.003959770780056715,0.041482679545879364,-0.04410416632890701,0.013380416668951511,0.04143920913338661,-0.0683380663394928,-0.04425222799181938,0.010520613752305508,-0.013353551737964153,-0.035018302500247955,-0.07961536943912506,-0.029121942818164825,0.0034051297698169947,0.035705070942640305,-0.05377596989274025,-0.040499746799468994,-0.048580702394247055,0.005177458748221397,-0.02148880809545517,0.06328786909580231,-0.08685222268104553,-0.06046278029680252,-0.02104482240974903,0.07193908840417862,-0.008907810784876347,-0.10114890336990356,0.0008134494419209659,-0.08411797136068344,0.007317776326090097,0.0425671711564064,-0.020543253049254417
随后,1.2310242652893066,-0.009167784824967384,0.6954470276832581,1.6969139575958252,0.27113935351371765,0.7557905912399292,-0.7300829291343689,-0.3488333821296692,-1.548176884651184,-0.08710288256406784,-0.5361572504043579,1.2573282718658447,0.7531436681747437,-0.7302870154380798,-0.02254519611597061,-0.16888660192489624,-0.09867365658283234,1.3711549043655396,-0.2897164821624756,-0.4609503448009491,-0.22276571393013,0.5472798943519592,0.49633362889289856,-0.43910717964172363,0.14364968240261078,0.7709252834320068,0.4472656846046448,0.18984675407409668,0.4692625403404236,0.5664721727371216,-0.7872816920280457,0.15561529994010925,-0.548591136932373,-0.05220775306224823,0.7205798625946045,-0.1044103354215622,-1.158202886581421,-0.8174546360969543,0.0561370849609375,1.0106574296951294,0.8610565662384033,-0.19925257563591003,-0.822610080242157,-0.5781963467597961,0.24117065966129303,0.8475366234779358,-1.15461266040802,-0.30761003494262695,0.11820764094591141,0.9515138864517212,0.22072502970695496,-0.24819476902484894,-0.9274517297744751,-0.9642163515090942,-0.832207202911377,0.46090924739837646,0.7339246869087219,0.5214447975158691,-0.28317347168922424,-0.23423120379447937,0.43239423632621765,1.3653764724731445,-0.22208335995674133,1.2697019577026367,-1.1273685693740845,0.1878175139427185,0.6744735240936279,0.2132120132446289,0.2394968420267105,-1.5468353033065796,-0.6974154710769653,0.5142099261283875,0.412240207195282,-1.3304945230484009,0.19605037569999695,0.7424302697181702,0.9849738478660583,-0.0668896734714508,2.019808053970337,0.38113948702812195,0.6372495293617249,-0.039264824241399765,0.9713042378425598,-1.0347470045089722,0.07267747074365616,1.6769272089004517,-1.2071062326431274,0.6526660919189453,-0.5633500218391418,-0.189800426363945,-0.7351583242416382,1.693229079246521,2.400132417678833,-0.3029569983482361,-0.34216585755348206,1.3796545267105103,-0.4709738492965698,1.1332151889801025,-0.5816184878349304,-0.5482273101806641,-0.07345183193683624,-1.1106064319610596,0.3091272711753845,0.9761227369308472,0.32652586698532104,-1.7458032369613647,-0.08950499445199966,-0.3875201642513275,0.7774040699005127,0.3953407406806946,-0.708482563495636,-0.4049655497074127,1.1507314443588257,-0.08536698669195175,-0.536497950553894,-0.17587195336818695,0.06905009597539902,-0.5743383765220642,0.4843653440475464,-0.22054514288902283,-0.4055927097797394,-0.989631175994873,0.08038050681352615,0.45138290524482727,0.46324217319488525,0.9843214750289917,1.180177927017212,-0.014513680711388588,0.17359575629234314,-1.2036200761795044,0.8058129549026489,0.7577918171882629,0.25646960735321045,0.44626539945602417,-0.9128490686416626,-0.014793635345995426,-0.37390848994255066,-0.5026441812515259,1.1075853109359741,-0.73252934217453,-0.6306219100952148,0.5102995038032532,-0.35436779260635376,1.2739086151123047,-1.0784153938293457,-0.6830623149871826,0.8484156131744385,-1.4115444421768188,-0.6911373734474182,0.1559624820947647,-1.130620002746582,-0.9140046238899231,0.7163947224617004,-0.8031370043754578,-0.3835461139678955,0.32629069685935974,-0.9705190062522888,-0.9302552342414856,-0.0358002595603466,-1.270584225654602,0.9021711945533752,0.35027873516082764,0.696118175983429,1.130989909172058,-0.3529864549636841,-1.3690420389175415,-0.7913437485694885,0.6788722276687622,0.6072681546211243,-0.3566696047782898,-0.1611209213733673,-0.0599224790930748,0.8775597214698792,0.07789478451013565,-0.35458219051361084,0.1925559937953949,0.01591874286532402,-1.0858418941497803,0.08722160756587982,0.07027348130941391,0.7418229579925537,-0.7820433974266052,0.10862620174884796,0.5463467240333557,-0.47913098335266113,-0.22715137898921967,0.07251833379268646,0.6029112339019775,1.0285395383834839,1.3969051837921143,1.1469769477844238,0.31559300422668457,0.8265981674194336,-0.8790065050125122,-0.5934564471244812,0.24199241399765015,0.6536779403686523,0.2696428894996643,-0.14383018016815186,-0.48193424940109253,-0.27189117670059204,0.07930391281843185,0.8664417266845703,-0.9486871361732483,-1.0154110193252563,1.239867091178894,-0.537890613079071,-0.9198923707008362,-0.7901079654693604,0.9347153902053833,0.40618443489074707,0.7105790376663208,-0.5012191534042358,1.3607672452926636,-0.11255533248186111,-0.03794853016734123,0.4441778063774109,1.2512807846069336,1.6465582847595215,0.8050582408905029,1.3572407960891724,-0.29952341318130493,0.26845118403434753,0.44266900420188904,-0.9871594309806824,-0.1289757788181305,-0.021213367581367493,-0.8768729567527771,1.4853887557983398,0.1395093947649002,-1.6979637145996094,-1.126165509223938,0.23648810386657715,-0.9217021465301514,-0.8703598976135254,0.42814627289772034,0.6443924903869629,0.21413519978523254,1.1986312866210938,-0.8531386256217957,-0.19293074309825897,-0.7977691292762756,-1.312276005744934,-0.7854769825935364,0.05393979698419571,-0.759239912033081,-1.0232200622558594,-0.8714777231216431,1.8291956186294556,-0.08067021518945694,-1.7608470916748047,1.363227128982544,-0.9681476950645447,0.5812246203422546,0.6077559590339661,0.1214587539434433
步骤,0.030642587691545486,0.029375389218330383,-0.0035827085375785828,0.029711881652474403,0.04476526752114296,-0.014719353057444096,0.002296190243214369,-0.02344842441380024,-0.06796250492334366,0.03837893158197403,-0.0008557794499211013,0.014020105823874474,0.041407160460948944,-0.05688223987817764,0.01751476526260376,-0.021049784496426582,0.019429009407758713,0.01050545647740364,0.0030656508170068264,0.04573904722929001,-0.025652660056948662,0.008641758002340794,-0.01788298226892948,0.052871882915496826,-0.08890853822231293,0.013825067318975925,0.017791781574487686,0.007811566349118948,-0.043284159153699875,0.038078323006629944,-0.05773551017045975,-0.0041351220570504665,-0.04488413408398628,0.009516754187643528,0.05200287327170372,0.018510203808546066,-0.00987245049327612,-0.032151687890291214,0.03893584385514259,0.04360933229327202,0.027321865782141685,0.036115862429142,-0.018508430570364,-0.021211102604866028,0.06593502312898636,-0.0028432251419872046,-0.05935191735625267,-0.013155916705727577,0.029079604893922806,0.04037647321820259,-0.004470455925911665,-0.014071982353925705,-0.019883379340171814,-0.002553047612309456,-0.019123297184705734,-0.04465947672724724,0.05366962030529976,0.03830946609377861,0.0263077300041914,0.0016361773014068604,0.030736759305000305,0.02536783739924431,-0.04274722933769226,-0.004739978350698948,-0.024080965667963028,-0.03232690319418907,0.033020876348018646,0.031423408538103104,0.014536270871758461,-0.07273873686790466,0.016647974029183388,-0.03543918952345848,0.019420204684138298,-0.08702600747346878,-0.03553195297718048,-0.015433594584465027,0.03710326924920082,0.001706198789179325,0.06052844226360321,0.0739395022392273,0.01355469599366188,-0.007915116846561432,0.031440913677215576,-0.015918519347906113,0.03212648257613182,0.02365444041788578,-0.004837682005017996,-0.00241339229978621,-0.013965979218482971,0.000415981252444908,-0.011168253608047962,0.03371349722146988,0.011696507222950459,-0.012653359211981297,0.0026695500127971172,0.0009147642995230854,-0.03607053682208061,0.024765517562627792,0.023860910907387733,-0.026026062667369843,0.008339128457009792,-0.02006026729941368,-0.060495324432849884,0.04043189436197281,0.008564210496842861,-0.07398764789104462,0.00544299092143774,-0.05642382428050041,0.009245027787983418,-0.050466179847717285,-0.043350934982299805,0.008910938166081905,0.016808202490210533,-0.007639676798135042,0.002176795620471239,-0.04671341925859451,0.012403233908116817,-0.015001222491264343,0.015631860122084618,-2.8006341381114908e-05,-0.02091008983552456,-0.030790217220783234,-0.013431561179459095,-0.029461683705449104,0.015315263532102108,-0.010117346420884132,0.061688248068094254,-0.009227868169546127,0.04028397053480148,-0.0328134186565876,0.036631256341934204,-0.008899036794900894,-0.004032370634377003,0.017421863973140717,-0.07341410964727402,0.000699884258210659,0.014908753335475922,-0.006918380502611399,0.02554171346127987,-0.00815531425178051,-0.03283870965242386,-0.0018028722843155265,0.026166176423430443,0.06118374317884445,-0.06108235567808151,-0.01401001401245594,0.006483057979494333,-0.008922594599425793,0.002381284488365054,-0.009057617746293545,-0.0459858775138855,-0.02632506936788559,0.008350151591002941,-0.045050326734781265,-0.03452128916978836,0.01934010349214077,-0.00042529607890173793,-0.018347876146435738,-0.012788176536560059,-0.008104107342660427,-0.014760162681341171,-0.008120758458971977,0.002477410016581416,0.037987954914569855,0.007673380430787802,0.017550896853208542,-0.07429935038089752,0.0245150625705719,0.04030369222164154,0.004700696561485529,-0.017010459676384926,0.042089588940143585,0.04183313250541687,-0.04257002845406532,0.01710074208676815,-0.02882358804345131,-0.008010325953364372,-0.027667948976159096,0.00315789389424026,-0.028966527432203293,0.04537808522582054,-0.014391325414180756,0.004626601468771696,0.0658385381102562,-0.02194071188569069,-0.019275452941656113,0.019888710230588913,0.036698758602142334,0.009314490482211113,0.043030451983213425,0.02921678125858307,0.03198628127574921,0.009103563614189625,0.02294052392244339,0.023994984105229378,-0.011349577456712723,0.0038165512960404158,0.04290201514959335,-0.013071424327790737,-0.0013267468893900514,0.011438819579780102,0.017487362027168274,0.07620078325271606,-0.00033443208667449653,-0.013857281766831875,0.027967281639575958,-0.009410322643816471,-0.034171007573604584,-0.0521228089928627,-0.018166396766901016,-0.024343887344002724,0.01696760766208172,-0.03361766040325165,0.030708670616149902,0.012724720872938633,-0.02655365690588951,-0.0031911120750010014,0.08338230848312378,-0.0012410443741828203,0.053136005997657776,0.05320160835981369,-0.002997332951053977,0.01884860172867775,0.034413889050483704,-0.05794396996498108,-0.012466740794479847,0.030212854966521263,-0.008358006365597248,0.024052593857049942,0.024578522890806198,-0.022417936474084854,-0.06423203647136688,0.025441715493798256,-0.0013582290848717093,-0.015045972540974617,-0.04628850519657135,-0.034033872187137604,0.020767463371157646,0.04039553180336952,-0.009184759110212326,-0.01845470629632473,-0.030397681519389153,0.0041658650152385235,-0.007543355692178011,-0.002019224688410759,-0.05824678763747215,-0.010164948180317879,0.009390962310135365,0.042207829654216766,-0.023660561069846153,-0.0948576107621193,0.014598332345485687,0.0030714054591953754,0.03823601081967354,0.002050103386864066,0.012152512557804585
速度,0.041631970554590225,0.2033749371767044,0.14403587579727173,0.05177177116274834,0.2523646056652069,-0.2512624263763428,-0.0020614569075405598,-0.17542049288749695,-0.4537324607372284,0.2559700906276703,0.020190412178635597,0.07183710485696793,0.06843502074480057,-0.24146772921085358,0.09157309681177139,-0.057755034416913986,0.2171163409948349,0.11084248870611191,-0.034579865634441376,0.4597941040992737,-0.20645463466644287,-0.06500501930713654,-0.174348846077919,0.4488648474216461,-0.41090989112854004,-0.1708231121301651,-0.02543158270418644,0.13494209945201874,-0.3284562826156616,0.22872407734394073,-0.19930574297904968,-0.016266660764813423,-0.18262848258018494,-0.08294932544231415,0.305522620677948,0.36116671562194824,0.14910733699798584,-0.2161562144756317,0.21844254434108734,0.23837056756019592,0.06423167884349823,0.30797988176345825,-0.027465350925922394,-0.1356889307498932,0.27268365025520325,-0.06754200905561447,-0.22522321343421936,-0.03808334469795227,0.23051433265209198,0.27477920055389404,0.020855018869042397,-0.11859022825956345,-0.03200719133019447,-0.11469036340713501,-0.13085436820983887,-0.3554340600967407,0.3174218237400055,0.16915342211723328,0.3186378479003906,-0.01573532074689865,0.026209427043795586,0.04406590014696121,-0.11893201619386673,-0.15106168389320374,-0.18366742134094238,-0.16803157329559326,0.2165834903717041,0.09813948720693588,0.09706586599349976,-0.3327186405658722,0.2698345184326172,-0.11380240321159363,0.03756798803806305,-0.3401893675327301,-0.2210269272327423,-0.42219316959381104,0.024306004866957664,0.10196596384048462,0.20924605429172516,0.5775067806243896,0.08129650354385376,-0.03819471225142479,0.15204188227653503,-0.04514314979314804,0.23276498913764954,0.09316562116146088,0.004423970822244883,0.09434697031974792,0.05209411308169365,0.04168356955051422,0.10188477486371994,0.25607985258102417,-0.1144939437508583,-0.021432220935821533,0.17895697057247162,-0.02848765067756176,-0.1857164055109024,0.08956093341112137,0.14213566482067108,-0.20622587203979492,0.08536049723625183,-0.035197533667087555,-0.2898167669773102,0.13825790584087372,0.08748246729373932,-0.37824341654777527,0.17240120470523834,-0.27847668528556824,0.1298483908176422,-0.23078230023384094,0.024791566655039787,0.17008252441883087,-0.012018976733088493,0.08544418960809708,0.1296141892671585,-0.3563840687274933,0.12420893460512161,0.00704973004758358,0.1867152750492096,0.04711386561393738,-0.041716307401657104,-0.21114227175712585,-0.10712219774723053,-0.21133825182914734,0.03914827108383179,-0.25725454092025757,0.08061353862285614,0.02833513170480728,0.20842309296131134,0.05897229164838791,0.2963084578514099,-0.3669869303703308,0.08226820826530457,-0.009165862575173378,-0.4189336895942688,-0.015787553042173386,0.1661073863506317,0.03282774239778519,0.0407283753156662,-0.10498544573783875,-0.14697198569774628,-0.09343673288822174,0.08444426953792572,0.17658253014087677,-0.4220309257507324,-0.09772609919309616,-0.018483856692910194,-0.001268130261451006,0.008226186968386173,-0.12721507251262665,-0.36219170689582825,0.022036978974938393,-0.04078158363699913,-0.26494693756103516,-0.20925801992416382,-0.00980991218239069,-0.005873349495232105,-0.10793459415435791,0.04473315551877022,-0.06890521198511124,-0.29808494448661804,0.009523065760731697,-0.24624599516391754,0.1903441846370697,0.07906067371368408,-0.006877892650663853,-0.5414281487464905,0.05212743580341339,0.1636531800031662,0.05994041636586189,-0.2598171830177307,0.382347047328949,0.14157332479953766,-0.21179364621639252,0.214685320854187,-0.19676804542541504,-0.15471123158931732,-0.13650527596473694,0.15076082944869995,-0.3316585421562195,0.13623033463954926,-0.08463120460510254,0.09023570269346237,0.16312642395496368,0.07063987106084824,-0.16849610209465027,0.022393500432372093,0.07996015250682831,0.02596328780055046,0.18550220131874084,-0.049108922481536865,0.14411863684654236,0.2364964634180069,0.2732684314250946,0.07380446791648865,0.06667295843362808,-0.12273432314395905,0.14745837450027466,-0.11357995867729187,0.33159488439559937,0.12905104458332062,0.1530897468328476,0.25598758459091187,-0.01709583029150963,-0.0018570643151178956,-0.010591513477265835,0.017282437533140182,-0.07941414415836334,-0.44392475485801697,-0.20733298361301422,-0.16842477023601532,-0.10309577733278275,-0.12686999142169952,0.13001753389835358,0.16140338778495789,-0.012848728336393833,-0.0466185063123703,0.516232967376709,-0.22534218430519104,0.2600008547306061,0.09580548852682114,-0.015788082033395767,0.0728081613779068,0.19727802276611328,-0.5251080393791199,-0.13025705516338348,0.36664628982543945,0.09320997446775436,0.018382955342531204,0.33226463198661804,-0.26892226934432983,-0.3814278841018677,0.01846625842154026,-0.072341687977314,-0.11647359281778336,-0.25268012285232544,-0.23100684583187103,0.20212441682815552,0.12134569138288498,-0.08340232819318771,-0.21198399364948273,0.082918681204319,0.12189813703298569,-0.046308647841215134,-0.053185585886240005,-0.3268037438392639,0.1380380392074585,0.04535648971796036,0.08860605955123901,-0.207701176404953,-0.4270302355289459,0.14169971644878387,0.14367932081222534,0.16749337315559387,-0.12318430840969086,0.5349342823028564
状态,0.22884468734264374,0.026344869285821915,0.1045570820569992,0.11898050457239151,0.37506115436553955,-0.17391033470630646,-0.017005881294608116,-0.20413537323474884,-0.3807149827480316,0.12857362627983093,0.08647719770669937,0.022527804598212242,0.046997714787721634,-0.2972129285335541,0.06611242145299911,-0.19288183748722076,0.20930857956409454,0.0016084944363683462,-0.10438956320285797,0.35681432485580444,-0.03917469084262848,0.0697929859161377,-0.09301835298538208,0.36983630061149597,-0.6828488707542419,0.0181341003626585,0.06920555979013443,0.12493939697742462,-0.3326174020767212,0.22931677103042603,-0.27857711911201477,0.006960281636565924,-0.20375658571720123,0.046693772077560425,0.4366660416126251,0.19644904136657715,0.272993803024292,-0.31040775775909424,0.3262921869754791,0.3789787292480469,0.13443514704704285,0.20329035818576813,-0.2302006632089615,-0.12615810334682465,0.47182515263557434,-0.08682993054389954,-0.4325776696205139,-0.04534340649843216,0.3793718218803406,0.3194507658481598,-0.20923669636249542,-0.2474490851163864,-0.15346461534500122,-0.032542090862989426,-0.3174628019332886,-0.4019731879234314,0.3811725080013275,-0.10636182129383087,0.09628121554851532,0.14991866052150726,0.2036827951669693,-0.005113326944410801,-0.15250186622142792,-0.0535217709839344,-0.30685028433799744,-0.12432391941547394,0.2717178463935852,0.27411237359046936,0.10237843543291092,-0.4481384754180908,0.13594196736812592,-0.3418431580066681,0.1415596902370453,-0.5088015794754028,-0.28368455171585083,-0.24344028532505035,0.15985901653766632,-0.05813683196902275,0.3282458782196045,0.5469498038291931,0.10042719542980194,-0.06763754785060883,0.20736262202262878,-0.049572788178920746,0.145907461643219,0.22152648866176605,-0.0358370877802372,-0.017648566514253616,0.016922494396567345,-0.11029530316591263,-6.959638085390907e-06,0.2725469172000885,-0.02411765791475773,0.016355708241462708,0.03145047277212143,-0.07851890474557877,-0.32595568895339966,0.14297591149806976,0.17059440910816193,-0.20071184635162354,0.20147278904914856,-0.004572404082864523,-0.48890289664268494,0.2836630046367645,0.06585565954446793,-0.44374269247055054,0.17663703858852386,-0.3732333481311798,0.11689251661300659,-0.2979077398777008,-0.15297314524650574,0.1689087450504303,0.07143034785985947,0.06797464191913605,0.055738665163517,-0.34767627716064453,0.08872392028570175,0.013043442741036415,0.18736831843852997,-0.17278671264648438,-0.18450675904750824,-0.27805209159851074,-0.057825542986392975,-0.22349593043327332,0.007731746882200241,-0.023453161120414734,0.2133503258228302,-0.00020127840980421752,0.1993887722492218,-0.16676688194274902,0.13799986243247986,-0.14945684373378754,0.06481915712356567,0.137043759226799,-0.4889031946659088,-0.25006765127182007,0.017892956733703613,-0.06125019118189812,0.0904056578874588,-0.014991563744843006,-0.2764914631843567,-0.1364007443189621,0.04296581819653511,0.38360753655433655,-0.4450204074382782,-0.08966927230358124,-0.08057919144630432,-0.17097695171833038,-0.059022944420576096,-0.06674141436815262,-0.30591049790382385,-0.1014164462685585,0.07569729536771774,-0.26656702160835266,-0.17781823873519897,0.06825213879346848,-0.1684461236000061,-0.1702704280614853,0.019640924409031868,-0.23868277668952942,-0.3537002205848694,-0.07843337208032608,-0.22496309876441956,0.2208569496870041,-0.091166652739048,0.12454976886510849,-0.5425934791564941,0.07253626734018326,0.32598015666007996,0.027643149718642235,-0.2346818894147873,0.39350438117980957,0.2976675033569336,-0.23740611970424652,0.1332966536283493,-0.07048742473125458,-0.2362506091594696,-0.1437039077281952,-0.0625825822353363,-0.3833023011684418,0.3276849687099457,-0.11522875726222992,0.20870625972747803,0.3174888789653778,-0.03010581247508526,-0.2187531441450119,0.041095852851867676,0.2514190375804901,0.04882848262786865,0.2709197402000427,0.10939425230026245,0.35680142045021057,0.043672919273376465,0.28978702425956726,0.15816201269626617,0.17047148942947388,0.013661962933838367,0.2366277575492859,-0.06699061393737793,0.08797331899404526,0.23496641218662262,0.00718911224976182,0.5307196974754333,-0.004101098049432039,-0.10164400935173035,-0.0033840113319456577,-0.18223479390144348,-0.4069958031177521,-0.41946902871131897,-0.18555928766727448,-0.18447764217853546,0.04365668445825577,-0.08749289065599442,0.14224600791931152,0.1787518411874771,-0.002274965401738882,-0.020291278138756752,0.616565465927124,-0.18103666603565216,0.43225038051605225,0.231252521276474,0.05379096046090126,0.21231859922409058,0.326001912355423,-0.3745705783367157,-0.043657172471284866,0.2797218859195709,-0.002692326670512557,0.10192009061574936,0.3777916431427002,-0.17434509098529816,-0.33821988105773926,0.08771678805351257,-0.12123315036296844,-0.13738209009170532,-0.3396719694137573,-0.21758440136909485,0.2753772735595703,0.1564624309539795,-0.02339056320488453,-0.1983831226825714,-0.06458435207605362,0.1613643318414688,-0.0003380809794180095,-0.04658040404319763,-0.4833388030529022,0.06305592507123947,-0.08895017951726913,0.1047324612736702,-0.18499483168125153,-0.47863176465034485,0.008174451068043709,0.14151717722415924,0.22407791018486023,0.06230560317635536,0.28464579582214355
方法,0.08664929121732712,-0.04475277289748192,0.2047991305589676,0.42651498317718506,0.6050471067428589,-0.23491305112838745,-0.12909956276416779,-0.18510858714580536,-0.5527597665786743,0.4678099453449249,-0.07837671041488647,0.25485464930534363,0.3798922598361969,-0.41979092359542847,0.053253185003995895,-0.045137472450733185,0.5918877124786377,0.47896090149879456,-0.4545798599720001,1.0979562997817993,-0.120534248650074,0.2289499044418335,-0.42554333806037903,0.36923855543136597,-0.7746241092681885,-0.17010393738746643,0.022268371656537056,-0.08334733545780182,-0.6225206851959229,0.7002106308937073,-0.2712304890155792,0.14732761681079865,-0.24510878324508667,0.06281609833240509,0.6956361532211304,0.5737239122390747,0.15743057429790497,-0.4119919240474701,0.3720197081565857,0.6564612984657288,-0.041985463351011276,0.012976331636309624,-0.2573619484901428,-0.31086692214012146,0.6508316397666931,0.05307747796177864,-0.8223286867141724,0.19542919099330902,0.3984341621398926,0.7014082670211792,-0.47769930958747864,-0.17702458798885345,-0.00862206518650055,-0.5973119735717773,-0.6850035190582275,-0.5330015420913696,0.44084852933883667,-0.05509720742702484,0.5792429447174072,0.09863990545272827,-0.03629118204116821,-0.010471723973751068,0.1527189463376999,-0.1767025738954544,-0.6202241778373718,0.04897330701351166,0.44170063734054565,0.1737959384918213,0.005391796585172415,-0.41939300298690796,0.10330130159854889,-0.025181476026773453,0.026256022974848747,-0.6313253045082092,0.045381542295217514,-0.641575813293457,0.3915349841117859,0.2943367063999176,0.3246512711048126,0.6346111297607422,0.25361087918281555,-0.1301613599061966,0.30012738704681396,0.3175458014011383,0.2255050539970398,0.15332087874412537,-0.06772298365831375,0.45802974700927734,0.09649163484573364,0.07491647452116013,0.16976748406887054,0.3171554207801819,-0.15398438274860382,0.008398259989917278,0.1969476342201233,0.23094992339611053,-0.30151331424713135,0.23241382837295532,0.0737975537776947,-0.32731688022613525,0.19555869698524475,-0.48978450894355774,-0.2211744487285614,0.5196371674537659,-0.12032965570688248,-0.6793168783187866,0.3359239995479584,-0.3616692125797272,0.22185689210891724,-0.09204478561878204,-0.013419345952570438,0.4760599136352539,0.32771024107933044,0.19017374515533447,-0.31452086567878723,-0.4167676568031311,-0.12440001964569092,0.07407239824533463,-0.0316622294485569,-0.24523493647575378,-0.22569258511066437,-0.37461012601852417,0.3152526319026947,0.009351626969873905,-0.13361382484436035,0.14365768432617188,0.3279978930950165,0.4468156099319458,0.3659224510192871,0.044328656047582626,0.4754446744918823,-0.3580798804759979,0.0966683030128479,-0.18565744161605835,-0.7289538979530334,-0.11318125575780869,0.13083145022392273,-0.1805463582277298,0.18154044449329376,-0.32913586497306824,-0.13145217299461365,-0.23805826902389526,-0.0018220829078927636,0.359902024269104,-0.7794587016105652,-0.008753851056098938,0.10772958397865295,0.0008503213175572455,0.017507808282971382,-0.14252780377864838,-0.740645706653595,-0.198661670088768,-0.11636902391910553,-0.28221192955970764,-0.3059748113155365,0.04164836183190346,-0.5715427994728088,-0.11672673374414444,0.13508354127407074,-0.617286205291748,-0.3182455897331238,0.1666765660047531,-0.48989981412887573,0.14507880806922913,-0.12010296434164047,-0.0671134814620018,-1.0543725490570068,-0.28395310044288635,0.2076450139284134,0.5191623568534851,-0.13798803091049194,0.37042930722236633,-0.0768933892250061,-0.2958736717700958,0.02694590762257576,-0.2825208008289337,0.0783814787864685,-0.23885251581668854,0.6211398839950562,-0.7374959588050842,0.14691075682640076,-0.32251718640327454,0.11381591856479645,0.18922241032123566,0.32414987683296204,-0.4423733949661255,-0.15948154032230377,0.03890806436538696,0.25742408633232117,0.3658357858657837,-0.4419444501399994,-0.0616537444293499,0.4121575951576233,0.19051603972911835,0.1339081972837448,0.11716148257255554,0.20930908620357513,0.27756810188293457,-0.31683221459388733,0.3971535563468933,0.03677234798669815,0.18477986752986908,0.40737977623939514,-0.20753373205661774,-0.07833143323659897,0.05610809102654457,-0.5160757899284363,-0.14900058507919312,-0.9529773592948914,-0.1668548285961151,0.13164137303829193,-0.06519963592290878,0.013890169560909271,0.11690983176231384,0.6733611822128296,0.06345539540052414,0.047461144626140594,0.7489503026008606,-0.160915806889534,0.42572876811027527,-0.3313150107860565,0.11827873438596725,0.1605677306652069,0.30657076835632324,-0.6595510840415955,-0.14000678062438965,0.5057938098907471,0.18853025138378143,0.015890421345829964,0.5392152667045593,-0.2797982394695282,-0.6054001450538635,-0.21375463902950287,-0.3074888288974762,-0.04079722613096237,-0.35923242568969727,-0.18219509720802307,0.6245400905609131,0.3823898136615753,0.10403264313936234,-0.260739803314209,0.17616263031959534,-0.06436595320701599,-0.03212237358093262,0.005583164747804403,-0.5305857062339783,0.07423586398363113,-0.23587241768836975,-0.19855329394340515,-0.36853867769241333,-0.46608656644821167,0.06941432505846024,0.3258187174797058,0.29878416657447815,-0.08856862038373947,0.7506927847862244
具有,0.22538524866104126,0.17229938507080078,0.15562570095062256,0.18745960295200348,0.32698237895965576,-0.23284636437892914,-0.09839512407779694,-0.2524012625217438,-0.5060232877731323,0.24997073411941528,0.017099592834711075,0.13990330696105957,0.13482330739498138,-0.38536980748176575,0.03258727490901947,-0.14182783663272858,0.22336293756961823,0.21430011093616486,-0.10609003156423569,0.4492090046405792,-0.19216227531433105,0.05641794204711914,-0.14785298705101013,0.48875609040260315,-0.6538648009300232,-0.05634632706642151,0.11537008732557297,0.18579864501953125,-0.4480021297931671,0.30185940861701965,-0.3372410833835602,0.004097938537597656,-0.29470235109329224,-0.012089627794921398,0.45267635583877563,0.38703128695487976,0.12584902346134186,-0.3336913585662842,0.3166482448577881,0.34320855140686035,0.11960669606924057,0.3165110945701599,-0.17878389358520508,-0.24192705750465393,0.37932074069976807,-0.017324460670351982,-0.42235660552978516,-0.12454584240913391,0.3491601049900055,0.3247973620891571,-0.18067963421344757,-0.22389733791351318,-0.14271749556064606,-0.19353488087654114,-0.2355186641216278,-0.42755380272865295,0.45805302262306213,0.1738395392894745,0.23783043026924133,-0.056809425354003906,0.1709565818309784,0.16184985637664795,-0.15175680816173553,-0.02905770018696785,-0.26648327708244324,-0.12858787178993225,0.33417704701423645,0.2066546231508255,0.1308346837759018,-0.481374055147171,0.16677530109882355,-0.1720014214515686,0.0950455442070961,-0.5035611987113953,-0.22996774315834045,-0.329293429851532,0.16418761014938354,0.04372970387339592,0.4106982350349426,0.6522638201713562,0.2635692059993744,0.011731951497495174,0.2772984206676483,-0.15208706259727478,0.26526930928230286,0.26249098777770996,-0.09896763414144516,0.0013101757504045963,-0.05984032154083252,-0.013399884104728699,0.024370327591896057,0.42378857731819153,0.02002515271306038,-0.011936594732105732,0.031174885109066963,0.01804841123521328,-0.3805673122406006,0.1470431089401245,0.2085816115140915,-0.3431738317012787,0.1375890076160431,-0.15332050621509552,-0.3523801267147064,0.26933494210243225,0.07506965100765228,-0.5747610330581665,0.11165783554315567,-0.3942646086215973,0.18713927268981934,-0.24682484567165375,-0.2104412466287613,0.16572324931621552,0.08607705682516098,0.08606601506471634,0.041976168751716614,-0.4253465533256531,0.040662981569767,-0.052892521023750305,0.1971805989742279,-0.04378192871809006,-0.12424919009208679,-0.29732465744018555,-0.04676547646522522,-0.28107208013534546,0.162177175283432,-0.10407795011997223,0.3774036467075348,0.04138665273785591,0.2501230537891388,-0.07470265030860901,0.3812636435031891,-0.2011638730764389,0.036730822175741196,0.054020170122385025,-0.5158984661102295,-0.14231248199939728,0.12758104503154755,0.020293163135647774,0.163512721657753,-0.15861175954341888,-0.26111412048339844,-0.02703162282705307,0.10199286043643951,0.3305650055408478,-0.5286701321601868,-0.16346779465675354,0.020564936101436615,-0.10826227813959122,-0.05794062837958336,-0.11712945997714996,-0.4963008165359497,-0.0868494063615799,0.019953519105911255,-0.30219730734825134,-0.2230091542005539,0.07461050152778625,-0.07793188095092773,-0.21191364526748657,0.016564078629016876,-0.20574018359184265,-0.3142947256565094,-0.08836213499307632,-0.26348933577537537,0.30254778265953064,0.011984609998762608,0.039371639490127563,-0.6046761870384216,0.13644564151763916,0.27786538004875183,0.04360334947705269,-0.23083099722862244,0.42916956543922424,0.29306408762931824,-0.19589796662330627,0.1413436233997345,-0.15568631887435913,-0.1758064180612564,-0.1319231390953064,-0.015020731836557388,-0.36613890528678894,0.3150123953819275,-0.1852206289768219,0.09656601399183273,0.3504309356212616,-0.04448871314525604,-0.2903960645198822,0.05420498549938202,0.20603010058403015,0.12848618626594543,0.34280267357826233,-0.008414090611040592,0.2862309515476227,0.25078538060188293,0.20447683334350586,0.09239767491817474,0.08897817879915237,0.018780404701828957,0.24715599417686462,-0.08957261592149734,0.20801201462745667,0.1569870114326477,0.1877819448709488,0.5482946634292603,-0.011787044815719128,-0.1478271782398224,0.05740510672330856,-0.13008908927440643,-0.2691330015659332,-0.6061072945594788,-0.17151980102062225,-0.18912599980831146,0.0476435050368309,-0.2205144315958023,0.23091596364974976,0.23577509820461273,-0.03064124658703804,0.027472568675875664,0.6954338550567627,-0.10109824687242508,0.46737754344940186,0.26761582493782043,0.07541611790657043,0.1819475144147873,0.4094940721988678,-0.6319732666015625,-0.14886929094791412,0.43044087290763855,0.00992703065276146,0.11781178414821625,0.44407716393470764,-0.3411930203437805,-0.541763424873352,0.027183063328266144,-0.08319664746522903,-0.1090506985783577,-0.4235159158706665,-0.2129649817943573,0.332025408744812,0.2556600272655487,-0.13066434860229492,-0.2074565291404724,-0.01302834041416645,0.07494989037513733,-0.06604937463998795,-0.08139486610889435,-0.4956743121147156,0.04072859138250351,-0.09528442472219467,0.2214183211326599,-0.13525806367397308,-0.585106611251831,0.12544742226600647,0.023132214322686195,0.20980116724967957,-0.0287636686116457,0.442841500043869
继续,0.027362117543816566,-0.00020422744273673743,0.020943939685821533,0.032999537885189056,0.02708224020898342,0.008484137244522572,-0.019633963704109192,-0.023431330919265747,-0.035471778362989426,-0.00026976526714861393,-0.0024742090608924627,0.031198948621749878,0.028531339019536972,-0.030927123501896858,0.005083393771201372,-0.015393493697047234,0.0022631653118878603,0.02860630862414837,-0.01979336142539978,0.0028728386387228966,-0.006216241046786308,0.017290428280830383,0.017629211768507957,0.012191264890134335,-0.05080704763531685,0.018628224730491638,0.03746098279953003,0.01024097204208374,-0.02660321444272995,0.025624344125390053,-0.03715737909078598,0.013744763098657131,-0.024970227852463722,0.00515980226919055,0.0302362609654665,-0.005082434508949518,-0.011574622243642807,-0.027847621589899063,0.008829867467284203,0.0361294187605381,0.01833994872868061,0.00028724168078042567,-0.027647053822875023,-0.004260562825948,0.008869499899446964,0.0181148499250412,-0.05420175939798355,-0.016157202422618866,0.02372775599360466,0.02274753898382187,-0.029512910172343254,-0.01828400231897831,-0.03035864047706127,-0.020999029278755188,-0.04211660474538803,0.00024216271413024515,0.02463149093091488,0.005454937927424908,-0.0058189756236970425,0.00220029940828681,0.023850485682487488,0.03502700477838516,-0.007715881802141666,0.03029490076005459,-0.03073478676378727,0.002324680332094431,0.010489290580153465,0.008034802041947842,0.013669393956661224,-0.03178151324391365,-0.012458709999918938,0.0014109564945101738,0.010505514219403267,-0.04479995742440224,-0.0056455498561263084,0.013656853698194027,0.03813069313764572,0.00287753832526505,0.051387887448072433,0.028296375647187233,0.03545637056231499,0.007652540225535631,0.0338483490049839,-0.01463004108518362,-0.005142823327332735,0.0384952686727047,-0.030836783349514008,-0.010711988434195518,-0.02223433367908001,-0.025084184482693672,-0.01899956539273262,0.016313400119543076,0.03285869210958481,-0.00626502837985754,-0.021886708214879036,0.017554525285959244,-0.026497866958379745,0.027913695201277733,0.01619168184697628,-0.04268435016274452,0.012674316763877869,-0.03320890665054321,-0.013906429521739483,0.0416068434715271,-0.015706827864050865,-0.04515087977051735,0.004745159763842821,-0.030627518892288208,0.00856303982436657,-0.0033791118767112494,-0.04427970573306084,0.009432748891413212,0.02207140438258648,0.01321500539779663,-0.020331427454948425,-0.016956627368927002,0.0015894754324108362,-0.00492497393861413,0.0192012470215559,-0.019654525443911552,-0.01939048431813717,-0.024319851770997047,0.012646166607737541,0.0044906847178936005,0.0071806833148002625,0.04030889645218849,0.035913534462451935,0.0034697947558015585,-0.0008581058355048299,-0.036291420459747314,0.00931320246309042,0.029729323461651802,-0.013224482536315918,0.02017635852098465,-0.032425347715616226,-0.02900560386478901,-0.0058226254768669605,-0.008931170217692852,0.023303227499127388,-0.023682206869125366,-0.031356487423181534,0.01049528457224369,-0.006716047413647175,0.04168601706624031,-0.04346257075667381,-0.02594110555946827,0.009369736537337303,-0.03674637898802757,-0.007932961918413639,0.008506091311573982,-0.03166890889406204,-0.01725609228014946,0.0072449189610779285,-0.0327291302382946,-0.00784323550760746,0.007348027545958757,-0.026785291731357574,-0.016555804759263992,0.0015088215004652739,-0.047822847962379456,-0.007550007663667202,-0.01351231150329113,-0.010154400952160358,0.025556107982993126,-0.021920878440141678,-0.00846001598984003,-0.008831818588078022,0.013509834185242653,0.014793035574257374,0.0012367923045530915,0.0007569693261757493,-0.0021567291114479303,0.03271570801734924,-0.00990916695445776,-0.004979172721505165,0.008799326606094837,0.007143621798604727,-0.015170522965490818,-0.012661809101700783,-0.021127285435795784,0.03327308967709541,-0.030606666579842567,0.004810040816664696,0.03335868567228317,-0.00641397200524807,-0.0340387225151062,0.01153504941612482,0.032625071704387665,0.038378775119781494,0.03248361870646477,0.00842004269361496,0.035559654235839844,0.01060794573277235,-0.02234455943107605,0.0018608288373798132,0.009367706254124641,0.023020178079605103,0.012999540194869041,0.00480438070371747,-0.00813127402216196,0.008298596367239952,0.014446701854467392,0.05525026470422745,-0.011140196584165096,-0.030072662979364395,0.040251363068819046,-0.02271580509841442,-0.027161266654729843,-0.03268367424607277,0.01349823921918869,-0.0010072082513943315,0.02952556684613228,-0.023911049589514732,0.02847873792052269,0.0032613647636026144,0.003938143141567707,0.016402728855609894,0.03845776244997978,0.028029421344399452,0.03903989493846893,0.024520602077245712,0.0067071374505758286,0.022159645333886147,0.042347367852926254,-0.04046821594238281,0.006099938414990902,-0.0066485777497291565,-0.011176283471286297,0.030003948137164116,0.01955287717282772,-0.03579943627119064,-0.024394353851675987,0.008514243178069592,-0.0029657839331775904,-0.01836247369647026,-0.023303164169192314,0.012128163129091263,0.03921593725681305,0.033145952969789505,-0.0048040468245744705,-0.008840902708470821,-0.0003275554918218404,-0.023208435624837875,-0.007421235088258982,-0.0012662755325436592,-0.043847810477018356,-0.020067745819687843,-0.03252152353525162,0.02561335265636444,-0.005813166499137878,-0.048230964690446854,0.01902541145682335,-0.013850660994648933,0.018792562186717987,0.027015170082449913,0.0017126471502706409
内燃机,0.08450984209775925,0.029074301943182945,-0.0012390209594741464,0.04096583276987076,0.036518968641757965,-0.032458096742630005,-0.014518697746098042,-0.03802863880991936,-0.10332208126783371,0.05214550346136093,-0.03828282281756401,0.022345654666423798,0.06881717592477798,-0.04109271243214607,0.026075713336467743,-0.024161890149116516,-0.023688195273280144,0.00977305043488741,-0.004661470651626587,0.02550962194800377,-0.011820124462246895,0.01291809044778347,0.007022683508694172,0.11336922645568848,-0.08984775096178055,0.03641007840633392,0.06573911756277084,0.045068662613630295,-0.05047174543142319,0.0635986253619194,-0.09773389250040054,-0.008298044092953205,-0.014081411063671112,0.006892895791679621,0.05210450291633606,0.03325968608260155,-0.01611473597586155,-0.06176488474011421,0.04112623631954193,0.07440178096294403,0.04216965660452843,0.05239088460803032,-0.03855227306485176,-0.024246301501989365,0.039158839732408524,0.014006931334733963,-0.07751502841711044,-0.032962165772914886,0.06539790332317352,0.026662694290280342,-0.024529268965125084,-0.04318105801939964,-0.08090333640575409,0.0104350121691823,-0.04064696282148361,-0.06260138750076294,0.07993753254413605,0.056956324726343155,0.03945225849747658,-0.009663318283855915,0.0510365255177021,0.04565491899847984,-0.051627643406391144,0.010103750042617321,-0.03342122957110405,-0.049104057252407074,0.05863921344280243,0.024811027571558952,0.04661570116877556,-0.0906270369887352,0.033295124769210815,-0.017823748290538788,0.02358943782746792,-0.09523119032382965,-0.03364257141947746,-0.020024819299578667,0.04314139485359192,0.010372383520007133,0.08314584940671921,0.06964723765850067,0.012349582277238369,0.014445246197283268,0.04470449313521385,-0.07177197933197021,0.03677750006318092,0.034561771899461746,-0.048825953155756,-0.010639808140695095,-0.03809843584895134,-0.003150263335555792,-0.015618961304426193,0.07254870235919952,0.011148173362016678,-0.031764619052410126,0.013372328132390976,-0.007051154505461454,-0.05915389955043793,0.040868841111660004,0.044545140117406845,-0.026278646662831306,0.04353385046124458,0.013904678635299206,-0.06901966035366058,0.018887914717197418,-0.010351565666496754,-0.11048466712236404,0.011800453998148441,-0.06990228593349457,0.022702479735016823,-0.03406323865056038,-0.0756509080529213,0.007657572161406279,-0.016244716942310333,-0.0030116059351712465,0.029311537742614746,-0.03247910365462303,-0.001143288565799594,-0.036645665764808655,0.04818697273731232,-0.007229614071547985,-0.012641538865864277,-0.04913448542356491,-0.01009219791740179,-0.03247903659939766,0.04913567379117012,-0.02906157448887825,0.04521016776561737,-0.015364847145974636,0.0029914015904068947,-0.020676396787166595,0.042527515441179276,0.01983519271016121,-0.005382058210670948,0.021464543417096138,-0.07892590761184692,-0.02106347121298313,0.030497364699840546,0.01079369056969881,0.03210105001926422,-0.012952816672623158,-0.04097703844308853,-0.021438295021653175,0.012431030161678791,0.06702715158462524,-0.08513060212135315,-0.04446392506361008,0.0165412537753582,-0.04567819833755493,-0.015744557604193687,-0.010295240208506584,-0.05200864002108574,-0.035782381892204285,0.012056686915457249,-0.08760711550712585,-0.025245526805520058,0.02809065952897072,-0.03599792718887329,-0.051117993891239166,-0.01375946681946516,-0.050499748438596725,-0.07162686437368393,-0.031062491238117218,-0.035626113414764404,0.08038023859262466,-0.01097510289400816,-0.002159679075703025,-0.07969050854444504,0.03640710189938545,0.06178395077586174,-0.013641913421452045,-0.03323929011821747,0.055110227316617966,0.06849464029073715,-0.013910715468227863,0.03237438574433327,-0.01976039446890354,-0.012887807562947273,-0.03994164988398552,-0.029561590403318405,-0.021246764808893204,0.07340000569820404,-0.04037000611424446,-0.023175982758402824,0.027695851400494576,-0.04448842629790306,-0.06526266783475876,0.045739561319351196,0.07550839334726334,0.04369271919131279,0.061928823590278625,0.01793467253446579,0.0720875933766365,0.012324836105108261,0.017350565642118454,-0.006278492510318756,0.013049155473709106,-0.007646588608622551,0.05545113608241081,-0.014585474506020546,0.018089519813656807,0.03878466784954071,0.04716150462627411,0.12377875298261642,-0.012445338070392609,-0.021711675450205803,0.03903019800782204,-0.0032248080242425203,-0.033468518406152725,-0.08083286881446838,-0.015877103433012962,-0.05462334677577019,0.052948012948036194,-0.034095291048288345,0.05904005095362663,0.028089353814721107,-0.026651456952095032,0.002129669999703765,0.08123713731765747,0.01990591362118721,0.06599549949169159,0.07814183086156845,0.012944182381033897,0.00565325515344739,0.0444815456867218,-0.07872831076383591,-0.01860250160098076,0.031195946037769318,-2.7833935746457428e-05,0.018925432115793228,0.04640335217118263,-0.03346395492553711,-0.06487149745225906,0.055180542171001434,-0.020248623564839363,-0.012023508548736572,-0.06763201206922531,-0.01873214915394783,0.05238728225231171,0.034659821540117264,-0.03241045027971268,-0.018249331042170525,-0.022123737260699272,0.012091399170458317,-0.018249882385134697,0.005437313579022884,-0.08189989626407623,-0.015490361489355564,-0.03661064803600311,0.040983885526657104,0.015993228182196617,-0.11956769973039627,0.03505426645278931,-0.009691186249256134,0.020485827699303627,0.03501931577920914,0.016210928559303284
过程,0.195895254611969,0.14683322608470917,0.12362177670001984,0.21744036674499512,0.2996472120285034,-0.13298861682415009,-0.049534231424331665,-0.29375189542770386,-0.534050464630127,0.23322145640850067,-0.0067623755894601345,0.19852478802204132,0.2318970263004303,-0.3261461555957794,0.06976936012506485,-0.13629262149333954,0.12565085291862488,0.2068718671798706,-0.13152654469013214,0.39301860332489014,-0.17396904528141022,0.07263506948947906,-0.12984542548656464,0.3899974226951599,-0.4783637821674347,0.05249064788222313,0.12624189257621765,0.13741172850131989,-0.37160801887512207,0.34522905945777893,-0.387853741645813,0.006676061078906059,-0.16986921429634094,-0.017957761883735657,0.4560500383377075,0.3091002106666565,0.06362667679786682,-0.30205634236335754,0.2176809012889862,0.37343835830688477,0.12561066448688507,0.2288060039281845,-0.15564537048339844,-0.18056002259254456,0.3388710916042328,-0.04553443565964699,-0.44761404395103455,-0.08301565051078796,0.36304208636283875,0.37877005338668823,-0.14049024879932404,-0.12692874670028687,-0.18662093579769135,-0.11074985563755035,-0.33430472016334534,-0.33184558153152466,0.3892044723033905,0.16922323405742645,0.20881898701190948,-0.002710120752453804,0.07423712313175201,0.17222172021865845,-0.12262815982103348,0.01492022629827261,-0.31907814741134644,-0.16143393516540527,0.3570989966392517,0.1266670525074005,0.11818384379148483,-0.3880027234554291,0.15593108534812927,-0.07895107567310333,0.06365838646888733,-0.5006444454193115,-0.14575868844985962,-0.29298749566078186,0.19268867373466492,0.10084709525108337,0.4556904435157776,0.5641487836837769,0.12420845031738281,-0.015575649216771126,0.24694398045539856,-0.09729046374559402,0.12294899672269821,0.17101822793483734,-0.09146882593631744,0.1329597532749176,-0.03754178807139397,-0.060474321246147156,0.014251559972763062,0.32471051812171936,0.057575128972530365,-0.09482234716415405,0.06276673078536987,0.05634588003158569,-0.29313498735427856,0.25724533200263977,0.12064564228057861,-0.2889746427536011,0.11359987407922745,-0.1334414780139923,-0.2941935360431671,0.30699270963668823,0.025766646489501,-0.4861733317375183,0.17336763441562653,-0.3472960293292999,0.20717111229896545,-0.15665102005004883,-0.16450296342372894,0.1242142915725708,0.056444961577653885,0.06404177099466324,0.01871711201965809,-0.33177459239959717,0.06854919344186783,-0.10377033799886703,0.17653988301753998,-0.011710361577570438,-0.07829221338033676,-0.2827911078929901,0.028607608750462532,-0.19247585535049438,0.09966430068016052,-0.03735687583684921,0.2524210512638092,0.08596892654895782,0.1745610386133194,-0.09225809574127197,0.33036598563194275,-0.17086270451545715,0.055687855929136276,0.03866107389330864,-0.4958963990211487,-0.08410487323999405,0.14376910030841827,-0.04214094951748848,0.165040984749794,-0.18417377769947052,-0.1903519481420517,-0.08562436699867249,-0.008002721704542637,0.35169580578804016,-0.5657830834388733,-0.07838618755340576,0.04404770955443382,-0.1764533370733261,0.006553524639457464,-0.06798163801431656,-0.38484835624694824,-0.15961268544197083,-0.012269978411495686,-0.40618696808815,-0.24344556033611298,0.03967513516545296,-0.1264858841896057,-0.16908568143844604,0.04721023514866829,-0.3092341721057892,-0.2592732906341553,-0.04928676784038544,-0.25569838285446167,0.31388792395591736,-0.06059660017490387,-0.05725599080324173,-0.60284024477005,0.058954641222953796,0.2886872887611389,0.09313654899597168,-0.21543453633785248,0.31075984239578247,0.22372400760650635,-0.18545489013195038,0.12660297751426697,-0.16964106261730194,-0.03353596106171608,-0.19826240837574005,0.07746028900146484,-0.29165199398994446,0.2718404531478882,-0.1403057724237442,0.026893235743045807,0.18738724291324615,0.029596714302897453,-0.2785507142543793,0.08988349884748459,0.14228887856006622,0.1849522888660431,0.31336769461631775,-0.02287585474550724,0.1712099015712738,0.253072589635849,0.11820673197507858,0.027182407677173615,0.08129768073558807,0.03112199902534485,0.25990140438079834,-0.08386197686195374,0.24816304445266724,0.16657835245132446,0.20562051236629486,0.42222100496292114,-0.06753464043140411,-0.13770316541194916,0.1734246164560318,-0.13572846353054047,-0.1537046581506729,-0.5245438814163208,-0.0772959291934967,-0.11276984959840775,0.06787316501140594,-0.0766901969909668,0.28495973348617554,0.1317831426858902,-0.06262286007404327,-0.008428416214883327,0.6101290583610535,-0.06587615609169006,0.38724493980407715,0.18377375602722168,0.0429222472012043,0.15797430276870728,0.3070981204509735,-0.5365796685218811,-0.09283523261547089,0.29759928584098816,0.02124216966331005,0.1331041306257248,0.3346986770629883,-0.33617374300956726,-0.4539619982242584,0.10353085398674011,-0.07754715532064438,-0.15801768004894257,-0.2511712312698364,-0.16377757489681244,0.32192912697792053,0.23571395874023438,-0.10690510272979736,-0.21642111241817474,0.045335400849580765,0.051538873463869095,-0.05259387195110321,-0.10473073273897171,-0.4916855990886688,-0.008225330151617527,-0.07174746692180634,0.174220472574234,-0.11322879791259766,-0.531358540058136,0.12923885881900787,0.09551791101694107,0.1786450445652008,-0.006373538635671139,0.44008123874664307
条件,0.04841415211558342,0.028971586376428604,0.01884414628148079,0.043138980865478516,0.09124848991632462,-0.049904629588127136,-0.004553617909550667,-0.054186172783374786,-0.0992077961564064,0.0725739598274231,-0.013755365274846554,0.002920283004641533,0.09330461174249649,-0.059649042785167694,0.021192099899053574,-0.04583359509706497,0.03233413025736809,0.043090518563985825,-0.04176865145564079,0.13513527810573578,-0.03233049437403679,0.01845405250787735,-0.03787814825773239,0.10813155025243759,-0.15912969410419464,0.012159443460404873,0.04610050842165947,0.019481154158711433,-0.10218214243650436,0.12117008119821548,-0.11247280240058899,0.006574186962097883,-0.05551140755414963,0.006146828643977642,0.11158501356840134,0.06148552522063255,0.019945546984672546,-0.06253848224878311,0.06039576604962349,0.12046908587217331,0.009246304631233215,0.03679825738072395,-0.025059591978788376,-0.03499165549874306,0.08676460385322571,0.012488874606788158,-0.11378799378871918,-0.008401051163673401,0.08585818856954575,0.07913555949926376,-0.05568554997444153,-0.04241209477186203,-0.05258145183324814,-0.03177546709775925,-0.09188520908355713,-0.09843287616968155,0.09500052779912949,0.0423860140144825,0.07222005724906921,0.004089146386831999,0.019097527489066124,0.025024721398949623,-0.017017314210534096,-0.036949239671230316,-0.057256489992141724,-0.02991604432463646,0.07449758797883987,0.017490072175860405,0.02653125859797001,-0.10398625582456589,0.044886816293001175,-0.0144428052008152,-0.01873619109392166,-0.1282268762588501,-0.010125396773219109,-0.06887540221214294,0.08024218678474426,0.04522820934653282,0.07633795589208603,0.1176430881023407,0.027716344222426414,-0.010314741171896458,0.052708663046360016,-0.020506171509623528,0.036259450018405914,0.039213623851537704,-0.031205076724290848,0.03048461303114891,-0.005854504182934761,-0.006198408547788858,0.005783161614090204,0.07435796409845352,-0.035139717161655426,-0.01949933171272278,0.02671264111995697,0.025573233142495155,-0.06761584430932999,0.04558767378330231,0.05613519251346588,-0.06313115358352661,0.044785864651203156,-0.03964298218488693,-0.09454337507486343,0.08843064308166504,-0.023095134645700455,-0.14451734721660614,0.0396067313849926,-0.09269938617944717,0.039332132786512375,-0.05240444466471672,-0.06810852885246277,0.05500565841794014,0.01545471977442503,0.016002677381038666,0.010018976405262947,-0.06597855687141418,-0.000521690642926842,-0.02317119762301445,0.03364076465368271,-0.026090402156114578,-0.03364473208785057,-0.052372898906469345,0.02029886282980442,-0.0038892384618520737,0.014926062896847725,-0.0068257711827754974,0.06841463595628738,0.022854536771774292,0.05594896525144577,-0.0070772357285022736,0.08127845823764801,-0.045056287199258804,-0.029547622427344322,-0.006877257488667965,-0.12031406909227371,-0.031096894294023514,0.03523174300789833,0.0005721119232475758,0.012018423527479172,-0.03883298859000206,-0.037506286054849625,-0.03820887953042984,0.01705334708094597,0.10246222466230392,-0.1326501965522766,-0.021473631262779236,0.01690850593149662,-0.0016600718954578042,0.0011357900220900774,0.001477359444834292,-0.10100700706243515,-0.02520134299993515,-0.009225418791174889,-0.09806324541568756,-0.05404457077383995,0.019888829439878464,-0.04106292873620987,-0.03973538801074028,-0.0001787391520338133,-0.08370894938707352,-0.08496052771806717,-0.02568347379565239,-0.08701600134372711,0.07940075546503067,-0.017084620893001556,0.011944631114602089,-0.17158673703670502,0.005873953923583031,0.047802187502384186,0.06982987374067307,-0.03948167338967323,0.057521674782037735,0.039353981614112854,-0.03982705622911453,0.024418413639068604,-0.037552185356616974,0.015860484912991524,-0.056952666491270065,0.029983103275299072,-0.08872714638710022,0.08897031843662262,-0.050710584968328476,0.00787659827619791,0.05445276200771332,-0.013471515849232674,-0.08848951011896133,0.03504761680960655,0.026174530386924744,0.041775304824113846,0.05259351059794426,-0.042644355446100235,0.032926928251981735,0.0429692305624485,0.034126318991184235,0.017955390736460686,-0.0030320065561681986,0.0022163703106343746,0.06717359274625778,-0.02561945840716362,0.06306315213441849,0.04673376679420471,0.06827005743980408,0.10957770049571991,-0.015012906864285469,-0.03531423956155777,0.02969311736524105,-0.03039511851966381,-0.013419636525213718,-0.13183772563934326,-0.039219364523887634,-0.023944273591041565,0.028086446225643158,-0.026946842670440674,0.03155504912137985,0.05129046365618706,-0.009556662291288376,0.01979830302298069,0.1308782696723938,-0.022419357672333717,0.07688134908676147,0.03229117766022682,0.022859299555420876,0.03655390441417694,0.0728253647685051,-0.1113218143582344,-0.02136731892824173,0.06593573093414307,-0.0008052617195062339,0.00157568184658885,0.0917477160692215,-0.0621548667550087,-0.09829737991094589,0.021047504618763924,-0.03245322406291962,-0.008397906087338924,-0.08949323743581772,-0.06432989984750748,0.08651329576969147,0.05930149927735329,-0.018589816987514496,-0.05330074578523636,-0.002867876086384058,0.026238661259412766,-0.011912579648196697,0.003493664553388953,-0.1234152540564537,-0.01673954725265503,-0.021734535694122314,0.013765769079327583,-0.04521677643060684,-0.1209358423948288,0.013378389179706573,0.028890425339341164,0.045691877603530884,0.01737620122730732,0.07665825635194778
启动,0.15880781412124634,0.027553081512451172,-0.009890727698802948,0.1051948070526123,0.11781951040029526,-0.012910814955830574,-0.009524219669401646,-0.055988628417253494,-0.13559947907924652,0.0817483589053154,-0.06455153971910477,-0.005018413066864014,0.1430864930152893,-0.07226446270942688,0.06457552313804626,-0.05590059608221054,0.041870344430208206,0.04413657635450363,-0.030731188133358955,0.04807208105921745,-0.008083824068307877,0.047451652586460114,-0.0208737775683403,0.0947953462600708,-0.15894398093223572,0.05905013903975487,0.07801050692796707,0.01472096610814333,-0.07278034836053848,0.1263555884361267,-0.1309969127178192,-0.005340443458408117,-0.02907893806695938,0.010799471288919449,0.04912535846233368,0.024227101355791092,-0.05996764078736305,-0.1303897649049759,0.059598151594400406,0.11697840690612793,0.05150904878973961,0.015058820135891438,-0.0853714868426323,-0.036770571023225784,0.0959557369351387,0.07572158426046371,-0.20593327283859253,-0.017280269414186478,0.0691966712474823,0.06634680181741714,-0.06658769398927689,-0.05262582004070282,-0.09552483260631561,-0.033328454941511154,-0.09815359115600586,-0.10127727687358856,0.11258389055728912,0.06731922924518585,0.03396923094987869,-0.028513023629784584,0.0780717059969902,0.05428459122776985,-0.08581899106502533,0.01248105801641941,-0.04965929687023163,-0.05356161668896675,0.09801168739795685,0.056757621467113495,0.014447977766394615,-0.17517723143100739,-0.01110117882490158,0.02337516099214554,0.028358524665236473,-0.1727847456932068,-0.01627502031624317,-0.018994547426700592,0.08748547732830048,0.038517240434885025,0.12239842861890793,0.041726838797330856,0.0323629155755043,0.003939953166991472,0.08587928861379623,-0.0672750473022461,0.08123110979795456,0.0741371139883995,-0.08864530920982361,-0.019069751724600792,-0.06620392203330994,0.012149890884757042,-0.046144139021635056,0.14004331827163696,0.024673357605934143,-0.005177313461899757,-0.02233283221721649,0.05579887703061104,-0.05783049762248993,0.053120579570531845,0.04831625893712044,-0.054765865206718445,0.09530263394117355,-0.04098149389028549,-0.08540917187929153,0.028833286836743355,-0.04709179326891899,-0.21541452407836914,-0.023263929411768913,-0.10095897316932678,0.0443975068628788,-0.0645977333188057,-0.10011457651853561,0.03515322878956795,0.048545390367507935,-0.010791751556098461,0.005937971640378237,0.004524842835962772,-0.07852637767791748,-0.06929940730333328,0.026135049760341644,-0.04679706692695618,-0.05622158572077751,-0.07718680053949356,0.027580982074141502,-0.00645400770008564,0.07009374350309372,0.015059096738696098,0.15617646276950836,-0.007643732707947493,0.007082856260240078,-0.08481033146381378,0.04555368050932884,0.05847354605793953,-0.013143852353096008,0.03055611252784729,-0.08525941520929337,-0.030355677008628845,0.0031632552854716778,0.03450730815529823,0.09328550100326538,-0.045859791338443756,-0.03624838963150978,0.017411796376109123,0.029425479471683502,0.13176462054252625,-0.10353396832942963,-0.0695263221859932,0.022754749283194542,-0.026006314903497696,-0.05503244698047638,0.025165081024169922,-0.12141019105911255,-0.06352408230304718,0.011396863497793674,-0.08251824975013733,-0.015519839711487293,0.08635657280683517,-0.07618490606546402,-0.061661869287490845,-0.04674452915787697,-0.09845196455717087,-0.08390696346759796,-0.027497630566358566,-0.022139791399240494,0.12731845676898956,-0.04118433594703674,-0.0009009617497213185,-0.12021613866090775,0.03385399654507637,0.07618959248065948,0.04297235980629921,-0.017075076699256897,0.05061923712491989,0.09151127189397812,-0.015237038023769855,-0.008698392659425735,0.03690803050994873,-0.02010818012058735,-0.04962315410375595,-0.015731047838926315,-0.060916073620319366,0.1209602952003479,-0.07448800653219223,-0.05283530801534653,0.03866357356309891,-0.1053294911980629,-0.1072927787899971,0.05545481666922569,0.14736363291740417,0.06449238210916519,0.1030777245759964,-0.00563351996243,0.05677734315395355,0.025557830929756165,-0.005614168010652065,-0.018325677141547203,0.024701224640011787,0.04148854687809944,0.07076922804117203,-0.03128889575600624,-0.03225512057542801,0.014988823793828487,0.05119619145989418,0.17783990502357483,-0.07482112944126129,-0.04557666927576065,0.06370532512664795,-0.059525493532419205,-0.0796075388789177,-0.11773014068603516,-0.04055342450737953,-0.06149028241634369,0.09939123690128326,-0.0364624448120594,0.07858727872371674,0.07897698879241943,-0.059179749339818954,0.02595907263457775,0.1022021472454071,0.0896938145160675,0.09701415151357651,0.1207730770111084,0.037423375993967056,0.04829028248786926,0.07044637203216553,-0.08385241776704788,-0.040178678929805756,0.006503893993794918,-0.03821973130106926,0.038099125027656555,0.023424223065376282,-0.05774170532822609,-0.11766006052494049,0.07337154448032379,-0.07348405569791794,-0.019781097769737244,-0.08450628817081451,-0.014293288812041283,0.08359026163816452,0.08595116436481476,-0.07582946121692657,0.010763056576251984,-0.07699952274560928,-0.021177999675273895,0.0027249979320913553,0.0450260229408741,-0.1044498160481453,-0.06194961071014404,-0.07460462301969528,0.06809111684560776,-0.0032959154341369867,-0.21535977721214294,0.07425912469625473,-0.06114767864346504,0.057510197162628174,0.03962051868438721,-0.03773123025894165
