word,0,1,2,3,4,5,6,7,8,9,10,11,12,13,14,15,16,17,18,19,20,21,22,23,24,25,26,27,28,29,30,31,32,33,34,35,36,37,38,39,40,41,42,43,44,45,46,47,48,49,50,51,52,53,54,55,56,57,58,59,60,61,62,63,64,65,66,67,68,69,70,71,72,73,74,75,76,77,78,79,80,81,82,83,84,85,86,87,88,89,90,91,92,93,94,95,96,97,98,99,100,101,102,103,104,105,106,107,108,109,110,111,112,113,114,115,116,117,118,119,120,121,122,123,124,125,126,127,128,129,130,131,132,133,134,135,136,137,138,139,140,141,142,143,144,145,146,147,148,149,150,151,152,153,154,155,156,157,158,159,160,161,162,163,164,165,166,167,168,169,170,171,172,173,174,175,176,177,178,179,180,181,182,183,184,185,186,187,188,189,190,191,192,193,194,195,196,197,198,199,200,201,202,203,204,205,206,207,208,209,210,211,212,213,214,215,216,217,218,219,220,221,222,223,224,225,226,227,228,229,230,231,232,233,234,235,236,237,238,239,240,241,242,243,244,245,246,247,248,249,250,251,252,253,254,255
数值,-0.004749075043946505,0.09603627026081085,-0.008986282162368298,0.048875100910663605,0.09475035220384598,-0.049813516438007355,0.040537673979997635,-0.09943772107362747,-0.10019193589687347,0.11215385794639587,0.0023776190355420113,0.023500733077526093,0.11728734523057938,-0.10181601345539093,0.04727959632873535,-0.019046025350689888,0.04260452836751938,-0.002061323029920459,-0.03621244803071022,0.20886604487895966,-0.06024831905961037,-0.008834520354866982,-0.1109960749745369,0.12879440188407898,-0.21714431047439575,-0.0011583382729440928,0.0037615541368722916,-0.004118915647268295,-0.1476086974143982,0.14566783607006073,-0.11522332578897476,0.007206841371953487,-0.08247952908277512,-0.0076497700065374374,0.15546640753746033,0.1379774808883667,0.012172816321253777,-0.07605039328336716,0.08318745344877243,0.10476533323526382,0.0026971276383847,0.12380483746528625,-0.029664892703294754,-0.0007898670737631619,0.12374365329742432,-0.019944464787840843,-0.1549619436264038,0.012495819479227066,0.09322621673345566,0.12046527862548828,-0.022899076342582703,-0.028855331242084503,-0.04269467666745186,-0.008690914139151573,-0.0697779580950737,-0.10646788775920868,0.07271454483270645,0.10586589574813843,0.12846706807613373,0.01389796007424593,-0.015732472762465477,-0.027457430958747864,-0.009059002622961998,-0.0011634433176368475,-0.08404741436243057,-0.08004608005285263,0.11832890659570694,0.035102762281894684,0.0867837518453598,-0.07240335643291473,0.06563875079154968,-0.027974721044301987,0.006942257285118103,-0.09920623153448105,-0.021094249561429024,-0.1315602958202362,0.08433504402637482,0.0831538587808609,0.07460394501686096,0.17899397015571594,-0.007850776426494122,0.022579412907361984,0.06434200704097748,0.02196134254336357,0.05575054883956909,-0.04473775252699852,0.020397117361426353,0.052989374846220016,0.030892908573150635,-0.0031587141565978527,0.05399487540125847,0.03367265313863754,-0.15291857719421387,-0.05043122544884682,0.05346481129527092,-0.04696733132004738,-0.07797953486442566,0.062335945665836334,0.06949020177125931,-0.11010577529668808,0.041614558547735214,-0.029682563617825508,-0.0957534909248352,0.0721869170665741,-0.004830539226531982,-0.09758362174034119,0.0873013511300087,-0.10302014648914337,0.047580450773239136,-0.07701815664768219,-0.003976322244852781,0.10313627868890762,-0.04313988983631134,0.02441946417093277,-0.0112806661054492,-0.10113707184791565,0.04021110013127327,-0.030739160254597664,0.05775885283946991,0.08174996823072433,0.014107299968600273,-0.01792512647807598,0.02211080864071846,-0.058995362371206284,0.0416281558573246,-0.0436076857149601,0.019370291382074356,0.0009555996512062848,0.08812914043664932,0.021228685975074768,0.03129446133971214,-0.09232113510370255,-0.014363127760589123,-0.016536524519324303,-0.18580085039138794,-0.026848813518881798,0.12310260534286499,0.005860370583832264,-0.01807815209031105,-0.03875303640961647,-0.03213600069284439,-0.025279207155108452,0.0032462519593536854,0.07273928821086884,-0.20697253942489624,-0.007603523321449757,-0.02444842830300331,0.010895014740526676,0.03827543184161186,-0.03757335990667343,-0.09041272103786469,-0.0073543572798371315,-0.07710579037666321,-0.1331859827041626,-0.09427791833877563,-0.07925669848918915,0.002521246438845992,0.037594616413116455,-0.03520003706216812,-0.05987050011754036,-0.09505752474069595,-0.029756540432572365,-0.08673722296953201,0.0685795471072197,0.02473476342856884,0.048193104565143585,-0.19145430624485016,-0.03674822300672531,0.05053235962986946,0.07359903305768967,-0.02335526794195175,0.11772221326828003,0.009874016977846622,-0.09782815724611282,0.03524680435657501,-0.06791134178638458,0.023178227245807648,-0.038413312286138535,0.05393504351377487,-0.12569861114025116,0.04025264456868172,-0.032708775252103806,-0.0184338241815567,0.056754741817712784,0.047284603118896484,-0.10834649950265884,0.008284804411232471,-0.0016540118958801031,0.00831746868789196,0.05028320103883743,-0.08914214372634888,-0.018995510414242744,0.07754124701023102,0.08310528844594955,0.034101225435733795,0.0028028753586113453,-0.004603664856404066,0.07325770705938339,-0.044372670352458954,0.11695554852485657,0.05164872482419014,0.1076907366514206,0.08865361660718918,2.438841875118669e-06,0.020840086042881012,0.057134512811899185,-0.02163885161280632,0.03399030864238739,-0.10848995298147202,-0.09310770779848099,-0.05684952437877655,-0.01668015867471695,-0.017692167311906815,0.0075201909057796,0.07058075815439224,-0.017360679805278778,-0.02883283607661724,0.18018250167369843,-0.09607081860303879,0.09988182038068771,-0.03871156647801399,-0.0034693486522883177,0.04716573655605316,0.05730139836668968,-0.17127864062786102,-0.006679364014416933,0.10303401201963425,0.03195852041244507,-0.0044084880501031876,0.11447504162788391,-0.0332815907895565,-0.11845821142196655,0.013787002302706242,-0.008715064264833927,-0.041050828993320465,-0.06745610386133194,-0.13172975182533264,0.11649366468191147,0.07646605372428894,0.007304933853447437,-0.08550063520669937,0.08013452589511871,0.08774345368146896,0.0006035521510057151,-0.049430862069129944,-0.13865576684474945,0.06522560864686966,0.046402618288993835,0.01598447747528553,-0.03398207202553749,-0.13350865244865417,0.007366090547293425,0.12742353975772858,0.06948317587375641,-0.04725576937198639,0.14786171913146973
操作,-0.019626684486865997,0.14853958785533905,0.14761462807655334,0.20456235110759735,0.24102595448493958,-0.22960059344768524,-0.03897516429424286,-0.21542182564735413,-0.39122331142425537,0.2618802487850189,-0.04653741419315338,0.14302630722522736,0.17915919423103333,-0.21258927881717682,0.10996565222740173,-0.07924317568540573,0.23896832764148712,0.2137438803911209,-0.13905204832553864,0.5159609317779541,-0.15204764902591705,0.046017568558454514,-0.23738837242126465,0.33441320061683655,-0.32481124997138977,-0.17805230617523193,-0.0468733087182045,0.03943294659256935,-0.24853269755840302,0.3388685882091522,-0.12141355127096176,0.03906076401472092,-0.09142109006643295,-0.1146424263715744,0.373737633228302,0.3593795895576477,0.12255494296550751,-0.21363714337348938,0.21490928530693054,0.3749603033065796,-0.027762092649936676,0.21800464391708374,-0.0491640642285347,-0.20681147277355194,0.3159725069999695,0.04059315845370293,-0.41615229845046997,0.035669002681970596,0.2969829738140106,0.374866783618927,-0.07497764378786087,-0.08354618400335312,-0.04972875490784645,-0.2375660389661789,-0.308366596698761,-0.27735140919685364,0.2109716385602951,0.061311740428209305,0.344088613986969,0.05626331642270088,-0.07651171088218689,0.005727018695324659,0.04900999739766121,-0.09416571259498596,-0.33613666892051697,-0.08432691544294357,0.3096001148223877,0.05730653926730156,0.060754209756851196,-0.20663988590240479,0.13750696182250977,-0.004091519862413406,0.012691115960478783,-0.30497339367866516,-0.04064211621880531,-0.4628949761390686,0.13328881561756134,0.22675126791000366,0.1952812522649765,0.5219257473945618,0.1758837103843689,0.04680502787232399,0.14786316454410553,0.08332982659339905,0.23182541131973267,0.030330032110214233,-0.05094205215573311,0.2838881015777588,0.09383262693881989,0.10005039721727371,0.1638168841600418,0.28570014238357544,-0.1161327064037323,-0.0031423037871718407,0.22434870898723602,0.05929291620850563,-0.16741728782653809,0.1258559226989746,-0.0151788629591465,-0.17498917877674103,0.06529556214809418,-0.1480923295021057,-0.06273075193166733,0.2020372748374939,-0.015596525743603706,-0.4215174615383148,0.24720335006713867,-0.2498939037322998,0.17731036245822906,-0.053688887506723404,0.15025067329406738,0.23774489760398865,0.010935003869235516,0.17107002437114716,-0.06775479763746262,-0.3045722246170044,-0.0002778203343041241,0.04900866374373436,0.09028764814138412,0.0018463123124092817,-0.06630729883909225,-0.23023460805416107,0.048659879714250565,-0.08462166786193848,0.013307126238942146,-0.19104695320129395,-0.014385492540895939,0.11161135882139206,0.18960681557655334,0.10534624755382538,0.25803107023239136,-0.3755604326725006,0.08543158322572708,-0.0641578659415245,-0.383247971534729,-0.04826675355434418,0.2069709748029709,-0.010051770135760307,0.08932656049728394,-0.1871892660856247,-0.030357444658875465,-0.11650358140468597,-0.0405571311712265,0.1738288551568985,-0.5072425007820129,-0.051685892045497894,-0.01011680718511343,-0.10228972882032394,-0.027976911514997482,-0.08323246240615845,-0.37690696120262146,-0.011040842160582542,-0.05057875066995621,-0.225249782204628,-0.25062358379364014,-0.14256475865840912,-0.20505526661872864,-0.03785347566008568,0.09233331680297852,-0.27179890871047974,-0.25018927454948425,0.02957359328866005,-0.3434218168258667,0.1669561266899109,0.02132589928805828,-0.08710256218910217,-0.6070697903633118,-0.1520143449306488,0.12771408259868622,0.15888537466526031,-0.18203204870224,0.3359690010547638,-0.05820002406835556,-0.16973507404327393,0.13974158465862274,-0.2235971838235855,-0.01766003854572773,-0.1726042926311493,0.26782938838005066,-0.39830896258354187,0.06685492396354675,-0.11350324004888535,0.0727691501379013,0.0012517353752627969,0.14386290311813354,-0.23191064596176147,-0.11886528879404068,0.049954380840063095,0.08928756415843964,0.24910366535186768,-0.28013482689857483,-0.0058396910317242146,0.3344012200832367,0.19123654067516327,0.03699382767081261,0.08403385430574417,0.03011051006615162,0.18810857832431793,-0.15555784106254578,0.36591246724128723,0.09520179033279419,0.1126202940940857,0.1396900862455368,-0.0803084671497345,-0.03823419660329819,0.023754604160785675,-0.1243210956454277,0.025148889049887657,-0.47224947810173035,-0.15886051952838898,-0.0008775849128141999,-0.1591632068157196,-0.05814359709620476,0.12181837856769562,0.30222123861312866,0.005078593268990517,-0.06504244357347488,0.5805778503417969,-0.15571823716163635,0.2922418415546417,-0.17469358444213867,-0.033481694757938385,0.11327731609344482,0.03846587985754013,-0.4935154914855957,-0.12878592312335968,0.31867098808288574,0.11744136363267899,0.08387906104326248,0.3825690746307373,-0.3161848187446594,-0.4578225612640381,-0.1091681495308876,-0.19382092356681824,-0.05986112728714943,-0.141191303730011,-0.15184971690177917,0.27941158413887024,0.20105235278606415,0.011417925357818604,-0.1590253859758377,0.15875327587127686,0.02997143566608429,-0.07337766885757446,-0.10872248560190201,-0.281749427318573,0.10583650320768356,-0.030564479529857635,-0.0024683172814548016,-0.20803099870681763,-0.31488552689552307,0.12274850904941559,0.21817681193351746,0.17516447603702545,-0.08843492716550827,0.5969313383102417
控制,0.3021490275859833,-0.02884053997695446,0.08956575393676758,0.24458178877830505,0.2536313533782959,0.0051413169130682945,-0.1533062607049942,-0.15781086683273315,-0.411406934261322,0.14805789291858673,-0.17002162337303162,0.1470879763364792,0.2055833786725998,-0.2298392951488495,0.010968970134854317,-0.07558070868253708,0.006758310832083225,0.2930920124053955,-0.05240476503968239,0.2513964772224426,-0.04320187494158745,0.05401625484228134,-0.05649865046143532,0.20517872273921967,-0.35314467549324036,0.18372847139835358,0.17202214896678925,0.0798424556851387,-0.15895020961761475,0.3303031027317047,-0.28251340985298157,-0.044106826186180115,-0.1505136489868164,0.12544341385364532,0.29635682702064514,0.29593560099601746,-0.08829043060541153,-0.2412574738264084,0.19909051060676575,0.32849669456481934,0.1270391196012497,0.09879100322723389,-0.1677483767271042,-0.21872273087501526,0.2661936283111572,0.017296692356467247,-0.30465686321258545,-0.08978746831417084,0.24244795739650726,0.20826810598373413,-0.17474530637264252,-0.2361980825662613,-0.26274701952934265,-0.0017576502868905663,-0.25746530294418335,-0.13684998452663422,0.3181828558444977,0.19927634298801422,0.12157734483480453,-0.10142035782337189,0.18102765083312988,0.12691977620124817,-0.10547026246786118,0.05313751846551895,-0.2569965422153473,-0.022524727508425713,0.358061283826828,0.05660231411457062,0.08501673489809036,-0.41080817580223083,0.031493179500103,-0.07948927581310272,0.03933534026145935,-0.36272725462913513,0.06491783261299133,-0.12442899495363235,0.20980162918567657,0.0693168193101883,0.5161420702934265,0.3224738836288452,0.041932232677936554,-0.05515982583165169,0.23722416162490845,-0.15320923924446106,0.07829663157463074,0.14450888335704803,-0.17726609110832214,0.07542826980352402,-0.05959971621632576,-0.06178440898656845,-0.00966024212539196,0.31334787607192993,0.10817607492208481,-0.09719699621200562,0.08984285593032837,0.13270527124404907,-0.23412398993968964,0.29923015832901,-0.0159353855997324,-0.05827571824193001,0.04534788057208061,-0.16931478679180145,-0.13856618106365204,0.16415782272815704,0.08310147374868393,-0.4427952766418457,0.04352444410324097,-0.287034809589386,0.18959854543209076,-0.08111721277236938,-0.307724267244339,0.01723722368478775,0.12822964787483215,-0.03113033063709736,0.02129863202571869,-0.09509731829166412,-0.048040419816970825,-0.18833115696907043,0.14402569830417633,-0.09190995991230011,-0.05944870412349701,-0.21898595988750458,0.012156393378973007,0.04448980465531349,0.08973860740661621,-0.012738501653075218,0.3356533944606781,0.07768704742193222,0.07517200708389282,-0.14240822196006775,0.35729849338531494,-0.019667601212859154,0.07415912300348282,-0.035910867154598236,-0.36884012818336487,-0.01864374428987503,0.05686984211206436,-0.14486311376094818,0.18714645504951477,-0.1708495169878006,-0.21814444661140442,-0.0808718353509903,0.009876729920506477,0.271738737821579,-0.37038907408714294,-0.15594980120658875,0.13686862587928772,-0.13724654912948608,-0.0813022255897522,-0.12554921209812164,-0.2858528196811676,-0.2606010437011719,0.04157885164022446,-0.34042221307754517,-0.1156345009803772,0.10337986052036285,-0.2170613408088684,-0.23163969814777374,-0.04411827772855759,-0.25920259952545166,-0.08680317550897598,-0.09590552002191544,-0.06353670358657837,0.29398101568222046,-0.05128704011440277,-0.12588872015476227,-0.46647369861602783,0.08476289361715317,0.2838382422924042,0.06711635738611221,-0.16884717345237732,0.16881632804870605,0.19126388430595398,-0.00853564403951168,0.045907504856586456,-0.07699926942586899,0.06473813951015472,-0.19669857621192932,0.006140741053968668,-0.08706697821617126,0.2872202694416046,-0.10916316509246826,-0.05959400162100792,0.09972912818193436,-0.06320222467184067,-0.21873298287391663,0.15185759961605072,0.14352458715438843,0.26738932728767395,0.2937747538089752,0.10434484481811523,0.12406641244888306,0.15474049746990204,0.024649783968925476,-0.09417515993118286,0.12005790323019028,0.0491437166929245,0.24243180453777313,-0.1491086184978485,-0.016473088413476944,0.1177380234003067,0.17994271218776703,0.4173775017261505,-0.13214576244354248,-0.24263116717338562,0.16264575719833374,-0.1849367320537567,-0.19862000644207,-0.3944903016090393,0.011928052641451359,-0.02640034630894661,0.22269456088542938,-0.038995373994112015,0.2982385754585266,0.13361871242523193,-0.004420621320605278,0.014122565276920795,0.3721955418586731,0.051740411669015884,0.27411919832229614,0.3087025284767151,0.10001088678836823,-0.008200796321034431,0.2637404501438141,-0.3902154266834259,-0.02956300787627697,0.18382695317268372,-0.08323489874601364,0.10620632022619247,0.1885395050048828,-0.21466809511184692,-0.31955686211586,0.22377441823482513,-0.17882241308689117,-0.10889357328414917,-0.22636565566062927,0.016489775851368904,0.14159327745437622,0.22094321250915527,-0.12872275710105896,-0.1598198562860489,-0.13661253452301025,-0.08988241106271744,-0.10012722760438919,0.07493038475513458,-0.40865814685821533,-0.0880536362528801,-0.11682218313217163,0.18572869896888733,0.027401616796851158,-0.43291908502578735,0.17339710891246796,-0.0835864320397377,0.1089843139052391,0.15542834997177124,0.19249044358730316
利用,0.0934772938489914,-0.004548716824501753,0.12635281682014465,0.1530344933271408,0.18481996655464172,-0.0476716123521328,-0.12580664455890656,-0.05393142253160477,-0.26756155490875244,0.10100370645523071,-0.004171921405941248,0.0841781347990036,0.03328145667910576,-0.18607094883918762,-0.0652565211057663,-0.07484851777553558,0.11965944617986679,0.22848832607269287,0.02133762836456299,0.23957891762256622,-0.10275934636592865,0.048366472125053406,-0.062046900391578674,0.0874590128660202,-0.284299373626709,0.008497189730405807,0.009913021698594093,0.04470441862940788,-0.12034997344017029,0.16475273668766022,-0.1182512640953064,-0.03640007600188255,-0.20012733340263367,0.05861489847302437,0.2404535859823227,0.15727393329143524,-0.00983069185167551,-0.10650485754013062,0.1762218326330185,0.16528469324111938,0.02783459797501564,0.07987972348928452,-0.0502968430519104,-0.20630435645580292,0.2464696317911148,-0.030092567205429077,-0.15805090963840485,-0.038110826164484024,0.07838407158851624,0.19599053263664246,-0.08182869851589203,-0.1029013842344284,-0.05062348023056984,-0.10382536798715591,-0.10252910852432251,-0.12048620730638504,0.21338728070259094,0.09406944364309311,0.09652293473482132,-0.04996612295508385,0.09349274635314941,0.09437134861946106,-0.03208218514919281,-0.050497666001319885,-0.11694353818893433,0.01924055628478527,0.17592638731002808,0.08356130123138428,-0.026460789144039154,-0.2549798786640167,0.01203429140150547,-0.12397685647010803,-0.009658385068178177,-0.2929950952529907,-0.07128430902957916,-0.1000046357512474,0.11605380475521088,-0.030663933604955673,0.2604476511478424,0.33785009384155273,0.11227346956729889,-0.0058942632749676704,0.12646006047725677,-0.019543368369340897,0.08652294427156448,0.14678293466567993,-0.012969126924872398,0.03809724748134613,0.01599130593240261,0.040338754653930664,0.03829815238714218,0.18686361610889435,0.15722978115081787,-0.028199657797813416,0.0402953214943409,0.10968910902738571,-0.16005539894104004,0.10315661877393723,-0.027871381491422653,-0.047422125935554504,-0.018502144142985344,-0.194923996925354,-0.1308407187461853,0.16868990659713745,0.09775269776582718,-0.2851012945175171,0.011190662160515785,-0.18128980696201324,0.11561956256628036,-0.11550532281398773,-0.15908095240592957,-0.014462443999946117,0.1410319060087204,-0.005147875286638737,-0.03881385177373886,-0.16906991600990295,0.0610044039785862,-0.02137521095573902,0.07683801651000977,-0.08781053125858307,-0.09510152041912079,-0.15202642977237701,-0.03882715851068497,-0.030093953013420105,0.022256318479776382,-0.009202713146805763,0.31884869933128357,0.044789206236600876,0.1706840693950653,-0.09186350554227829,0.2983015477657318,-0.10695693641901016,0.0032622269354760647,-0.017704743891954422,-0.2794671952724457,0.02985624223947525,-0.0004081101797055453,-0.057972993701696396,0.11460786312818527,-0.08685731887817383,-0.1574358493089676,0.0058754803612828255,0.07299380749464035,0.19697490334510803,-0.25288325548171997,-0.04563356563448906,0.053939275443553925,-0.01962578296661377,-0.017215952277183533,-0.07541018724441528,-0.20847521722316742,-0.15634219348430634,0.08180030435323715,-0.08763066679239273,-0.1494872272014618,0.08517398685216904,-0.03895927965641022,-0.1456546038389206,-0.03533373028039932,-0.06199033558368683,0.01988113671541214,-0.02402924932539463,0.006870876532047987,0.14649204909801483,0.003653879277408123,-0.040867049247026443,-0.39933156967163086,0.12099464982748032,0.15079724788665771,0.04844987019896507,-0.13042792677879333,0.18551741540431976,0.08285897970199585,-0.05269346386194229,0.05011780560016632,-0.12729071080684662,-0.01762491837143898,-0.12281300872564316,0.04122103750705719,-0.08390364050865173,0.19482421875,-0.05595777556300163,0.0921642854809761,0.20876793563365936,-0.030620183795690536,-0.06486893445253372,0.02301209419965744,0.017000684514641762,0.09221987426280975,0.17410175502300262,0.10143671929836273,0.07099740207195282,0.09024717658758163,0.07089357823133469,0.0677272155880928,0.017015447840094566,0.010850929655134678,0.14811284840106964,-0.08423164486885071,0.0034353339578956366,0.03548078238964081,0.019575482234358788,0.24238814413547516,-0.025604210793972015,-0.171631321310997,0.032682422548532486,-0.10494766384363174,-0.172085240483284,-0.2944331169128418,0.0019210826139897108,0.05494622141122818,0.037106793373823166,-0.10541700571775436,0.13894732296466827,0.0738353282213211,-0.01741204224526882,0.03383967652916908,0.3277970552444458,-0.006471651140600443,0.18879012763500214,0.19652003049850464,-0.015731442719697952,0.04771173745393753,0.14326265454292297,-0.2635285258293152,-0.05164157599210739,0.23059703409671783,-0.11281224340200424,0.08772750198841095,0.1811610907316208,-0.19164298474788666,-0.31858786940574646,0.023924503475427628,-0.10233505815267563,-0.05430871248245239,-0.17384569346904755,-0.037549976259469986,0.04134734719991684,0.15488459169864655,-0.04119369015097618,-0.10778911411762238,-0.09019780904054642,-0.026254385709762573,-0.05103583633899689,0.012215244583785534,-0.24311091005802155,-0.05768035724759102,0.010403865948319435,0.1739189475774765,-0.045816853642463684,-0.27734118700027466,0.056624576449394226,-0.07755773514509201,0.11177142709493637,0.04397548735141754,0.18286815285682678
控制系统,0.06100700423121452,0.05868185684084892,-0.0012581711634993553,0.013264649547636509,0.04971190169453621,-0.06798779964447021,0.002214188687503338,-0.05667796730995178,-0.1354285627603531,0.08012738078832626,-0.03785274177789688,0.02249150723218918,0.07948494702577591,-0.049078963696956635,0.04485619440674782,-0.023859059438109398,0.005008135922253132,0.005615310277789831,0.0002525951713323593,0.08840207010507584,-0.053724706172943115,-0.010716189630329609,-0.02364180237054825,0.16536341607570648,-0.10612400621175766,0.001145053654909134,0.042362529784440994,0.04074181243777275,-0.08712863177061081,0.09293929487466812,-0.10181266814470291,-0.02049938216805458,-0.023665353655815125,-0.014101316221058369,0.046708349138498306,0.08053936809301376,-0.001445359317585826,-0.056957393884658813,0.04685873165726662,0.0709516778588295,0.042359817773103714,0.0954519659280777,-0.014077037572860718,-0.024251077324151993,0.04204666614532471,0.005453528370708227,-0.06665637344121933,-0.033713407814502716,0.07148206233978271,0.03956739977002144,0.009316920302808285,-0.039836086332798004,-0.0558321587741375,0.019798744469881058,-0.03652951866388321,-0.10074170678853989,0.09270927309989929,0.10204008966684341,0.09850837290287018,-0.022796377539634705,0.037191398441791534,0.03867552801966667,-0.06391239166259766,-0.02055922895669937,-0.021511273458600044,-0.07290352880954742,0.06425695866346359,0.008998156525194645,0.04980260133743286,-0.11982835084199905,0.09053048491477966,-0.002824503928422928,0.008948087692260742,-0.10337600111961365,-0.05563120171427727,-0.08022541552782059,0.014124885201454163,0.048589132726192474,0.06724556535482407,0.12184888869524002,-0.0015229025157168508,0.0070432014763355255,0.04203003644943237,-0.05114325135946274,0.061090271919965744,0.016414910554885864,-0.042081065475940704,0.007639226038008928,-0.019944313913583755,0.016896342858672142,0.003573009045794606,0.0888405367732048,-0.04836901277303696,-0.03703684359788895,0.053637340664863586,-0.021518368273973465,-0.04742087423801422,0.029587537050247192,0.07365377992391586,-0.0436989925801754,0.04250221699476242,0.02906632050871849,-0.08823774009943008,0.016369635239243507,-0.016454963013529778,-0.13640815019607544,0.026207590475678444,-0.08054393529891968,0.0310653243213892,-0.054693710058927536,-0.041009485721588135,0.03359675034880638,-0.042461808770895004,0.014320106245577335,0.047314874827861786,-0.05687320604920387,0.00823043193668127,-0.043561603873968124,0.06962423026561737,0.023266347125172615,-0.010312950238585472,-0.05331900715827942,-0.018095912411808968,-0.04896532744169235,0.0517805851995945,-0.09424310177564621,0.024508627131581306,-0.019842498004436493,0.022032588720321655,0.0035289116203784943,0.07297789305448532,-0.036465104669332504,0.0022268088068813086,-0.008865602314472198,-0.10254465788602829,-0.003556386101990938,0.07013949751853943,0.033292364329099655,0.012424401938915253,-0.033737845718860626,-0.021980058401823044,-0.024964364245533943,0.026968255639076233,0.06460442394018173,-0.11898341774940491,-0.04649810492992401,0.014607725664973259,-0.004371061455458403,-0.002194365719333291,-0.012153980322182178,-0.07671118527650833,-0.0025731518398970366,-0.013430348597466946,-0.10837217420339584,-0.050885435193777084,0.013958160765469074,-0.006022293120622635,-0.04330937936902046,-0.00837160088121891,-0.03129921481013298,-0.09573987126350403,-0.022043762728571892,-0.06690918654203415,0.08405006676912308,0.016572676599025726,0.0019915022421628237,-0.13156363368034363,0.03245016559958458,0.05574025586247444,0.010453657247126102,-0.0625467523932457,0.08198292553424835,0.061213839799165726,-0.040237780660390854,0.06809767335653305,-0.038967229425907135,-0.022569239139556885,-0.052852194756269455,0.00953963864594698,-0.06015476584434509,0.07114458084106445,-0.04214823618531227,-0.027793793007731438,0.030124187469482422,-0.021044407039880753,-0.07341455668210983,0.05125841125845909,0.065425805747509,0.03714070841670036,0.05414847657084465,-0.009781420230865479,0.06189095228910446,0.05170097202062607,0.052257344126701355,-0.003213381627574563,0.003602769458666444,-0.04311304911971092,0.051288627088069916,-0.032121360301971436,0.07693163305521011,0.0341985858976841,0.08872664719820023,0.10404752939939499,-0.021367518231272697,0.008286003023386002,0.02247754856944084,0.028772801160812378,0.0010675066150724888,-0.11224640905857086,-0.0485769622027874,-0.08637730777263641,0.025408819317817688,-0.0417039655148983,0.05428030341863632,0.030080806463956833,-0.03358910605311394,0.004935670178383589,0.10468370467424393,-0.025303462520241737,0.05989551171660423,0.06843347102403641,-0.0016392437973991036,0.000342774874297902,0.041172273457050323,-0.1287633627653122,-0.040067270398139954,0.059025418013334274,0.03192894905805588,-0.0031290410552173853,0.05559656023979187,-0.052147235721349716,-0.0888269692659378,0.04827209562063217,-0.025475477799773216,-0.019665993750095367,-0.08219049870967865,-0.05630014091730118,0.04619598388671875,0.034181058406829834,-0.04625019058585167,-0.03744770959019661,0.0033777644857764244,0.026176488026976585,-0.018020639196038246,0.00712678162381053,-0.08618126064538956,0.006289522163569927,-0.005873973947018385,0.02448570542037487,-0.012819638475775719,-0.14887893199920654,0.0553935207426548,0.021699946373701096,0.033060621470212936,-0.008250546641647816,0.08940109610557556
评估,0.012394127435982227,0.020152466371655464,0.0044637080281972885,0.0329388789832592,0.03923363238573074,-0.013471622951328754,-0.007723521441221237,-0.015310054644942284,-0.04894683137536049,0.0341963954269886,-0.0011232254328206182,0.015300825238227844,0.034377094358205795,-0.02930166944861412,-0.007855141535401344,-0.02036241814494133,0.029210403561592102,0.04306809604167938,-0.03257707878947258,0.06833899766206741,-0.01856868714094162,0.010731847025454044,-0.013976870104670525,0.03964850306510925,-0.06670776009559631,-0.0021950104273855686,0.003853529691696167,0.015862010419368744,-0.04932625964283943,0.04540956765413284,-0.04536816477775574,0.007586547173559666,-0.02911037765443325,-0.0023000207729637623,0.06693268567323685,0.037111517041921616,-0.0015006893081590533,-0.036709364503622055,0.028286483138799667,0.04655304551124573,0.007550071459263563,0.019617199897766113,-0.02141549438238144,-0.0275243129581213,0.03459420055150986,0.012943089939653873,-0.04459498077630997,0.00850974302738905,0.022965125739574432,0.05833519250154495,-0.02670912630856037,-0.0007694766973145306,-0.010535325855016708,-0.048085615038871765,-0.03336326777935028,-0.04894523695111275,0.049382004886865616,0.012482274323701859,0.0387747660279274,-0.006793225649744272,0.012253272347152233,0.022416166961193085,0.0005217940197326243,0.0026697686407715082,-0.032411351799964905,-0.0039106025360524654,0.02967613749206066,0.024215778335928917,0.011177771724760532,-0.04357835650444031,0.014894366264343262,0.010078188963234425,-0.003193396143615246,-0.05979026108980179,-0.011010724119842052,-0.02919192612171173,0.028872406110167503,0.029394719749689102,0.03618023917078972,0.06068072468042374,0.03413431718945503,-0.01253160834312439,0.02163456194102764,-0.015297534875571728,0.02406560443341732,0.02954760566353798,-0.008017290383577347,0.020067723467946053,-0.003471813630312681,0.0034210714511573315,0.002464667893946171,0.05626099556684494,-0.007587310392409563,-0.015699032694101334,0.002946707420051098,0.024921227246522903,-0.03817814961075783,0.015861980617046356,0.02817646972835064,-0.041219595819711685,0.012219076976180077,-0.02632720395922661,-0.024920163676142693,0.047899652272462845,-0.004137920215725899,-0.0642346739768982,0.010883633978664875,-0.038782887160778046,0.024420270696282387,-0.01880253478884697,-0.022016096860170364,0.024203816428780556,0.03094784915447235,0.0035901905503124,-0.01027659885585308,-0.05273614451289177,0.0029600956477224827,-0.010359765030443668,0.008205967955291271,-0.010064506903290749,-0.0200775358825922,-0.021850615739822388,0.01602892018854618,-0.01896381378173828,0.009450349025428295,0.008990466594696045,0.04646887630224228,0.02103276364505291,0.04232253506779671,0.005190618801862001,0.06027636677026749,-0.011390024796128273,-0.0028804768808186054,-0.026629304513335228,-0.05312859266996384,-0.003794937627390027,0.01733664982020855,-0.0021729208528995514,0.02920069731771946,-0.020589878782629967,-0.022105704993009567,-0.008307184092700481,0.010832562111318111,0.03571797162294388,-0.07026361674070358,-0.008043677546083927,0.012544801458716393,-0.003389921970665455,0.0003257210773881525,-0.002130763838067651,-0.06892170757055283,-0.020263735204935074,-0.015548543073236942,-0.022177986800670624,-0.021641625091433525,0.01769685000181198,-0.008697692304849625,-0.020465154200792313,0.008020257577300072,-0.03943769261240959,-0.02999064140021801,0.017303645610809326,-0.03464968875050545,0.026055388152599335,0.006079566664993763,0.0026577897369861603,-0.072126604616642,0.013913631439208984,0.009089123457670212,0.041900135576725006,-0.006053988356143236,0.019082138314843178,0.017108628526329994,-0.018815195187926292,-0.010860367678105831,-0.013044528663158417,0.011648762971162796,-0.016630496829748154,0.02542002871632576,-0.05060657113790512,0.033932678401470184,-0.02338789403438568,0.0015241153305396438,0.043915148824453354,0.004376458935439587,-0.029649367555975914,-0.0015109417727217078,0.005754448007792234,0.016331499442458153,0.025347938761115074,-0.028581196442246437,-0.007802526466548443,0.03215615823864937,-0.0013336376287043095,0.012859253212809563,0.0020817373879253864,0.004825622774660587,0.019086671993136406,-0.005151142831891775,0.02563832327723503,-0.005787463393062353,0.0148239154368639,0.04011418670415878,-0.016641132533550262,-0.0033365406561642885,0.011929298751056194,-0.015348399989306927,-0.01902335323393345,-0.07598236203193665,-0.011792912147939205,-0.0011395239271223545,0.005773217882961035,-0.01945377141237259,0.025427116081118584,0.026151923462748528,-0.011115746572613716,0.014962814748287201,0.07765312492847443,-0.003683839924633503,0.04716189578175545,0.005675074178725481,0.021803168579936028,0.031124694272875786,0.04665501043200493,-0.06205429136753082,-0.021166183054447174,0.0410352498292923,0.00038435240276157856,0.0021369389723986387,0.033814750611782074,-0.0297642033547163,-0.05715332552790642,-0.006295106373727322,-0.026068422943353653,-0.002357668010517955,-0.03199269250035286,-0.025417182594537735,0.047391004860401154,0.03602476418018341,-0.021837033331394196,-0.01643417961895466,0.003720309352502227,0.004746907390654087,-0.011490997858345509,-0.025841576978564262,-0.040349896997213364,-0.01247201394289732,-0.026494795456528664,0.010903657414019108,-0.026277687400579453,-0.043278928846120834,0.011390981264412403,0.0017454177141189575,0.01843280903995037,-0.010422958061099052,0.054222360253334045
涉及,0.10219201445579529,0.028317783027887344,0.0189528688788414,0.16255594789981842,0.1250123381614685,0.03910668194293976,0.005753138102591038,-0.04499432072043419,-0.1546187847852707,0.15281476080417633,0.020546451210975647,0.004994652699679136,0.06691980361938477,-0.15527541935443878,-0.006419017445296049,-0.016390150412917137,0.09288661181926727,0.07742511481046677,0.10745809227228165,0.08601640909910202,-0.08879256248474121,0.09846824407577515,-0.061468448489904404,0.0008907724404707551,-0.22349783778190613,0.021488765254616737,0.014893594197928905,-0.0379316508769989,-0.12468448281288147,0.026210151612758636,-0.11951065808534622,-0.07075800746679306,-0.09547161310911179,0.07449833303689957,0.10039066523313522,0.03300781548023224,-0.05796177312731743,-0.13415779173374176,0.09377293288707733,0.05052213743329048,0.030672172084450722,-0.013636928983032703,-0.03553468734025955,-0.08965809643268585,0.23265057802200317,-0.050453539937734604,-0.1502821296453476,-0.00609859824180603,-0.00674181105569005,0.15714436769485474,0.0023181058932095766,0.02502286620438099,-0.0024088837672024965,-0.08624110370874405,-0.04887864738702774,-0.07438047230243683,0.13771402835845947,0.09622623771429062,0.018002990633249283,-0.032879818230867386,0.046648457646369934,0.0905718132853508,-0.1310376077890396,0.0036682349164038897,-0.019867289811372757,-0.07344010472297668,0.11917655169963837,0.08781036734580994,-0.056138794869184494,-0.11687667667865753,-0.06191868335008621,-0.09171143919229507,-0.01901724934577942,-0.20263609290122986,-0.14316479861736298,0.019731899723410606,0.08916563540697098,-0.09613027423620224,0.18262454867362976,0.19861719012260437,0.03091583214700222,0.04784982651472092,0.049995966255664825,0.032017871737480164,0.041315894573926926,0.06478647887706757,0.072313092648983,-0.08379830420017242,-0.019761696457862854,0.05957925319671631,0.013278213329613209,-0.008197666145861149,0.14223593473434448,-0.04871377348899841,-0.04156045615673065,0.08918676525354385,-0.11217848211526871,0.0622398741543293,0.010379823856055737,-0.0003661421069409698,0.051904987543821335,-0.14540427923202515,-0.15047936141490936,0.0625547468662262,0.10640539973974228,-0.10798151046037674,-0.015543440356850624,-0.10281627625226974,0.0018606242956593633,-0.19474263489246368,-0.1458771675825119,-0.08503969758749008,0.13476766645908356,-0.06303416937589645,0.03797176852822304,-0.0940760150551796,0.0718018189072609,-0.025068674236536026,-0.03835660219192505,-0.017449254170060158,-0.05904019623994827,-0.053732406347990036,-0.044237811118364334,-0.13432669639587402,0.04564913734793663,0.08428322523832321,0.3340360224246979,-0.016665730625391006,0.07749904692173004,-0.15899495780467987,0.09901084005832672,-0.010694973170757294,-0.04014351963996887,0.07694695144891739,-0.21543794870376587,0.05118925869464874,-0.03096141666173935,0.05748497322201729,0.12187273800373077,0.03156225383281708,-0.1570873260498047,0.07328842580318451,0.09336931258440018,0.18022675812244415,-0.11813756823539734,0.06494051218032837,-0.03782352805137634,0.053545042872428894,0.02304229885339737,-0.03125523403286934,-0.06195926293730736,-0.1620967537164688,0.06076787784695625,-0.05665509030222893,-0.08719953894615173,0.11733740568161011,0.07621033489704132,-0.021135877817869186,-0.14397551119327545,0.010939822532236576,0.03270594775676727,-0.004227403551340103,0.15207932889461517,0.09333281964063644,-0.018597830086946487,0.02969852276146412,-0.16542819142341614,0.12432058900594711,0.15994827449321747,-0.04034797102212906,-0.03463064134120941,0.08884857594966888,0.07521192729473114,-0.09233850985765457,-0.003321109339594841,-0.04722823575139046,-0.0709427148103714,-0.06725678592920303,0.02514677681028843,-0.0025054332800209522,0.12393753975629807,0.030499130487442017,0.026599876582622528,0.15627335011959076,-0.05138911306858063,0.021055707708001137,0.06885507702827454,0.05636708810925484,-0.050903890281915665,0.10474054515361786,0.17125330865383148,-0.0458451472222805,-0.04362322762608528,0.038943056017160416,0.13421092927455902,0.0010412512347102165,0.047885552048683167,0.14274077117443085,-0.029683375731110573,-0.06243955343961716,0.03062986582517624,0.008118574507534504,0.19271178543567657,0.00630060862749815,-0.09248650074005127,0.11834978312253952,-0.08280076086521149,-0.15728946030139923,-0.11563483625650406,0.018242843449115753,-0.025336308404803276,0.1000182032585144,0.022987090051174164,0.10817883908748627,0.011506467126309872,-0.12618760764598846,-0.06836266815662384,0.21021389961242676,0.05231776088476181,0.09336240589618683,0.1842021346092224,-0.033081140369176865,0.06685123592615128,0.0054899402894079685,-0.07073147594928741,-0.004976960830390453,0.10067646205425262,-0.1834421157836914,0.046160705387592316,-0.02088935114443302,-0.050953660160303116,-0.19446294009685516,0.11074107140302658,-0.009471881203353405,-0.046061448752880096,-0.09346088021993637,-0.03957957774400711,-0.025857610628008842,0.06709570437669754,-0.047757916152477264,-0.045587170869112015,-0.0648275762796402,0.018227985128760338,0.05414942651987076,0.06773911416530609,-0.12268833070993423,-0.035234253853559494,0.11757887899875641,0.16611520946025848,0.04935373738408089,-0.2528368830680847,-0.023589221760630608,-0.07842843234539032,0.0660855770111084,-0.03188805654644966,-0.041937220841646194
方法,0.08664929121732712,-0.04475277289748192,0.2047991305589676,0.42651498317718506,0.6050471067428589,-0.23491305112838745,-0.12909956276416779,-0.18510858714580536,-0.5527597665786743,0.4678099453449249,-0.07837671041488647,0.25485464930534363,0.3798922598361969,-0.41979092359542847,0.053253185003995895,-0.045137472450733185,0.5918877124786377,0.47896090149879456,-0.4545798599720001,1.0979562997817993,-0.120534248650074,0.2289499044418335,-0.42554333806037903,0.36923855543136597,-0.7746241092681885,-0.17010393738746643,0.022268371656537056,-0.08334733545780182,-0.6225206851959229,0.7002106308937073,-0.2712304890155792,0.14732761681079865,-0.24510878324508667,0.06281609833240509,0.6956361532211304,0.5737239122390747,0.15743057429790497,-0.4119919240474701,0.3720197081565857,0.6564612984657288,-0.041985463351011276,0.012976331636309624,-0.2573619484901428,-0.31086692214012146,0.6508316397666931,0.05307747796177864,-0.8223286867141724,0.19542919099330902,0.3984341621398926,0.7014082670211792,-0.47769930958747864,-0.17702458798885345,-0.00862206518650055,-0.5973119735717773,-0.6850035190582275,-0.5330015420913696,0.44084852933883667,-0.05509720742702484,0.5792429447174072,0.09863990545272827,-0.03629118204116821,-0.010471723973751068,0.1527189463376999,-0.1767025738954544,-0.6202241778373718,0.04897330701351166,0.44170063734054565,0.1737959384918213,0.005391796585172415,-0.41939300298690796,0.10330130159854889,-0.025181476026773453,0.026256022974848747,-0.6313253045082092,0.045381542295217514,-0.641575813293457,0.3915349841117859,0.2943367063999176,0.3246512711048126,0.6346111297607422,0.25361087918281555,-0.1301613599061966,0.30012738704681396,0.3175458014011383,0.2255050539970398,0.15332087874412537,-0.06772298365831375,0.45802974700927734,0.09649163484573364,0.07491647452116013,0.16976748406887054,0.3171554207801819,-0.15398438274860382,0.008398259989917278,0.1969476342201233,0.23094992339611053,-0.30151331424713135,0.23241382837295532,0.0737975537776947,-0.32731688022613525,0.19555869698524475,-0.48978450894355774,-0.2211744487285614,0.5196371674537659,-0.12032965570688248,-0.6793168783187866,0.3359239995479584,-0.3616692125797272,0.22185689210891724,-0.09204478561878204,-0.013419345952570438,0.4760599136352539,0.32771024107933044,0.19017374515533447,-0.31452086567878723,-0.4167676568031311,-0.12440001964569092,0.07407239824533463,-0.0316622294485569,-0.24523493647575378,-0.22569258511066437,-0.37461012601852417,0.3152526319026947,0.009351626969873905,-0.13361382484436035,0.14365768432617188,0.3279978930950165,0.4468156099319458,0.3659224510192871,0.044328656047582626,0.4754446744918823,-0.3580798804759979,0.0966683030128479,-0.18565744161605835,-0.7289538979530334,-0.11318125575780869,0.13083145022392273,-0.1805463582277298,0.18154044449329376,-0.32913586497306824,-0.13145217299461365,-0.23805826902389526,-0.0018220829078927636,0.359902024269104,-0.7794587016105652,-0.008753851056098938,0.10772958397865295,0.0008503213175572455,0.017507808282971382,-0.14252780377864838,-0.740645706653595,-0.198661670088768,-0.11636902391910553,-0.28221192955970764,-0.3059748113155365,0.04164836183190346,-0.5715427994728088,-0.11672673374414444,0.13508354127407074,-0.617286205291748,-0.3182455897331238,0.1666765660047531,-0.48989981412887573,0.14507880806922913,-0.12010296434164047,-0.0671134814620018,-1.0543725490570068,-0.28395310044288635,0.2076450139284134,0.5191623568534851,-0.13798803091049194,0.37042930722236633,-0.0768933892250061,-0.2958736717700958,0.02694590762257576,-0.2825208008289337,0.0783814787864685,-0.23885251581668854,0.6211398839950562,-0.7374959588050842,0.14691075682640076,-0.32251718640327454,0.11381591856479645,0.18922241032123566,0.32414987683296204,-0.4423733949661255,-0.15948154032230377,0.03890806436538696,0.25742408633232117,0.3658357858657837,-0.4419444501399994,-0.0616537444293499,0.4121575951576233,0.19051603972911835,0.1339081972837448,0.11716148257255554,0.20930908620357513,0.27756810188293457,-0.31683221459388733,0.3971535563468933,0.03677234798669815,0.18477986752986908,0.40737977623939514,-0.20753373205661774,-0.07833143323659897,0.05610809102654457,-0.5160757899284363,-0.14900058507919312,-0.9529773592948914,-0.1668548285961151,0.13164137303829193,-0.06519963592290878,0.013890169560909271,0.11690983176231384,0.6733611822128296,0.06345539540052414,0.047461144626140594,0.7489503026008606,-0.160915806889534,0.42572876811027527,-0.3313150107860565,0.11827873438596725,0.1605677306652069,0.30657076835632324,-0.6595510840415955,-0.14000678062438965,0.5057938098907471,0.18853025138378143,0.015890421345829964,0.5392152667045593,-0.2797982394695282,-0.6054001450538635,-0.21375463902950287,-0.3074888288974762,-0.04079722613096237,-0.35923242568969727,-0.18219509720802307,0.6245400905609131,0.3823898136615753,0.10403264313936234,-0.260739803314209,0.17616263031959534,-0.06436595320701599,-0.03212237358093262,0.005583164747804403,-0.5305857062339783,0.07423586398363113,-0.23587241768836975,-0.19855329394340515,-0.36853867769241333,-0.46608656644821167,0.06941432505846024,0.3258187174797058,0.29878416657447815,-0.08856862038373947,0.7506927847862244
系统,0.1609068214893341,0.1546289175748825,0.05696651712059975,0.3397274315357208,0.417372465133667,-0.13634870946407318,-0.03840482980012894,-0.18146729469299316,-0.4083377718925476,0.24011686444282532,-0.08605548739433289,0.23358750343322754,0.2919955253601074,-0.3069615364074707,0.16015763580799103,-0.03214947134256363,0.3138253390789032,0.22771936655044556,-0.23006205260753632,0.6977730393409729,-0.20240777730941772,0.028196096420288086,-0.37032490968704224,0.28155919909477234,-0.47596004605293274,-0.06747681647539139,-0.17293347418308258,-0.09064318239688873,-0.2496923953294754,0.5080034136772156,-0.21977011859416962,0.05656912550330162,-0.2386123687028885,-0.16994141042232513,0.5100368857383728,0.5484440326690674,0.05835362896323204,-0.20817354321479797,0.29913032054901123,0.31513404846191406,0.08952968567609787,0.3036373555660248,-0.27086472511291504,-0.250253826379776,0.45865920186042786,0.09078612923622131,-0.5253068208694458,0.10657548904418945,0.19408388435840607,0.5316453576087952,-0.11003056913614273,-0.18741530179977417,0.0174736175686121,-0.32465940713882446,-0.35117509961128235,-0.3927689790725708,0.31744104623794556,0.2864951193332672,0.326448917388916,0.04154913127422333,-0.11247339099645615,0.09076212346553802,0.0678882822394371,0.12350165843963623,-0.3699713349342346,-0.009972682222723961,0.45693451166152954,0.11034044623374939,0.12123826891183853,-0.4064524471759796,0.1663186103105545,0.1297188699245453,0.21123555302619934,-0.4894263744354248,0.017383607104420662,-0.3809733986854553,0.2281283587217331,0.3992353677749634,0.33473119139671326,0.5596957802772522,0.09567997604608536,-0.2472895234823227,0.2995736300945282,0.16356220841407776,0.18863172829151154,0.04895567521452904,-0.013031498529016972,0.44291773438453674,0.03684655576944351,0.02818569540977478,0.10446582734584808,0.416759729385376,-0.18546205759048462,0.004157636314630508,0.1515592336654663,0.1271858811378479,-0.2161286324262619,0.15478433668613434,0.035994913429021835,-0.37143540382385254,-0.01094784401357174,-0.21004073321819305,-0.20120006799697876,0.40294888615608215,0.04869632422924042,-0.5781183242797852,0.2594420909881592,-0.22532199323177338,0.309373676776886,-0.03440909460186958,0.1641571819782257,0.32153964042663574,0.15968914330005646,0.04014502465724945,-0.2755425274372101,-0.3634001612663269,-0.11058469861745834,-0.08785451203584671,0.24033261835575104,0.22654394805431366,-0.22048722207546234,-0.1972505748271942,0.1880340725183487,-0.06813859939575195,0.06775467097759247,-0.1007748693227768,0.20485515892505646,0.2638222873210907,0.37469908595085144,-0.037751637399196625,0.3689432442188263,-0.32701918482780457,0.1977786421775818,-0.17056690156459808,-0.49036672711372375,0.0010664602741599083,0.14460082352161407,-0.11748389899730682,0.22200928628444672,-0.36999034881591797,-0.07308048754930496,0.07284557074308395,-0.021324874833226204,0.30968108773231506,-0.7049643397331238,-0.1303648203611374,0.05274133011698723,-0.03994361683726311,-0.04051637649536133,-0.05725167319178581,-0.42255473136901855,-0.12776882946491241,-0.09878965467214584,-0.2552919387817383,-0.23228436708450317,-0.06243431940674782,-0.1742868721485138,-0.1947830766439438,0.03520799055695534,-0.3910066485404968,-0.23470322787761688,0.14983461797237396,-0.3733040392398834,0.29788944125175476,0.0517505407333374,0.03843889757990837,-0.7393849492073059,-0.11559835821390152,0.10464836657047272,0.3351331055164337,-0.023051749914884567,0.3529128432273865,0.07965365052223206,-0.26116296648979187,-0.0745215117931366,-0.11560499668121338,0.08519823104143143,-0.13675948977470398,0.3872656524181366,-0.5026507377624512,0.1704033613204956,-0.17987599968910217,0.01999463327229023,0.21341928839683533,0.17617842555046082,-0.3038788437843323,-0.13272054493427277,0.016633810475468636,0.1297520250082016,0.28343191742897034,-0.3557790517807007,-0.14037136733531952,0.5573455691337585,0.08694960176944733,0.018622854724526405,0.10332845896482468,0.02060975879430771,0.09671353548765182,-0.21750248968601227,0.32948169112205505,0.014886909164488316,0.23096968233585358,0.21795934438705444,-0.3333071768283844,-0.02511574700474739,0.13781346380710602,-0.19655616581439972,-0.045548513531684875,-0.5141283869743347,-0.24721257388591766,-0.07179940491914749,-0.11521439254283905,-0.03805097937583923,0.14940930902957916,0.3705531060695648,-0.06793771684169769,0.04238902032375336,0.661597728729248,-0.14951106905937195,0.35823482275009155,-0.08061428368091583,-0.039352450519800186,0.13031429052352905,0.231532484292984,-0.5541063547134399,-0.09738976508378983,0.23873041570186615,0.16307032108306885,0.021056419238448143,0.22999362647533417,-0.2787111699581146,-0.4844309389591217,-0.059018220752477646,-0.3086034655570984,-0.155276820063591,-0.11290781944990158,-0.40103214979171753,0.29647576808929443,0.4108036458492279,-0.020856402814388275,-0.2334643453359604,0.026782285422086716,-0.008374922908842564,-0.21273250877857208,-0.12256558239459991,-0.3293798565864563,0.09828455001115799,-0.06585178524255753,0.07556985318660736,-0.25248515605926514,-0.5754464268684387,0.1477225422859192,0.19721867144107819,0.23968273401260376,-0.1957569271326065,0.5786730647087097
最低,0.15627816319465637,0.2503420412540436,0.016364810988307,-0.11364806443452835,0.1258104145526886,-0.30044862627983093,0.006111234426498413,-0.1593009978532791,-0.3341357707977295,0.2184554487466812,-0.0045700292102992535,-0.1899435967206955,0.055957745760679245,-0.1703268587589264,0.03190583363175392,-0.192528635263443,0.0021761057432740927,-0.07266167551279068,0.13493861258029938,0.10458715260028839,-0.08981487154960632,-0.0538160502910614,0.0644771009683609,0.6048019528388977,-0.49770089983940125,0.013641220517456532,0.18584564328193665,0.3476010859012604,-0.3371674418449402,0.04664675146341324,-0.30432045459747314,-0.09774094074964523,-0.1569220870733261,-0.022091489285230637,0.18280068039894104,0.20358183979988098,0.13630995154380798,-0.23312707245349884,0.292212575674057,0.162311390042305,0.11886345595121384,0.3503786623477936,0.03524740785360336,-0.15200327336788177,0.14606626331806183,-0.039214469492435455,-0.07123588770627975,-0.2459649294614792,0.2913409173488617,-0.048377685248851776,-0.018050167709589005,-0.15470053255558014,-0.23976431787014008,0.20616044104099274,0.0951775312423706,-0.4606984853744507,0.4078402519226074,0.1534273326396942,0.1366998851299286,-0.1447799652814865,0.3023068308830261,0.002432740293443203,-0.32489725947380066,-0.24421650171279907,0.05112438276410103,-0.27888256311416626,0.15276914834976196,0.1546047478914261,0.1502230316400528,-0.3534264862537384,0.2886859178543091,-0.27423539757728577,0.010245895944535732,-0.28465238213539124,-0.31324318051338196,-0.25781503319740295,-0.06119261682033539,-0.07462053000926971,0.1892147660255432,0.46415525674819946,0.07799432426691055,0.07843067497015,0.09147991985082626,-0.36939698457717896,0.3412887156009674,0.13122539222240448,-0.13090382516384125,-0.2734202742576599,-0.0930740162730217,0.03027612715959549,0.0028990665450692177,0.33658552169799805,-0.0994548425078392,-0.025171250104904175,0.10792618989944458,-0.19234533607959747,-0.2799527943134308,0.022248785942792892,0.3226729929447174,-0.10913852602243423,0.17507542669773102,0.24438239634037018,-0.4902285039424896,-0.03607557713985443,0.07206732779741287,-0.40665751695632935,-0.04837089031934738,-0.3887496888637543,0.007183071691542864,-0.41398224234580994,-0.2769671082496643,0.0181394275277853,-0.18435612320899963,-0.025400107726454735,0.4106109142303467,-0.2809898853302002,0.0905519351363182,-0.08333528786897659,0.1647680699825287,-0.11961203068494797,-0.012393872253596783,-0.18965381383895874,-0.29642221331596375,-0.3471505343914032,0.2239571511745453,-0.40691936016082764,0.1575012356042862,-0.18222904205322266,0.0634276494383812,0.07029067724943161,0.21200567483901978,-0.19691522419452667,-0.04969007894396782,0.09910763800144196,-0.2728610634803772,-0.1119241863489151,0.17978863418102264,0.15228696167469025,0.005451479461044073,0.10146652907133102,-0.17831742763519287,-0.12306088209152222,0.1668929159641266,0.15681643784046173,-0.21917584538459778,-0.16778217256069183,-0.07154353708028793,-0.015041952952742577,-0.022123293951153755,-0.11817672103643417,-0.20924268662929535,0.07429666817188263,0.007002228870987892,-0.27156364917755127,-0.12571673095226288,0.10587965697050095,0.15210893750190735,-0.16442281007766724,-0.08010294288396835,0.11237293481826782,-0.432341068983078,-0.2315509170293808,-0.17868442833423615,0.2956019639968872,0.09226067364215851,0.11609075963497162,-0.3271399736404419,0.2342531979084015,0.21311785280704498,-0.08033517748117447,-0.28660187125205994,0.3472088873386383,0.35361871123313904,-0.08287256956100464,0.2979178726673126,-0.11100967228412628,-0.29206573963165283,-0.08292514085769653,-0.26272255182266235,-0.16435642540454865,0.3139323592185974,-0.08143890649080276,-0.011090865358710289,0.25467902421951294,-0.29546141624450684,-0.12097349017858505,0.22558246552944183,0.2658817768096924,-0.08260427415370941,0.13774244487285614,0.1075286865234375,0.41339606046676636,-0.05792945250868797,0.3233088552951813,0.09958484768867493,-0.014596555382013321,-0.20560577511787415,0.2078237384557724,-0.012135786935687065,0.11245294660329819,0.19704358279705048,0.15168651938438416,0.46364936232566833,0.14467929303646088,-0.01423292700201273,-0.13577941060066223,0.2057032287120819,-0.19922514259815216,-0.31208840012550354,-0.2812475264072418,-0.33002784848213196,0.07692466676235199,-0.2205704152584076,0.1306849867105484,0.038406506180763245,-0.09721224755048752,0.015530441887676716,0.3762754201889038,-0.18536938726902008,0.3434852361679077,0.47517821192741394,0.14064854383468628,0.07370948046445847,0.3067774474620819,-0.420213520526886,-0.11996278166770935,0.3248068392276764,-0.015893135219812393,-0.011240282095968723,0.32856589555740356,-0.10417309403419495,-0.2854357659816742,0.22182424366474152,0.007113655097782612,0.016803191974759102,-0.49203193187713623,-0.20457959175109863,0.10763482749462128,-0.002027170965448022,-0.20432798564434052,-0.10863744467496872,-0.11814150214195251,0.24840065836906433,0.02190014347434044,0.033698972314596176,-0.3340538740158081,0.06490296870470047,0.015052919276058674,0.19079945981502533,-0.08713499456644058,-0.4278419315814972,0.08848969638347626,-0.04805051162838936,0.07308945059776306,0.05130613595247269,0.17218947410583496
估计,0.17515337467193604,0.15998603403568268,-0.014976924285292625,0.15006569027900696,0.13133074343204498,0.013084416277706623,-0.021589692682027817,-0.0673506036400795,-0.1759529560804367,0.17547909915447235,-0.0420965738594532,0.043690528720617294,0.19106028974056244,-0.09732051938772202,0.07817228883504868,-0.08346804976463318,-0.04182824492454529,0.15380555391311646,0.04787464439868927,0.049576256424188614,-0.08500949293375015,0.07796932756900787,0.024642150849103928,0.13350073993206024,-0.2936576008796692,0.13944360613822937,0.14099110662937164,0.07773475348949432,-0.13022932410240173,0.1468067467212677,-0.28443053364753723,-0.053319137543439865,-0.1022026538848877,0.06474802643060684,0.2330414205789566,0.13114942610263824,-0.11569610238075256,-0.1468503475189209,0.12759244441986084,0.23809154331684113,0.10781141370534897,0.08889678865671158,-0.06874903291463852,-0.03977247327566147,0.17017999291419983,-0.03550495207309723,-0.1020514965057373,-0.08242961764335632,0.07949075847864151,0.16022655367851257,-0.07155410945415497,0.005783437751233578,-0.15531830489635468,-0.0015603943029418588,0.0006093601696193218,-0.14620743691921234,0.22026121616363525,0.16572122275829315,0.05438043549656868,-0.003955707885324955,0.12588410079479218,0.12941429018974304,-0.1504383534193039,-0.014970989897847176,-0.03358647599816322,-0.1261672079563141,0.15540467202663422,-0.0017471426399424672,0.05446804314851761,-0.24623149633407593,-0.005423202179372311,0.01121527049690485,-0.02572508342564106,-0.23990218341350555,-0.02159406803548336,0.029050901532173157,0.16570454835891724,-0.0005632583051919937,0.25831809639930725,0.3335699737071991,0.0375882126390934,-0.04385498911142349,0.1309596747159958,-0.21590982377529144,0.07686234265565872,0.06493427604436874,-0.0651090070605278,-0.05549006536602974,-0.05447094887495041,0.03509202599525452,0.052876394242048264,0.15495826303958893,0.07992172241210938,-0.10655463486909866,0.011839296668767929,0.10574547946453094,-0.1704748123884201,0.22528423368930817,0.036598362028598785,-0.038094405084848404,0.07394891232252121,-0.04737347364425659,-0.184543177485466,0.12822715938091278,0.034571096301078796,-0.25740572810173035,-0.006302270572632551,-0.17263706028461456,0.04805519059300423,-0.18402256071567535,-0.24211284518241882,-0.12363746017217636,0.13036173582077026,-0.06492959707975388,0.09172630310058594,-0.1359463632106781,0.08799759298563004,-0.17025534808635712,0.11106059700250626,0.015453832224011421,-0.05337832495570183,-0.04364577680826187,-0.11882774531841278,-0.047598302364349365,0.12752507627010345,0.010830729268491268,0.25158074498176575,-0.04127306491136551,0.11847537755966187,-0.021050283685326576,0.2596408724784851,-0.018333587795495987,-0.05418238043785095,0.00812485907226801,-0.26934346556663513,0.006318966392427683,0.006408850662410259,0.025256726890802383,0.15633802115917206,0.0025393287651240826,-0.19573648273944855,0.02193271368741989,0.02908865362405777,0.16141678392887115,-0.2589924931526184,-0.0035326573997735977,0.0768275335431099,-0.08102873712778091,-0.020609071478247643,-0.0666673481464386,-0.08088695257902145,-0.17800617218017578,-0.014845090918242931,-0.2169637382030487,-0.10788333415985107,0.08468605577945709,0.024563733488321304,-0.0925983190536499,-0.10215429216623306,-0.06553824990987778,-0.02635069191455841,-0.022735347971320152,-0.004465731326490641,0.17644913494586945,0.019993240013718605,-0.045802149921655655,-0.26034486293792725,0.17327135801315308,0.15977494418621063,0.06959367543458939,-0.03189532086253166,0.053761523216962814,0.14489318430423737,-0.084476538002491,-0.023619161918759346,-0.027021849527955055,0.02991112507879734,-0.1132984533905983,-0.017495758831501007,-0.004972708411514759,0.19571880996227264,-0.06413459032773972,-0.10527080297470093,0.22197462618350983,-0.16143155097961426,-0.15090832114219666,0.15073828399181366,0.05037111043930054,0.02735777758061886,0.1387895941734314,0.09864237904548645,0.03251730278134346,0.023184938356280327,0.01924392394721508,0.025066712871193886,0.01707318425178528,0.014976086094975471,0.1731579303741455,0.031644392758607864,0.0069798692129552364,0.06151875481009483,0.03971005603671074,0.3085247278213501,-0.08978406339883804,-0.10983102023601532,0.17652615904808044,0.012381833977997303,-0.09308303147554398,-0.18218770623207092,-0.03824426233768463,-0.09039176255464554,0.15491360425949097,-0.03510226309299469,0.16752789914608002,-0.02237815596163273,-0.11904620379209518,0.008120912127196789,0.322065144777298,0.03413959592580795,0.14314839243888855,0.272793710231781,0.057033367455005646,0.047873809933662415,0.1646888107061386,-0.21266351640224457,-0.05061081424355507,0.15117381513118744,-0.14343340694904327,0.020953062921762466,0.02056526392698288,-0.1569536179304123,-0.1723104864358902,0.17314940690994263,-0.031256042420864105,-0.03582727536559105,-0.1539120078086853,-0.06835376471281052,0.06865210086107254,0.11681415885686874,-0.16590255498886108,-0.11112837493419647,-0.05487183481454849,0.01558010745793581,-0.03981872648000717,0.04877116158604622,-0.23667366802692413,-0.08232779055833817,0.01053381897509098,0.23771747946739197,0.05193987488746643,-0.27575135231018066,0.10251179337501526,-0.04130803048610687,0.04080788791179657,0.02574635110795498,0.08242448419332504
方面,0.24719356000423431,0.07873227447271347,0.015072394162416458,0.13473829627037048,0.21968092024326324,-0.06592242419719696,-0.05660448968410492,-0.15899603068828583,-0.39927491545677185,0.22487975656986237,-0.08659996837377548,0.040437862277030945,0.2200249284505844,-0.2073768824338913,0.03965437039732933,-0.12227675318717957,-0.012497637420892715,0.16288170218467712,-0.003966361749917269,0.19211946427822113,-0.06990961730480194,0.0662526935338974,-0.04424290731549263,0.2815527021884918,-0.3091700077056885,0.11990096420049667,0.15837441384792328,0.13659462332725525,-0.2716605067253113,0.2925110161304474,-0.30766481161117554,-0.05693512409925461,-0.07067916542291641,0.06549487262964249,0.21420824527740479,0.18919606506824493,-0.06327345967292786,-0.22302024066448212,0.1412929743528366,0.21115528047084808,0.10304716229438782,0.13128802180290222,-0.11536580324172974,-0.149481400847435,0.21117247641086578,-0.03349963203072548,-0.3046547770500183,-0.04189426824450493,0.2479836493730545,0.18672604858875275,-0.14494554698467255,-0.1296394169330597,-0.2322538048028946,0.06736733764410019,-0.183040052652359,-0.23041363060474396,0.28055134415626526,0.1649082750082016,0.10646890848875046,-0.03764026612043381,0.1287223994731903,0.10509967058897018,-0.1665731817483902,-0.04435766115784645,-0.09341355413198471,-0.12022724002599716,0.30028092861175537,0.048062052577733994,0.05096116289496422,-0.32541540265083313,0.08464586734771729,-0.04511623829603195,0.02751442790031433,-0.36846601963043213,-0.07189196348190308,-0.1510387659072876,0.14911074936389923,0.05019862949848175,0.3380148410797119,0.24709737300872803,-0.005622874479740858,0.01829594559967518,0.18470293283462524,-0.11030557006597519,0.09983319044113159,0.07211730629205704,-0.07641218602657318,-0.01664094068109989,-0.09525662660598755,-0.003757113590836525,-0.02208397351205349,0.2287076711654663,0.015182635746896267,-0.07952289283275604,0.041529059410095215,0.033785175532102585,-0.18808403611183167,0.16327089071273804,0.09848955273628235,-0.08294366300106049,0.08275876939296722,-0.02807171270251274,-0.20979373157024384,0.12277655303478241,-0.031345535069704056,-0.39729970693588257,-0.006931736133992672,-0.2782188355922699,0.09964190423488617,-0.17441241443157196,-0.275032103061676,-0.00281533133238554,0.0006946523208171129,-0.04745511710643768,0.0575820617377758,-0.06543150544166565,-0.035984452813863754,-0.17427127063274384,0.10372638702392578,-0.05401453748345375,-0.07744026929140091,-0.14522691071033478,0.025872616097331047,-0.07794282585382462,0.13984674215316772,-0.06023295223712921,0.2624117434024811,0.03782433271408081,0.03035629540681839,-0.11065078526735306,0.2954789400100708,-0.016183311119675636,0.0020154875237494707,0.03002876788377762,-0.29051241278648376,0.01529691182076931,0.09879376739263535,0.00037215760676190257,0.14829279482364655,-0.10184930264949799,-0.11572528630495071,-0.04333611577749252,0.04802160710096359,0.22804224491119385,-0.30245441198349,-0.07040116935968399,0.037964820861816406,-0.06465788930654526,-0.024518480524420738,-0.04156561195850372,-0.20488785207271576,-0.20502816140651703,0.008747451938688755,-0.2898167371749878,-0.11753029376268387,0.16118302941322327,-0.07621492445468903,-0.1680876910686493,-0.055327560752630234,-0.14097575843334198,-0.2234458029270172,-0.12547200918197632,-0.09962727874517441,0.23525495827198029,-0.03576741740107536,-0.009832457639276981,-0.3787919282913208,0.09297899901866913,0.2845340967178345,0.0893145352602005,-0.1310732662677765,0.15175320208072662,0.19592300057411194,-0.020204074680805206,0.08165273815393448,-0.09593702852725983,0.003691586200147867,-0.09541264921426773,-0.030871594324707985,-0.11684375256299973,0.252773255109787,-0.05410445109009743,-0.06229425221681595,0.08177866041660309,-0.09952293336391449,-0.25457707047462463,0.17260242998600006,0.18992716073989868,0.18899065256118774,0.20129112899303436,0.005651104263961315,0.14631207287311554,0.04722442105412483,0.047543175518512726,-0.04684637114405632,0.06490204483270645,-0.015195955522358418,0.22583158314228058,-0.08410302549600601,0.031933002173900604,0.11128932237625122,0.19893787801265717,0.39121755957603455,-0.0754198357462883,-0.1341019719839096,0.14409184455871582,-0.10852044075727463,-0.12567421793937683,-0.32931095361709595,-0.047584664076566696,-0.1198449581861496,0.16111896932125092,0.015666618943214417,0.22720567882061005,0.09008895605802536,-0.10103127360343933,-0.002129204338416457,0.26951149106025696,0.008477700874209404,0.21535973250865936,0.25331640243530273,0.06685884296894073,0.021942006424069405,0.21403750777244568,-0.23806968331336975,-0.05824669450521469,0.13605526089668274,-0.037664130330085754,0.05742226168513298,0.1379135549068451,-0.14058595895767212,-0.2819065749645233,0.23440046608448029,-0.06396288424730301,-0.061992399394512177,-0.2617104649543762,-0.06094297766685486,0.14261311292648315,0.1385858952999115,-0.1230413094162941,-0.09095804393291473,-0.06819941848516464,0.05348177254199982,0.009532373398542404,0.038833435624837875,-0.3265365958213806,-0.08138802647590637,-0.058606360107660294,0.11615009605884552,0.04760732129216194,-0.39235368371009827,0.07802602648735046,-0.041210293769836426,0.1191442608833313,0.06786540150642395,0.0928984060883522
电池,0.05086974427103996,0.09395857900381088,0.02119896002113819,0.08696696907281876,0.06456512212753296,-0.06647003442049026,-0.003331946674734354,-0.10534142702817917,-0.1417829394340515,0.10734397172927856,-0.012182840146124363,0.05695033818483353,0.0836067944765091,-0.11826527863740921,0.03258310630917549,-0.018194831907749176,0.026150329038500786,0.020023705437779427,0.011706865392625332,0.15541909635066986,-0.09677266329526901,0.0009575030417181551,-0.0649537444114685,0.16031590104103088,-0.17220738530158997,-0.010355832055211067,0.007441622670739889,0.037585750222206116,-0.12606388330459595,0.10766768455505371,-0.10673216730356216,-0.03147325664758682,-0.06765704602003098,-0.017901860177516937,0.15979762375354767,0.1329764723777771,0.03695216402411461,-0.0915490984916687,0.10704939067363739,0.10936617851257324,0.029328376054763794,0.12815622985363007,-0.042592745274305344,-0.0699775293469429,0.13199147582054138,-0.023277943953871727,-0.1400393843650818,-0.02222784049808979,0.11695441603660583,0.11955494433641434,-0.003561734687536955,-0.03582815080881119,-0.06213456392288208,-0.010709463618695736,-0.053969256579875946,-0.10882642865180969,0.11014769971370697,0.12399148941040039,0.09997954964637756,-0.00890045054256916,-0.021033495664596558,0.025150584056973457,-0.030027957633137703,0.028637202456593513,-0.09371345490217209,-0.08572600036859512,0.14940796792507172,0.026667801663279533,0.08083689957857132,-0.0733238011598587,0.07131540030241013,-0.04627971351146698,0.032553426921367645,-0.10622493177652359,-0.06957971304655075,-0.13630683720111847,0.05728236585855484,0.04511656612157822,0.1193956509232521,0.23861025273799896,0.028900668025016785,0.05072777718305588,0.07845862209796906,-0.025152821093797684,0.07532662898302078,0.012021251954138279,0.0068654753267765045,0.04973754659295082,-0.01095360703766346,0.0040827286429703236,0.0574234239757061,0.07124893367290497,-0.05161036550998688,-0.05332178622484207,0.05022937431931496,-0.029102088883519173,-0.10839756578207016,0.06366302818059921,0.042160116136074066,-0.06928171217441559,0.038482923060655594,-0.011703516356647015,-0.11349464952945709,0.059983059763908386,0.0340309701859951,-0.13785216212272644,0.08288726210594177,-0.0949433445930481,0.04406305402517319,-0.07713563740253448,-0.026309048756957054,0.05190695822238922,-0.05158723518252373,0.03157661110162735,0.018202899023890495,-0.1473734825849533,0.07086247205734253,-0.027500877156853676,0.07714199274778366,0.07852821797132492,0.002463982906192541,-0.06629965454339981,-0.00981525145471096,-0.0970785990357399,0.07586678117513657,-0.06702633947134018,0.04101252928376198,0.00022776791593059897,0.055945757776498795,0.012019584886729717,0.08298363536596298,-0.09468939155340195,0.0069324118085205555,0.012362701818346977,-0.19736456871032715,-0.011681108735501766,0.1094009205698967,0.003483710577711463,0.0295560322701931,-0.04521912336349487,-0.05394238233566284,-0.006915145553648472,-0.016263995319604874,0.09204036742448807,-0.196585550904274,0.005741792265325785,-0.03044448420405388,-0.03191715478897095,0.01093248464167118,-0.05926032364368439,-0.07918324321508408,-0.03847087547183037,-0.02046363055706024,-0.13777929544448853,-0.10925427079200745,-0.07243771851062775,0.009843716397881508,0.002478613518178463,-0.02030470222234726,-0.054068468511104584,-0.1034182533621788,-0.04524189978837967,-0.07682034373283386,0.10501348972320557,0.03094748593866825,0.019995948299765587,-0.1928797960281372,0.008690882474184036,0.0897095650434494,-0.004033156670629978,-0.055879682302474976,0.14940130710601807,0.03284391760826111,-0.09280411154031754,0.06301909685134888,-0.10104723274707794,-0.02975216880440712,-0.06186791509389877,0.010515066795051098,-0.09074590355157852,0.07354818284511566,-0.01786152645945549,-0.016835017129778862,0.051150016486644745,0.014970118179917336,-0.08602610230445862,0.027178270742297173,0.02527734823524952,0.017253287136554718,0.09681055694818497,-0.013134806416928768,0.014320624060928822,0.09705647081136703,0.09537219256162643,0.03733057528734207,0.024216720834374428,-0.024372655898332596,0.10210879892110825,-0.037167686969041824,0.12556830048561096,0.0755019560456276,0.10301060229539871,0.12159740179777145,0.0008097043610177934,-0.02025510184466839,0.06378009915351868,-0.0035604273434728384,-0.0031548605766147375,-0.14268086850643158,-0.060548484325408936,-0.06817473471164703,-0.013690750114619732,-0.029896143823862076,0.07869678735733032,0.05437950789928436,-0.03174113854765892,-0.04184568673372269,0.22488918900489807,-0.05937438830733299,0.13419698178768158,0.028858164325356483,-0.03567599877715111,0.03528587892651558,0.05174596980214119,-0.2013179361820221,-0.01119652483612299,0.12899528443813324,0.008276738226413727,0.027111070230603218,0.12324505299329758,-0.07818704098463058,-0.16347086429595947,0.04244218021631241,-0.012496340088546276,-0.0328538715839386,-0.09878139197826385,-0.12176059186458588,0.0690665915608406,0.08267425000667572,-0.01580328680574894,-0.09238027781248093,0.05175567418336868,0.07023385912179947,-0.017596622928977013,-0.04249868169426918,-0.14434769749641418,0.06280997395515442,0.04385770857334137,0.0842728465795517,-0.0015314312186092138,-0.17469844222068787,0.033773068338632584,0.07922685146331787,0.05847770348191261,-0.03361918032169342,0.1763925701379776
命令,0.23927909135818481,0.08130395412445068,0.08244938403367996,0.2434336543083191,0.2772597670555115,-0.08422170579433441,-0.04771612212061882,-0.17688146233558655,-0.5016610026359558,0.2331898808479309,-0.09228475391864777,0.013030909933149815,0.2585127651691437,-0.28526580333709717,0.062185052782297134,-0.1667812615633011,0.09195021539926529,0.1943742036819458,-0.04802866280078888,0.2541171908378601,-0.0009968673111870885,0.0857226625084877,-0.1065889298915863,0.23887035250663757,-0.34931713342666626,0.0830010250210762,0.12487693130970001,0.15277396142482758,-0.20121853053569794,0.2741105258464813,-0.2823852300643921,0.03700245916843414,-0.16393859684467316,0.051660969853401184,0.2831669747829437,0.14195308089256287,-0.08882410824298859,-0.313618540763855,0.17794547975063324,0.3633752465248108,0.054170262068510056,0.08461702615022659,-0.10608486086130142,-0.20515267550945282,0.3063395619392395,0.04259658604860306,-0.46481403708457947,-0.029215002432465553,0.3329389989376068,0.28763264417648315,-0.11595718562602997,-0.1238187924027443,-0.24912840127944946,-0.03258579224348068,-0.2364133894443512,-0.21667298674583435,0.29630783200263977,0.10004393011331558,0.10192017257213593,-0.012697089463472366,0.1747114509344101,0.08583799749612808,-0.18885694444179535,-0.08103535324335098,-0.23960375785827637,-0.11259356886148453,0.3247964084148407,0.17198380827903748,0.03602265939116478,-0.39255231618881226,-0.02659880928695202,-0.08211823552846909,0.03645617142319679,-0.4622114300727844,-0.08015350997447968,-0.2050466686487198,0.24699975550174713,-0.0017424849793314934,0.4366322457790375,0.25805941224098206,0.07976347953081131,0.05577684938907623,0.20210745930671692,-0.13505919277668,0.2194249927997589,0.14697998762130737,-0.11382358521223068,0.05576340854167938,-0.09372945874929428,-0.015490067191421986,-0.08238659799098969,0.31950685381889343,0.13367632031440735,-0.0636850893497467,0.05351671203970909,0.10419102758169174,-0.1580432504415512,0.21308274567127228,0.00027387397130951285,-0.1251966655254364,0.08677408844232559,-0.17153359949588776,-0.17012614011764526,0.13494659960269928,0.0007452868157997727,-0.48989763855934143,-0.0070245773531496525,-0.366525799036026,0.12360593676567078,-0.2138398438692093,-0.23028679192066193,0.09438300877809525,0.10627007484436035,-0.03608166426420212,0.04003750532865524,-0.07856982946395874,-0.044614605605602264,-0.07681964337825775,-0.018519820645451546,-0.173933744430542,-0.07695717364549637,-0.2557556629180908,0.029451671987771988,-0.05580763518810272,0.0688234195113182,-0.031076626852154732,0.30574363470077515,0.02602202817797661,0.07224740833044052,-0.17308056354522705,0.22178080677986145,-0.04728738218545914,0.0473313145339489,0.11284670978784561,-0.3389620780944824,0.02089802734553814,0.07478008419275284,-0.05166659504175186,0.1956675946712494,-0.06637352705001831,-0.08131587505340576,-0.0850844457745552,0.07501991093158722,0.2917655408382416,-0.3195575475692749,-0.13411784172058105,0.046076174825429916,-0.1263420283794403,-0.10032595694065094,-0.07422555238008499,-0.3724033236503601,-0.16932104527950287,0.05438810959458351,-0.31193968653678894,-0.14100095629692078,0.13521382212638855,-0.2025880664587021,-0.1471238136291504,-0.03061048686504364,-0.16057322919368744,-0.22178055346012115,-0.109961599111557,-0.04525473713874817,0.277987539768219,-0.052761949598789215,-0.07502447813749313,-0.47078460454940796,0.04960240051150322,0.28662675619125366,0.050479114055633545,-0.16329577565193176,0.21604077517986298,0.20318260788917542,-0.0744703933596611,0.09504736959934235,-0.08762356638908386,-0.04086517542600632,-0.18358980119228363,0.039094455540180206,-0.19867800176143646,0.20669573545455933,-0.05097946152091026,0.02339421957731247,0.058001767843961716,-0.13884016871452332,-0.2101263850927353,0.10535129904747009,0.259596586227417,0.20614084601402283,0.2906496226787567,0.03528305143117905,0.17617923021316528,0.08379343152046204,0.06241975724697113,-0.0587255023419857,0.062151264399290085,0.09002155810594559,0.26390576362609863,-0.1424381583929062,-0.05447547137737274,0.11107871681451797,0.11147727817296982,0.39534661173820496,-0.06364213675260544,-0.19745321571826935,0.1365595906972885,-0.17351320385932922,-0.16049128770828247,-0.34424206614494324,-0.048741746693849564,-0.028121452778577805,0.13909581303596497,-0.037622664123773575,0.241679385304451,0.1750461906194687,-0.043632011860609055,-0.0523318313062191,0.4016313850879669,0.055357925593853,0.2926243543624878,0.2575840950012207,0.0856195017695427,0.09830687940120697,0.18693029880523682,-0.3145444393157959,-0.0817238986492157,0.17663127183914185,-0.0934949740767479,0.20478284358978271,0.24602565169334412,-0.22718465328216553,-0.41907504200935364,0.20487651228904724,-0.11369767040014267,-0.1075161024928093,-0.21883036196231842,0.008013993501663208,0.23505915701389313,0.206155925989151,-0.13861453533172607,-0.07508713006973267,-0.16404861211776733,0.0029695509001612663,0.0049720085225999355,0.013049544766545296,-0.3954371213912964,-0.08729849010705948,-0.09226695448160172,0.19986359775066376,-0.10372170060873032,-0.49099403619766235,0.15516336262226105,-0.0803956463932991,0.21792714297771454,0.07536382973194122,0.11475313454866409
介绍,0.19323383271694183,0.055035922676324844,0.05248454213142395,0.16331429779529572,0.21770569682121277,-0.05640826001763344,-0.04093337431550026,-0.1373874843120575,-0.3506726026535034,0.169938325881958,-0.12635253369808197,0.12453779578208923,0.26040807366371155,-0.14349967241287231,0.10310472548007965,-0.048795491456985474,0.028724778443574905,0.17843112349510193,-0.12046936899423599,0.28117436170578003,-0.07516111433506012,0.007790569681674242,-0.1298607736825943,0.2541247010231018,-0.24364647269248962,0.0826651006937027,0.14036612212657928,0.030289746820926666,-0.19913099706172943,0.33488091826438904,-0.2793961763381958,0.00835712905973196,-0.03750469163060188,0.02827962301671505,0.1751614212989807,0.24154910445213318,-0.060655463486909866,-0.16834522783756256,0.06917590647935867,0.2200275957584381,0.08514519035816193,0.09589741379022598,-0.11223158985376358,-0.07002579420804977,0.14238958060741425,0.02573079615831375,-0.27703437209129333,-0.000631254049949348,0.19733121991157532,0.18637990951538086,-0.11278197169303894,-0.1231178566813469,-0.1433546394109726,-0.03512856364250183,-0.2350756824016571,-0.19345562160015106,0.2088891565799713,0.20511959493160248,0.19772467017173767,-0.05239204689860344,0.018101483583450317,0.12129123508930206,-0.06212056428194046,-0.0022979441564530134,-0.16997872292995453,-0.07909799367189407,0.2456025779247284,-0.005825348664075136,0.07147388905286789,-0.27219533920288086,0.11788821220397949,0.08899173885583878,0.027097230777144432,-0.2836880087852478,0.05846259370446205,-0.16992104053497314,0.13912920653820038,0.17161373794078827,0.2908168435096741,0.20327647030353546,-0.02503509260714054,-0.07335726916790009,0.1705537587404251,-0.06810282915830612,0.0453924834728241,0.021410154178738594,-0.12752853333950043,0.12526831030845642,-0.0474199540913105,-0.01683061197400093,-0.002599552972242236,0.1976810246706009,-0.06383302062749863,-0.09398733824491501,0.08053600788116455,0.08953441679477692,-0.1115366593003273,0.21604163944721222,0.05878486856818199,-0.13686120510101318,0.07647348940372467,-0.08817223459482193,-0.11603865027427673,0.1262492537498474,-0.024174045771360397,-0.325723797082901,0.08095382899045944,-0.16380439698696136,0.14324437081813812,-0.011030759662389755,-0.11908464878797531,0.08330728113651276,0.028279727324843407,0.0019230180187150836,0.0020549066830426455,-0.04352987930178642,-0.08563333749771118,-0.13442161679267883,0.11618448048830032,0.02999836392700672,-0.028192583471536636,-0.14858068525791168,0.09241026639938354,0.031650688499212265,0.061562370508909225,-0.02876441553235054,0.14481525123119354,0.11140242218971252,0.04756591096520424,-0.040926799178123474,0.23770791292190552,-0.06273855268955231,0.04625701904296875,-0.04535931348800659,-0.24915817379951477,0.010943508706986904,0.09857584536075592,-0.03346629440784454,0.09927906095981598,-0.17511649429798126,-0.04872366040945053,-0.06604105234146118,0.0012990942923352122,0.18868550658226013,-0.3141747713088989,-0.11727041751146317,0.10077136754989624,-0.03385772928595543,-0.030165433883666992,-0.04170363023877144,-0.24453891813755035,-0.13770954310894012,-0.059007447212934494,-0.31159254908561707,-0.08244293928146362,0.0543041005730629,-0.150493785738945,-0.14640645682811737,0.018162034451961517,-0.22644931077957153,-0.173635795712471,-0.025157570838928223,-0.17893047630786896,0.2278863936662674,-0.04973108321428299,-0.08069265633821487,-0.38871318101882935,-0.005378913599997759,0.15837639570236206,0.1346762478351593,-0.10427746921777725,0.12023632973432541,0.11671102792024612,-0.03364518657326698,0.04220809042453766,-0.0487014465034008,0.10139422118663788,-0.11872846633195877,0.09935115277767181,-0.12113096565008163,0.14800933003425598,-0.10902004688978195,-0.11365455389022827,-0.016468632966279984,0.01498984731733799,-0.23841264843940735,0.12113801389932632,0.08248008787631989,0.20537422597408295,0.18328425288200378,-0.08933572471141815,0.05401652678847313,0.2149689495563507,0.0029719346202909946,-0.09032370150089264,0.07638437300920486,0.032927487045526505,0.1371702253818512,-0.127189040184021,0.14360129833221436,0.09035884588956833,0.22261564433574677,0.24826030433177948,-0.12431038916110992,-0.08727861195802689,0.15486402809619904,-0.0942726731300354,0.0077173770405352116,-0.33551934361457825,-0.03843437135219574,-0.08035500347614288,0.11008037626743317,0.018130915239453316,0.17219607532024384,0.11915025860071182,-0.04371032863855362,0.029880892485380173,0.23126105964183807,0.024525441229343414,0.11345987766981125,0.10370650887489319,0.04564647004008293,-0.03267401456832886,0.17486922442913055,-0.2895945906639099,-0.06944822520017624,0.11834091693162918,0.06014866754412651,0.0006305825081653893,0.12034561485052109,-0.1640736311674118,-0.22251570224761963,0.1200358122587204,-0.09272249042987823,-0.10969112813472748,-0.12828168272972107,-0.04639895632863045,0.21292924880981445,0.13910648226737976,-0.08999218046665192,-0.12344706058502197,0.00646396866068244,-0.02683507278561592,-0.05089740827679634,0.04563933238387108,-0.27673906087875366,-0.02465362474322319,-0.07559467107057571,0.036064811050891876,-0.014483412727713585,-0.3363458514213562,0.13286441564559937,0.02475329115986824,0.05916428938508034,0.025911524891853333,0.22673076391220093
产生,0.05772430822253227,0.05262528359889984,0.09533412754535675,0.1586766093969345,0.1016751378774643,-0.0662522166967392,-0.06296179443597794,-0.0757477730512619,-0.21133257448673248,0.14281652867794037,-0.08819205313920975,0.10758247971534729,0.1382574588060379,-0.0923096090555191,0.022620396688580513,0.014867850579321384,0.02074582315981388,0.15964308381080627,-0.06085818633437157,0.3113795816898346,-0.09305289387702942,-0.0284225195646286,-0.11032800376415253,0.15707021951675415,-0.13901545107364655,-0.005863246973603964,0.021358462050557137,0.02381742000579834,-0.12272948771715164,0.22542183101177216,-0.11635460704565048,0.005161548499017954,-0.05625733733177185,0.00012993522977922112,0.19388453662395477,0.24323482811450958,0.00033781060483306646,-0.08642025291919708,0.08607952296733856,0.17510665953159332,-0.023451359942555428,0.10319948941469193,-0.05481726676225662,-0.11036785691976547,0.12295622378587723,0.0041966624557971954,-0.15964460372924805,0.04187185689806938,0.14361098408699036,0.1773943305015564,-0.03922359645366669,-0.05959203094244003,-0.07113996148109436,-0.07404123246669769,-0.12785640358924866,-0.09304922074079514,0.1284896582365036,0.1692744940519333,0.1839175820350647,-0.0504533015191555,-0.08300753682851791,0.043256744742393494,0.06635340303182602,0.016032161191105843,-0.1651897430419922,-0.01745539903640747,0.21099357306957245,-0.031066546216607094,0.08676747232675552,-0.07421960681676865,0.08025023341178894,0.06267518550157547,0.011473149992525578,-0.11089754104614258,0.05364498496055603,-0.22946421802043915,0.09727570414543152,0.13999193906784058,0.18939271569252014,0.22474755346775055,0.01727694272994995,-0.0014796520117670298,0.09805696457624435,-0.022368745878338814,0.04873737692832947,-0.03139743581414223,-0.03481999784708023,0.19184763729572296,-0.0011240902822464705,-0.0015836918028071523,0.09642209112644196,0.12418336421251297,-0.08271834999322891,-0.09660372883081436,0.1410745233297348,0.07915069162845612,-0.09166178107261658,0.147007554769516,-0.015690218657255173,-0.060124002397060394,-0.0018011979991570115,-0.10414666682481766,-0.0214291550219059,0.10432909429073334,0.048445239663124084,-0.1861777901649475,0.11377940326929092,-0.07860267907381058,0.10419115424156189,0.011819234117865562,-0.036015961319208145,0.07853171229362488,-0.004024661146104336,0.035503730177879333,-0.006881840992718935,-0.09539805352687836,0.024329882115125656,-0.033777255564928055,0.08166887611150742,0.06200001388788223,0.02319752797484398,-0.09864535927772522,0.09139546751976013,0.022787734866142273,0.039782918989658356,-0.053293731063604355,0.035450782626867294,0.12122778594493866,0.04968796297907829,0.07835137099027634,0.20875366032123566,-0.1554708331823349,0.03578123450279236,-0.09073475748300552,-0.2156510055065155,0.05535714700818062,0.14326636493206024,-0.06141243129968643,0.022516261786222458,-0.11410397291183472,-0.02685367316007614,-0.06467762589454651,-0.049826037138700485,0.10705303400754929,-0.2648921310901642,-0.021845459938049316,0.052899133414030075,-0.009108620695769787,-0.01195460930466652,-0.1070358008146286,-0.1626158505678177,-0.08123128861188889,-0.05423878878355026,-0.20907635986804962,-0.09719707816839218,-0.07431045174598694,-0.08174365758895874,-0.03813991695642471,0.04192862659692764,-0.13274286687374115,-0.11690563708543777,-0.01127276849001646,-0.14788173139095306,0.13273689150810242,0.035999953746795654,-0.06851942092180252,-0.31161341071128845,-0.04432770609855652,0.08077934384346008,0.09006747603416443,-0.07592238485813141,0.12666210532188416,-0.0035155550576746464,-0.03843707963824272,0.0410308763384819,-0.12026321142911911,0.09126918017864227,-0.11159489303827286,0.1397264301776886,-0.1130245178937912,0.04811013862490654,-0.010727024637162685,-0.05332871899008751,-0.0459272600710392,0.09157004207372665,-0.14952130615711212,0.03221287950873375,-0.06112639978528023,0.11495357006788254,0.12240021675825119,-0.09846245497465134,-0.06117308884859085,0.2130737602710724,0.05283457785844803,-0.0656762421131134,0.07036612927913666,-0.00594578729942441,0.11484117060899734,-0.11635684967041016,0.18915235996246338,0.07742001116275787,0.16388437151908875,0.0767415314912796,-0.05552496016025543,-0.07646209746599197,0.09522618353366852,-0.030065184459090233,0.09376151114702225,-0.259091317653656,-0.0253496915102005,0.0018980305176228285,-0.0017935342621058226,0.023111563175916672,0.11521560698747635,0.11638003587722778,0.018731839954853058,-0.018464038148522377,0.23470456898212433,-0.07188138365745544,0.09410317987203598,-0.03182120621204376,-0.0007546722190454602,-0.05621238797903061,0.06305010616779327,-0.27642759680747986,-0.01881646178662777,0.18116317689418793,0.04903053492307663,-0.01008645910769701,0.16905848681926727,-0.11419776827096939,-0.18014733493328094,0.041907571256160736,-0.0793541744351387,-0.04598148912191391,-0.05997158959507942,-0.07776928693056107,0.1151532456278801,0.097620390355587,-0.029228784143924713,-0.15540531277656555,0.09297385811805725,0.024249384179711342,-0.0796116441488266,-0.008288365788757801,-0.1926656812429428,0.05261208489537239,-0.0038758714217692614,0.04245917126536369,-0.03247321397066116,-0.16379322111606598,0.08059626817703247,0.06992826610803604,0.03428349643945694,-0.020753057673573494,0.315451979637146
参数,0.043514758348464966,0.014493422582745552,0.04047785699367523,0.06792642921209335,0.08001476526260376,-0.048464786261320114,0.009563659317791462,-0.08573683351278305,-0.1419297456741333,0.07953011989593506,0.01849663443863392,0.0960298478603363,0.024631928652524948,-0.0825858786702156,0.022459525614976883,0.0023986981250345707,0.07736825942993164,0.06651164591312408,-0.06050092726945877,0.13876157999038696,-0.05166497081518173,0.04179500415921211,-0.05746860429644585,0.11078911274671555,-0.11193263530731201,-0.04923095181584358,0.008126875385642052,0.020361393690109253,-0.1342877447605133,0.055497173219919205,-0.07536808401346207,-0.0005246042856015265,0.003626601304858923,0.0018877561669796705,0.10336817800998688,0.09997746348381042,0.06851034611463547,-0.1061808168888092,0.04316825047135353,0.10953623801469803,0.008759749121963978,0.04063456505537033,-0.041897907853126526,-0.03763025999069214,0.11125903576612473,-0.03951472043991089,-0.12909440696239471,0.012137909419834614,0.10147055983543396,0.12770606577396393,-0.06288811564445496,0.00609778705984354,0.002268813084810972,-0.10033950954675674,-0.11463809013366699,-0.08633691072463989,0.10222260653972626,-0.015621748752892017,0.08081070333719254,0.019704509526491165,-0.024863334372639656,0.04952333867549896,-0.01718069612979889,0.013890895992517471,-0.1039666160941124,-0.03905230388045311,0.11530289053916931,0.04292357340455055,0.010811889544129372,-0.04320097342133522,0.03406240791082382,0.00877098273485899,0.02726164646446705,-0.08119309693574905,-0.06957501918077469,-0.11175162345170975,0.02679811418056488,0.01341064739972353,0.09120094031095505,0.16556309163570404,0.07431633770465851,0.008574887178838253,0.0511024184525013,0.021454457193613052,0.017882579937577248,0.04103287681937218,0.012628569267690182,0.04863032326102257,-0.002297671278938651,0.006298121530562639,0.03581063076853752,0.049660906195640564,-7.709198689553887e-05,-0.020163534209132195,0.015343950130045414,0.01829298958182335,-0.06609748303890228,0.0543689988553524,0.02432541735470295,-0.08730187267065048,0.07759205251932144,-0.058843374252319336,-0.0386013388633728,0.06783195585012436,-0.004793680738657713,-0.08818601071834564,0.08414597809314728,-0.06535643339157104,0.048962295055389404,-0.01701538823544979,0.011142301373183727,0.052482880651950836,0.024586843326687813,0.04553580284118652,0.00015842965513002127,-0.12146606296300888,0.023607952520251274,0.012224936857819557,-0.0013012735871598125,-0.005618334282189608,-0.004102989099919796,-0.06843248009681702,0.034903012216091156,-0.0826663076877594,-0.003625554032623768,0.016178643330931664,0.04872759059071541,0.05647917464375496,0.029314082115888596,-0.005870181135833263,0.0721585601568222,-0.052180808037519455,0.02587210014462471,0.009738300926983356,-0.15110927820205688,-0.023756954818964005,0.02736852504312992,0.019911641255021095,0.05886206403374672,-0.04389377683401108,-0.03932315111160278,-0.016422856599092484,-0.01768425479531288,0.08009660989046097,-0.14846837520599365,0.022434508427977562,-0.00017098830721806735,-0.03598584607243538,0.014753450639545918,-0.03510857746005058,-0.12345182150602341,-0.037826184183359146,-0.013203945010900497,-0.07597127556800842,-0.051904164254665375,0.002912367694079876,-0.04806342348456383,-0.015226379968225956,0.0368022583425045,-0.11132902652025223,-0.1137678325176239,0.017462480813264847,-0.09164644032716751,0.03560112416744232,-0.03108825720846653,-0.013432472012937069,-0.13862231373786926,-0.005296527873724699,0.07806475460529327,0.0028509311378002167,-0.05046418681740761,0.08293931186199188,0.014590911567211151,-0.05850614234805107,0.021247243508696556,-0.03932126238942146,-0.03660109266638756,-0.036437053233385086,0.07392742484807968,-0.11716631799936295,0.026720060035586357,-0.018842173740267754,0.018396465107798576,-0.0016847721999511123,0.08005470037460327,-0.07414142042398453,-0.02161640115082264,0.03362646326422691,0.03900381922721863,0.07760363072156906,-0.030352672562003136,0.006317052058875561,0.08515401184558868,0.04064495489001274,0.017656521871685982,0.06991489231586456,0.02993892878293991,0.06395474076271057,-0.024809354916214943,0.09708088636398315,0.04009285196661949,0.02999829687178135,0.08034910261631012,-0.01613203063607216,0.002767626428976655,0.023613829165697098,-0.07894419133663177,-0.026383571326732635,-0.17893163859844208,-0.010809279978275299,-0.022503891959786415,0.017504993826150894,0.014662785455584526,0.07951325178146362,0.0785897895693779,-0.002605626592412591,-0.05115044489502907,0.16785785555839539,-0.026573166251182556,0.09413053095340729,-0.034619178622961044,0.012418237514793873,0.05165628343820572,0.048171572387218475,-0.135614275932312,-0.03961057588458061,0.11077755689620972,0.005370012484490871,0.015385214239358902,0.09826939553022385,-0.08939401805400848,-0.11933162063360214,-0.0034764138981699944,-0.0157675351947546,-0.032994773238897324,-0.05536748468875885,-0.01650889776647091,0.11369619518518448,0.03934941440820694,-0.02595905400812626,-0.05389632657170296,0.07694774121046066,0.01283030305057764,0.027568671852350235,-0.042901523411273956,-0.11528581380844116,0.0441356860101223,-0.03898587450385094,0.003074243664741516,-0.018421977758407593,-0.09294291585683823,0.006506678182631731,0.055349111557006836,0.04013673961162567,-0.04871072247624397,0.1778639256954193
使用,0.002909101778641343,0.27252665162086487,1.0024151802062988,0.862014889717102,1.434821367263794,-0.7354454398155212,-0.4148999750614166,-0.32377538084983826,-0.9985870122909546,0.0979141891002655,0.5099020600318909,0.08958011865615845,-0.5703006386756897,-1.1783167123794556,0.05798276886343956,-0.4513598084449768,1.4187544584274292,0.6630597710609436,-0.3680397570133209,2.188577175140381,-0.3907422423362732,-0.05084826052188873,-1.4263818264007568,0.2849131226539612,-1.5190199613571167,-0.9141457676887512,-1.0458825826644897,-0.06197337061166763,-0.3503178656101227,0.8593326210975647,0.32049721479415894,0.19808632135391235,-1.328083872795105,-0.5108168721199036,1.6335035562515259,1.4431184530258179,1.0416293144226074,-0.4725700914859772,0.9665406346321106,0.6814809441566467,-0.2674292027950287,0.7546903491020203,-0.30779650807380676,-1.1989244222640991,1.95512056350708,-0.2929064631462097,-1.2461965084075928,0.30904969573020935,0.7004390358924866,1.5289099216461182,-0.16187001764774323,-0.9177416563034058,0.6602043509483337,-1.0509644746780396,-0.8029040694236755,-0.9414927363395691,0.8924561738967896,-0.06557034701108932,0.3247518539428711,0.2802782356739044,-0.4149152338504791,-0.1418631374835968,0.4234899580478668,-0.4025304615497589,-1.2743948698043823,0.43168461322784424,1.1527646780014038,0.7023966312408447,-0.26793670654296875,-0.6923711895942688,0.162634938955307,-0.9603179097175598,0.3452209234237671,-1.397044062614441,-0.21566054224967957,-1.5250434875488281,0.3103519678115845,0.2293323278427124,0.8492617011070251,2.079040050506592,0.4931974411010742,-0.5553008317947388,0.7790517807006836,0.8000781536102295,0.8126206398010254,0.22501148283481598,0.610577404499054,1.093472957611084,0.5257954597473145,0.0604376420378685,0.5879279375076294,0.9087837934494019,0.12474995106458664,0.5983273983001709,0.22924885153770447,0.37328118085861206,-0.6777697801589966,0.07475810497999191,-0.7641958594322205,-0.7434794902801514,-0.530604362487793,-0.9969659447669983,-0.5918303728103638,0.9489472508430481,1.0180968046188354,-1.0436882972717285,0.7053624987602234,-0.6808364987373352,0.7853023409843445,-0.3818678557872772,0.8436717987060547,0.6557286977767944,0.6165914535522461,0.1692323386669159,-0.5356646180152893,-1.20453679561615,0.10453006625175476,0.6210755705833435,0.3398231863975525,0.202489972114563,-0.561424732208252,-0.8583329916000366,0.002525082789361477,-0.40820467472076416,-0.38873422145843506,-0.23049667477607727,0.7577461004257202,0.7608517408370972,1.4519212245941162,-0.1480349898338318,1.0258069038391113,-1.847745418548584,0.8190097212791443,0.07459351420402527,-1.11641526222229,-0.10011103749275208,-0.1526312530040741,-0.6889168620109558,0.49270445108413696,-0.6451290845870972,-0.5664781928062439,0.07748302817344666,0.11193946748971939,0.6922749280929565,-1.3569484949111938,-0.2952384054660797,-0.3290421664714813,-0.04516608268022537,-0.39723241329193115,-0.5331416726112366,-1.2467800378799438,-0.25419682264328003,0.28002551198005676,-0.006675916723906994,-0.8921507596969604,-0.3812224566936493,-0.1060589998960495,-0.6741235852241516,0.27224859595298767,-0.2564990520477295,-0.40179410576820374,0.14268958568572998,-0.6958945989608765,0.6125826835632324,0.07837734371423721,0.3068290054798126,-2.2356855869293213,-0.25765442848205566,0.5876738429069519,0.474048376083374,-0.625408947467804,1.6912245750427246,0.18037797510623932,-0.7985075116157532,-0.011660228483378887,-0.6254954934120178,-0.404546320438385,-0.01896308921277523,0.77916020154953,-1.3367433547973633,0.24932067096233368,0.19155889749526978,1.2642866373062134,0.6639044284820557,0.4431456923484802,-0.2725575566291809,-0.8085265159606934,-0.32870009541511536,-0.1015651598572731,0.856784999370575,-0.4376967251300812,-0.052550338208675385,1.38427734375,0.9237716794013977,0.5125609040260315,0.39934712648391724,0.16366317868232727,0.16948232054710388,-0.6856906414031982,0.5472749471664429,0.5141759514808655,-0.43140852451324463,0.47399821877479553,-0.011800114065408707,-0.6839345097541809,-0.22874070703983307,-0.8917508721351624,-1.0196537971496582,-1.3734174966812134,-0.6007052659988403,0.3022446632385254,-1.1934179067611694,-0.3162776827812195,0.006806678604334593,0.8860904574394226,0.399254709482193,-0.1492130011320114,2.245884656906128,-0.9290356040000916,1.1090761423110962,-0.021724781021475792,-0.2824212312698364,0.5698015689849854,0.7959482073783875,-1.6263961791992188,-0.31753212213516235,1.240900993347168,0.17376483976840973,0.4766751527786255,1.364883303642273,-1.15675687789917,-1.9722449779510498,-0.6803719997406006,-0.6939870119094849,-0.5132438540458679,-0.538569986820221,-1.2115103006362915,0.5009258985519409,0.9944556355476379,0.4624134600162506,-0.6385219097137451,-0.15797962248325348,0.31591007113456726,-0.5231500267982483,-0.39662086963653564,-0.9923157095909119,0.6801870465278625,0.4414619207382202,0.4543621838092804,-1.1035027503967285,-1.2779310941696167,-0.11593770235776901,0.2841782569885254,0.9237009882926941,-0.5091751217842102,1.8697192668914795
