word,0,1,2,3,4,5,6,7,8,9,10,11,12,13,14,15,16,17,18,19,20,21,22,23,24,25,26,27,28,29,30,31,32,33,34,35,36,37,38,39,40,41,42,43,44,45,46,47,48,49,50,51,52,53,54,55,56,57,58,59,60,61,62,63,64,65,66,67,68,69,70,71,72,73,74,75,76,77,78,79,80,81,82,83,84,85,86,87,88,89,90,91,92,93,94,95,96,97,98,99,100,101,102,103,104,105,106,107,108,109,110,111,112,113,114,115,116,117,118,119,120,121,122,123,124,125,126,127,128,129,130,131,132,133,134,135,136,137,138,139,140,141,142,143,144,145,146,147,148,149,150,151,152,153,154,155,156,157,158,159,160,161,162,163,164,165,166,167,168,169,170,171,172,173,174,175,176,177,178,179,180,181,182,183,184,185,186,187,188,189,190,191,192,193,194,195,196,197,198,199,200,201,202,203,204,205,206,207,208,209,210,211,212,213,214,215,216,217,218,219,220,221,222,223,224,225,226,227,228,229,230,231,232,233,234,235,236,237,238,239,240,241,242,243,244,245,246,247,248,249,250,251,252,253,254,255
车辆,0.15882064402103424,0.1167982816696167,-0.013310050591826439,0.06724663823843002,0.11639237403869629,-0.11100901663303375,0.014785409905016422,-0.12077532708644867,-0.22319643199443817,0.1453685760498047,-0.0670161023736,0.009452249854803085,0.17532630264759064,-0.10110360383987427,0.132991760969162,-0.06182458996772766,-0.0043683419935405254,-0.01890186034142971,0.043007805943489075,0.11846454441547394,-0.09103933721780777,-0.021542377769947052,-0.02745966613292694,0.2940899431705475,-0.23897743225097656,0.03367588296532631,0.08845405280590057,0.05948371812701225,-0.1331983208656311,0.19236838817596436,-0.190636545419693,-0.050831232219934464,-0.044803500175476074,-0.01594730280339718,0.08455076813697815,0.13832667469978333,-0.0012981457402929664,-0.12665700912475586,0.1158013865351677,0.1432785987854004,0.07220235466957092,0.19678011536598206,-0.0662023201584816,-0.021405916661024094,0.13775517046451569,0.005315066315233707,-0.18780605494976044,-0.054240331053733826,0.1121089830994606,0.08017848432064056,-0.002122392412275076,-0.1001494899392128,-0.13296742737293243,0.09284383058547974,-0.04964291304349899,-0.18164341151714325,0.1636694371700287,0.2253677397966385,0.12591291964054108,-0.018104540184140205,0.06270013004541397,0.05890088528394699,-0.12036710232496262,0.005099155940115452,-0.031141558662056923,-0.15912415087223053,0.16521070897579193,-0.003256699535995722,0.10940949618816376,-0.2125239372253418,0.14044958353042603,-0.019645748659968376,0.0563717819750309,-0.19392269849777222,-0.10466492176055908,-0.15009254217147827,0.059736497700214386,0.0914720818400383,0.15155337750911713,0.2392805963754654,-0.03606339171528816,0.03803557902574539,0.10886453092098236,-0.09454905241727829,0.11616058647632599,0.006193884182721376,-0.0629243403673172,-0.019874555990099907,-0.05957701429724693,0.015359227545559406,0.025023190304636955,0.1327742040157318,-0.11662108451128006,-0.08328641206026077,0.09578264504671097,-0.051915932446718216,-0.0852932408452034,0.05875452980399132,0.11620871722698212,-0.07084362953901291,0.08414161950349808,0.057897962629795074,-0.18789711594581604,0.01698504388332367,-0.027973128482699394,-0.29180246591567993,0.04881616309285164,-0.1531233936548233,0.05395222455263138,-0.12516319751739502,-0.09002067893743515,0.0779334232211113,-0.09653735905885696,0.01771075651049614,0.08124741166830063,-0.08506102859973907,0.018372206017374992,-0.10167424380779266,0.1746973842382431,0.07907639443874359,-0.018842753022909164,-0.09364119172096252,-0.04247116670012474,-0.07056593149900436,0.11594779789447784,-0.1929747760295868,0.06158589944243431,-0.0525507926940918,0.03471507504582405,-0.007092309184372425,0.10871151834726334,-0.05867297574877739,-0.008475533686578274,0.007860281504690647,-0.2016720473766327,-0.014476616866886616,0.12710921466350555,0.059357933700084686,0.04589547961950302,-0.0640062466263771,-0.05358438566327095,-0.010015771724283695,0.030772753059864044,0.14844678342342377,-0.21762852370738983,-0.10243456810712814,-0.006431056652218103,-0.00818935688585043,-0.03138996288180351,-0.026058819144964218,-0.07246015220880508,-0.03972254693508148,-0.020766746252775192,-0.2034287303686142,-0.09411465376615524,0.0022937010508030653,0.005876700393855572,-0.06406216323375702,-0.07425747066736221,-0.04170793294906616,-0.2056364119052887,-0.0851643979549408,-0.09743805974721909,0.19544653594493866,0.026446616277098656,0.0609547458589077,-0.2416260838508606,0.07009248435497284,0.1399790644645691,0.012400079518556595,-0.09131113439798355,0.17312370240688324,0.09843303263187408,-0.07953927665948868,0.11358963698148727,-0.054865214973688126,-0.04470888897776604,-0.07833757996559143,-0.031041260808706284,-0.08128567785024643,0.15820664167404175,-0.0569896325469017,-0.0832400768995285,0.04668789356946945,-0.10274966061115265,-0.17176631093025208,0.11605051159858704,0.13881143927574158,0.06862886995077133,0.1268356293439865,-0.001975886058062315,0.10038919001817703,0.07878144085407257,0.1091705858707428,0.00507043581455946,0.03889736160635948,-0.07420813292264938,0.10417553782463074,-0.0577019527554512,0.10443495213985443,0.10648393630981445,0.15495508909225464,0.21560028195381165,-0.057193778455257416,-0.01206112839281559,0.09350527822971344,0.046026185154914856,-0.009677541442215443,-0.1569502353668213,-0.12878604233264923,-0.18397939205169678,0.07638243585824966,-0.061874955892562866,0.1135932207107544,0.0770537331700325,-0.07287941873073578,-0.0212544035166502,0.1959790140390396,-0.04917846992611885,0.12289547920227051,0.14605259895324707,-0.040213800966739655,-0.013076845556497574,0.06139860302209854,-0.20283111929893494,-0.04869021475315094,0.07841865718364716,0.013967633247375488,-4.5616732677444816e-05,0.08561384677886963,-0.07213851809501648,-0.1513618379831314,0.1740950345993042,-0.05701907351613045,-0.036802906543016434,-0.16969618201255798,-0.1452884078025818,0.04621424153447151,0.07836436480283737,-0.08263926953077316,-0.08159781992435455,-0.020832324400544167,0.07042671740055084,-0.02252952754497528,0.01906176470220089,-0.17321310937404633,0.02257065661251545,0.006500893738120794,0.0961044430732727,0.018054168671369553,-0.29789289832115173,0.1019703820347786,0.025774052366614342,0.09056495875120163,0.004616857040673494,0.11992081254720688
间隔,0.03394228592514992,0.03611278161406517,0.004038746003061533,0.037505246698856354,0.03620124235749245,-0.018830128014087677,-0.0010548304999247193,-0.05058949068188667,-0.08750932663679123,0.03404577076435089,-0.025412550196051598,0.04123099893331528,0.060920245945453644,-0.03270668163895607,0.03302248194813728,-0.0324893556535244,-0.00447318097576499,0.03304391726851463,-0.005939235910773277,0.02330762892961502,-0.03126188740134239,0.008646813221275806,-0.009487847797572613,0.06864465773105621,-0.0349925197660923,0.016392117366194725,0.029318420216441154,0.021571792662143707,-0.024963609874248505,0.05459817126393318,-0.07011102139949799,0.0027689544949680567,-0.01600273884832859,-0.00803619995713234,0.055047839879989624,0.034733280539512634,-0.017637744545936584,-0.036587364971637726,0.021145816892385483,0.07009541243314743,0.02207471802830696,0.04665457084774971,-0.011551221832633018,-0.023967480286955833,0.045358553528785706,-0.0015066625783219934,-0.06085805594921112,-0.021399475634098053,0.057250428944826126,0.04721449688076973,-0.01273291278630495,-0.01037402544170618,-0.04303758218884468,-0.0007744845352135599,-0.04153997078537941,-0.030104737728834152,0.0433608777821064,0.05018419772386551,0.025961626321077347,0.003825949504971504,0.012305929325520992,0.04636843129992485,-0.03657578304409981,-0.0015242451336234808,-0.03554019331932068,-0.03674978017807007,0.06496310979127884,-0.010525519959628582,0.023306526243686676,-0.07028733193874359,0.021433008834719658,0.013488393276929855,0.009395726956427097,-0.0717073380947113,-0.005353154148906469,-0.02773120068013668,0.04230799898505211,0.028652150183916092,0.08608394861221313,0.08466300368309021,0.014905829913914204,-0.004913336597383022,0.03676970675587654,-0.041609443724155426,0.022768331691622734,0.015330211259424686,-0.021911507472395897,0.03629157692193985,-0.016042154282331467,-0.003586301114410162,-0.0024940932635217905,0.057397499680519104,0.014458580873906612,-0.028828153386712074,0.02467523142695427,0.02398078702390194,-0.02345767617225647,0.051644694060087204,0.00810287706553936,-0.0321166105568409,0.0034924382343888283,-0.02438453771173954,-0.015173953026533127,0.03594641387462616,-0.010567814111709595,-0.09415978193283081,0.020659109577536583,-0.06443914026021957,0.030878422781825066,-0.01458896417170763,-0.025310048833489418,0.014236279763281345,4.417225136421621e-05,0.007089564111083746,-0.00206777174025774,-0.043121132999658585,0.0030509571079164743,-0.03478485345840454,0.026343081146478653,0.016002923250198364,-0.0038083582185208797,-0.03510592132806778,-0.0035129410680383444,-0.009985512122511864,0.02203897386789322,-0.03862515464425087,0.02422979660332203,-0.009543213061988354,0.03147629275918007,-0.009229482151567936,0.05835019797086716,-0.02098829671740532,0.004121812526136637,0.0019049134571105242,-0.06428694725036621,0.008267237804830074,0.024337762966752052,-0.006054315250366926,0.04232896864414215,-0.02831209823489189,-0.008312761783599854,-0.005300422664731741,0.0012357097584754229,0.051206592470407486,-0.07998742908239365,-0.024951640516519547,0.02839989773929119,-0.038206711411476135,-0.008847983554005623,-0.008890829980373383,-0.043339088559150696,-0.023894812911748886,0.004634173586964607,-0.07346667349338531,-0.035281307995319366,-0.001859032898209989,-0.014024613425135612,-0.025298206135630608,0.004531161859631538,-0.03769611939787865,-0.031124688684940338,-0.015451614744961262,-0.03954022005200386,0.06070708855986595,0.0007372735417447984,-0.013274677097797394,-0.08751754462718964,0.015190285630524158,0.040471017360687256,0.013135340996086597,-0.026357555761933327,0.029512010514736176,0.021152591332793236,-0.017194902524352074,0.013804944232106209,-0.024850666522979736,0.0264056958258152,-0.040877923369407654,0.008973978459835052,-0.016455071046948433,0.04655429348349571,-0.010152988135814667,-0.02424868941307068,0.015117193572223186,-0.02119636908173561,-0.050006572157144547,0.024158911779522896,0.02896997518837452,0.04968732222914696,0.05043322220444679,-0.009676159359514713,0.01594235748052597,0.03882953152060509,0.0012818527175113559,-0.018940268084406853,0.008866239339113235,0.007135467138141394,0.04644235596060753,-0.007054549176245928,0.02945713698863983,0.023265620693564415,0.03714774176478386,0.05554092675447464,-0.02182389795780182,-0.02733054757118225,0.0456787571310997,0.00046582953655160964,0.01155914831906557,-0.06392160803079605,-0.008422911167144775,-0.02086746133863926,0.02220960147678852,-0.022670097649097443,0.054403554648160934,0.011414429172873497,-0.01582314632833004,-0.008393797092139721,0.10053849220275879,-0.002076539909467101,0.04241547733545303,0.035349041223526,0.007196144200861454,0.009502659551799297,0.027437228709459305,-0.07570942491292953,-0.02206827513873577,0.02451203390955925,-0.0069228592328727245,0.026559090241789818,0.030333736911416054,-0.07454057782888412,-0.06930345296859741,0.03822264075279236,-0.021378375589847565,-0.020870719105005264,-0.021834244951605797,-0.0095738610252738,0.03121080808341503,0.036892253905534744,-0.028336897492408752,-0.024576500058174133,-0.011879238300025463,-0.014821198768913746,-0.01901659183204174,-0.022723019123077393,-0.06922020763158798,-0.01654897630214691,-0.010876772925257683,0.039451565593481064,-0.013326616026461124,-0.08255279064178467,0.04075109586119652,-8.247718506027013e-05,0.03167835623025894,0.003218259196728468,0.05810946971178055
装饰,0.07735811918973923,0.01276149321347475,0.027532489970326424,0.0238724946975708,0.04544131085276604,-0.034152403473854065,-0.039992477744817734,-0.03079964965581894,-0.07996119558811188,0.031186247244477272,-0.014750986360013485,0.02408669888973236,0.016964077949523926,-0.04475950449705124,0.006526293233036995,-0.022519320249557495,0.007083443459123373,0.04979604482650757,-0.007533467374742031,0.031228384003043175,-0.02313840389251709,0.009547924622893333,0.02094169333577156,0.0885787159204483,-0.10524757951498032,0.017692944034934044,0.059285666793584824,0.048036981374025345,-0.060825929045677185,0.041204992681741714,-0.07082326710224152,-0.012922733090817928,-0.03766762465238571,0.023465227335691452,0.041742660105228424,0.0552508719265461,0.0065576802007853985,-0.0581912137567997,0.0437316857278347,0.05828554555773735,0.045002032071352005,0.03411967307329178,-0.03311023488640785,-0.026067428290843964,0.033413518220186234,-0.002764006145298481,-0.02962811291217804,-0.04598003998398781,0.03853897005319595,0.007869932800531387,-0.027381999418139458,-0.059594783931970596,-0.05609686300158501,0.0005109437042847276,-0.01801251247525215,-0.06211473047733307,0.09248888492584229,0.03355873003602028,0.027978217229247093,-0.031576864421367645,0.06819383800029755,0.04994320869445801,-0.04108453914523125,-0.005203202832490206,-0.021763551980257034,-0.022414611652493477,0.03635459765791893,0.014093887060880661,0.023398473858833313,-0.10616427659988403,0.039854831993579865,-0.036441199481487274,0.0037071167025715113,-0.08125746250152588,-0.03435703366994858,-0.02112930454313755,0.01801149919629097,-0.009923812933266163,0.07657536119222641,0.09099910408258438,0.031135132536292076,-0.005985538940876722,0.044113725423812866,-0.07469628006219864,0.027695275843143463,0.07456010580062866,-0.05716458708047867,-0.04414019361138344,-0.024174083024263382,-0.004511227831244469,-0.005439746659249067,0.0743074044585228,0.04258576035499573,-0.009650776162743568,0.00396037008613348,0.014150145463645458,-0.07159575819969177,0.03655894845724106,0.03697063773870468,-0.030244162306189537,0.03528127446770668,-0.010738578625023365,-0.07136869430541992,0.027714699506759644,0.016507595777511597,-0.09780232608318329,-0.008349043317139149,-0.05850352719426155,0.01969161257147789,-0.0400019995868206,-0.08870113641023636,-0.01688755862414837,0.023191364482045174,0.010640350170433521,0.04164927452802658,-0.048522308468818665,0.010895196348428726,-0.028970204293727875,0.0561734214425087,-0.026932399719953537,-0.015510576777160168,-0.05307961255311966,-0.03908342495560646,-0.02419598214328289,0.03292437270283699,-0.015595453791320324,0.07854120433330536,-0.013631705194711685,0.015522581525146961,-0.0202916469424963,0.08115235716104507,0.002969992347061634,0.004740886855870485,0.01054697297513485,-0.07436701655387878,-0.02788749523460865,0.0011296189622953534,0.008472313173115253,0.031056484207510948,-0.0229805838316679,-0.07629009336233139,-0.019196271896362305,0.02823815308511257,0.05110359564423561,-0.05861940234899521,-0.048728007823228836,0.030080361291766167,-0.024077314883470535,-0.027060184627771378,-0.020380834117531776,-0.06287491321563721,-0.03211532160639763,0.018283933401107788,-0.05991041660308838,-0.02297161892056465,0.04321264103055,-0.019253263249993324,-0.07118614763021469,-0.004384652245789766,-0.027185866609215736,-0.03455979377031326,-0.022729042917490005,-0.021173682063817978,0.05837295576930046,-0.0002489085600245744,-0.015293781645596027,-0.08140984922647476,0.06152115389704704,0.054112765938043594,-0.012606348842382431,-0.04894191026687622,0.050763700157403946,0.0773569792509079,-0.010808647610247135,0.037576254457235336,-0.013647051528096199,-0.03802518546581268,-0.029858054593205452,-0.03566944971680641,-0.013693355023860931,0.07566245645284653,-0.0411706268787384,-0.0016645243158563972,0.06050309166312218,-0.044420912861824036,-0.042773712426424026,0.0467422716319561,0.053687915205955505,0.031391579657793045,0.05752312019467354,0.0574055090546608,0.08544176071882248,0.01753895916044712,0.024068893864750862,-2.0827597836614586e-05,0.01532889623194933,-0.004790499806404114,0.033899396657943726,-0.007546679116785526,0.010965898633003235,0.0286880973726511,0.019950512796640396,0.12156489491462708,-0.010559611022472382,-0.03486170619726181,0.015973614528775215,-0.0028448826633393764,-0.07811197638511658,-0.09887699037790298,-0.011127644218504429,-0.0438772588968277,0.050642311573028564,-0.04356374591588974,0.055025435984134674,0.014398406259715557,-0.0043029082007706165,0.027674073353409767,0.07983044534921646,0.010123862884938717,0.059301476925611496,0.10559605062007904,0.017494745552539825,0.005057662725448608,0.07777723670005798,-0.09606293588876724,-0.02876361645758152,0.06557340174913406,-0.018340816721320152,0.013314584270119667,0.05649542808532715,-0.053609058260917664,-0.06182737275958061,0.03031991235911846,-0.021847695112228394,-0.016987299546599388,-0.09295845776796341,-0.00667840801179409,0.03511713817715645,0.03398088738322258,-0.04938369244337082,-0.027275582775473595,-0.03313364088535309,-0.005970487371087074,-0.02180084027349949,0.02586008980870247,-0.07885025441646576,-0.019165512174367905,-0.033275336027145386,0.052957870066165924,0.006319291889667511,-0.09795556962490082,0.04539302736520767,-0.03585650026798248,0.019206957891583443,0.042400915175676346,0.03594318777322769
旋转,0.039273373782634735,-0.0398995615541935,0.10237912833690643,0.056474849581718445,0.08704804629087448,-0.044158391654491425,-0.10134594142436981,-0.04187016561627388,-0.10069122165441513,0.03333265334367752,0.007787999697029591,0.004765447694808245,-0.01047474890947342,-0.07778946310281754,-0.07194770872592926,-0.024297604337334633,0.03380968049168587,0.10975880920886993,-0.054499994963407516,0.1524415761232376,-0.010458261705935001,-0.001334578264504671,0.02787298522889614,0.10599946975708008,-0.213363915681839,0.03640503063797951,0.06726332008838654,0.0532081164419651,-0.1149546280503273,0.08526201546192169,-0.06676078587770462,0.019332243129611015,-0.08590513467788696,0.02789580263197422,0.11604783684015274,0.1248147189617157,0.0598420575261116,-0.08274008333683014,0.09715592116117477,0.07864809036254883,-0.002010440919548273,0.04864799603819847,-0.04892067611217499,-0.05993921309709549,0.07051672041416168,0.020386073738336563,-0.04661787301301956,-0.04263253137469292,0.0447591207921505,0.05451323091983795,-0.07432617247104645,-0.09929262101650238,-0.07203080505132675,-0.021663393825292587,-0.08062919229269028,-0.10237102955579758,0.14454388618469238,0.02530731074512005,0.05852031335234642,-0.08194310963153839,0.06170542538166046,0.00843263603746891,0.04629521071910858,-0.0002451828622724861,-0.08011219650506973,0.057358626276254654,0.05607883632183075,0.041550155729055405,0.049407802522182465,-0.08476890623569489,0.08085004985332489,-0.08388522267341614,-0.00189159344881773,-0.08658497780561447,0.006944234017282724,-0.09290117025375366,0.03064841590821743,0.02280346117913723,0.11158761382102966,0.14360305666923523,0.050184402614831924,-0.00032459356589242816,0.06803625822067261,-0.06678514927625656,0.008376898244023323,0.10338865965604782,-0.09471145272254944,-0.03404894098639488,0.005643805954605341,-0.03505503013730049,0.018332095816731453,0.09175441414117813,0.017388934269547462,-0.06331700831651688,0.06290394067764282,0.028808964416384697,-0.12122728675603867,0.04454205185174942,0.05502557009458542,-0.072603739798069,0.025210095569491386,-0.03757700324058533,-0.11135359108448029,0.08087319135665894,0.06349142640829086,-0.1300899237394333,0.016076302155852318,-0.08781372755765915,0.03571447730064392,-0.05155045539140701,-0.1268065720796585,0.03387469798326492,0.03667977824807167,0.012668744660913944,0.054659415036439896,-0.07475157827138901,0.05242433026432991,0.008628761395812035,0.0759541466832161,-0.09566527605056763,-0.017829030752182007,-0.09586890041828156,-0.023776834830641747,0.0006383280269801617,0.024248842149972916,0.03579265996813774,0.1069970428943634,0.05764482542872429,0.01834934577345848,0.02923228032886982,0.13811813294887543,-0.054712098091840744,-0.04442219436168671,-0.04369531571865082,-0.1253141313791275,-0.049171481281518936,0.031975168734788895,-0.04634740203619003,-0.012135650031268597,-0.045669179409742355,-0.11920525133609772,-0.0575210265815258,-0.018173282966017723,0.09061780571937561,-0.13643264770507812,-0.0733490139245987,0.023788634687662125,-0.016260715201497078,-0.019865671172738075,-0.05307391285896301,-0.11751057952642441,-0.05273992568254471,-0.02207106351852417,-0.08969870954751968,-0.05046185851097107,0.008676832541823387,-0.028773337602615356,-0.09939760714769363,-0.009494599886238575,-0.07139027863740921,-0.07458042353391647,-0.02089310996234417,-0.045021023601293564,0.11098343878984451,0.011680006980895996,-0.011598842218518257,-0.15696576237678528,0.04402375966310501,0.04380325227975845,0.05195234715938568,-0.06004435196518898,0.07317620515823364,0.09172870963811874,0.01856333762407303,0.04531210660934448,-0.04969138652086258,-0.028713393956422806,-0.07161400467157364,-0.0036102847661823034,-0.07311373949050903,0.1137130931019783,-0.0605957955121994,0.032448846846818924,0.08927218616008759,-0.006849350407719612,-0.042158231139183044,0.04414590448141098,-0.013296550139784813,0.04544200748205185,0.07912135869264603,0.006442685145884752,0.0849604457616806,0.040847111493349075,0.05473752319812775,0.02915901318192482,0.04318583011627197,-0.010162362828850746,0.01712377741932869,-0.06515926122665405,0.047003570944070816,0.028986912220716476,0.05553252995014191,0.10852979123592377,0.003703537629917264,-0.06683172285556793,0.0047461907379329205,-0.02432176098227501,-0.12747055292129517,-0.18437416851520538,-0.03776251897215843,0.03749082610011101,0.0463138185441494,-0.03434756025671959,0.05888749659061432,0.04944087192416191,0.06094207614660263,0.0705825462937355,0.09202086180448532,-0.03345935419201851,0.11418861895799637,0.08280914276838303,0.04786529392004013,-0.017965346574783325,0.1476363241672516,-0.1671711802482605,0.018840916454792023,0.13533277809619904,-0.025594016537070274,0.006571060046553612,0.17525343596935272,-0.041153110563755035,-0.06997065246105194,0.032149653881788254,-0.08365088701248169,-0.012172587215900421,-0.1363316923379898,-0.04835823178291321,0.05088410526514053,0.03993755951523781,-0.014596841298043728,-0.09811895340681076,-0.0005541041609831154,0.04421639069914818,-0.055436983704566956,0.03827638924121857,-0.1459597498178482,-0.009578198194503784,-0.06720530241727829,0.03389708325266838,-0.03196622431278229,-0.0985482782125473,0.015512494370341301,-0.03711717575788498,0.04370389133691788,0.08598663657903671,0.12679815292358398
角度,0.061013706028461456,0.03202515095472336,0.10725105553865433,0.04305500164628029,0.1773325502872467,-0.11607842892408371,-0.04889369755983353,-0.12800708413124084,-0.25788071751594543,0.06666024029254913,0.010508714243769646,0.03753788396716118,0.04394332319498062,-0.15778402984142303,-0.008398931473493576,-0.09802482277154922,0.07878384739160538,0.09537803381681442,-0.036355044692754745,0.26513949036598206,-0.06170925498008728,-0.0332941934466362,-0.059968482702970505,0.2453649789094925,-0.3499881625175476,0.028744468465447426,0.054192204028367996,0.10821087658405304,-0.20053040981292725,0.18725734949111938,-0.1725822240114212,0.015713272616267204,-0.15160654485225677,0.027310006320476532,0.24915936589241028,0.19354887306690216,0.0977594181895256,-0.14755557477474213,0.1548631489276886,0.17968161404132843,0.02499118447303772,0.16520515084266663,-0.06084331125020981,-0.09136646240949631,0.20705045759677887,-0.08023067563772202,-0.16400174796581268,-0.054405394941568375,0.1886606216430664,0.14244559407234192,-0.0985654667019844,-0.14324834942817688,-0.1058766171336174,0.04217586666345596,-0.14681680500507355,-0.19462765753269196,0.22304128110408783,0.07617060095071793,0.127669095993042,-0.02384328469634056,0.08306695520877838,0.0024339728988707066,-0.04482058063149452,-0.06610915064811707,-0.1619817316532135,-0.04245772585272789,0.16805671155452728,0.08180326223373413,0.07012014091014862,-0.20905089378356934,0.14287248253822327,-0.15930840373039246,0.00815520528703928,-0.23770497739315033,-0.08709803223609924,-0.20182229578495026,0.06819778680801392,0.035124290734529495,0.23080173134803772,0.32326993346214294,0.02319798804819584,-0.028100747615098953,0.13470381498336792,-0.05628146603703499,0.06992363929748535,0.06791289895772934,-0.04320728778839111,0.015340820886194706,0.030303191393613815,-0.06507959216833115,0.03367915004491806,0.13264358043670654,-0.07065340876579285,-0.06136951595544815,0.09749463200569153,-0.040273282676935196,-0.15280036628246307,0.12844103574752808,0.08889355510473251,-0.11982472240924835,0.026020515710115433,-0.04138056933879852,-0.21723946928977966,0.11290352791547775,0.06783489137887955,-0.2384597659111023,0.07291211187839508,-0.24378471076488495,0.10219033807516098,-0.1298689991235733,-0.1251412034034729,0.09309282898902893,-0.008505526930093765,0.02875385992228985,0.0713828057050705,-0.17034977674484253,0.07405012100934982,-0.02276807837188244,0.13600148260593414,-0.061662718653678894,-0.013270973227918148,-0.15314777195453644,-0.030832652002573013,-0.06144269183278084,-0.0038666557520627975,-0.08000089228153229,0.12012477964162827,0.024512166157364845,0.11338336020708084,-0.012725211679935455,0.17947997152805328,-0.15046271681785583,0.00464343698695302,0.000927552639041096,-0.27667659521102905,-0.06349451094865799,0.09096655994653702,-0.055755142122507095,0.006263162940740585,-0.060803450644016266,-0.13216714560985565,-0.09265512973070145,0.029052793979644775,0.15182213485240936,-0.26742836833000183,-0.10127905011177063,0.001890992047265172,-0.05385018512606621,-0.001263285055756569,-0.09254592657089233,-0.197328582406044,-0.06429291516542435,-0.020885959267616272,-0.21843913197517395,-0.1258610337972641,-0.004259374458342791,-0.040925465524196625,-0.11206980049610138,-0.003347845049574971,-0.08933838456869125,-0.1762365847826004,-0.0729978084564209,-0.12390094995498657,0.17165695130825043,-0.0078084408305585384,0.022890161722898483,-0.34855008125305176,0.05032084137201309,0.1643616408109665,0.07480248808860779,-0.16922283172607422,0.210019052028656,0.13058853149414062,-0.07325438410043716,0.11518027633428574,-0.10312426835298538,-0.03352535516023636,-0.0826224759221077,0.001153549994342029,-0.1616322249174118,0.1730918288230896,-0.056794945150613785,0.05281820893287659,0.12996156513690948,0.004562270827591419,-0.11774499714374542,0.0764278769493103,0.04530196636915207,0.09482929855585098,0.13233782351016998,0.00734340026974678,0.15721063315868378,0.08117540180683136,0.13800397515296936,0.03056948073208332,0.06455051898956299,-0.04192734882235527,0.10513298213481903,-0.08761586248874664,0.08871600031852722,0.132680743932724,0.0995020866394043,0.23273897171020508,0.02208256907761097,-0.08040089160203934,0.028318168595433235,-0.0471624881029129,-0.11663071811199188,-0.2852989733219147,-0.0867454782128334,-0.04613787308335304,0.016616882756352425,-0.06953951716423035,0.09295173734426498,0.08164045214653015,0.05001022294163704,0.01334681361913681,0.29182419180870056,-0.1406954526901245,0.20171105861663818,0.13558194041252136,0.054538458585739136,0.030692821368575096,0.232012540102005,-0.3087560534477234,-0.026987899094820023,0.20756465196609497,0.0074854749254882336,0.03822601959109306,0.26514649391174316,-0.12757021188735962,-0.20539723336696625,0.09703448414802551,-0.04315134882926941,-0.07177070528268814,-0.20955297350883484,-0.09716160595417023,0.14858268201351166,0.07522553205490112,-0.018417824059724808,-0.15425139665603638,0.004462887533009052,0.07114610821008682,-0.01564764603972435,-0.026809867471456528,-0.2985157370567322,0.0446343757212162,-0.0020197283010929823,0.05742258206009865,-0.0852038785815239,-0.23400886356830597,0.04325342923402786,0.06500641256570816,0.12014904618263245,0.05427335947751999,0.26600372791290283
结构,-0.049455203115940094,0.21153710782527924,0.47494807839393616,0.4106289744377136,0.5225257873535156,-0.1342681497335434,-0.2470453977584839,-0.3012099862098694,-0.5112128853797913,0.17669939994812012,0.3242346942424774,0.3561987280845642,0.05064531788229942,-0.7762330770492554,-0.28688764572143555,-0.10606618970632553,0.5855873823165894,0.5132768750190735,-0.2771940529346466,0.9501845836639404,-0.49695971608161926,0.05864967405796051,-0.3577422797679901,0.13489793241024017,-1.040933609008789,-0.15139999985694885,-0.11089619994163513,0.04733569175004959,-0.6485999226570129,0.4307895600795746,-0.27364274859428406,0.13224364817142487,-0.9290570616722107,-0.049956921488046646,0.9191561341285706,0.6182186603546143,0.22592037916183472,-0.3152230381965637,0.4690462350845337,0.4136974513530731,0.08398962765932083,0.3641715347766876,-0.19879554212093353,-0.3859975337982178,0.5948272943496704,-0.04387325793504715,-0.5220986604690552,-0.11893438547849655,0.20356647670269012,0.6326168179512024,-0.13631358742713928,-0.23231817781925201,0.08473939448595047,-0.6466167569160461,-0.2789231538772583,-0.40110018849372864,0.5455018877983093,0.26440292596817017,0.2968071401119232,-0.09629779309034348,0.043546322733163834,0.1742931604385376,0.15527400374412537,0.1086094081401825,-0.5035465955734253,0.15795646607875824,0.37234964966773987,0.2940097451210022,0.17821384966373444,-0.5349881649017334,0.07960962504148483,-0.3425798714160919,0.07837779819965363,-0.6510375738143921,-0.13920362293720245,-0.3720751106739044,0.4123172461986542,0.040121134370565414,0.5066313743591309,1.132962942123413,0.5168213248252869,-0.04405732452869415,0.5022789239883423,0.004141516983509064,0.24801011383533478,0.6105207800865173,-0.04713129624724388,0.19897128641605377,0.10745848715305328,-0.0954945906996727,0.06536805629730225,0.5454229712486267,0.24453498423099518,0.042522504925727844,-0.12409123033285141,0.20213545858860016,-0.5933082103729248,0.18332143127918243,0.1841987520456314,-0.7965535521507263,-0.07280782610177994,-0.705825686454773,-0.46804988384246826,0.786737859249115,0.3397766351699829,-0.6384167671203613,0.24026049673557281,-0.3998197317123413,0.33231672644615173,-0.29018232226371765,-0.1852373331785202,0.34406283497810364,0.3901746869087219,0.19199822843074799,-0.2702212333679199,-0.9127529859542847,0.3416518568992615,0.08504229038953781,0.2772747576236725,0.0754302367568016,-0.17114195227622986,-0.3402766287326813,-0.019645581021904945,-0.2288035750389099,0.13713338971138,0.34011372923851013,0.7062402367591858,0.18197853863239288,0.7657871246337891,-0.2106524109840393,0.5778094530105591,-0.5154815912246704,-0.08709550648927689,0.032924387603998184,-0.9342864155769348,-0.22627480328083038,0.12202885746955872,-0.14840570092201233,0.05471094697713852,-0.35477763414382935,-0.48586738109588623,0.1531803011894226,0.06031329929828644,0.587064802646637,-0.8536975979804993,-0.13632427155971527,0.07165589183568954,-0.07307826727628708,0.04520982503890991,-0.21383081376552582,-0.8108319044113159,-0.0877392515540123,0.03974778205156326,-0.22296269237995148,-0.5141600966453552,-0.20596148073673248,0.018260853365063667,-0.12879955768585205,0.025083309039473534,-0.24364446103572845,0.14862950146198273,-0.006201475393027067,-0.16726849973201752,0.30705955624580383,0.12595827877521515,0.04349566251039505,-0.9599646925926208,0.13095301389694214,0.06124182045459747,0.22758197784423828,-0.1617211252450943,0.5802913308143616,0.25987815856933594,-0.44765281677246094,0.0426069013774395,-0.3712717592716217,-0.11292438209056854,-0.23890380561351776,0.16128313541412354,-0.6706063151359558,0.36715421080589294,-0.35929450392723083,0.4494335949420929,0.9702647924423218,0.2354760766029358,-0.2029482126235962,-0.19652916491031647,-0.2670632004737854,0.04912218078970909,0.4545917212963104,0.05905545875430107,0.09565598517656326,0.5389604568481445,0.2911865711212158,0.346023291349411,-0.06449282169342041,0.13313624262809753,0.20067466795444489,-0.1217118501663208,0.4066563546657562,0.0698760375380516,0.238961324095726,0.4696790874004364,0.06414426118135452,-0.3235236406326294,0.08353924751281738,-0.27634671330451965,-0.427863746881485,-0.7926897406578064,-0.1808607280254364,0.13777144253253937,-0.2360549122095108,-0.4827812612056732,0.09195077419281006,0.19179701805114746,0.1609850376844406,0.19338403642177582,1.1424381732940674,-0.18843863904476166,0.7023336887359619,0.20003154873847961,-0.10016744583845139,0.4317101538181305,0.7030749917030334,-1.0279134511947632,-0.03900432959198952,0.814695417881012,-0.17414721846580505,0.30941587686538696,0.8500986695289612,-0.7017703652381897,-0.8918903470039368,-0.4084564447402954,-0.11367808282375336,-0.28415024280548096,-0.4071851074695587,-0.5365288853645325,0.36472395062446594,0.5823484063148499,0.003434997284784913,-0.5572750568389893,0.10187393426895142,0.04902318865060806,-0.22681120038032532,-0.2322877198457718,-0.7279338836669922,0.04555756598711014,0.1064903512597084,0.5746118426322937,-0.43745186924934387,-0.7084598541259766,0.07101155817508698,0.10290589928627014,0.4571031928062439,-0.14773322641849518,0.8346545100212097
位置,-0.16477583348751068,0.9070510268211365,0.25918048620224,-1.028791904449463,0.29467445611953735,-0.5548372864723206,0.2803550958633423,-0.16810202598571777,-1.0478367805480957,0.30889448523521423,0.6534386277198792,-0.36560872197151184,-0.8206945061683655,-0.6567437648773193,-0.274934321641922,-0.3085867464542389,0.3949275314807892,-0.18636691570281982,0.4501607418060303,0.030223418027162552,-0.6858369708061218,-0.4117387533187866,0.04785137251019478,1.1310492753982544,-0.9935842752456665,-0.4905930459499359,0.03501855209469795,1.047996997833252,-1.1442415714263916,-0.5982152223587036,-0.5605748295783997,-0.10251718759536743,-0.8036637902259827,-0.17165905237197876,0.4109019935131073,0.48514699935913086,0.3856630027294159,-0.2683245837688446,0.36375170946121216,-0.49050846695899963,0.676476001739502,0.9564065337181091,0.2789479196071625,-0.052292779088020325,-0.06425045430660248,-0.7603277564048767,0.7913766503334045,-0.6298263072967529,0.3889561593532562,-0.1444699615240097,0.5626010298728943,-0.25948378443717957,0.1520608812570572,0.3128056228160858,0.6908882260322571,-1.0375720262527466,0.8566924929618835,-0.020500242710113525,0.19898106157779694,-0.17714010179042816,0.8491090536117554,0.11206268519163132,-1.0817469358444214,-0.9894933104515076,0.41939330101013184,-0.7132288813591003,-0.3768974244594574,0.5628767609596252,0.22047783434391022,-1.2291259765625,0.8364331722259521,-1.0720795392990112,0.0399603396654129,-0.8741747736930847,-1.1972554922103882,-0.3433307707309723,-0.6576595902442932,-0.8177047967910767,0.25174686312675476,1.3481050729751587,0.033924687653779984,-0.4496782124042511,0.19683688879013062,-0.6643396019935608,0.6779384016990662,0.5009528994560242,0.23811008036136627,-0.9817285537719727,0.06569747626781464,-0.09540259093046188,-0.3291512727737427,0.5421465635299683,0.13630907237529755,0.45509520173072815,-0.23050136864185333,-0.7298310399055481,-0.6474413275718689,-0.042905960232019424,1.0029935836791992,-0.6058523654937744,0.02669701911509037,0.6886630058288574,-1.442021369934082,0.061922334134578705,0.6963966488838196,-0.3207138776779175,-0.24182237684726715,-0.8941778540611267,-0.024166636168956757,-1.2983300685882568,-0.3917076289653778,-0.42500898241996765,-0.04148489609360695,-0.2020861655473709,1.1522783041000366,-1.0891329050064087,0.6213076710700989,-0.061748143285512924,0.5237196087837219,0.0698208436369896,-0.19818902015686035,-0.2495621293783188,-1.2484838962554932,-1.3497650623321533,0.27844467759132385,-0.8413474559783936,0.33818453550338745,-0.6583906412124634,0.6756604909896851,-0.37344908714294434,0.6913953423500061,-0.8704332709312439,0.2822606861591339,0.5264100432395935,-0.6135023236274719,-0.27295249700546265,0.10283456742763519,0.25487619638442993,-0.245192289352417,0.39411166310310364,-0.84298175573349,-0.08822007477283478,1.0301330089569092,-0.0048325988464057446,-0.10006777942180634,-0.3482394218444824,-0.10104701668024063,0.08133598417043686,0.19506755471229553,-0.27615442872047424,-0.754276692867279,0.5420628786087036,0.02467801235616207,-0.4603866636753082,-0.18621650338172913,0.5634622573852539,0.9672220945358276,-0.44004419445991516,0.08754362165927887,0.9958376884460449,-0.40769028663635254,-0.19193053245544434,-0.10101447999477386,0.03148281201720238,0.4473675489425659,0.15136153995990753,-0.4358471930027008,0.8668697476387024,0.3737650215625763,-0.47952955961227417,-0.8565146327018738,0.9740970134735107,1.395756721496582,-0.5549668669700623,0.9329309463500977,-0.17438575625419617,-1.0780224800109863,0.1692924052476883,-0.7150734066963196,-0.46517595648765564,0.2669025659561157,-0.204926997423172,0.7004784941673279,1.4631036520004272,-0.1701865792274475,0.17375421524047852,0.3804457485675812,0.3867306709289551,-0.6151034832000732,-0.1266506314277649,0.846962571144104,1.3449634313583374,-0.32987290620803833,0.8608304262161255,0.3761275112628937,-0.2679558992385864,-0.7971773147583008,0.31853386759757996,0.3677978217601776,0.43237370252609253,0.4153388738632202,0.16336405277252197,1.07822847366333,0.6797902584075928,0.11790952831506729,-0.6583194732666016,0.7021281719207764,-0.9377676248550415,-0.5840256214141846,-0.5908968448638916,-1.0559625625610352,-0.39719027280807495,-0.7211658358573914,0.12462159246206284,-0.6563877463340759,-0.23558971285820007,0.15866994857788086,0.9892241358757019,-0.855294942855835,0.5743656754493713,1.4588346481323242,0.3126683831214905,0.4256250560283661,1.3545706272125244,-1.1106849908828735,-0.43222010135650635,0.9911451935768127,0.2752949595451355,0.07761718332767487,0.6049007177352905,-0.620608389377594,-0.6491232514381409,0.06687144935131073,0.7156282067298889,-0.5472801327705383,-0.9997520446777344,-0.49538493156433105,0.27892276644706726,-0.3154386579990387,-0.5209607481956482,-0.44815418124198914,-0.156444251537323,0.5925496816635132,0.15610955655574799,-0.10490582138299942,-0.7878919243812561,0.27433454990386963,0.5873121619224548,0.5661447048187256,-0.6597743034362793,-1.0882222652435303,0.2013482004404068,0.023781757801771164,0.23575517535209656,-0.4624595046043396,0.6565581560134888
具有,0.22538524866104126,0.17229938507080078,0.15562570095062256,0.18745960295200348,0.32698237895965576,-0.23284636437892914,-0.09839512407779694,-0.2524012625217438,-0.5060232877731323,0.24997073411941528,0.017099592834711075,0.13990330696105957,0.13482330739498138,-0.38536980748176575,0.03258727490901947,-0.14182783663272858,0.22336293756961823,0.21430011093616486,-0.10609003156423569,0.4492090046405792,-0.19216227531433105,0.05641794204711914,-0.14785298705101013,0.48875609040260315,-0.6538648009300232,-0.05634632706642151,0.11537008732557297,0.18579864501953125,-0.4480021297931671,0.30185940861701965,-0.3372410833835602,0.004097938537597656,-0.29470235109329224,-0.012089627794921398,0.45267635583877563,0.38703128695487976,0.12584902346134186,-0.3336913585662842,0.3166482448577881,0.34320855140686035,0.11960669606924057,0.3165110945701599,-0.17878389358520508,-0.24192705750465393,0.37932074069976807,-0.017324460670351982,-0.42235660552978516,-0.12454584240913391,0.3491601049900055,0.3247973620891571,-0.18067963421344757,-0.22389733791351318,-0.14271749556064606,-0.19353488087654114,-0.2355186641216278,-0.42755380272865295,0.45805302262306213,0.1738395392894745,0.23783043026924133,-0.056809425354003906,0.1709565818309784,0.16184985637664795,-0.15175680816173553,-0.02905770018696785,-0.26648327708244324,-0.12858787178993225,0.33417704701423645,0.2066546231508255,0.1308346837759018,-0.481374055147171,0.16677530109882355,-0.1720014214515686,0.0950455442070961,-0.5035611987113953,-0.22996774315834045,-0.329293429851532,0.16418761014938354,0.04372970387339592,0.4106982350349426,0.6522638201713562,0.2635692059993744,0.011731951497495174,0.2772984206676483,-0.15208706259727478,0.26526930928230286,0.26249098777770996,-0.09896763414144516,0.0013101757504045963,-0.05984032154083252,-0.013399884104728699,0.024370327591896057,0.42378857731819153,0.02002515271306038,-0.011936594732105732,0.031174885109066963,0.01804841123521328,-0.3805673122406006,0.1470431089401245,0.2085816115140915,-0.3431738317012787,0.1375890076160431,-0.15332050621509552,-0.3523801267147064,0.26933494210243225,0.07506965100765228,-0.5747610330581665,0.11165783554315567,-0.3942646086215973,0.18713927268981934,-0.24682484567165375,-0.2104412466287613,0.16572324931621552,0.08607705682516098,0.08606601506471634,0.041976168751716614,-0.4253465533256531,0.040662981569767,-0.052892521023750305,0.1971805989742279,-0.04378192871809006,-0.12424919009208679,-0.29732465744018555,-0.04676547646522522,-0.28107208013534546,0.162177175283432,-0.10407795011997223,0.3774036467075348,0.04138665273785591,0.2501230537891388,-0.07470265030860901,0.3812636435031891,-0.2011638730764389,0.036730822175741196,0.054020170122385025,-0.5158984661102295,-0.14231248199939728,0.12758104503154755,0.020293163135647774,0.163512721657753,-0.15861175954341888,-0.26111412048339844,-0.02703162282705307,0.10199286043643951,0.3305650055408478,-0.5286701321601868,-0.16346779465675354,0.020564936101436615,-0.10826227813959122,-0.05794062837958336,-0.11712945997714996,-0.4963008165359497,-0.0868494063615799,0.019953519105911255,-0.30219730734825134,-0.2230091542005539,0.07461050152778625,-0.07793188095092773,-0.21191364526748657,0.016564078629016876,-0.20574018359184265,-0.3142947256565094,-0.08836213499307632,-0.26348933577537537,0.30254778265953064,0.011984609998762608,0.039371639490127563,-0.6046761870384216,0.13644564151763916,0.27786538004875183,0.04360334947705269,-0.23083099722862244,0.42916956543922424,0.29306408762931824,-0.19589796662330627,0.1413436233997345,-0.15568631887435913,-0.1758064180612564,-0.1319231390953064,-0.015020731836557388,-0.36613890528678894,0.3150123953819275,-0.1852206289768219,0.09656601399183273,0.3504309356212616,-0.04448871314525604,-0.2903960645198822,0.05420498549938202,0.20603010058403015,0.12848618626594543,0.34280267357826233,-0.008414090611040592,0.2862309515476227,0.25078538060188293,0.20447683334350586,0.09239767491817474,0.08897817879915237,0.018780404701828957,0.24715599417686462,-0.08957261592149734,0.20801201462745667,0.1569870114326477,0.1877819448709488,0.5482946634292603,-0.011787044815719128,-0.1478271782398224,0.05740510672330856,-0.13008908927440643,-0.2691330015659332,-0.6061072945594788,-0.17151980102062225,-0.18912599980831146,0.0476435050368309,-0.2205144315958023,0.23091596364974976,0.23577509820461273,-0.03064124658703804,0.027472568675875664,0.6954338550567627,-0.10109824687242508,0.46737754344940186,0.26761582493782043,0.07541611790657043,0.1819475144147873,0.4094940721988678,-0.6319732666015625,-0.14886929094791412,0.43044087290763855,0.00992703065276146,0.11781178414821625,0.44407716393470764,-0.3411930203437805,-0.541763424873352,0.027183063328266144,-0.08319664746522903,-0.1090506985783577,-0.4235159158706665,-0.2129649817943573,0.332025408744812,0.2556600272655487,-0.13066434860229492,-0.2074565291404724,-0.01302834041416645,0.07494989037513733,-0.06604937463998795,-0.08139486610889435,-0.4956743121147156,0.04072859138250351,-0.09528442472219467,0.2214183211326599,-0.13525806367397308,-0.585106611251831,0.12544742226600647,0.023132214322686195,0.20980116724967957,-0.0287636686116457,0.442841500043869
二者,0.2050730586051941,0.08041774481534958,-0.003928745165467262,0.01587948575615883,0.12206082791090012,-0.1127421036362648,-0.014143386855721474,-0.1275893747806549,-0.26429641246795654,0.13705356419086456,-0.10892647504806519,-0.005995044019073248,0.18689681589603424,-0.0742923691868782,0.11053436994552612,-0.08915851265192032,-0.07421960681676865,0.011396564543247223,-0.01012416835874319,0.10950756818056107,-0.02587716095149517,-0.028187157586216927,0.005471481010317802,0.3413499891757965,-0.23962825536727905,0.09281681478023529,0.17565202713012695,0.13020725548267365,-0.1756003350019455,0.22250553965568542,-0.25265300273895264,-0.046840716153383255,0.0004531283339019865,0.027913156896829605,0.09165079146623611,0.13716426491737366,-0.0006120719481259584,-0.1563197374343872,0.09204725176095963,0.17797693610191345,0.09353992342948914,0.1584157794713974,-0.0798390731215477,-0.022324170917272568,0.07586822658777237,-0.00409169914200902,-0.1808873414993286,-0.06506405025720596,0.21749117970466614,0.03801156207919121,-0.08052553236484528,-0.14241226017475128,-0.21939894556999207,0.14902544021606445,-0.10468067973852158,-0.2016138732433319,0.19838759303092957,0.15779688954353333,0.12402978539466858,-0.04155704379081726,0.1174059584736824,0.04881497472524643,-0.1435559242963791,-0.04361727461218834,-0.054763905704021454,-0.15936674177646637,0.18180863559246063,0.002434307709336281,0.11635114997625351,-0.24363785982131958,0.1560530960559845,-0.02622869610786438,0.02394513599574566,-0.20959141850471497,-0.06535360217094421,-0.14831602573394775,0.0515570268034935,0.07319670170545578,0.19556410610675812,0.16865602135658264,-0.046577636152505875,0.02661823108792305,0.11128450185060501,-0.16355456411838531,0.08746767044067383,0.011849715374410152,-0.12697716057300568,-0.04690815508365631,-0.07640662789344788,-0.03167399391531944,-0.0021760459057986736,0.16574102640151978,-0.1203388124704361,-0.0859483852982521,0.0840032696723938,-0.06396349519491196,-0.11204048991203308,0.12405867874622345,0.14476609230041504,-0.04896366223692894,0.1302022784948349,0.10155568271875381,-0.1976691633462906,0.011116555891931057,-0.06491125375032425,-0.2766397297382355,0.03356807306408882,-0.20123206079006195,0.06030668690800667,-0.10519812256097794,-0.1799437701702118,0.051002562046051025,-0.12479832023382187,-0.00046228128485381603,0.13736072182655334,-0.020447468385100365,-0.028051771223545074,-0.1275005340576172,0.153264120221138,-0.010925540700554848,-0.0022965548560023308,-0.11093690991401672,-0.021466191858053207,-0.043812040239572525,0.10653559863567352,-0.16303272545337677,0.046312883496284485,-0.02684837207198143,-0.04441496729850769,-0.007656780071556568,0.1343827247619629,-0.01374609675258398,-0.001494853524491191,0.01628650166094303,-0.17737385630607605,-0.048264313489198685,0.12461718916893005,0.03993132710456848,0.02874445542693138,-0.05479631572961807,-0.05917717516422272,-0.09851282089948654,0.020312780514359474,0.13904063403606415,-0.21173694729804993,-0.11638955026865005,0.014987893402576447,-0.05027772858738899,-0.030891574919223785,-0.030281104147434235,-0.11536923795938492,-0.06311509013175964,-0.032290685921907425,-0.2751520276069641,-0.05264248698949814,0.058304689824581146,-0.06949648261070251,-0.11829537153244019,-0.028050243854522705,-0.1015322208404541,-0.2729262113571167,-0.13163632154464722,-0.16034182906150818,0.2090306431055069,-0.036418356001377106,-0.003515184624120593,-0.24440185725688934,0.06191505864262581,0.18070483207702637,0.02569926157593727,-0.14629940688610077,0.14491403102874756,0.1645895093679428,-0.004214813467115164,0.13228324055671692,-0.032110340893268585,-0.024782894179224968,-0.07700584828853607,-0.0853472501039505,-0.06997065246105194,0.18386167287826538,-0.06509286910295486,-0.1088961660861969,-0.014938796870410442,-0.10652278363704681,-0.2196134328842163,0.17588335275650024,0.186437726020813,0.14040358364582062,0.1351337432861328,-0.008905172348022461,0.19968222081661224,0.052938252687454224,0.0956653580069542,-0.06847921013832092,0.06684233248233795,-0.06587035208940506,0.12922950088977814,-0.057332057505846024,0.09065129607915878,0.1372680813074112,0.17893126606941223,0.29322323203086853,-0.03987389802932739,-0.036694422364234924,0.07873521745204926,0.02740013785660267,-0.021040890365839005,-0.21703346073627472,-0.09587255120277405,-0.18909211456775665,0.1286894977092743,-0.02340114489197731,0.13916705548763275,0.061437319964170456,-0.04206976294517517,0.003069572849199176,0.15341338515281677,-0.02875501662492752,0.13699555397033691,0.17947787046432495,0.0595766082406044,-0.036697644740343094,0.14965088665485382,-0.20877282321453094,-0.06361260265111923,0.08034763485193253,0.053132250905036926,-0.0240640826523304,0.1263575702905655,-0.07186941057443619,-0.11739986389875412,0.20174860954284668,-0.04041415452957153,-0.03585143759846687,-0.21639803051948547,-0.05509977042675018,0.13126376271247864,0.04198874160647392,-0.11444902420043945,-0.07407797127962112,-0.021566051989793777,0.07402405142784119,-0.002956724027171731,0.045098867267370224,-0.2359141856431961,0.0022416559513658285,-0.07281120866537094,0.034511517733335495,0.04285748675465584,-0.27120476961135864,0.1087227463722229,0.01917210966348648,0.0401637963950634,0.08187153935432434,0.11249558627605438
围绕,0.11547893285751343,0.05408638343214989,0.0025325545575469732,0.02765234373509884,0.04920950531959534,-0.0362083725631237,-0.019423021003603935,-0.057640139013528824,-0.16831737756729126,0.07497034966945648,-0.06228114292025566,-0.0007911323918960989,0.09679808467626572,-0.049571115523576736,0.054743245244026184,-0.04754563793540001,-0.042511627078056335,0.028041968122124672,0.022939566522836685,0.005193900782614946,-0.02391810342669487,-0.009302756749093533,0.01866266503930092,0.15029355883598328,-0.09126585721969604,0.054139818996191025,0.0928560346364975,0.06933452934026718,-0.05525119975209236,0.0871095284819603,-0.12842018902301788,-0.02331511676311493,-0.022317644208669662,0.015299336984753609,0.011548884212970734,0.04464630410075188,-0.05817717686295509,-0.08359012752771378,0.031098339706659317,0.07798144966363907,0.06593561917543411,0.07106578350067139,-0.02898021787405014,-0.025353455916047096,0.025536613538861275,0.023453369736671448,-0.07560966908931732,-0.05254204943776131,0.06885507702827454,0.011458013206720352,0.0033830259926617146,-0.05984415113925934,-0.11615636944770813,0.06373529136180878,-0.01400915626436472,-0.06984284520149231,0.10475843399763107,0.11231763660907745,0.042591046541929245,-0.0502910241484642,0.08005072176456451,0.06788605451583862,-0.10076761990785599,-0.01098447572439909,-0.004639531951397657,-0.08467511087656021,0.06816495954990387,0.0002135906252078712,0.04862886294722557,-0.15585702657699585,0.05942663922905922,-0.0006620910135097802,0.008157574571669102,-0.11955441534519196,-0.03718467429280281,-0.043653905391693115,0.02926461026072502,0.020873988047242165,0.1270860880613327,0.07279525697231293,-0.013318194076418877,0.024441296234726906,0.05875825509428978,-0.12198106199502945,0.06120065972208977,0.0474732369184494,-0.08110098540782928,-0.043611206114292145,-0.06239211559295654,0.003349961480125785,-0.026980526745319366,0.1081235259771347,0.01949661411345005,-0.041120897978544235,0.03284832462668419,0.009223942644894123,-0.047442447394132614,0.06277211010456085,0.05085332691669464,-0.01726350747048855,0.04368729516863823,0.018466714769601822,-0.08514580130577087,-0.011885746382176876,-0.017739053815603256,-0.17026527225971222,-0.018641546368598938,-0.09878166019916534,0.030882062390446663,-0.06701096892356873,-0.10741370916366577,-0.014257472939789295,-0.02210887148976326,-0.006847870536148548,0.08426046371459961,0.00592187512665987,-0.0031835478730499744,-0.0733209177851677,0.07268688082695007,-0.005352784413844347,-0.00169543013907969,-0.06632063537836075,-0.04185318201780319,-0.018358774483203888,0.06851499527692795,-0.08185325562953949,0.07114118337631226,-0.046217478811740875,-0.02014164626598358,-0.03878726810216904,0.08183065801858902,0.013366351835429668,0.0008155970717780292,0.022521384060382843,-0.07435537129640579,0.0048351166769862175,0.037772584706544876,0.02431495115160942,0.03983527794480324,-0.02498713694512844,-0.041523512452840805,-0.01668505184352398,0.04213691130280495,0.07122515141963959,-0.08172300457954407,-0.08151038736104965,0.03538592904806137,-0.029285341501235962,-0.03201518952846527,-0.007340587209910154,-0.06917071342468262,-0.030526645481586456,0.009827930480241776,-0.1262335479259491,-0.02516009844839573,0.05815389007329941,-0.016632521525025368,-0.07549731433391571,-0.031303662806749344,-0.013339863158762455,-0.07923339307308197,-0.05062665417790413,-0.016936495900154114,0.11972945183515549,-0.007036767899990082,-0.03298775851726532,-0.10140332579612732,0.07404188066720963,0.08868972212076187,-0.016209784895181656,-0.07910335808992386,0.06558433175086975,0.10293667018413544,-0.0020360013004392385,0.06966296583414078,-0.009193011559545994,-0.021487073972821236,-0.06129608303308487,-0.04694303870201111,0.00909545086324215,0.09595093876123428,-0.03643963113427162,-0.05549848452210426,0.009574754163622856,-0.09746702760457993,-0.08556238561868668,0.09659778326749802,0.10837142914533615,0.07476840168237686,0.07937800139188766,0.05640644207596779,0.10251151025295258,0.018340066075325012,0.02299426682293415,-0.04171456769108772,0.006256443448364735,-0.03309747949242592,0.06127432733774185,-0.027302907779812813,0.014722976833581924,0.048433609306812286,0.07585605978965759,0.14577071368694305,-0.03205408528447151,-0.04042430222034454,0.05859145522117615,0.03168444707989693,-0.029344875365495682,-0.08700978755950928,-0.025578361004590988,-0.0918758288025856,0.0793895274400711,-0.04538886249065399,0.09772828221321106,0.005392157938331366,-0.03552991524338722,0.006463286001235247,0.07512234151363373,0.03788754343986511,0.05291587486863136,0.15518714487552643,0.014018136076629162,-0.01696172170341015,0.05462696775794029,-0.10968897491693497,-0.041054483503103256,0.03543342277407646,-0.014299307018518448,0.022944821044802666,0.027417417615652084,-0.06842850893735886,-0.08600708842277527,0.11703465133905411,-0.021406983956694603,-0.03395562246441841,-0.09144600480794907,0.0005023673875257373,0.033887118101119995,0.03235040232539177,-0.08881921321153641,-0.023843981325626373,-0.05555922910571098,0.0026940875686705112,-0.010580035857856274,0.040159761905670166,-0.10782700777053833,-0.03884580731391907,-0.024752847850322723,0.08807259798049927,0.024462582543492317,-0.18579715490341187,0.10178043693304062,-0.05064934864640236,0.028767844662070274,0.05192478373646736,0.017068369314074516
移动,0.04568687453866005,0.08345209062099457,-0.005330737680196762,0.012882224284112453,0.07117480784654617,-0.06722385436296463,0.0040743728168308735,-0.06762944161891937,-0.15764513611793518,0.09727847576141357,-0.04593399167060852,0.017156163230538368,0.10814608633518219,-0.06232256814837456,0.05867069214582443,-0.04172349348664284,-0.011823751963675022,0.015068025328218937,-0.009379700757563114,0.13113461434841156,-0.06131300702691078,-0.045311544090509415,-0.04888049513101578,0.169328972697258,-0.10893938690423965,0.009391755796968937,0.024431537836790085,0.04583293944597244,-0.09190768003463745,0.13790208101272583,-0.10757414996623993,-0.004480274859815836,-0.024843912571668625,-0.025448476895689964,0.09857400506734848,0.11571962386369705,0.009109201841056347,-0.04795202240347862,0.05838604271411896,0.08313725143671036,0.035460952669382095,0.11613406240940094,-0.03548746928572655,-0.04050138220191002,0.062447287142276764,0.0015324072446674109,-0.10077955573797226,-0.005693265236914158,0.11131423711776733,0.0825626328587532,-0.0005443620611913502,-0.054615288972854614,-0.07251536101102829,0.049014098942279816,-0.05690417438745499,-0.09894441068172455,0.07405438274145126,0.12748126685619354,0.09697480499744415,-0.003871830878779292,-0.0026133107021450996,0.016895612701773643,-0.03389597311615944,-0.01864670403301716,-0.04056955501437187,-0.06955557316541672,0.10958202183246613,-0.00812249444425106,0.0739605575799942,-0.10301115363836288,0.09237353503704071,0.009798447601497173,0.034870024770498276,-0.12154985964298248,-0.02735556662082672,-0.12736231088638306,0.040247730910778046,0.09825224429368973,0.09178066998720169,0.13994824886322021,-0.02555941790342331,-0.013216368854045868,0.05633487552404404,-0.024651044979691505,0.061624106019735336,-0.028828781098127365,-0.010812479071319103,0.06540831923484802,-0.020313242450356483,-0.01797744259238243,0.01341712474822998,0.07197487354278564,-0.1020372211933136,-0.044936589896678925,0.073884516954422,-0.03365926072001457,-0.05532561615109444,0.04398893564939499,0.05935137718915939,-0.05538518726825714,0.006271335296332836,0.030108580365777016,-0.09372872859239578,0.043684426695108414,-0.01946738176047802,-0.14865601062774658,0.05992750823497772,-0.09005244821310043,0.04363085702061653,-0.05543594807386398,-0.025799177587032318,0.05441815406084061,-0.06129556894302368,0.01176504883915186,0.025549478828907013,-0.05822773650288582,-0.0008904495625756681,-0.046141963452100754,0.08993427455425262,0.0653013288974762,-0.020208975300192833,-0.04905598238110542,0.01739848218858242,-0.03372720256447792,0.050645485520362854,-0.11108626425266266,-0.0077173723839223385,0.010147636756300926,0.029252829030156136,0.013594011776149273,0.0936804935336113,-0.08336912095546722,0.020409908145666122,-0.025824077427387238,-0.11730752140283585,0.014971550554037094,0.0979614332318306,-0.012557776644825935,0.013129381462931633,-0.0623704232275486,-0.007367451209574938,-0.03848373889923096,0.011067415587604046,0.07392187416553497,-0.1528770923614502,-0.0489400178194046,0.001477664802223444,-0.015887944027781487,-0.0015028599882498384,-0.01935623213648796,-0.07300581783056259,-0.020948031917214394,-0.029787559062242508,-0.14587825536727905,-0.051943544298410416,-0.01575988531112671,-0.005934314336627722,-0.03537837043404579,0.009866860695183277,-0.033300645649433136,-0.1309901475906372,-0.040170229971408844,-0.12160392850637436,0.09622982889413834,0.029480166733264923,0.01844835840165615,-0.17224733531475067,-0.009836611337959766,0.05894094705581665,0.04463322088122368,-0.05126752704381943,0.10016116499900818,0.04816319793462753,-0.05096520110964775,0.06342582404613495,-0.06462150067090988,0.02585488185286522,-0.0472697876393795,0.019472330808639526,-0.07556866854429245,0.07191962003707886,-0.019938034936785698,-0.04424436390399933,0.01151193119585514,0.0046759783290326595,-0.11479789018630981,0.05937878414988518,0.05209985747933388,0.07030951976776123,0.05272823944687843,-0.07063671201467514,0.044373951852321625,0.07958989590406418,0.051114171743392944,-0.029090870171785355,0.022651376202702522,-0.048545148223638535,0.08384031057357788,-0.03946886584162712,0.11035656929016113,0.06431791186332703,0.11862532794475555,0.09551489353179932,-0.026293857023119926,-0.01588931307196617,0.04850289970636368,0.021365249529480934,0.0523139089345932,-0.11513757705688477,-0.07669423520565033,-0.06977123022079468,0.0035394802689552307,-0.01339832041412592,0.0645841434597969,0.042714376002550125,-0.029124736785888672,-0.013119636103510857,0.13130204379558563,-0.07097811251878738,0.07527739554643631,0.02530382014811039,-0.001439316663891077,-0.012714933604001999,0.04893558844923973,-0.14181332290172577,-0.017485279589891434,0.05007196590304375,0.06216396391391754,-0.010630471631884575,0.07243023812770844,-0.05446493625640869,-0.10609778016805649,0.07329689711332321,-0.016474232077598572,-0.027770400047302246,-0.0699649229645729,-0.08824995160102844,0.06341665238142014,0.05737761780619621,-0.024571383371949196,-0.06848352402448654,0.0213251244276762,0.059431254863739014,-0.038430824875831604,-0.03098594956099987,-0.11637187749147415,0.026731818914413452,0.009108849801123142,0.01684827171266079,-0.029077211394906044,-0.1585947871208191,0.04427642002701759,0.05386848747730255,0.04385208711028099,-0.008919039741158485,0.12929986417293549
延伸,0.1327226459980011,0.08993420004844666,0.10031664371490479,0.11884517222642899,0.14192479848861694,-0.09008265286684036,-0.03484044969081879,-0.18361270427703857,-0.3285408020019531,0.1612718254327774,-0.0062813409604132175,0.07813047617673874,0.07187996804714203,-0.19291920959949493,0.04747246578335762,-0.054410528391599655,0.056097906082868576,0.1205771341919899,-0.03665679320693016,0.18861021101474762,-0.09714733064174652,0.0302878487855196,-0.04962864890694618,0.24944248795509338,-0.26448869705200195,-0.02888321876525879,0.07340366393327713,0.1189877986907959,-0.21813450753688812,0.14921347796916962,-0.17808163166046143,-0.01163883414119482,-0.07542455941438675,-0.0024490852374583483,0.19081860780715942,0.19282440841197968,0.045027956366539,-0.202752023935318,0.1247803196310997,0.1933186650276184,0.05421809107065201,0.1481962949037552,-0.08339224755764008,-0.1015598401427269,0.1765526831150055,-0.03160546347498894,-0.23884955048561096,-0.061504606157541275,0.21218954026699066,0.17484690248966217,-0.047851886600255966,-0.0932336375117302,-0.11506075412034988,-0.062202297151088715,-0.16641052067279816,-0.16005238890647888,0.23227764666080475,0.08905572444200516,0.11601435393095016,-0.028110645711421967,0.0646262913942337,0.0891532376408577,-0.10039334744215012,0.016800949349999428,-0.1675117313861847,-0.11382348835468292,0.20358844101428986,0.07585926353931427,0.0677652657032013,-0.19372782111167908,0.0862373411655426,-0.06629004329442978,0.04303339868783951,-0.23566298186779022,-0.1099633127450943,-0.20784592628479004,0.06517960131168365,0.03701644763350487,0.26673954725265503,0.32196006178855896,0.10425740480422974,0.0533357709646225,0.1488191783428192,-0.07808467745780945,0.09944073855876923,0.09123539179563522,-0.06548450142145157,0.008009184151887894,-0.03820934146642685,-0.018868865445256233,0.01820771023631096,0.16596350073814392,0.04289134219288826,-0.04587683081626892,0.04665886610746384,0.001379441935569048,-0.17275334894657135,0.11429963260889053,0.0759819820523262,-0.13664543628692627,0.07614907622337341,-0.06028993800282478,-0.13659702241420746,0.10415105521678925,0.045279644429683685,-0.2619090676307678,0.09102539718151093,-0.1899772733449936,0.0925208181142807,-0.12490100413560867,-0.08572392165660858,0.052520811557769775,-0.003580378368496895,0.054267268627882004,0.07051128149032593,-0.17679308354854584,0.05004900321364403,-0.03520584478974342,0.09871073067188263,-0.01303081028163433,-0.01847231574356556,-0.1668694019317627,-0.027205277234315872,-0.14275917410850525,0.08527165651321411,-0.042934104800224304,0.1314655989408493,0.007144029252231121,0.03648168593645096,-0.052489422261714935,0.1772952824831009,-0.12012645602226257,0.036599136888980865,0.048964232206344604,-0.2609846591949463,-0.04419417679309845,0.09775100648403168,0.007563299499452114,0.09822089225053787,-0.08234287798404694,-0.1451023668050766,-0.03799889236688614,0.015888329595327377,0.16146481037139893,-0.27244076132774353,-0.059920534491539,-0.007642580661922693,-0.10835748165845871,-0.028478624299168587,-0.06317753344774246,-0.21994313597679138,-0.0816325917840004,-0.011210090480744839,-0.235646590590477,-0.1265602856874466,0.02342398464679718,-0.04920690134167671,-0.07428368180990219,0.015677953138947487,-0.1328052431344986,-0.19779573380947113,-0.05800456926226616,-0.10724501311779022,0.16058816015720367,-0.010273312218487263,-0.04978058487176895,-0.2679383456707001,0.04543142020702362,0.18510320782661438,-0.032682280987501144,-0.14555510878562927,0.19097478687763214,0.14653527736663818,-0.0904412493109703,0.10794951021671295,-0.0946461632847786,-0.0869380459189415,-0.10090712457895279,0.006515358109027147,-0.16665314137935638,0.12838484346866608,-0.04823210835456848,0.027597518637776375,0.05328192561864853,0.0005782251246273518,-0.16630439460277557,0.05709768459200859,0.12806156277656555,0.08942703157663345,0.19033129513263702,0.017032310366630554,0.12065499275922775,0.12068347632884979,0.09218884259462357,-0.0002739466726779938,0.10649775713682175,0.016307881101965904,0.15219075977802277,-0.05113298073410988,0.1468237042427063,0.12567095458507538,0.12573601305484772,0.25391605496406555,-0.00850288663059473,-0.09269403666257858,0.09858008474111557,-0.06099025532603264,-0.11419805884361267,-0.29342663288116455,-0.05555373430252075,-0.09304194152355194,0.051368746906518936,-0.03889532759785652,0.1937485635280609,0.09005066007375717,-0.018663326278328896,-0.05049462616443634,0.3356376588344574,-0.03229665383696556,0.22282558679580688,0.12136273086071014,0.021381331607699394,0.07125270366668701,0.15662382543087006,-0.31854093074798584,-0.060938894748687744,0.18789519369602203,0.000603045686148107,0.0957350879907608,0.20668502151966095,-0.1873117834329605,-0.2602822482585907,0.08375191688537598,-0.03258701041340828,-0.09602783620357513,-0.17166823148727417,-0.056615088135004044,0.1678992360830307,0.10243736952543259,-0.07502541691064835,-0.11707038432359695,0.04398440569639206,0.03909502923488617,-0.020048515871167183,-0.03741474449634552,-0.262057363986969,0.02557247318327427,-0.030991286039352417,0.11046344041824341,-0.017521042376756668,-0.31380587816238403,0.0917087271809578,0.02025977522134781,0.10661419481039047,-0.016547491773962975,0.26419714093208313
