word,0,1,2,3,4,5,6,7,8,9,10,11,12,13,14,15,16,17,18,19,20,21,22,23,24,25,26,27,28,29,30,31,32,33,34,35,36,37,38,39,40,41,42,43,44,45,46,47,48,49,50,51,52,53,54,55,56,57,58,59,60,61,62,63,64,65,66,67,68,69,70,71,72,73,74,75,76,77,78,79,80,81,82,83,84,85,86,87,88,89,90,91,92,93,94,95,96,97,98,99,100,101,102,103,104,105,106,107,108,109,110,111,112,113,114,115,116,117,118,119,120,121,122,123,124,125,126,127,128,129,130,131,132,133,134,135,136,137,138,139,140,141,142,143,144,145,146,147,148,149,150,151,152,153,154,155,156,157,158,159,160,161,162,163,164,165,166,167,168,169,170,171,172,173,174,175,176,177,178,179,180,181,182,183,184,185,186,187,188,189,190,191,192,193,194,195,196,197,198,199,200,201,202,203,204,205,206,207,208,209,210,211,212,213,214,215,216,217,218,219,220,221,222,223,224,225,226,227,228,229,230,231,232,233,234,235,236,237,238,239,240,241,242,243,244,245,246,247,248,249,250,251,252,253,254,255
主体,0.06559405475854874,0.013412912376224995,0.007559125777333975,0.03665029630064964,0.029512597247958183,0.004535040818154812,-0.017767859622836113,-0.027687737718224525,-0.0867234468460083,0.02769094705581665,-0.026923947036266327,0.024246269837021828,0.05380786955356598,-0.03961934521794319,0.005221642088145018,-0.023305926471948624,-0.016378985717892647,0.033697862178087234,-0.008441947400569916,0.006173886824399233,-0.0033689483534544706,0.011468364857137203,0.015108227729797363,0.04458482936024666,-0.05629894882440567,0.04519781097769737,0.04701804369688034,0.037473615258932114,-0.03516250103712082,0.04987061023712158,-0.07538636028766632,0.0026085833087563515,-0.029415743425488472,0.01934194006025791,0.04377691447734833,0.018620269373059273,-0.032347988337278366,-0.04893246293067932,0.020308230072259903,0.05921061336994171,0.03578110784292221,0.025353441014885902,-0.03784210979938507,-0.02032708004117012,0.025996822863817215,0.012996600940823555,-0.055568549782037735,-0.025272823870182037,0.04626297578215599,0.022225849330425262,-0.023776985704898834,-0.031453415751457214,-0.07191202044487,0.011985361576080322,-0.032719146460294724,-0.027046944946050644,0.05971399322152138,0.04508541151881218,0.011284560896456242,-0.018587790429592133,0.05043088272213936,0.03469351306557655,-0.041704460978507996,0.01854023151099682,-0.03318903222680092,-0.023705564439296722,0.05130141228437424,0.020580310374498367,0.03225411847233772,-0.08848658949136734,0.0028161590453237295,-0.012358874082565308,0.011721123941242695,-0.08013789355754852,-0.013970852829515934,0.001668155426159501,0.048679519444704056,-0.005375210661441088,0.09473046660423279,0.0313606858253479,0.013909198343753815,0.008459966629743576,0.04212440177798271,-0.06277129799127579,0.021948134526610374,0.04974585399031639,-0.04279989376664162,-0.0050522214733064175,-0.037198755890131,-0.021249784156680107,-0.026853352785110474,0.06343576312065125,0.03648810833692551,-0.02179650217294693,-0.0016466914676129818,0.014409157447516918,-0.040309008210897446,0.049001503735780716,0.020160173997282982,-0.026620522141456604,0.016545217484235764,-0.01540818065404892,-0.03521651774644852,0.030286207795143127,0.0028734493535012007,-0.09215113520622253,-0.008414222858846188,-0.054796598851680756,0.027641961351037025,-0.02559199184179306,-0.08317600935697556,-0.0018133596749976277,0.013456720858812332,-0.00464938348159194,0.01736241765320301,-0.012516473419964314,0.007128377910703421,-0.0402984693646431,0.02573118731379509,-0.01596548967063427,-0.006921478547155857,-0.03875105082988739,-0.006244834046810865,-0.009725766256451607,0.03267907351255417,0.007281857542693615,0.06473411619663239,-0.009813263081014156,0.005031399428844452,-0.03932075574994087,0.04724206030368805,0.028945615515112877,-0.004234351683408022,0.015933960676193237,-0.06587496399879456,-0.010503973811864853,0.014336694031953812,-0.010016566142439842,0.027445847168564796,-0.0170483086258173,-0.03492189198732376,-0.004376535769551992,0.010269188322126865,0.06028624251484871,-0.05446838214993477,-0.038016606122255325,0.024477649480104446,-0.032925084233284,-0.012447766028344631,-0.011928609572350979,-0.05390188843011856,-0.04053611680865288,0.013403217308223248,-0.06873450428247452,-0.017198262736201286,0.03664056211709976,-0.030135834589600563,-0.03949367254972458,-0.012962773442268372,-0.027937401086091995,-0.0269162617623806,-0.030092906206846237,0.0014516472583636642,0.05699661374092102,-0.007332626264542341,-0.013299776241183281,-0.05349540337920189,0.040343161672353745,0.05227833613753319,-0.009329808875918388,-0.03035927005112171,0.019907593727111816,0.06222858279943466,-0.0006486214697360992,0.010486224666237831,-0.0046625989489257336,-0.0025017729494720697,-0.034838367253541946,-0.027553075924515724,-0.005758947692811489,0.061949171125888824,-0.02761475183069706,-0.008941282518208027,0.03315892815589905,-0.040535055100917816,-0.047215718775987625,0.04537167027592659,0.052760183811187744,0.05878822132945061,0.05395038053393364,0.03863023594021797,0.05611490085721016,0.008931799791753292,-0.000901849300134927,-0.01893162727355957,0.008642868138849735,0.002592431614175439,0.04322666674852371,-0.011592863127589226,-0.013952159322798252,0.018037086352705956,0.04186950996518135,0.09908086806535721,-0.01720033958554268,-0.04186535254120827,0.043836504220962524,-0.015129713341593742,-0.03895651176571846,-0.06040862202644348,0.0024567509535700083,-0.021944422274827957,0.057673245668411255,-0.02258668839931488,0.06190362200140953,0.010500289499759674,-0.010478387586772442,0.005964502226561308,0.06276489049196243,0.030276337638497353,0.05042749643325806,0.08014737814664841,0.019579553976655006,0.007261660881340504,0.05497286468744278,-0.05744162201881409,-0.006741772405803204,0.024855995550751686,-0.025526275858283043,0.033145274966955185,0.027478886768221855,-0.03389928117394447,-0.05088179185986519,0.05447334796190262,-0.013903613202273846,-0.026430780068039894,-0.04823250696063042,0.012225877493619919,0.03322199732065201,0.038697827607393265,-0.04074827581644058,-0.023169303312897682,-0.03194763511419296,-0.010368645191192627,-0.008615938946604729,0.007288109045475721,-0.08086829632520676,-0.034341055899858475,-0.030316464602947235,0.06260676681995392,0.012157965451478958,-0.09560079872608185,0.039283256977796555,-0.027494603767991066,0.02538357302546501,0.03870087116956711,-0.004943620413541794
安装,0.01133454404771328,0.04595481604337692,0.055866219103336334,-0.017687786370515823,0.040178749710321426,-0.05982517451047897,-0.019519109278917313,-0.0033213195856660604,-0.09152615070343018,0.010392221622169018,0.011463997885584831,0.030417833477258682,-0.05698608607053757,-0.05369896814227104,0.0118489358574152,6.142594065750018e-05,0.0443916879594326,0.009579016827046871,0.011041778139770031,0.07449502497911453,-0.0641694962978363,-0.04592658579349518,-0.02544928528368473,0.08068855851888657,-0.07550939917564392,-0.06369451433420181,-0.024915043264627457,0.03353153541684151,-0.01688268966972828,0.014827152714133263,-0.0043507530353963375,0.0057385447435081005,-0.08599571138620377,-0.04035533592104912,0.0505964420735836,0.08053532987833023,0.044658269733190536,-0.00202630995772779,0.048247843980789185,0.002204643562436104,0.048509154468774796,0.09601324796676636,-0.024301374331116676,-0.030272020027041435,0.032168950885534286,0.0012786133447661996,0.0005618357099592686,-0.03722262755036354,0.013897964730858803,0.024671437218785286,0.06965656578540802,-0.07609771192073822,0.022749027237296104,-0.03378181532025337,0.01683901436626911,-0.04042608290910721,0.04856837913393974,0.05130255967378616,0.06189432740211487,-0.006126090884208679,0.021528776735067368,0.022345947101712227,-0.0030476984102278948,0.001214189687743783,-0.0346931517124176,-0.02516593039035797,0.00010395968274679035,0.01985502988100052,0.043985337018966675,-0.10495547950267792,0.06595534831285477,-0.057562053203582764,0.034910380840301514,-0.08081645518541336,-0.06316462904214859,-0.06088094040751457,-0.02317466400563717,0.004001758527010679,0.032230194658041,0.14773690700531006,0.03704344108700752,-0.029841206967830658,0.03789125755429268,-0.02063995599746704,0.04923500120639801,0.04813915118575096,-0.015931544825434685,0.015050474554300308,0.013634336180984974,-0.004843245726078749,0.017096437513828278,0.0641910657286644,0.019087636843323708,0.033537205308675766,0.012827052734792233,-0.0327564999461174,-0.05360240861773491,-0.006809324957430363,0.028285173699259758,-0.04536154493689537,-0.016588425263762474,0.011889356188476086,-0.07194025814533234,0.03386257216334343,0.0567108578979969,-0.077018141746521,0.039665304124355316,-0.01917951926589012,0.04444443807005882,-0.03508498892188072,0.03240474686026573,0.01038814801722765,-0.0001991613971767947,0.02738293819129467,0.007579455152153969,-0.09574608504772186,0.03576745465397835,0.03420871123671532,0.11380080133676529,0.06429657340049744,-0.038743697106838226,-0.05644674971699715,-0.06724342703819275,-0.05012587457895279,0.019085431471467018,-0.07127262651920319,0.0025554525200277567,-0.018438832834362984,0.06497275084257126,-0.024584118276834488,0.0569722019135952,-0.10489226132631302,0.05234247446060181,0.003174882847815752,-0.0735890120267868,-0.03429875895380974,0.014810307882726192,-0.012879973277449608,-0.010504454374313354,-0.0331723690032959,-0.05978848785161972,0.006784524768590927,0.038924314081668854,0.037007905542850494,-0.07430252432823181,-0.06220947206020355,-0.004731613676995039,-0.018707826733589172,-0.024187110364437103,-0.01380346529185772,-0.06854654848575592,0.033918347209692,0.01355412881821394,-0.025995969772338867,-0.041785549372434616,-0.03380131721496582,0.01587834767997265,-0.05486949160695076,0.022083815187215805,0.025997573509812355,-0.00037191042792983353,0.007008927408605814,-0.03315441682934761,0.031824756413698196,0.03406213968992233,-0.022002223879098892,-0.09480061382055283,0.03782734274864197,0.009274030104279518,-0.042141105979681015,-0.056480977684259415,0.12042573094367981,0.07312791794538498,-0.061012543737888336,0.06993910670280457,-0.038646068423986435,-0.06490321457386017,-0.027878666296601295,-0.005817042663693428,-0.059538427740335464,0.015025777742266655,-0.05265674367547035,0.06412531435489655,0.09499499201774597,0.017325378954410553,-0.01957017369568348,-0.017941536381840706,0.012336686253547668,-0.0005850729648955166,0.043761689215898514,0.04303455725312233,0.0884314626455307,0.07402779906988144,0.06825263798236847,0.020512761548161507,0.007306656334549189,-0.04744270071387291,-0.004637112841010094,-0.0026115139480680227,0.08200656622648239,0.03076176904141903,0.015249673277139664,0.06287124007940292,0.00647349888458848,-0.026828046888113022,-0.020937979221343994,0.0401574932038784,-0.054268065840005875,-0.06607536971569061,-0.041989270597696304,-0.05650535970926285,-0.06447792798280716,-0.08796167373657227,0.010676068253815174,0.004322962369769812,0.020313410088419914,0.023319903761148453,0.12654370069503784,-0.04358792304992676,0.05570288747549057,0.06122375279664993,-0.04764007031917572,0.018786245957016945,0.0648045688867569,-0.1363855004310608,-0.03906198590993881,0.08409665524959564,0.04405028000473976,0.02448110096156597,0.07000670582056046,-0.0832471027970314,-0.0932629331946373,-0.059938035905361176,-0.0073746875859797,-0.053097207099199295,-0.04088211804628372,-0.05861842632293701,0.010420681908726692,0.043107740581035614,0.005777642596513033,-0.041239600628614426,0.004767891019582748,0.010262156836688519,-0.05488736554980278,-0.016598673537373543,-0.0559321753680706,0.050806496292352676,0.03050287812948227,0.06670918315649033,-0.050568562000989914,-0.11534681916236877,0.05844433233141899,0.014592424966394901,0.038018498569726944,-0.023666448891162872,0.12104666978120804
步骤,0.030642587691545486,0.029375389218330383,-0.0035827085375785828,0.029711881652474403,0.04476526752114296,-0.014719353057444096,0.002296190243214369,-0.02344842441380024,-0.06796250492334366,0.03837893158197403,-0.0008557794499211013,0.014020105823874474,0.041407160460948944,-0.05688223987817764,0.01751476526260376,-0.021049784496426582,0.019429009407758713,0.01050545647740364,0.0030656508170068264,0.04573904722929001,-0.025652660056948662,0.008641758002340794,-0.01788298226892948,0.052871882915496826,-0.08890853822231293,0.013825067318975925,0.017791781574487686,0.007811566349118948,-0.043284159153699875,0.038078323006629944,-0.05773551017045975,-0.0041351220570504665,-0.04488413408398628,0.009516754187643528,0.05200287327170372,0.018510203808546066,-0.00987245049327612,-0.032151687890291214,0.03893584385514259,0.04360933229327202,0.027321865782141685,0.036115862429142,-0.018508430570364,-0.021211102604866028,0.06593502312898636,-0.0028432251419872046,-0.05935191735625267,-0.013155916705727577,0.029079604893922806,0.04037647321820259,-0.004470455925911665,-0.014071982353925705,-0.019883379340171814,-0.002553047612309456,-0.019123297184705734,-0.04465947672724724,0.05366962030529976,0.03830946609377861,0.0263077300041914,0.0016361773014068604,0.030736759305000305,0.02536783739924431,-0.04274722933769226,-0.004739978350698948,-0.024080965667963028,-0.03232690319418907,0.033020876348018646,0.031423408538103104,0.014536270871758461,-0.07273873686790466,0.016647974029183388,-0.03543918952345848,0.019420204684138298,-0.08702600747346878,-0.03553195297718048,-0.015433594584465027,0.03710326924920082,0.001706198789179325,0.06052844226360321,0.0739395022392273,0.01355469599366188,-0.007915116846561432,0.031440913677215576,-0.015918519347906113,0.03212648257613182,0.02365444041788578,-0.004837682005017996,-0.00241339229978621,-0.013965979218482971,0.000415981252444908,-0.011168253608047962,0.03371349722146988,0.011696507222950459,-0.012653359211981297,0.0026695500127971172,0.0009147642995230854,-0.03607053682208061,0.024765517562627792,0.023860910907387733,-0.026026062667369843,0.008339128457009792,-0.02006026729941368,-0.060495324432849884,0.04043189436197281,0.008564210496842861,-0.07398764789104462,0.00544299092143774,-0.05642382428050041,0.009245027787983418,-0.050466179847717285,-0.043350934982299805,0.008910938166081905,0.016808202490210533,-0.007639676798135042,0.002176795620471239,-0.04671341925859451,0.012403233908116817,-0.015001222491264343,0.015631860122084618,-2.8006341381114908e-05,-0.02091008983552456,-0.030790217220783234,-0.013431561179459095,-0.029461683705449104,0.015315263532102108,-0.010117346420884132,0.061688248068094254,-0.009227868169546127,0.04028397053480148,-0.0328134186565876,0.036631256341934204,-0.008899036794900894,-0.004032370634377003,0.017421863973140717,-0.07341410964727402,0.000699884258210659,0.014908753335475922,-0.006918380502611399,0.02554171346127987,-0.00815531425178051,-0.03283870965242386,-0.0018028722843155265,0.026166176423430443,0.06118374317884445,-0.06108235567808151,-0.01401001401245594,0.006483057979494333,-0.008922594599425793,0.002381284488365054,-0.009057617746293545,-0.0459858775138855,-0.02632506936788559,0.008350151591002941,-0.045050326734781265,-0.03452128916978836,0.01934010349214077,-0.00042529607890173793,-0.018347876146435738,-0.012788176536560059,-0.008104107342660427,-0.014760162681341171,-0.008120758458971977,0.002477410016581416,0.037987954914569855,0.007673380430787802,0.017550896853208542,-0.07429935038089752,0.0245150625705719,0.04030369222164154,0.004700696561485529,-0.017010459676384926,0.042089588940143585,0.04183313250541687,-0.04257002845406532,0.01710074208676815,-0.02882358804345131,-0.008010325953364372,-0.027667948976159096,0.00315789389424026,-0.028966527432203293,0.04537808522582054,-0.014391325414180756,0.004626601468771696,0.0658385381102562,-0.02194071188569069,-0.019275452941656113,0.019888710230588913,0.036698758602142334,0.009314490482211113,0.043030451983213425,0.02921678125858307,0.03198628127574921,0.009103563614189625,0.02294052392244339,0.023994984105229378,-0.011349577456712723,0.0038165512960404158,0.04290201514959335,-0.013071424327790737,-0.0013267468893900514,0.011438819579780102,0.017487362027168274,0.07620078325271606,-0.00033443208667449653,-0.013857281766831875,0.027967281639575958,-0.009410322643816471,-0.034171007573604584,-0.0521228089928627,-0.018166396766901016,-0.024343887344002724,0.01696760766208172,-0.03361766040325165,0.030708670616149902,0.012724720872938633,-0.02655365690588951,-0.0031911120750010014,0.08338230848312378,-0.0012410443741828203,0.053136005997657776,0.05320160835981369,-0.002997332951053977,0.01884860172867775,0.034413889050483704,-0.05794396996498108,-0.012466740794479847,0.030212854966521263,-0.008358006365597248,0.024052593857049942,0.024578522890806198,-0.022417936474084854,-0.06423203647136688,0.025441715493798256,-0.0013582290848717093,-0.015045972540974617,-0.04628850519657135,-0.034033872187137604,0.020767463371157646,0.04039553180336952,-0.009184759110212326,-0.01845470629632473,-0.030397681519389153,0.0041658650152385235,-0.007543355692178011,-0.002019224688410759,-0.05824678763747215,-0.010164948180317879,0.009390962310135365,0.042207829654216766,-0.023660561069846153,-0.0948576107621193,0.014598332345485687,0.0030714054591953754,0.03823601081967354,0.002050103386864066,0.012152512557804585
状态,0.22884468734264374,0.026344869285821915,0.1045570820569992,0.11898050457239151,0.37506115436553955,-0.17391033470630646,-0.017005881294608116,-0.20413537323474884,-0.3807149827480316,0.12857362627983093,0.08647719770669937,0.022527804598212242,0.046997714787721634,-0.2972129285335541,0.06611242145299911,-0.19288183748722076,0.20930857956409454,0.0016084944363683462,-0.10438956320285797,0.35681432485580444,-0.03917469084262848,0.0697929859161377,-0.09301835298538208,0.36983630061149597,-0.6828488707542419,0.0181341003626585,0.06920555979013443,0.12493939697742462,-0.3326174020767212,0.22931677103042603,-0.27857711911201477,0.006960281636565924,-0.20375658571720123,0.046693772077560425,0.4366660416126251,0.19644904136657715,0.272993803024292,-0.31040775775909424,0.3262921869754791,0.3789787292480469,0.13443514704704285,0.20329035818576813,-0.2302006632089615,-0.12615810334682465,0.47182515263557434,-0.08682993054389954,-0.4325776696205139,-0.04534340649843216,0.3793718218803406,0.3194507658481598,-0.20923669636249542,-0.2474490851163864,-0.15346461534500122,-0.032542090862989426,-0.3174628019332886,-0.4019731879234314,0.3811725080013275,-0.10636182129383087,0.09628121554851532,0.14991866052150726,0.2036827951669693,-0.005113326944410801,-0.15250186622142792,-0.0535217709839344,-0.30685028433799744,-0.12432391941547394,0.2717178463935852,0.27411237359046936,0.10237843543291092,-0.4481384754180908,0.13594196736812592,-0.3418431580066681,0.1415596902370453,-0.5088015794754028,-0.28368455171585083,-0.24344028532505035,0.15985901653766632,-0.05813683196902275,0.3282458782196045,0.5469498038291931,0.10042719542980194,-0.06763754785060883,0.20736262202262878,-0.049572788178920746,0.145907461643219,0.22152648866176605,-0.0358370877802372,-0.017648566514253616,0.016922494396567345,-0.11029530316591263,-6.959638085390907e-06,0.2725469172000885,-0.02411765791475773,0.016355708241462708,0.03145047277212143,-0.07851890474557877,-0.32595568895339966,0.14297591149806976,0.17059440910816193,-0.20071184635162354,0.20147278904914856,-0.004572404082864523,-0.48890289664268494,0.2836630046367645,0.06585565954446793,-0.44374269247055054,0.17663703858852386,-0.3732333481311798,0.11689251661300659,-0.2979077398777008,-0.15297314524650574,0.1689087450504303,0.07143034785985947,0.06797464191913605,0.055738665163517,-0.34767627716064453,0.08872392028570175,0.013043442741036415,0.18736831843852997,-0.17278671264648438,-0.18450675904750824,-0.27805209159851074,-0.057825542986392975,-0.22349593043327332,0.007731746882200241,-0.023453161120414734,0.2133503258228302,-0.00020127840980421752,0.1993887722492218,-0.16676688194274902,0.13799986243247986,-0.14945684373378754,0.06481915712356567,0.137043759226799,-0.4889031946659088,-0.25006765127182007,0.017892956733703613,-0.06125019118189812,0.0904056578874588,-0.014991563744843006,-0.2764914631843567,-0.1364007443189621,0.04296581819653511,0.38360753655433655,-0.4450204074382782,-0.08966927230358124,-0.08057919144630432,-0.17097695171833038,-0.059022944420576096,-0.06674141436815262,-0.30591049790382385,-0.1014164462685585,0.07569729536771774,-0.26656702160835266,-0.17781823873519897,0.06825213879346848,-0.1684461236000061,-0.1702704280614853,0.019640924409031868,-0.23868277668952942,-0.3537002205848694,-0.07843337208032608,-0.22496309876441956,0.2208569496870041,-0.091166652739048,0.12454976886510849,-0.5425934791564941,0.07253626734018326,0.32598015666007996,0.027643149718642235,-0.2346818894147873,0.39350438117980957,0.2976675033569336,-0.23740611970424652,0.1332966536283493,-0.07048742473125458,-0.2362506091594696,-0.1437039077281952,-0.0625825822353363,-0.3833023011684418,0.3276849687099457,-0.11522875726222992,0.20870625972747803,0.3174888789653778,-0.03010581247508526,-0.2187531441450119,0.041095852851867676,0.2514190375804901,0.04882848262786865,0.2709197402000427,0.10939425230026245,0.35680142045021057,0.043672919273376465,0.28978702425956726,0.15816201269626617,0.17047148942947388,0.013661962933838367,0.2366277575492859,-0.06699061393737793,0.08797331899404526,0.23496641218662262,0.00718911224976182,0.5307196974754333,-0.004101098049432039,-0.10164400935173035,-0.0033840113319456577,-0.18223479390144348,-0.4069958031177521,-0.41946902871131897,-0.18555928766727448,-0.18447764217853546,0.04365668445825577,-0.08749289065599442,0.14224600791931152,0.1787518411874771,-0.002274965401738882,-0.020291278138756752,0.616565465927124,-0.18103666603565216,0.43225038051605225,0.231252521276474,0.05379096046090126,0.21231859922409058,0.326001912355423,-0.3745705783367157,-0.043657172471284866,0.2797218859195709,-0.002692326670512557,0.10192009061574936,0.3777916431427002,-0.17434509098529816,-0.33821988105773926,0.08771678805351257,-0.12123315036296844,-0.13738209009170532,-0.3396719694137573,-0.21758440136909485,0.2753772735595703,0.1564624309539795,-0.02339056320488453,-0.1983831226825714,-0.06458435207605362,0.1613643318414688,-0.0003380809794180095,-0.04658040404319763,-0.4833388030529022,0.06305592507123947,-0.08895017951726913,0.1047324612736702,-0.18499483168125153,-0.47863176465034485,0.008174451068043709,0.14151717722415924,0.22407791018486023,0.06230560317635536,0.28464579582214355
方法,0.08664929121732712,-0.04475277289748192,0.2047991305589676,0.42651498317718506,0.6050471067428589,-0.23491305112838745,-0.12909956276416779,-0.18510858714580536,-0.5527597665786743,0.4678099453449249,-0.07837671041488647,0.25485464930534363,0.3798922598361969,-0.41979092359542847,0.053253185003995895,-0.045137472450733185,0.5918877124786377,0.47896090149879456,-0.4545798599720001,1.0979562997817993,-0.120534248650074,0.2289499044418335,-0.42554333806037903,0.36923855543136597,-0.7746241092681885,-0.17010393738746643,0.022268371656537056,-0.08334733545780182,-0.6225206851959229,0.7002106308937073,-0.2712304890155792,0.14732761681079865,-0.24510878324508667,0.06281609833240509,0.6956361532211304,0.5737239122390747,0.15743057429790497,-0.4119919240474701,0.3720197081565857,0.6564612984657288,-0.041985463351011276,0.012976331636309624,-0.2573619484901428,-0.31086692214012146,0.6508316397666931,0.05307747796177864,-0.8223286867141724,0.19542919099330902,0.3984341621398926,0.7014082670211792,-0.47769930958747864,-0.17702458798885345,-0.00862206518650055,-0.5973119735717773,-0.6850035190582275,-0.5330015420913696,0.44084852933883667,-0.05509720742702484,0.5792429447174072,0.09863990545272827,-0.03629118204116821,-0.010471723973751068,0.1527189463376999,-0.1767025738954544,-0.6202241778373718,0.04897330701351166,0.44170063734054565,0.1737959384918213,0.005391796585172415,-0.41939300298690796,0.10330130159854889,-0.025181476026773453,0.026256022974848747,-0.6313253045082092,0.045381542295217514,-0.641575813293457,0.3915349841117859,0.2943367063999176,0.3246512711048126,0.6346111297607422,0.25361087918281555,-0.1301613599061966,0.30012738704681396,0.3175458014011383,0.2255050539970398,0.15332087874412537,-0.06772298365831375,0.45802974700927734,0.09649163484573364,0.07491647452116013,0.16976748406887054,0.3171554207801819,-0.15398438274860382,0.008398259989917278,0.1969476342201233,0.23094992339611053,-0.30151331424713135,0.23241382837295532,0.0737975537776947,-0.32731688022613525,0.19555869698524475,-0.48978450894355774,-0.2211744487285614,0.5196371674537659,-0.12032965570688248,-0.6793168783187866,0.3359239995479584,-0.3616692125797272,0.22185689210891724,-0.09204478561878204,-0.013419345952570438,0.4760599136352539,0.32771024107933044,0.19017374515533447,-0.31452086567878723,-0.4167676568031311,-0.12440001964569092,0.07407239824533463,-0.0316622294485569,-0.24523493647575378,-0.22569258511066437,-0.37461012601852417,0.3152526319026947,0.009351626969873905,-0.13361382484436035,0.14365768432617188,0.3279978930950165,0.4468156099319458,0.3659224510192871,0.044328656047582626,0.4754446744918823,-0.3580798804759979,0.0966683030128479,-0.18565744161605835,-0.7289538979530334,-0.11318125575780869,0.13083145022392273,-0.1805463582277298,0.18154044449329376,-0.32913586497306824,-0.13145217299461365,-0.23805826902389526,-0.0018220829078927636,0.359902024269104,-0.7794587016105652,-0.008753851056098938,0.10772958397865295,0.0008503213175572455,0.017507808282971382,-0.14252780377864838,-0.740645706653595,-0.198661670088768,-0.11636902391910553,-0.28221192955970764,-0.3059748113155365,0.04164836183190346,-0.5715427994728088,-0.11672673374414444,0.13508354127407074,-0.617286205291748,-0.3182455897331238,0.1666765660047531,-0.48989981412887573,0.14507880806922913,-0.12010296434164047,-0.0671134814620018,-1.0543725490570068,-0.28395310044288635,0.2076450139284134,0.5191623568534851,-0.13798803091049194,0.37042930722236633,-0.0768933892250061,-0.2958736717700958,0.02694590762257576,-0.2825208008289337,0.0783814787864685,-0.23885251581668854,0.6211398839950562,-0.7374959588050842,0.14691075682640076,-0.32251718640327454,0.11381591856479645,0.18922241032123566,0.32414987683296204,-0.4423733949661255,-0.15948154032230377,0.03890806436538696,0.25742408633232117,0.3658357858657837,-0.4419444501399994,-0.0616537444293499,0.4121575951576233,0.19051603972911835,0.1339081972837448,0.11716148257255554,0.20930908620357513,0.27756810188293457,-0.31683221459388733,0.3971535563468933,0.03677234798669815,0.18477986752986908,0.40737977623939514,-0.20753373205661774,-0.07833143323659897,0.05610809102654457,-0.5160757899284363,-0.14900058507919312,-0.9529773592948914,-0.1668548285961151,0.13164137303829193,-0.06519963592290878,0.013890169560909271,0.11690983176231384,0.6733611822128296,0.06345539540052414,0.047461144626140594,0.7489503026008606,-0.160915806889534,0.42572876811027527,-0.3313150107860565,0.11827873438596725,0.1605677306652069,0.30657076835632324,-0.6595510840415955,-0.14000678062438965,0.5057938098907471,0.18853025138378143,0.015890421345829964,0.5392152667045593,-0.2797982394695282,-0.6054001450538635,-0.21375463902950287,-0.3074888288974762,-0.04079722613096237,-0.35923242568969727,-0.18219509720802307,0.6245400905609131,0.3823898136615753,0.10403264313936234,-0.260739803314209,0.17616263031959534,-0.06436595320701599,-0.03212237358093262,0.005583164747804403,-0.5305857062339783,0.07423586398363113,-0.23587241768836975,-0.19855329394340515,-0.36853867769241333,-0.46608656644821167,0.06941432505846024,0.3258187174797058,0.29878416657447815,-0.08856862038373947,0.7506927847862244
制造,0.1678493767976761,0.07329791784286499,0.023308996111154556,0.14682377874851227,0.13713841140270233,-0.07420433312654495,-0.026439283043146133,-0.14642412960529327,-0.2712458372116089,0.16923101246356964,0.007828314788639545,0.07896619290113449,0.14824195206165314,-0.1706133633852005,0.028081370517611504,-0.0692928284406662,0.056183379143476486,0.0788237676024437,-0.0538678877055645,0.13053402304649353,-0.08754992485046387,0.10254854708909988,0.014834570698440075,0.2361999750137329,-0.29825812578201294,0.04791910946369171,0.13099415600299835,0.07614341378211975,-0.22402888536453247,0.13394714891910553,-0.24570028483867645,-0.02102264016866684,-0.08419553190469742,0.025548648089170456,0.1698445826768875,0.07565295696258545,-0.007469031028449535,-0.19572648406028748,0.10576711595058441,0.2053816169500351,0.09868815541267395,0.06526046246290207,-0.06953483074903488,-0.050894446671009064,0.15608233213424683,0.009986749850213528,-0.23120377957820892,-0.0779554471373558,0.13303261995315552,0.154610738158226,-0.0696675181388855,-0.028496501967310905,-0.12443217635154724,-0.09527859091758728,-0.13642269372940063,-0.2115953266620636,0.25623100996017456,0.08659154176712036,0.11301951110363007,-0.02503102459013462,0.10631014406681061,0.1421419233083725,-0.12298285216093063,0.020030440762639046,-0.09939924627542496,-0.11215797066688538,0.14403073489665985,0.07524669170379639,0.05727643892168999,-0.2223351150751114,0.07445941120386124,-0.038308389484882355,0.027319373562932014,-0.25976428389549255,-0.14865107834339142,-0.07983191311359406,0.11084652692079544,-0.010047375224530697,0.19575157761573792,0.2675558924674988,0.11305523663759232,0.047948114573955536,0.11476632952690125,-0.12015985697507858,0.07524402439594269,0.1674758493900299,-0.10147573798894882,-0.05391131713986397,-0.08213971555233002,0.023671714588999748,-0.011864508502185345,0.1630236655473709,0.11409951746463776,-0.08038558065891266,-0.03247595950961113,0.04134676232933998,-0.15522916615009308,0.09984838217496872,0.13063135743141174,-0.15704047679901123,0.14730562269687653,-0.05543223023414612,-0.2204047292470932,0.1334320455789566,-0.0355178602039814,-0.2806755006313324,0.03077232651412487,-0.15423159301280975,0.035173654556274414,-0.13665835559368134,-0.17491044104099274,0.02341005764901638,0.05608087778091431,0.01165121141821146,0.057443875819444656,-0.1799073964357376,0.06010711193084717,-0.056724630296230316,0.06240149959921837,-0.05013207346200943,-0.045734990388154984,-0.14564523100852966,-0.030516991391777992,-0.1338111013174057,0.11272202432155609,0.04658512771129608,0.22670747339725494,0.00470767030492425,0.04387281835079193,-0.056656356900930405,0.13505426049232483,0.02146153897047043,-0.03741101175546646,0.07095634192228317,-0.2689403295516968,-0.06881456077098846,0.04050726071000099,0.07076913118362427,0.10384291410446167,-0.0476643331348896,-0.1238609328866005,-0.007598626893013716,0.019809911027550697,0.2147815078496933,-0.25042569637298584,-0.025257445871829987,0.031293533742427826,-0.07015053182840347,-0.0038325530476868153,-0.010648506693542004,-0.17532123625278473,-0.09714683890342712,0.006169774103909731,-0.1808014214038849,-0.11979318410158157,0.08227012306451797,-0.049514636397361755,-0.08496513217687607,-0.02387533336877823,-0.14354711771011353,-0.1350778490304947,-0.015463599935173988,-0.050555236637592316,0.1764543205499649,-0.05472680181264877,-0.013072886504232883,-0.24554561078548431,0.11229857802391052,0.14826270937919617,0.009950952604413033,-0.07628340274095535,0.12249922752380371,0.1524779349565506,-0.1050821915268898,0.06618427485227585,-0.07049781084060669,-0.08994899690151215,-0.11102253943681717,-0.004123372957110405,-0.12583236396312714,0.17661114037036896,-0.10013789683580399,-0.021147243678569794,0.15756167471408844,-0.0822516679763794,-0.14724405109882355,0.08995284885168076,0.13950127363204956,0.06690941751003265,0.17825166881084442,0.07141365110874176,0.12582868337631226,0.0434839241206646,0.03521430492401123,0.09366325289011002,0.00942192878574133,0.03723211959004402,0.12364254891872406,-0.008008265867829323,0.08695859462022781,0.053323883563280106,0.09375300258398056,0.28468865156173706,-0.019091200083494186,-0.029600972309708595,0.10751152783632278,-0.04470674321055412,-0.1445038765668869,-0.26546710729599,-0.024405188858509064,-0.08181122690439224,0.12471283972263336,-0.08773735165596008,0.15546834468841553,0.04482627660036087,-0.0886351615190506,0.010846965946257114,0.24855485558509827,0.07393603026866913,0.2008267045021057,0.16726471483707428,-0.005148818250745535,0.10781875252723694,0.14185687899589539,-0.2232883870601654,-0.06470496207475662,0.15468809008598328,-0.05803826451301575,0.08469104021787643,0.12432381510734558,-0.1327362209558487,-0.22426511347293854,0.06997201591730118,-0.02164723351597786,-0.038138411939144135,-0.19851809740066528,-0.07703742384910583,0.1431894153356552,0.1206396296620369,-0.09743599593639374,-0.0624970942735672,-0.009160056710243225,0.027811488136649132,0.017248323187232018,-0.0002795215114019811,-0.2223190814256668,-0.06087814271450043,-0.07290470600128174,0.14788857102394104,0.0033171563409268856,-0.3030528128147125,0.05555000528693199,-0.021171268075704575,0.1076028048992157,0.020624617114663124,0.10045904666185379
结构,-0.049455203115940094,0.21153710782527924,0.47494807839393616,0.4106289744377136,0.5225257873535156,-0.1342681497335434,-0.2470453977584839,-0.3012099862098694,-0.5112128853797913,0.17669939994812012,0.3242346942424774,0.3561987280845642,0.05064531788229942,-0.7762330770492554,-0.28688764572143555,-0.10606618970632553,0.5855873823165894,0.5132768750190735,-0.2771940529346466,0.9501845836639404,-0.49695971608161926,0.05864967405796051,-0.3577422797679901,0.13489793241024017,-1.040933609008789,-0.15139999985694885,-0.11089619994163513,0.04733569175004959,-0.6485999226570129,0.4307895600795746,-0.27364274859428406,0.13224364817142487,-0.9290570616722107,-0.049956921488046646,0.9191561341285706,0.6182186603546143,0.22592037916183472,-0.3152230381965637,0.4690462350845337,0.4136974513530731,0.08398962765932083,0.3641715347766876,-0.19879554212093353,-0.3859975337982178,0.5948272943496704,-0.04387325793504715,-0.5220986604690552,-0.11893438547849655,0.20356647670269012,0.6326168179512024,-0.13631358742713928,-0.23231817781925201,0.08473939448595047,-0.6466167569160461,-0.2789231538772583,-0.40110018849372864,0.5455018877983093,0.26440292596817017,0.2968071401119232,-0.09629779309034348,0.043546322733163834,0.1742931604385376,0.15527400374412537,0.1086094081401825,-0.5035465955734253,0.15795646607875824,0.37234964966773987,0.2940097451210022,0.17821384966373444,-0.5349881649017334,0.07960962504148483,-0.3425798714160919,0.07837779819965363,-0.6510375738143921,-0.13920362293720245,-0.3720751106739044,0.4123172461986542,0.040121134370565414,0.5066313743591309,1.132962942123413,0.5168213248252869,-0.04405732452869415,0.5022789239883423,0.004141516983509064,0.24801011383533478,0.6105207800865173,-0.04713129624724388,0.19897128641605377,0.10745848715305328,-0.0954945906996727,0.06536805629730225,0.5454229712486267,0.24453498423099518,0.042522504925727844,-0.12409123033285141,0.20213545858860016,-0.5933082103729248,0.18332143127918243,0.1841987520456314,-0.7965535521507263,-0.07280782610177994,-0.705825686454773,-0.46804988384246826,0.786737859249115,0.3397766351699829,-0.6384167671203613,0.24026049673557281,-0.3998197317123413,0.33231672644615173,-0.29018232226371765,-0.1852373331785202,0.34406283497810364,0.3901746869087219,0.19199822843074799,-0.2702212333679199,-0.9127529859542847,0.3416518568992615,0.08504229038953781,0.2772747576236725,0.0754302367568016,-0.17114195227622986,-0.3402766287326813,-0.019645581021904945,-0.2288035750389099,0.13713338971138,0.34011372923851013,0.7062402367591858,0.18197853863239288,0.7657871246337891,-0.2106524109840393,0.5778094530105591,-0.5154815912246704,-0.08709550648927689,0.032924387603998184,-0.9342864155769348,-0.22627480328083038,0.12202885746955872,-0.14840570092201233,0.05471094697713852,-0.35477763414382935,-0.48586738109588623,0.1531803011894226,0.06031329929828644,0.587064802646637,-0.8536975979804993,-0.13632427155971527,0.07165589183568954,-0.07307826727628708,0.04520982503890991,-0.21383081376552582,-0.8108319044113159,-0.0877392515540123,0.03974778205156326,-0.22296269237995148,-0.5141600966453552,-0.20596148073673248,0.018260853365063667,-0.12879955768585205,0.025083309039473534,-0.24364446103572845,0.14862950146198273,-0.006201475393027067,-0.16726849973201752,0.30705955624580383,0.12595827877521515,0.04349566251039505,-0.9599646925926208,0.13095301389694214,0.06124182045459747,0.22758197784423828,-0.1617211252450943,0.5802913308143616,0.25987815856933594,-0.44765281677246094,0.0426069013774395,-0.3712717592716217,-0.11292438209056854,-0.23890380561351776,0.16128313541412354,-0.6706063151359558,0.36715421080589294,-0.35929450392723083,0.4494335949420929,0.9702647924423218,0.2354760766029358,-0.2029482126235962,-0.19652916491031647,-0.2670632004737854,0.04912218078970909,0.4545917212963104,0.05905545875430107,0.09565598517656326,0.5389604568481445,0.2911865711212158,0.346023291349411,-0.06449282169342041,0.13313624262809753,0.20067466795444489,-0.1217118501663208,0.4066563546657562,0.0698760375380516,0.238961324095726,0.4696790874004364,0.06414426118135452,-0.3235236406326294,0.08353924751281738,-0.27634671330451965,-0.427863746881485,-0.7926897406578064,-0.1808607280254364,0.13777144253253937,-0.2360549122095108,-0.4827812612056732,0.09195077419281006,0.19179701805114746,0.1609850376844406,0.19338403642177582,1.1424381732940674,-0.18843863904476166,0.7023336887359619,0.20003154873847961,-0.10016744583845139,0.4317101538181305,0.7030749917030334,-1.0279134511947632,-0.03900432959198952,0.814695417881012,-0.17414721846580505,0.30941587686538696,0.8500986695289612,-0.7017703652381897,-0.8918903470039368,-0.4084564447402954,-0.11367808282375336,-0.28415024280548096,-0.4071851074695587,-0.5365288853645325,0.36472395062446594,0.5823484063148499,0.003434997284784913,-0.5572750568389893,0.10187393426895142,0.04902318865060806,-0.22681120038032532,-0.2322877198457718,-0.7279338836669922,0.04555756598711014,0.1064903512597084,0.5746118426322937,-0.43745186924934387,-0.7084598541259766,0.07101155817508698,0.10290589928627014,0.4571031928062439,-0.14773322641849518,0.8346545100212097
方式,0.16279184818267822,0.08862307667732239,0.10476222634315491,0.13288144767284393,0.19979704916477203,-0.0590294785797596,-0.05560587719082832,-0.14266520738601685,-0.42447665333747864,0.16631215810775757,-0.07529815286397934,0.08019179850816727,0.15555647015571594,-0.2096571922302246,0.028541477397084236,-0.0979788601398468,0.007712467573583126,0.1822654902935028,0.02181626297533512,0.23524926602840424,-0.09296546876430511,-0.015555969439446926,-0.0847836285829544,0.24458910524845123,-0.3152066469192505,0.07396883517503738,0.1098599061369896,0.13185733556747437,-0.18188218772411346,0.24239633977413177,-0.2672833502292633,-0.0246274396777153,-0.15308143198490143,0.051946692168712616,0.28114524483680725,0.2193782925605774,-0.05327744781970978,-0.17385783791542053,0.17002812027931213,0.2192409187555313,0.08940988034009933,0.1723622828722,-0.08415362238883972,-0.1516686975955963,0.22102083265781403,-0.05756057798862457,-0.24762195348739624,-0.0504513755440712,0.2561103105545044,0.21153011918067932,-0.052694037556648254,-0.14928115904331207,-0.18948645889759064,0.04708343371748924,-0.1623450517654419,-0.1551973819732666,0.23019340634346008,0.1810106486082077,0.13170699775218964,-0.03439081087708473,0.10099078714847565,0.07512874156236649,-0.12615510821342468,-0.047102876007556915,-0.180144265294075,-0.10888870805501938,0.27727261185646057,0.07838281244039536,0.07442418485879898,-0.3309963047504425,0.07035587728023529,-0.10669051110744476,0.012615839950740337,-0.3598007261753082,-0.07085124403238297,-0.17456799745559692,0.15857726335525513,0.025759784504771233,0.38612011075019836,0.35304325819015503,0.014214887283742428,0.011542562395334244,0.17588196694850922,-0.09944445639848709,0.113158218562603,0.0535147562623024,-0.06098266318440437,0.05887701362371445,-0.006480538286268711,-0.0397346168756485,0.003315699053928256,0.21212218701839447,0.03624871373176575,-0.0895671471953392,0.09172321110963821,0.018606923520565033,-0.19184154272079468,0.23533551394939423,0.026865513995289803,-0.08022188395261765,0.023338481783866882,-0.0883822813630104,-0.17405946552753448,0.12349360436201096,0.07353425025939941,-0.3426067531108856,0.061767324805259705,-0.2942330539226532,0.1463617980480194,-0.15036071836948395,-0.20836396515369415,0.014448906295001507,0.023769719526171684,-0.015880756080150604,0.05243479833006859,-0.12378823012113571,0.040757134556770325,-0.10059008002281189,0.13925103843212128,-0.022792603820562363,-0.053219009190797806,-0.18509003520011902,-0.03616948798298836,-0.05889124795794487,0.07229489833116531,-0.10201197117567062,0.20228470861911774,0.0047679184935987,0.10176977515220642,-0.11962103843688965,0.26269668340682983,-0.11529397964477539,0.0406513512134552,0.039432093501091,-0.3397997319698334,0.018327174708247185,0.11069642752408981,-0.06771257519721985,0.09349924325942993,-0.08187331259250641,-0.14265026152133942,-0.07615512609481812,0.05504405498504639,0.22030551731586456,-0.3367534279823303,-0.11117464303970337,0.03685116022825241,-0.10289663076400757,-0.03435596451163292,-0.09375665336847305,-0.24190263450145721,-0.16537800431251526,0.034407421946525574,-0.326852947473526,-0.14265137910842896,0.04617971181869507,-0.09933184087276459,-0.14109548926353455,-0.03030124492943287,-0.10961726307868958,-0.13297247886657715,-0.10655613243579865,-0.06703262776136398,0.23126810789108276,-0.004984980449080467,-0.0782451331615448,-0.4538820683956146,0.07888350635766983,0.24426260590553284,0.020412087440490723,-0.19507406651973724,0.2423096001148224,0.17601840198040009,-0.06287740170955658,0.13435322046279907,-0.1320977509021759,0.008062884211540222,-0.15102821588516235,-0.010806238278746605,-0.09694253653287888,0.20364457368850708,-0.05035768821835518,0.010207543149590492,0.09521789103746414,-0.02594076655805111,-0.17246510088443756,0.12387020885944366,0.1301971822977066,0.17593908309936523,0.21228322386741638,0.07729249447584152,0.16131296753883362,0.11426354199647903,0.10859852284193039,-0.04692273214459419,0.07677872478961945,-0.018018832430243492,0.23332253098487854,-0.10686822980642319,0.0636722594499588,0.15319670736789703,0.1503393054008484,0.34369856119155884,-0.02552393451333046,-0.17309986054897308,0.13285550475120544,-0.0760827288031578,-0.09549205750226974,-0.31393998861312866,-0.030581144616007805,-0.0552750788629055,0.08012375235557556,-0.0630602166056633,0.20484082400798798,0.06397330015897751,-0.025124959647655487,-0.02634877897799015,0.37764596939086914,-0.05243006721138954,0.22350828349590302,0.24034270644187927,0.028097031638026237,0.015606479719281197,0.19728952646255493,-0.3553428649902344,-0.0497431606054306,0.20687763392925262,-0.03572743386030197,0.10593123733997345,0.21911761164665222,-0.21593758463859558,-0.33179134130477905,0.16816632449626923,-0.06019845977425575,-0.13457489013671875,-0.19103628396987915,-0.029369639232754707,0.13995017111301422,0.14274254441261292,-0.0760723352432251,-0.14255371689796448,-0.05186716094613075,0.03134332224726677,-0.04651034623384476,-0.006475262809544802,-0.36958667635917664,-0.013735039159655571,0.011569865979254246,0.17089396715164185,-0.0205560140311718,-0.39930346608161926,0.12267160415649414,0.008299236185848713,0.12717148661613464,0.07010092586278915,0.2318696677684784
部分,0.15644365549087524,0.6206849217414856,0.1594998985528946,0.33292627334594727,0.675206184387207,-0.48401013016700745,0.053136926144361496,-0.12654663622379303,-0.4435649514198303,0.4550369381904602,0.5211390256881714,-0.705369770526886,0.06107359752058983,-0.6803971529006958,-0.2054540067911148,-0.5187713503837585,0.47712522745132446,0.01926705241203308,0.17206840217113495,0.9368866086006165,-0.11112387478351593,0.054676081985235214,-0.39847514033317566,0.43076223134994507,-1.3198516368865967,-0.1527465134859085,-0.3245104253292084,0.568279504776001,-0.7188165783882141,0.18913644552230835,-0.4117959439754486,-0.07733470946550369,-0.8867340087890625,-0.03760518506169319,0.9310441613197327,0.3239527940750122,0.46247151494026184,-0.45976734161376953,0.7015526294708252,0.4060669243335724,-0.2692970633506775,0.3597892224788666,0.2222641259431839,-0.651836633682251,0.9930570721626282,-0.2553371489048004,-0.4989418089389801,0.13078494369983673,0.48760855197906494,0.6549299359321594,-0.241614431142807,0.10573635250329971,-0.031821757555007935,-0.16097867488861084,0.2283763587474823,-1.145649790763855,0.8615896105766296,-0.018809178844094276,-0.059025611728429794,0.026161883026361465,0.10014153271913528,-0.15346521139144897,-0.37470337748527527,-0.5766317248344421,0.013450122438371181,-0.10783958435058594,0.6404229402542114,0.6735048294067383,-0.1514805555343628,-0.3412068784236908,0.01639091968536377,-0.528583288192749,-0.013826347887516022,-0.7244316935539246,-0.679623544216156,-0.5913763046264648,0.35393044352531433,-0.42020323872566223,0.4016050100326538,0.9924252033233643,0.2986172139644623,0.04326575994491577,0.2879311740398407,-0.25702065229415894,0.7214102745056152,0.22856134176254272,0.5367233753204346,-0.07052024453878403,-0.03850075602531433,0.17353446781635284,0.09803994745016098,0.6665339469909668,-0.11070465296506882,0.03251412883400917,-0.1031116470694542,0.07692372053861618,-0.3881402909755707,-0.0460805781185627,0.1810160130262375,-0.6075495481491089,0.049426134675741196,-0.17812010645866394,-1.0131808519363403,0.43932947516441345,0.3786487281322479,-0.637231707572937,-0.2608530819416046,-0.8391777873039246,0.06376050412654877,-1.0162341594696045,-0.4132683575153351,0.30130478739738464,0.12056617438793182,-0.49622678756713867,0.43018394708633423,-0.7024285793304443,0.3460805118083954,0.15774327516555786,-0.3386118710041046,-0.28234800696372986,-0.13175737857818604,-0.13489775359630585,-0.19294703006744385,-0.7500980496406555,0.14758101105690002,-0.09641452133655548,0.9712008833885193,0.1940387338399887,0.7251484990119934,0.09003262221813202,0.5275346040725708,-0.503158450126648,-0.2534380257129669,0.35996147990226746,-0.7717736959457397,0.22099626064300537,0.07072669267654419,0.17705200612545013,0.21629050374031067,0.28030234575271606,-0.136775940656662,0.17130941152572632,0.3156715929508209,0.6266442537307739,-0.6012887358665466,0.1789013147354126,-0.41228869557380676,0.4028227925300598,0.0703805610537529,-0.25472292304039,-0.5921846628189087,-0.16362115740776062,0.07775767892599106,-0.12491723150014877,-0.41004040837287903,0.30351030826568604,0.5938418507575989,-0.24558548629283905,-0.28362154960632324,0.3866942822933197,-0.9106692671775818,-0.3415612578392029,-0.12783384323120117,0.5623027086257935,0.12870140373706818,0.6666151285171509,-1.077183485031128,0.4262717664241791,0.3745875954627991,0.29955291748046875,-0.12972982227802277,0.7648322582244873,0.5432185530662537,-0.3457677364349365,0.0029762927442789078,-0.2501980662345886,-0.3928516209125519,0.06791095435619354,-0.033509738743305206,-0.6435598731040955,0.5948574542999268,0.3855695128440857,0.3866322338581085,0.7255814075469971,-0.5120792984962463,-0.1322014480829239,0.04734312370419502,-0.01281186006963253,-0.4451894462108612,0.20504257082939148,-0.013535003177821636,0.08090312033891678,0.034879300743341446,0.5094437599182129,0.615665078163147,-0.1008678525686264,-0.11335654556751251,0.2976013123989105,-0.1477840691804886,-0.21280506253242493,0.29809194803237915,-0.0762830376625061,0.5962026119232178,0.32378101348876953,-0.0951455757021904,-0.30826351046562195,-0.03916242718696594,-0.41713017225265503,-0.578982949256897,-0.5672079920768738,-0.007698074448853731,-0.17507529258728027,-0.2791540324687958,-0.06379449367523193,0.12895752489566803,-0.19459731876850128,-0.13806268572807312,0.9024466872215271,-0.4824472963809967,0.678107738494873,0.6741439700126648,0.253714919090271,0.5834462642669678,0.7171322703361511,-0.4880397915840149,-0.04677238687872887,0.8696322441101074,-0.5530887842178345,0.09969480335712433,0.7653709053993225,-0.2314252108335495,-0.9741715788841248,0.30489474534988403,-0.029843589290976524,0.1490500569343567,-0.9168211817741394,-0.9977560639381409,0.25492432713508606,0.30166441202163696,-0.419015109539032,-0.27681902050971985,-0.3675817549228668,0.9353689551353455,0.1736253947019577,-0.20997260510921478,-0.7793110013008118,0.10303805768489838,0.2747120261192322,0.7580113410949707,-0.5166065096855164,-0.7123202085494995,-0.4744177460670471,-0.21353857219219208,0.6075319051742554,-0.4105307459831238,0.24881231784820557
