word,0,1,2,3,4,5,6,7,8,9,10,11,12,13,14,15,16,17,18,19,20,21,22,23,24,25,26,27,28,29,30,31,32,33,34,35,36,37,38,39,40,41,42,43,44,45,46,47,48,49,50,51,52,53,54,55,56,57,58,59,60,61,62,63,64,65,66,67,68,69,70,71,72,73,74,75,76,77,78,79,80,81,82,83,84,85,86,87,88,89,90,91,92,93,94,95,96,97,98,99,100,101,102,103,104,105,106,107,108,109,110,111,112,113,114,115,116,117,118,119,120,121,122,123,124,125,126,127,128,129,130,131,132,133,134,135,136,137,138,139,140,141,142,143,144,145,146,147,148,149,150,151,152,153,154,155,156,157,158,159,160,161,162,163,164,165,166,167,168,169,170,171,172,173,174,175,176,177,178,179,180,181,182,183,184,185,186,187,188,189,190,191,192,193,194,195,196,197,198,199,200,201,202,203,204,205,206,207,208,209,210,211,212,213,214,215,216,217,218,219,220,221,222,223,224,225,226,227,228,229,230,231,232,233,234,235,236,237,238,239,240,241,242,243,244,245,246,247,248,249,250,251,252,253,254,255
车辆,0.15882064402103424,0.1167982816696167,-0.013310050591826439,0.06724663823843002,0.11639237403869629,-0.11100901663303375,0.014785409905016422,-0.12077532708644867,-0.22319643199443817,0.1453685760498047,-0.0670161023736,0.009452249854803085,0.17532630264759064,-0.10110360383987427,0.132991760969162,-0.06182458996772766,-0.0043683419935405254,-0.01890186034142971,0.043007805943489075,0.11846454441547394,-0.09103933721780777,-0.021542377769947052,-0.02745966613292694,0.2940899431705475,-0.23897743225097656,0.03367588296532631,0.08845405280590057,0.05948371812701225,-0.1331983208656311,0.19236838817596436,-0.190636545419693,-0.050831232219934464,-0.044803500175476074,-0.01594730280339718,0.08455076813697815,0.13832667469978333,-0.0012981457402929664,-0.12665700912475586,0.1158013865351677,0.1432785987854004,0.07220235466957092,0.19678011536598206,-0.0662023201584816,-0.021405916661024094,0.13775517046451569,0.005315066315233707,-0.18780605494976044,-0.054240331053733826,0.1121089830994606,0.08017848432064056,-0.002122392412275076,-0.1001494899392128,-0.13296742737293243,0.09284383058547974,-0.04964291304349899,-0.18164341151714325,0.1636694371700287,0.2253677397966385,0.12591291964054108,-0.018104540184140205,0.06270013004541397,0.05890088528394699,-0.12036710232496262,0.005099155940115452,-0.031141558662056923,-0.15912415087223053,0.16521070897579193,-0.003256699535995722,0.10940949618816376,-0.2125239372253418,0.14044958353042603,-0.019645748659968376,0.0563717819750309,-0.19392269849777222,-0.10466492176055908,-0.15009254217147827,0.059736497700214386,0.0914720818400383,0.15155337750911713,0.2392805963754654,-0.03606339171528816,0.03803557902574539,0.10886453092098236,-0.09454905241727829,0.11616058647632599,0.006193884182721376,-0.0629243403673172,-0.019874555990099907,-0.05957701429724693,0.015359227545559406,0.025023190304636955,0.1327742040157318,-0.11662108451128006,-0.08328641206026077,0.09578264504671097,-0.051915932446718216,-0.0852932408452034,0.05875452980399132,0.11620871722698212,-0.07084362953901291,0.08414161950349808,0.057897962629795074,-0.18789711594581604,0.01698504388332367,-0.027973128482699394,-0.29180246591567993,0.04881616309285164,-0.1531233936548233,0.05395222455263138,-0.12516319751739502,-0.09002067893743515,0.0779334232211113,-0.09653735905885696,0.01771075651049614,0.08124741166830063,-0.08506102859973907,0.018372206017374992,-0.10167424380779266,0.1746973842382431,0.07907639443874359,-0.018842753022909164,-0.09364119172096252,-0.04247116670012474,-0.07056593149900436,0.11594779789447784,-0.1929747760295868,0.06158589944243431,-0.0525507926940918,0.03471507504582405,-0.007092309184372425,0.10871151834726334,-0.05867297574877739,-0.008475533686578274,0.007860281504690647,-0.2016720473766327,-0.014476616866886616,0.12710921466350555,0.059357933700084686,0.04589547961950302,-0.0640062466263771,-0.05358438566327095,-0.010015771724283695,0.030772753059864044,0.14844678342342377,-0.21762852370738983,-0.10243456810712814,-0.006431056652218103,-0.00818935688585043,-0.03138996288180351,-0.026058819144964218,-0.07246015220880508,-0.03972254693508148,-0.020766746252775192,-0.2034287303686142,-0.09411465376615524,0.0022937010508030653,0.005876700393855572,-0.06406216323375702,-0.07425747066736221,-0.04170793294906616,-0.2056364119052887,-0.0851643979549408,-0.09743805974721909,0.19544653594493866,0.026446616277098656,0.0609547458589077,-0.2416260838508606,0.07009248435497284,0.1399790644645691,0.012400079518556595,-0.09131113439798355,0.17312370240688324,0.09843303263187408,-0.07953927665948868,0.11358963698148727,-0.054865214973688126,-0.04470888897776604,-0.07833757996559143,-0.031041260808706284,-0.08128567785024643,0.15820664167404175,-0.0569896325469017,-0.0832400768995285,0.04668789356946945,-0.10274966061115265,-0.17176631093025208,0.11605051159858704,0.13881143927574158,0.06862886995077133,0.1268356293439865,-0.001975886058062315,0.10038919001817703,0.07878144085407257,0.1091705858707428,0.00507043581455946,0.03889736160635948,-0.07420813292264938,0.10417553782463074,-0.0577019527554512,0.10443495213985443,0.10648393630981445,0.15495508909225464,0.21560028195381165,-0.057193778455257416,-0.01206112839281559,0.09350527822971344,0.046026185154914856,-0.009677541442215443,-0.1569502353668213,-0.12878604233264923,-0.18397939205169678,0.07638243585824966,-0.061874955892562866,0.1135932207107544,0.0770537331700325,-0.07287941873073578,-0.0212544035166502,0.1959790140390396,-0.04917846992611885,0.12289547920227051,0.14605259895324707,-0.040213800966739655,-0.013076845556497574,0.06139860302209854,-0.20283111929893494,-0.04869021475315094,0.07841865718364716,0.013967633247375488,-4.5616732677444816e-05,0.08561384677886963,-0.07213851809501648,-0.1513618379831314,0.1740950345993042,-0.05701907351613045,-0.036802906543016434,-0.16969618201255798,-0.1452884078025818,0.04621424153447151,0.07836436480283737,-0.08263926953077316,-0.08159781992435455,-0.020832324400544167,0.07042671740055084,-0.02252952754497528,0.01906176470220089,-0.17321310937404633,0.02257065661251545,0.006500893738120794,0.0961044430732727,0.018054168671369553,-0.29789289832115173,0.1019703820347786,0.025774052366614342,0.09056495875120163,0.004616857040673494,0.11992081254720688
元件,0.006901209242641926,0.012188970111310482,0.023763669654726982,0.0388505756855011,0.050939735025167465,-0.0353907085955143,-0.003879680996760726,-0.029892288148403168,-0.05450858548283577,0.042949214577674866,-0.004651006776839495,0.025799207389354706,0.020320946350693703,-0.04507634788751602,0.018702659755945206,-0.001210097107104957,0.05732247978448868,0.03579369932413101,-0.027342401444911957,0.1124354749917984,-0.026649318635463715,0.004540294408798218,-0.059391602873802185,0.037114500999450684,-0.061765365302562714,-0.04196685180068016,-0.035190775990486145,-0.00679286802187562,-0.042838308960199356,0.06074034050107002,-0.002826143056154251,0.0025221752002835274,-0.02179711125791073,-0.019757919013500214,0.06611457467079163,0.07836370170116425,0.03386563062667847,-0.028072215616703033,0.051126111298799515,0.04952054098248482,-0.009973875246942043,0.03558660298585892,-0.028935447335243225,-0.042339980602264404,0.06587813049554825,-0.0033555421978235245,-0.07917386293411255,0.027573324739933014,0.04188215360045433,0.08252222090959549,-0.021755484864115715,-0.028822528198361397,0.01080968976020813,-0.05044284090399742,-0.05525068938732147,-0.04813480004668236,0.03132025524973869,0.008353536948561668,0.059587445110082626,0.01995726116001606,-0.024883592501282692,-0.01301382016390562,0.016996661201119423,-0.005379367619752884,-0.06099655106663704,-0.009939318522810936,0.06174610182642937,0.014889412559568882,-0.007517881225794554,-0.03388349711894989,0.02349621243774891,0.005057566333562136,0.01833394728600979,-0.0550982840359211,-0.013309747911989689,-0.08628198504447937,0.02711266092956066,0.04377683624625206,0.027486518025398254,0.08836016058921814,0.026909438893198967,0.00014551941421814263,0.03205227479338646,0.053574997931718826,0.0313824824988842,-0.006941282656043768,0.018541868776082993,0.06363882124423981,0.022871335968375206,0.010606683790683746,0.0373116210103035,0.03089127317070961,-0.034142155200242996,0.018030138686299324,0.03490438684821129,-0.002891350071877241,-0.029382657259702682,0.009008328430354595,-0.008739843033254147,-0.02882079780101776,0.0008789217681623995,-0.03604872152209282,-0.014712844975292683,0.03502654656767845,0.000601645209826529,-0.06418120115995407,0.048194676637649536,-0.02916656620800495,0.03735315427184105,-0.005932077299803495,0.03981471061706543,0.0611872673034668,0.004722627345472574,0.024515321478247643,-0.04237071052193642,-0.045759912580251694,-0.009878715500235558,0.009314854629337788,0.016417931765317917,0.01823248527944088,-0.024971848353743553,-0.03254397585988045,0.029939033091068268,-0.017670929431915283,-0.009426701813936234,-0.029890773817896843,0.0065672677010297775,0.04019518941640854,0.03386865556240082,0.0039005079306662083,0.03814902901649475,-0.06541765481233597,0.03543012961745262,-0.01036231778562069,-0.07055074721574783,0.004068337380886078,0.020797748118638992,-0.0083544896915555,0.017429471015930176,-0.04058710113167763,-0.004293360281735659,0.0014294454595074058,-0.002133929170668125,0.02257831208407879,-0.08949001878499985,-0.0034948368556797504,-0.017697269096970558,-0.0058049289509654045,-0.0015404114965349436,-0.009595540352165699,-0.05747506022453308,-0.012315508909523487,-0.010485304519534111,-0.02587956376373768,-0.03470807895064354,-0.018415333703160286,-0.04414667934179306,-0.008013195358216763,0.0170391034334898,-0.05418240278959274,-0.04385019466280937,0.01048955600708723,-0.05549429729580879,0.01751437596976757,-0.0023703223560005426,-0.0074441744945943356,-0.11579682677984238,-0.03925386443734169,0.021294524893164635,0.038744330406188965,-0.020091146230697632,0.06701857596635818,-0.020682094618678093,-0.033430084586143494,0.016124997287988663,-0.03399854153394699,-0.010668650269508362,-0.01603410392999649,0.0606413371860981,-0.07514764368534088,0.010618709959089756,-0.011143147945404053,0.017750011757016182,-0.0072310371324419975,0.04208726808428764,-0.04258226603269577,-0.03492894768714905,0.009853864088654518,0.009768164716660976,0.037164825946092606,-0.053700465708971024,-0.013220148161053658,0.07347075641155243,0.033334389328956604,0.008921909146010876,0.030642442405223846,0.007845534011721611,0.023153945803642273,-0.03507392480969429,0.05416065827012062,0.012519579380750656,0.015454685315489769,0.02467244118452072,-0.03295113891363144,-0.0021234392188489437,-0.0036202685441821814,-0.04430561512708664,-0.0026617313269525766,-0.08274012058973312,-0.030021196231245995,0.0009995445143431425,-0.035641878843307495,-0.0020827865228056908,0.0160721093416214,0.0681457370519638,0.004207049496471882,-0.0157645121216774,0.08816638588905334,-0.033244889229536057,0.04852990433573723,-0.04952976852655411,-0.012531614862382412,0.018369123339653015,0.00974616315215826,-0.07402925193309784,-0.014366556890308857,0.04870980232954025,0.029423881322145462,0.004591638222336769,0.05199802294373512,-0.04403535649180412,-0.08103398978710175,-0.02288494072854519,-0.031247258186340332,-0.010436855256557465,-0.023712405934929848,-0.03894790634512901,0.045252393931150436,0.04724738746881485,0.012170610949397087,-0.0268680639564991,0.025404291227459908,0.0062451474368572235,-0.00985286571085453,-0.02001151442527771,-0.04248841479420662,0.03514877334237099,0.002934748074039817,-0.01477199699729681,-0.02798611670732498,-0.053854092955589294,0.007493116427212954,0.04897832125425339,0.030436795204877853,-0.029657108709216118,0.10683614015579224
设计,0.05458696931600571,0.4034530222415924,-0.09402450174093246,0.5495659112930298,0.11812056601047516,-0.040408436208963394,-0.035853754729032516,-0.3119335174560547,-0.2507692277431488,0.33172911405563354,0.12702961266040802,0.1870979368686676,0.43900880217552185,-0.38168296217918396,-0.059411801397800446,-0.15245908498764038,0.3138137459754944,0.1835516393184662,-0.11966509371995926,0.23847590386867523,-0.27653494477272034,0.3588028848171234,0.0041701216250658035,0.326488196849823,-0.6949548721313477,0.0840684324502945,0.09986282140016556,0.033988289535045624,-0.4419349730014801,0.0786655843257904,-0.44426098465919495,0.09586606919765472,-0.409645676612854,-0.17953501641750336,0.7113609313964844,0.11236594617366791,-0.11155616492033005,-0.4413382411003113,0.36235368251800537,0.44584476947784424,0.1151360347867012,0.24067050218582153,-0.11901359260082245,-0.2390504628419876,0.4112924635410309,0.3041268587112427,-0.47958874702453613,-0.23440879583358765,0.02213672176003456,0.45900893211364746,-0.14993253350257874,0.31158676743507385,-0.10344886034727097,-0.6685178279876709,-0.1760174036026001,-0.5090207457542419,0.5163996815681458,0.2873694896697998,0.1640394777059555,-0.16837526857852936,0.16955149173736572,0.3213069438934326,-0.14666993916034698,0.2568427324295044,-0.2596958875656128,-0.14919471740722656,0.2458619624376297,0.3243711292743683,0.2271381914615631,-0.27728044986724854,-0.059396468102931976,0.07668222486972809,0.07417358458042145,-0.3971115052700043,-0.2324753850698471,-0.034614309668540955,0.36971643567085266,0.15774309635162354,0.4234112799167633,0.7353394031524658,0.6161500215530396,0.0969075933098793,0.21442292630672455,-0.3939690589904785,0.4238240122795105,0.5189770460128784,-0.2081172913312912,0.03832291439175606,-0.14805683493614197,0.1144166812300682,-0.025862006470561028,0.5714482665061951,0.2875956594944,-0.18110965192317963,-0.1163124218583107,0.31178921461105347,-0.43337759375572205,0.1209409311413765,0.3516755700111389,-0.6536634564399719,0.2099064737558365,-0.36525559425354004,-0.3055213689804077,0.45623263716697693,0.06448666751384735,-0.6674191951751709,0.030854428187012672,-0.3388370871543884,0.057438455522060394,-0.3274541199207306,-0.28054314851760864,0.2067311853170395,0.34031370282173157,0.01806037314236164,-0.03198006749153137,-0.8098478317260742,0.1999751776456833,-0.09100691974163055,-0.08354660123586655,-0.09762322157621384,-0.0854707583785057,-0.2227793186903,-0.10811411589384079,-0.5195897817611694,0.37804266810417175,0.20540575683116913,0.6821190118789673,-0.07149278372526169,0.4730701446533203,0.0886671245098114,0.2560666501522064,-0.02893028035759926,-0.2706906497478485,0.006556326989084482,-0.6075460910797119,-0.2093348503112793,0.18732164800167084,0.12129074335098267,0.38579851388931274,-0.05276390537619591,-0.30309492349624634,0.2257491797208786,-0.008975137956440449,0.4578358829021454,-0.6118077039718628,-0.01235246006399393,0.10082463175058365,-0.13914573192596436,0.021613318473100662,-0.07407429814338684,-0.5034686326980591,-0.03971817344427109,-0.05286022648215294,-0.1840158998966217,-0.29898154735565186,-0.018489401787519455,0.1493188440799713,-0.018046408891677856,-0.113479845225811,-0.30501633882522583,-0.08550334721803665,0.15951724350452423,-0.0736110731959343,0.4178922176361084,0.14366395771503448,0.15732985734939575,-0.3450373709201813,0.25565725564956665,-0.056934308260679245,0.12424355000257492,0.16059784591197968,0.13031771779060364,0.2144469916820526,-0.41215449571609497,-0.180710107088089,-0.106913261115551,-0.09193482249975204,-0.2800595760345459,0.037962161004543304,-0.42723044753074646,0.37968307733535767,-0.32684391736984253,-0.0593101792037487,0.7734982967376709,-0.2955423891544342,-0.0853978618979454,-0.041723109781742096,0.04230772703886032,-0.17276902496814728,0.3499443829059601,-0.12838038802146912,-0.1334172934293747,0.21119464933872223,-0.051174212247133255,0.4602648615837097,-0.21515852212905884,0.25466907024383545,0.20963793992996216,0.08496853709220886,0.1657039374113083,-0.12113074213266373,0.14130105078220367,0.36673417687416077,-0.015396217815577984,0.06188002601265907,0.2500493824481964,0.04200288653373718,-0.2602789103984833,-0.5161964297294617,-0.19618843495845795,-0.0037412047386169434,0.15203547477722168,-0.44314029812812805,0.2629273235797882,0.20306016504764557,-0.2694467604160309,0.07738614827394485,0.9340454936027527,0.18175579607486725,0.6670187711715698,0.23271869122982025,0.12220477312803268,0.47491103410720825,0.36933255195617676,-0.6498910784721375,-0.061282966285943985,0.3893880248069763,-0.3559788763523102,0.28192928433418274,0.34287360310554504,-0.29714855551719666,-0.5590811371803284,-0.0835149958729744,-0.18556447327136993,0.08728230744600296,-0.3139748275279999,-0.3656684160232544,0.33841267228126526,0.42702099680900574,-0.2484976351261139,-0.1411648839712143,-0.08248837292194366,-0.02907661907374859,-0.18077754974365234,-0.24541690945625305,-0.33494558930397034,-0.22548067569732666,-0.18671342730522156,0.5752672553062439,-0.28110772371292114,-0.538446307182312,0.09792213141918182,-0.08990020304918289,0.2909470498561859,-0.15773741900920868,0.21040838956832886
装饰,0.07735811918973923,0.01276149321347475,0.027532489970326424,0.0238724946975708,0.04544131085276604,-0.034152403473854065,-0.039992477744817734,-0.03079964965581894,-0.07996119558811188,0.031186247244477272,-0.014750986360013485,0.02408669888973236,0.016964077949523926,-0.04475950449705124,0.006526293233036995,-0.022519320249557495,0.007083443459123373,0.04979604482650757,-0.007533467374742031,0.031228384003043175,-0.02313840389251709,0.009547924622893333,0.02094169333577156,0.0885787159204483,-0.10524757951498032,0.017692944034934044,0.059285666793584824,0.048036981374025345,-0.060825929045677185,0.041204992681741714,-0.07082326710224152,-0.012922733090817928,-0.03766762465238571,0.023465227335691452,0.041742660105228424,0.0552508719265461,0.0065576802007853985,-0.0581912137567997,0.0437316857278347,0.05828554555773735,0.045002032071352005,0.03411967307329178,-0.03311023488640785,-0.026067428290843964,0.033413518220186234,-0.002764006145298481,-0.02962811291217804,-0.04598003998398781,0.03853897005319595,0.007869932800531387,-0.027381999418139458,-0.059594783931970596,-0.05609686300158501,0.0005109437042847276,-0.01801251247525215,-0.06211473047733307,0.09248888492584229,0.03355873003602028,0.027978217229247093,-0.031576864421367645,0.06819383800029755,0.04994320869445801,-0.04108453914523125,-0.005203202832490206,-0.021763551980257034,-0.022414611652493477,0.03635459765791893,0.014093887060880661,0.023398473858833313,-0.10616427659988403,0.039854831993579865,-0.036441199481487274,0.0037071167025715113,-0.08125746250152588,-0.03435703366994858,-0.02112930454313755,0.01801149919629097,-0.009923812933266163,0.07657536119222641,0.09099910408258438,0.031135132536292076,-0.005985538940876722,0.044113725423812866,-0.07469628006219864,0.027695275843143463,0.07456010580062866,-0.05716458708047867,-0.04414019361138344,-0.024174083024263382,-0.004511227831244469,-0.005439746659249067,0.0743074044585228,0.04258576035499573,-0.009650776162743568,0.00396037008613348,0.014150145463645458,-0.07159575819969177,0.03655894845724106,0.03697063773870468,-0.030244162306189537,0.03528127446770668,-0.010738578625023365,-0.07136869430541992,0.027714699506759644,0.016507595777511597,-0.09780232608318329,-0.008349043317139149,-0.05850352719426155,0.01969161257147789,-0.0400019995868206,-0.08870113641023636,-0.01688755862414837,0.023191364482045174,0.010640350170433521,0.04164927452802658,-0.048522308468818665,0.010895196348428726,-0.028970204293727875,0.0561734214425087,-0.026932399719953537,-0.015510576777160168,-0.05307961255311966,-0.03908342495560646,-0.02419598214328289,0.03292437270283699,-0.015595453791320324,0.07854120433330536,-0.013631705194711685,0.015522581525146961,-0.0202916469424963,0.08115235716104507,0.002969992347061634,0.004740886855870485,0.01054697297513485,-0.07436701655387878,-0.02788749523460865,0.0011296189622953534,0.008472313173115253,0.031056484207510948,-0.0229805838316679,-0.07629009336233139,-0.019196271896362305,0.02823815308511257,0.05110359564423561,-0.05861940234899521,-0.048728007823228836,0.030080361291766167,-0.024077314883470535,-0.027060184627771378,-0.020380834117531776,-0.06287491321563721,-0.03211532160639763,0.018283933401107788,-0.05991041660308838,-0.02297161892056465,0.04321264103055,-0.019253263249993324,-0.07118614763021469,-0.004384652245789766,-0.027185866609215736,-0.03455979377031326,-0.022729042917490005,-0.021173682063817978,0.05837295576930046,-0.0002489085600245744,-0.015293781645596027,-0.08140984922647476,0.06152115389704704,0.054112765938043594,-0.012606348842382431,-0.04894191026687622,0.050763700157403946,0.0773569792509079,-0.010808647610247135,0.037576254457235336,-0.013647051528096199,-0.03802518546581268,-0.029858054593205452,-0.03566944971680641,-0.013693355023860931,0.07566245645284653,-0.0411706268787384,-0.0016645243158563972,0.06050309166312218,-0.044420912861824036,-0.042773712426424026,0.0467422716319561,0.053687915205955505,0.031391579657793045,0.05752312019467354,0.0574055090546608,0.08544176071882248,0.01753895916044712,0.024068893864750862,-2.0827597836614586e-05,0.01532889623194933,-0.004790499806404114,0.033899396657943726,-0.007546679116785526,0.010965898633003235,0.0286880973726511,0.019950512796640396,0.12156489491462708,-0.010559611022472382,-0.03486170619726181,0.015973614528775215,-0.0028448826633393764,-0.07811197638511658,-0.09887699037790298,-0.011127644218504429,-0.0438772588968277,0.050642311573028564,-0.04356374591588974,0.055025435984134674,0.014398406259715557,-0.0043029082007706165,0.027674073353409767,0.07983044534921646,0.010123862884938717,0.059301476925611496,0.10559605062007904,0.017494745552539825,0.005057662725448608,0.07777723670005798,-0.09606293588876724,-0.02876361645758152,0.06557340174913406,-0.018340816721320152,0.013314584270119667,0.05649542808532715,-0.053609058260917664,-0.06182737275958061,0.03031991235911846,-0.021847695112228394,-0.016987299546599388,-0.09295845776796341,-0.00667840801179409,0.03511713817715645,0.03398088738322258,-0.04938369244337082,-0.027275582775473595,-0.03313364088535309,-0.005970487371087074,-0.02180084027349949,0.02586008980870247,-0.07885025441646576,-0.019165512174367905,-0.033275336027145386,0.052957870066165924,0.006319291889667511,-0.09795556962490082,0.04539302736520767,-0.03585650026798248,0.019206957891583443,0.042400915175676346,0.03594318777322769
事件,0.4028320610523224,-0.08481989800930023,0.551127552986145,0.821070671081543,0.7298537492752075,0.2320103496313095,-0.49405431747436523,0.2327960878610611,-1.2771669626235962,0.33973297476768494,-0.3142758011817932,0.15035271644592285,0.10798812657594681,-0.6600875854492188,-0.15609461069107056,-0.16058334708213806,0.5674186944961548,1.154612421989441,0.19984553754329681,0.41842085123062134,-0.028041156008839607,0.07423151284456253,-0.371060848236084,-0.3643152117729187,-0.23021261394023895,0.03465653955936432,-0.026074955239892006,0.1851736605167389,-0.025270337238907814,0.4109705090522766,-0.17501302063465118,0.12724687159061432,-0.5656517744064331,0.22811764478683472,0.5829008221626282,0.33059918880462646,-0.7071862816810608,-0.5282186269760132,0.29028159379959106,0.3233095705509186,0.14553308486938477,-0.18841321766376495,-0.38845252990722656,-0.839297890663147,0.8657516837120056,0.06955945491790771,-0.8188360929489136,0.22957852482795715,0.18653208017349243,0.8779279589653015,-0.14966219663619995,-0.28320690989494324,-0.09863532334566116,-0.501319408416748,-0.31385260820388794,-0.01041851844638586,0.34229809045791626,0.19269102811813354,-0.07711648941040039,-0.22292403876781464,0.2537822425365448,0.2641567289829254,-0.22484517097473145,-0.3236873745918274,-0.5875663161277771,0.23921582102775574,0.6365355849266052,0.44850778579711914,-0.361995130777359,-0.9836775660514832,-0.6817694306373596,-0.2168581634759903,0.1513037234544754,-1.1357916593551636,0.07139123976230621,-0.1424543559551239,0.49479904770851135,-0.24573208391666412,1.2740901708602905,0.2779318392276764,0.15338315069675446,-0.17304618656635284,0.5302090048789978,0.0013390268431976438,0.48892518877983093,0.3169953227043152,0.031156765297055244,0.3604504466056824,-0.15470799803733826,0.0357779860496521,-0.2621270418167114,0.5914852023124695,0.9957008361816406,0.08364881575107574,0.01788705214858055,0.8162760138511658,-0.26565995812416077,0.6086409687995911,-0.7135207056999207,0.17290905117988586,-0.3758363723754883,-0.9947795271873474,0.21216970682144165,0.0982026606798172,0.562466561794281,-0.897175669670105,-0.37194931507110596,-0.6039032936096191,0.293465256690979,-0.3845435380935669,-0.4981141984462738,-0.2939123511314392,0.985266923904419,-0.44345343112945557,-0.3631937801837921,0.15697693824768066,-0.2000671923160553,-0.010703027248382568,-0.2834857106208801,-0.51371169090271,-0.4442324936389923,-0.6138734817504883,0.05956993252038956,0.18094943463802338,-0.14921243488788605,0.2772122621536255,1.3105278015136719,0.4098083972930908,0.28108543157577515,-0.7991884350776672,0.9683012366294861,-0.21731507778167725,0.37027454376220703,0.14826734364032745,-0.5082480907440186,0.5990298390388489,-0.3276914954185486,-0.6196839213371277,0.7856008410453796,-0.1552046686410904,-0.4007105231285095,0.09215591102838516,0.46214568614959717,0.424410343170166,-0.22120720148086548,-0.35604873299598694,0.25065338611602783,-0.16122420132160187,-0.4071865677833557,-0.37408944964408875,-1.0073959827423096,-0.8659509420394897,0.41230520606040955,-0.29907411336898804,-0.08857787400484085,0.6953743696212769,-0.5286728143692017,-0.5788219571113586,-0.10550308227539062,0.0409267358481884,0.31906166672706604,0.06641305983066559,0.6522243618965149,0.4117664098739624,0.0022635047789663076,-0.5695999264717102,-1.0527870655059814,0.19968844950199127,0.6112008690834045,0.10916205495595932,-0.27910739183425903,0.41229379177093506,0.408279150724411,0.03027327172458172,-0.09071581065654755,-0.13261735439300537,0.09678629785776138,-0.2733159065246582,0.32583916187286377,0.01738703064620495,0.17208068072795868,0.06723695248365402,0.21397489309310913,0.21597473323345184,-0.17725642025470734,0.01064904872328043,0.1532231718301773,0.4145132601261139,0.5615625977516174,0.7048711776733398,0.4066363573074341,0.13810507953166962,0.2954792380332947,-0.12072134763002396,-0.3254223167896271,0.30741631984710693,0.3942541778087616,0.5595347285270691,-0.47923940420150757,-0.757592499256134,-0.030563609674572945,-0.24712954461574554,0.7797967791557312,-0.28135889768600464,-0.8914855718612671,0.32754582166671753,-0.7240889668464661,-0.646236777305603,-0.8289254903793335,0.2901858687400818,0.5507926940917969,0.09594375640153885,-0.012492355890572071,0.6983945965766907,0.423326313495636,-0.0009682717500254512,-0.04068499803543091,0.809196949005127,0.38962480425834656,0.37959855794906616,0.8046366572380066,0.18623022735118866,-0.17067670822143555,0.41618505120277405,-0.5481043457984924,-0.13651716709136963,0.4014973044395447,-0.5144107341766357,0.6041651368141174,0.16827411949634552,-0.6843027472496033,-1.1685104370117188,0.39477697014808655,-0.3470025956630707,-0.43248996138572693,-0.14769425988197327,0.6515313386917114,0.17700785398483276,0.48152974247932434,-0.16239462792873383,-0.055334318429231644,-0.7472413778305054,-0.5055356025695801,-0.09067530184984207,0.27173033356666565,-0.5770800709724426,-0.29681068658828735,-0.06893099844455719,0.6786984801292419,-0.2255980372428894,-1.094796061515808,0.5016205310821533,-0.7899830937385559,0.4358193278312683,0.21712087094783783,0.13053718209266663
结构,-0.049455203115940094,0.21153710782527924,0.47494807839393616,0.4106289744377136,0.5225257873535156,-0.1342681497335434,-0.2470453977584839,-0.3012099862098694,-0.5112128853797913,0.17669939994812012,0.3242346942424774,0.3561987280845642,0.05064531788229942,-0.7762330770492554,-0.28688764572143555,-0.10606618970632553,0.5855873823165894,0.5132768750190735,-0.2771940529346466,0.9501845836639404,-0.49695971608161926,0.05864967405796051,-0.3577422797679901,0.13489793241024017,-1.040933609008789,-0.15139999985694885,-0.11089619994163513,0.04733569175004959,-0.6485999226570129,0.4307895600795746,-0.27364274859428406,0.13224364817142487,-0.9290570616722107,-0.049956921488046646,0.9191561341285706,0.6182186603546143,0.22592037916183472,-0.3152230381965637,0.4690462350845337,0.4136974513530731,0.08398962765932083,0.3641715347766876,-0.19879554212093353,-0.3859975337982178,0.5948272943496704,-0.04387325793504715,-0.5220986604690552,-0.11893438547849655,0.20356647670269012,0.6326168179512024,-0.13631358742713928,-0.23231817781925201,0.08473939448595047,-0.6466167569160461,-0.2789231538772583,-0.40110018849372864,0.5455018877983093,0.26440292596817017,0.2968071401119232,-0.09629779309034348,0.043546322733163834,0.1742931604385376,0.15527400374412537,0.1086094081401825,-0.5035465955734253,0.15795646607875824,0.37234964966773987,0.2940097451210022,0.17821384966373444,-0.5349881649017334,0.07960962504148483,-0.3425798714160919,0.07837779819965363,-0.6510375738143921,-0.13920362293720245,-0.3720751106739044,0.4123172461986542,0.040121134370565414,0.5066313743591309,1.132962942123413,0.5168213248252869,-0.04405732452869415,0.5022789239883423,0.004141516983509064,0.24801011383533478,0.6105207800865173,-0.04713129624724388,0.19897128641605377,0.10745848715305328,-0.0954945906996727,0.06536805629730225,0.5454229712486267,0.24453498423099518,0.042522504925727844,-0.12409123033285141,0.20213545858860016,-0.5933082103729248,0.18332143127918243,0.1841987520456314,-0.7965535521507263,-0.07280782610177994,-0.705825686454773,-0.46804988384246826,0.786737859249115,0.3397766351699829,-0.6384167671203613,0.24026049673557281,-0.3998197317123413,0.33231672644615173,-0.29018232226371765,-0.1852373331785202,0.34406283497810364,0.3901746869087219,0.19199822843074799,-0.2702212333679199,-0.9127529859542847,0.3416518568992615,0.08504229038953781,0.2772747576236725,0.0754302367568016,-0.17114195227622986,-0.3402766287326813,-0.019645581021904945,-0.2288035750389099,0.13713338971138,0.34011372923851013,0.7062402367591858,0.18197853863239288,0.7657871246337891,-0.2106524109840393,0.5778094530105591,-0.5154815912246704,-0.08709550648927689,0.032924387603998184,-0.9342864155769348,-0.22627480328083038,0.12202885746955872,-0.14840570092201233,0.05471094697713852,-0.35477763414382935,-0.48586738109588623,0.1531803011894226,0.06031329929828644,0.587064802646637,-0.8536975979804993,-0.13632427155971527,0.07165589183568954,-0.07307826727628708,0.04520982503890991,-0.21383081376552582,-0.8108319044113159,-0.0877392515540123,0.03974778205156326,-0.22296269237995148,-0.5141600966453552,-0.20596148073673248,0.018260853365063667,-0.12879955768585205,0.025083309039473534,-0.24364446103572845,0.14862950146198273,-0.006201475393027067,-0.16726849973201752,0.30705955624580383,0.12595827877521515,0.04349566251039505,-0.9599646925926208,0.13095301389694214,0.06124182045459747,0.22758197784423828,-0.1617211252450943,0.5802913308143616,0.25987815856933594,-0.44765281677246094,0.0426069013774395,-0.3712717592716217,-0.11292438209056854,-0.23890380561351776,0.16128313541412354,-0.6706063151359558,0.36715421080589294,-0.35929450392723083,0.4494335949420929,0.9702647924423218,0.2354760766029358,-0.2029482126235962,-0.19652916491031647,-0.2670632004737854,0.04912218078970909,0.4545917212963104,0.05905545875430107,0.09565598517656326,0.5389604568481445,0.2911865711212158,0.346023291349411,-0.06449282169342041,0.13313624262809753,0.20067466795444489,-0.1217118501663208,0.4066563546657562,0.0698760375380516,0.238961324095726,0.4696790874004364,0.06414426118135452,-0.3235236406326294,0.08353924751281738,-0.27634671330451965,-0.427863746881485,-0.7926897406578064,-0.1808607280254364,0.13777144253253937,-0.2360549122095108,-0.4827812612056732,0.09195077419281006,0.19179701805114746,0.1609850376844406,0.19338403642177582,1.1424381732940674,-0.18843863904476166,0.7023336887359619,0.20003154873847961,-0.10016744583845139,0.4317101538181305,0.7030749917030334,-1.0279134511947632,-0.03900432959198952,0.814695417881012,-0.17414721846580505,0.30941587686538696,0.8500986695289612,-0.7017703652381897,-0.8918903470039368,-0.4084564447402954,-0.11367808282375336,-0.28415024280548096,-0.4071851074695587,-0.5365288853645325,0.36472395062446594,0.5823484063148499,0.003434997284784913,-0.5572750568389893,0.10187393426895142,0.04902318865060806,-0.22681120038032532,-0.2322877198457718,-0.7279338836669922,0.04555756598711014,0.1064903512597084,0.5746118426322937,-0.43745186924934387,-0.7084598541259766,0.07101155817508698,0.10290589928627014,0.4571031928062439,-0.14773322641849518,0.8346545100212097
吸收,0.12473204731941223,0.044886864721775055,0.04335746169090271,0.06213832274079323,0.14233015477657318,-0.07493778318166733,-0.032947756350040436,-0.09769701957702637,-0.20499922335147858,0.0948072075843811,-0.03588869050145149,0.019079377874732018,0.11296110600233078,-0.11807004362344742,0.039448440074920654,-0.07008787244558334,0.021222706884145737,0.06706468015909195,-0.02998213842511177,0.14897465705871582,-0.04253850877285004,-0.0018919312860816717,-0.03140011802315712,0.1995551437139511,-0.24408535659313202,0.05165848881006241,0.1033150777220726,0.07441005855798721,-0.1507185697555542,0.16524827480316162,-0.17576518654823303,-0.018035689368844032,-0.0829133540391922,0.02632039040327072,0.14058880507946014,0.13618256151676178,0.024716077372431755,-0.12729479372501373,0.09675925225019455,0.1527627408504486,0.05213874951004982,0.09230686724185944,-0.055095113813877106,-0.07043936848640442,0.12384030967950821,-0.0186037328094244,-0.15181782841682434,-0.05120324343442917,0.14650127291679382,0.08610790967941284,-0.07822534441947937,-0.102451391518116,-0.11752814054489136,0.03379584848880768,-0.09668763726949692,-0.15430667996406555,0.17281566560268402,0.10278373956680298,0.08269727975130081,-0.035112202167510986,0.08309610188007355,0.0503741018474102,-0.07770392298698425,-0.03816181421279907,-0.08284851163625717,-0.06833101809024811,0.14635232090950012,0.03629392758011818,0.04969339817762375,-0.1889449805021286,0.0847819596529007,-0.05708454176783562,0.019458269700407982,-0.19424556195735931,-0.039225105196237564,-0.11880607157945633,0.07539784908294678,0.03538334369659424,0.18401303887367249,0.2006542980670929,0.014948014169931412,-0.008844501338899136,0.10716576129198074,-0.08952862024307251,0.0652504712343216,0.05956364423036575,-0.07022850960493088,-0.007285071071237326,-0.0383642204105854,-0.02939748950302601,0.004027575254440308,0.1334408074617386,-0.01694677211344242,-0.0494353361427784,0.045981910079717636,0.009512733668088913,-0.11299706250429153,0.10349351912736893,0.07219900190830231,-0.07501200586557388,0.06204305589199066,-0.02347629703581333,-0.16038954257965088,0.07220268249511719,0.013318018987774849,-0.22150550782680511,0.030890438705682755,-0.16048386693000793,0.06111541762948036,-0.09911821782588959,-0.13612036406993866,0.04345245286822319,0.0029355890583246946,0.0014456239296123385,0.06125004589557648,-0.08747445046901703,0.0060562798753380775,-0.06489012390375137,0.09211332350969315,-0.03465956076979637,-0.022247085347771645,-0.1097770556807518,-0.01340454164892435,-0.02954483963549137,0.05058785900473595,-0.049030061811208725,0.1281088888645172,0.020441364496946335,0.04602057859301567,-0.0326828733086586,0.1463736742734909,-0.0563216432929039,0.002403981052339077,0.012670758180320263,-0.18340866267681122,-0.03137504681944847,0.05142674595117569,-0.008478640578687191,0.04160013794898987,-0.05790935456752777,-0.09025869518518448,-0.05160203203558922,0.02806403487920761,0.14467671513557434,-0.1863134503364563,-0.07850589603185654,0.024457784369587898,-0.02763068489730358,-0.020191801711916924,-0.05032472684979439,-0.13656574487686157,-0.07075568288564682,-0.005966871045529842,-0.18360993266105652,-0.07648622244596481,0.044752586632966995,-0.044055186212062836,-0.09180987626314163,-0.013015519827604294,-0.08203119039535522,-0.140328511595726,-0.07089462131261826,-0.09102755039930344,0.15652614831924438,-0.018959518522024155,-0.0019990759901702404,-0.24752865731716156,0.057336173951625824,0.1303555965423584,0.04228435456752777,-0.10752874612808228,0.12288037687540054,0.11360768973827362,-0.04506074637174606,0.07372090220451355,-0.057259950786828995,-0.015026981011033058,-0.07509223371744156,-0.018673989921808243,-0.08337292820215225,0.14631205797195435,-0.05225080996751785,-0.021310387179255486,0.07024636119604111,-0.05532883107662201,-0.1322871744632721,0.09792821854352951,0.08661945909261703,0.08506624400615692,0.12489525973796844,0.025559201836586,0.11865852028131485,0.062379393726587296,0.07279202342033386,-0.0077201141975820065,0.042182546108961105,-0.006841199938207865,0.1057572066783905,-0.05890694260597229,0.05988886579871178,0.0944095253944397,0.10266343504190445,0.22096657752990723,-0.01872962713241577,-0.07707781344652176,0.05495929345488548,-0.033338095992803574,-0.06736467033624649,-0.2064538598060608,-0.055460374802351,-0.0740060806274414,0.07048548012971878,-0.03975095972418785,0.10690801590681076,0.05123745650053024,-0.015597284771502018,0.007951522246003151,0.1933053433895111,-0.031208662316203117,0.1349553018808365,0.1520061194896698,0.03850504755973816,0.011360368691384792,0.15408745408058167,-0.2038762867450714,-0.03473435342311859,0.1190556138753891,-0.0061285775154829025,0.013670312240719795,0.13094580173492432,-0.09899317473173141,-0.15264135599136353,0.10378696769475937,-0.03186844661831856,-0.05012106895446777,-0.16231127083301544,-0.05711183324456215,0.105231873691082,0.07143227756023407,-0.06294634193181992,-0.09090698510408401,-0.028085822239518166,0.03771230950951576,-0.016403881832957268,0.02902035228908062,-0.2156921625137329,-0.008534284308552742,-0.027316531166434288,0.06807459890842438,-0.017769629135727882,-0.23104892671108246,0.05770387500524521,-0.004903525114059448,0.06197153031826019,0.053829509764909744,0.12444494664669037
碰撞,-0.013543474487960339,-0.017667565494775772,0.0746452733874321,-0.043113529682159424,-0.0015986269572749734,-0.03108767606317997,-0.031281620264053345,0.0074196672067046165,-0.033093199133872986,-0.05629315227270126,-0.026310933753848076,0.057675790041685104,-0.07794082164764404,0.04216993227601051,0.055212341248989105,0.0023599148262292147,-0.017079951241612434,0.038133662194013596,0.01779082603752613,-0.01571030728518963,-0.0177084282040596,-0.051059626042842865,0.015523170121014118,0.01821024902164936,0.04271124303340912,-0.05808204784989357,-0.002021079882979393,0.00026454770704731345,0.08574448525905609,0.02471017837524414,0.06043795868754387,-0.005325627978891134,0.03861524909734726,-0.016330886632204056,-0.011495023034512997,0.028133107349276543,0.04620739445090294,0.06153618544340134,-0.01145364809781313,0.028582613915205002,0.021681202575564384,0.031153056770563126,-0.007742465008050203,0.016870591789484024,-0.011013052426278591,-0.02695387229323387,0.04182042181491852,-0.006450751796364784,0.009919296018779278,-0.007082468364387751,0.05348249897360802,-0.08859380334615707,0.013559564016759396,0.020063675940036774,-0.04364706948399544,0.07730945199728012,-0.04478049650788307,-0.030583832412958145,0.02921767719089985,0.0649920105934143,-0.03157956898212433,0.011772289872169495,0.032355424016714096,-0.019825467839837074,-0.05851958692073822,0.014097495004534721,-0.018451523035764694,-0.0722132995724678,0.006564027164131403,-0.023948559537529945,0.03983119875192642,-0.03774692490696907,0.002167163649573922,-0.001675702165812254,-0.0013360150624066591,-0.030117426067590714,-0.034938521683216095,0.016822198405861855,-0.0070487381890416145,0.08077669888734818,-0.019257118925452232,-0.024963319301605225,-0.005847752094268799,0.0457247756421566,-0.03901277482509613,-0.019864622503519058,-0.014427085407078266,0.06385350227355957,0.06762939691543579,-0.012606849893927574,0.04481889680027962,-0.03588104620575905,0.015379630960524082,0.028473753482103348,0.05629928410053253,-0.02575955167412758,0.012351041659712791,0.03382356837391853,-0.07661034166812897,0.07022178173065186,-0.031066175550222397,0.02159939706325531,0.05222560465335846,-0.0029225987382233143,0.009917829185724258,0.018659302964806557,0.08791469037532806,0.014945050701498985,0.02528952620923519,0.07103753089904785,0.08987820893526077,-0.023776337504386902,-0.013387809507548809,0.0655713677406311,-0.01654830574989319,0.007581005338579416,0.02034541592001915,0.03807782009243965,0.10371574759483337,0.030458509922027588,-0.03107810765504837,-0.03993429243564606,-0.04479864612221718,0.07133569568395615,-0.06973274052143097,-0.07502367347478867,-0.1355007290840149,-0.009484576992690563,-0.004205512348562479,-0.0070847999304533005,0.018214859068393707,-0.08036553859710693,0.05779174342751503,-0.005102279130369425,0.012307974509894848,-0.024543670937418938,-0.035706520080566406,-0.03454919904470444,-0.0249423049390316,-0.033136170357465744,-0.04263255372643471,-0.059952981770038605,-0.016839170828461647,-0.028245052322745323,-0.01653636246919632,-0.04085492342710495,-0.00146761117503047,-0.08731759339570999,-0.03424036502838135,0.012733282521367073,0.02789819985628128,0.00744884368032217,0.03492116555571556,-0.02279028855264187,-0.015472243539988995,-0.05847252532839775,-0.0744040310382843,-0.04259458929300308,0.053418200463056564,-0.025655919685959816,0.02646845020353794,0.013546708971261978,-0.05192681401968002,-0.02594698593020439,-0.025764739140868187,-0.08295656740665436,-0.03738991171121597,-0.02617672085762024,0.025039156898856163,-0.0463850237429142,-0.0843079462647438,0.03773441165685654,-0.03893287107348442,-0.005181699059903622,0.061426881700754166,-0.02396005019545555,-0.008380500599741936,-0.02672773413360119,0.02990230731666088,0.0158202163875103,-0.01673187129199505,-0.016496941447257996,0.05528039485216141,-0.055968303233385086,0.06849993020296097,-0.010218470357358456,-0.03001529537141323,0.013643396086990833,0.0402083620429039,0.022649604827165604,0.0235592033714056,0.06109439209103584,0.037318725138902664,0.030809151008725166,-0.03723707050085068,0.07577335089445114,-0.040953487157821655,-0.01107767689973116,0.004540137015283108,0.06840967386960983,0.0578954815864563,-0.05854535475373268,-0.022189760580658913,-0.03315211832523346,-0.044062722474336624,-0.0009387127356603742,-0.003026349935680628,-0.005012936890125275,-0.011120954528450966,0.02853422425687313,0.006670556962490082,-0.06549517810344696,-0.009303847327828407,0.008694157004356384,-0.0034613413736224174,0.067744180560112,-0.010693660005927086,0.05628034472465515,-0.04281836748123169,-0.033208634704351425,-0.03908086195588112,-0.06351471692323685,-0.04341698810458183,-0.05654511973261833,-0.03601701557636261,-0.015934467315673828,-0.01200285367667675,0.06296022236347198,0.010205281898379326,0.01678731106221676,-0.08755461871623993,0.009649103507399559,-0.0426076203584671,-0.02252114750444889,-0.04889729619026184,0.028142854571342468,0.05286272242665291,-0.02239033579826355,-0.007282779086381197,0.051345180720090866,-0.014218904078006744,0.042404670268297195,-0.04441924765706062,-0.04460986331105232,0.009624483995139599,0.011694434098899364,0.04652916267514229,0.02328954078257084,-0.048739057034254074,-0.0004494634340517223,0.01029646210372448,0.05271986871957779,0.053333137184381485,-0.0011916514486074448,0.047121282666921616,0.12828737497329712
具有,0.22538524866104126,0.17229938507080078,0.15562570095062256,0.18745960295200348,0.32698237895965576,-0.23284636437892914,-0.09839512407779694,-0.2524012625217438,-0.5060232877731323,0.24997073411941528,0.017099592834711075,0.13990330696105957,0.13482330739498138,-0.38536980748176575,0.03258727490901947,-0.14182783663272858,0.22336293756961823,0.21430011093616486,-0.10609003156423569,0.4492090046405792,-0.19216227531433105,0.05641794204711914,-0.14785298705101013,0.48875609040260315,-0.6538648009300232,-0.05634632706642151,0.11537008732557297,0.18579864501953125,-0.4480021297931671,0.30185940861701965,-0.3372410833835602,0.004097938537597656,-0.29470235109329224,-0.012089627794921398,0.45267635583877563,0.38703128695487976,0.12584902346134186,-0.3336913585662842,0.3166482448577881,0.34320855140686035,0.11960669606924057,0.3165110945701599,-0.17878389358520508,-0.24192705750465393,0.37932074069976807,-0.017324460670351982,-0.42235660552978516,-0.12454584240913391,0.3491601049900055,0.3247973620891571,-0.18067963421344757,-0.22389733791351318,-0.14271749556064606,-0.19353488087654114,-0.2355186641216278,-0.42755380272865295,0.45805302262306213,0.1738395392894745,0.23783043026924133,-0.056809425354003906,0.1709565818309784,0.16184985637664795,-0.15175680816173553,-0.02905770018696785,-0.26648327708244324,-0.12858787178993225,0.33417704701423645,0.2066546231508255,0.1308346837759018,-0.481374055147171,0.16677530109882355,-0.1720014214515686,0.0950455442070961,-0.5035611987113953,-0.22996774315834045,-0.329293429851532,0.16418761014938354,0.04372970387339592,0.4106982350349426,0.6522638201713562,0.2635692059993744,0.011731951497495174,0.2772984206676483,-0.15208706259727478,0.26526930928230286,0.26249098777770996,-0.09896763414144516,0.0013101757504045963,-0.05984032154083252,-0.013399884104728699,0.024370327591896057,0.42378857731819153,0.02002515271306038,-0.011936594732105732,0.031174885109066963,0.01804841123521328,-0.3805673122406006,0.1470431089401245,0.2085816115140915,-0.3431738317012787,0.1375890076160431,-0.15332050621509552,-0.3523801267147064,0.26933494210243225,0.07506965100765228,-0.5747610330581665,0.11165783554315567,-0.3942646086215973,0.18713927268981934,-0.24682484567165375,-0.2104412466287613,0.16572324931621552,0.08607705682516098,0.08606601506471634,0.041976168751716614,-0.4253465533256531,0.040662981569767,-0.052892521023750305,0.1971805989742279,-0.04378192871809006,-0.12424919009208679,-0.29732465744018555,-0.04676547646522522,-0.28107208013534546,0.162177175283432,-0.10407795011997223,0.3774036467075348,0.04138665273785591,0.2501230537891388,-0.07470265030860901,0.3812636435031891,-0.2011638730764389,0.036730822175741196,0.054020170122385025,-0.5158984661102295,-0.14231248199939728,0.12758104503154755,0.020293163135647774,0.163512721657753,-0.15861175954341888,-0.26111412048339844,-0.02703162282705307,0.10199286043643951,0.3305650055408478,-0.5286701321601868,-0.16346779465675354,0.020564936101436615,-0.10826227813959122,-0.05794062837958336,-0.11712945997714996,-0.4963008165359497,-0.0868494063615799,0.019953519105911255,-0.30219730734825134,-0.2230091542005539,0.07461050152778625,-0.07793188095092773,-0.21191364526748657,0.016564078629016876,-0.20574018359184265,-0.3142947256565094,-0.08836213499307632,-0.26348933577537537,0.30254778265953064,0.011984609998762608,0.039371639490127563,-0.6046761870384216,0.13644564151763916,0.27786538004875183,0.04360334947705269,-0.23083099722862244,0.42916956543922424,0.29306408762931824,-0.19589796662330627,0.1413436233997345,-0.15568631887435913,-0.1758064180612564,-0.1319231390953064,-0.015020731836557388,-0.36613890528678894,0.3150123953819275,-0.1852206289768219,0.09656601399183273,0.3504309356212616,-0.04448871314525604,-0.2903960645198822,0.05420498549938202,0.20603010058403015,0.12848618626594543,0.34280267357826233,-0.008414090611040592,0.2862309515476227,0.25078538060188293,0.20447683334350586,0.09239767491817474,0.08897817879915237,0.018780404701828957,0.24715599417686462,-0.08957261592149734,0.20801201462745667,0.1569870114326477,0.1877819448709488,0.5482946634292603,-0.011787044815719128,-0.1478271782398224,0.05740510672330856,-0.13008908927440643,-0.2691330015659332,-0.6061072945594788,-0.17151980102062225,-0.18912599980831146,0.0476435050368309,-0.2205144315958023,0.23091596364974976,0.23577509820461273,-0.03064124658703804,0.027472568675875664,0.6954338550567627,-0.10109824687242508,0.46737754344940186,0.26761582493782043,0.07541611790657043,0.1819475144147873,0.4094940721988678,-0.6319732666015625,-0.14886929094791412,0.43044087290763855,0.00992703065276146,0.11781178414821625,0.44407716393470764,-0.3411930203437805,-0.541763424873352,0.027183063328266144,-0.08319664746522903,-0.1090506985783577,-0.4235159158706665,-0.2129649817943573,0.332025408744812,0.2556600272655487,-0.13066434860229492,-0.2074565291404724,-0.01302834041416645,0.07494989037513733,-0.06604937463998795,-0.08139486610889435,-0.4956743121147156,0.04072859138250351,-0.09528442472219467,0.2214183211326599,-0.13525806367397308,-0.585106611251831,0.12544742226600647,0.023132214322686195,0.20980116724967957,-0.0287636686116457,0.442841500043869
覆盖,0.06397957354784012,0.08050154894590378,-0.034132473170757294,0.060250766575336456,0.06988421827554703,-0.02420872449874878,0.01746482402086258,-0.06611133366823196,-0.08280015736818314,0.07823125272989273,0.04379027336835861,-0.012781267054378986,0.06457248330116272,-0.08715537935495377,0.0030916014220565557,-0.07297639548778534,0.047783013433218,-0.0011968585895374417,0.01352236233651638,0.018531739711761475,-0.04395622760057449,0.058493029326200485,0.009973684325814247,0.08727940917015076,-0.14827193319797516,0.02469642274081707,0.0189956221729517,0.04858505353331566,-0.10905887931585312,0.016015630215406418,-0.1135684996843338,-0.02712908945977688,-0.07684680074453354,-0.005044617690145969,0.10719341039657593,0.00656593032181263,0.011819103732705116,-0.10067267715930939,0.07754337787628174,0.08253218233585358,0.03954030200839043,0.04814621061086655,-0.019403109326958656,-0.045458678156137466,0.10563112050294876,-0.0024727159179747105,-0.0984269380569458,-0.04247612506151199,0.048896368592977524,0.07748183608055115,-0.03778291121125221,0.03398483991622925,-0.04530711844563484,-0.024067582562565804,-0.01523522473871708,-0.12219449877738953,0.13250857591629028,0.02150917984545231,-0.008611241355538368,0.004009536933153868,0.07377573102712631,0.04879161715507507,-0.10509881377220154,-0.002276930958032608,-0.000638117897324264,-0.07134190201759338,0.06961966305971146,0.07392733544111252,0.011670819483697414,-0.10254617780447006,0.0008304945658892393,-0.036261264234781265,0.01385882031172514,-0.11469287425279617,-0.10041001439094543,-0.015579293482005596,0.05923428013920784,-0.02560696192085743,0.1016225591301918,0.14241956174373627,0.05485216900706291,0.009204905480146408,0.045930538326501846,-0.07468003034591675,0.08598168939352036,0.08814489841461182,0.022014819085597992,-0.05429844185709953,-0.04808623716235161,0.016655700281262398,-0.025072718039155006,0.10427927225828171,0.05404296889901161,-0.01796429231762886,-0.03334521874785423,0.02060648798942566,-0.07817535102367401,0.009707232005894184,0.07652764767408371,-0.08041392266750336,0.04628041014075279,-0.020411474630236626,-0.12812715768814087,0.06793037801980972,-0.004793751519173384,-0.1358330249786377,-0.028597529977560043,-0.106462761759758,0.006141229532659054,-0.1315605193376541,-0.08834289014339447,0.006716479081660509,0.03993254899978638,-0.023686008527874947,0.03935128450393677,-0.12606404721736908,0.041622668504714966,-0.051065802574157715,-0.011371484957635403,-0.03132260963320732,-0.02890045940876007,-0.031971100717782974,-0.045933183282613754,-0.11589155346155167,0.06453992426395416,-0.004080848302692175,0.14732494950294495,-0.0398377925157547,0.07259783893823624,-0.031078841537237167,0.06708551943302155,0.012381194159388542,-0.03396330773830414,0.05279478803277016,-0.12004414200782776,-0.015655765309929848,0.009855176322162151,0.03512849658727646,0.0909874215722084,0.015105952508747578,-0.05357183516025543,0.03625883162021637,0.028238564729690552,0.09759995341300964,-0.09608233720064163,0.010358031839132309,-0.01288546808063984,-0.008932014927268028,0.006791004911065102,-0.008128827437758446,-0.06541761010885239,-0.023658854886889458,0.019340870901942253,-0.03062405250966549,-0.05396471545100212,0.06839416921138763,0.06110205873847008,-0.02859668992459774,-0.052256617695093155,-0.013628984801471233,-0.05838111788034439,-0.004779298789799213,-0.007586278486996889,0.07594918459653854,0.006307856645435095,0.06527804583311081,-0.07888293266296387,0.0873265489935875,0.06043875962495804,0.018088774755597115,-0.008513528853654861,0.04914020001888275,0.08486156910657883,-0.06669209897518158,-0.008011937141418457,-0.010310718789696693,-0.055221933871507645,-0.022986527532339096,-0.024219254031777382,-0.07156185805797577,0.10930324345827103,-0.010593518614768982,0.001811815774999559,0.14035728573799133,-0.09997561573982239,-0.03898310661315918,0.03728509321808815,0.06742991507053375,-0.024830123409628868,0.05679752305150032,0.034867286682128906,0.020661918446421623,-0.020116563886404037,0.019372519105672836,0.08453239500522614,-0.03127254173159599,0.006372031755745411,0.057469844818115234,0.02172338217496872,-0.02340838499367237,0.008651774376630783,0.01344334613531828,0.13063378632068634,0.002699760952964425,0.004678029101341963,0.03257264569401741,0.0005904489080421627,-0.0892200917005539,-0.08510912954807281,-0.054338064044713974,-0.060657937079668045,0.04816854000091553,-0.0498206727206707,0.05535289645195007,0.005889930296689272,-0.07941953837871552,-0.0033448755275458097,0.14500753581523895,0.01763136498630047,0.11894736438989639,0.1166069507598877,0.03476852551102638,0.09102364629507065,0.08738509565591812,-0.07988695055246353,-0.02110043354332447,0.046110767871141434,-0.07655936479568481,0.04249023273587227,0.032801032066345215,-0.04942397400736809,-0.10250301659107208,0.063911572098732,-0.012722620740532875,0.015351065434515476,-0.10895348340272903,-0.08131019026041031,0.03382444009184837,0.06464387476444244,-0.08232301473617554,-0.01723419688642025,-0.0572141595184803,0.04213302955031395,0.017777444794774055,-0.027151310816407204,-0.09337275475263596,-0.0458461195230484,-0.01423843763768673,0.11372662335634232,-0.04240609332919121,-0.13661456108093262,0.0042699542827904224,-0.0225668977946043,0.062171634286642075,-0.03395863622426987,-0.007029707543551922
提供,-0.16605930030345917,0.6402665972709656,-0.07654338330030441,0.24881389737129211,0.36997929215431213,-0.23544450104236603,0.1155790165066719,-0.11129821836948395,-0.5931156873703003,0.5038228631019592,-0.15767192840576172,0.05108675733208656,0.36072486639022827,-0.48502635955810547,0.17839102447032928,-0.18280501663684845,0.534367024898529,0.24550944566726685,0.40192711353302,0.5869598388671875,-0.4734419882297516,-0.16172170639038086,-0.4896794855594635,0.34007713198661804,-0.5201756954193115,-0.3681071102619171,-0.379036545753479,-0.03088393062353134,-0.245655819773674,0.3407447338104248,-0.10814733058214188,0.015326625667512417,-0.5977790355682373,-0.25653231143951416,0.5159791707992554,0.4357992708683014,-0.3534867763519287,-0.14760564267635345,0.4040829539299011,0.08952204883098602,-0.02234046347439289,0.6662021279335022,-0.032639842480421066,-0.4568609297275543,0.6726219654083252,0.06931325793266296,-0.48696139454841614,0.033221494406461716,0.03853021562099457,0.5673479437828064,0.22725972533226013,0.04535475745797157,0.15427057445049286,-0.20016048848628998,0.11200841516256332,-0.30292439460754395,0.1572973132133484,0.6831493377685547,0.40921804308891296,-0.008265253156423569,-0.029166245833039284,0.06169842928647995,-0.3419281244277954,-0.2447737455368042,-0.07929585874080658,-0.24908804893493652,0.39745354652404785,0.18985259532928467,0.09595412015914917,-0.5316857695579529,0.0035419310443103313,-0.09373288601636887,0.0893823504447937,-0.6423942446708679,-0.3559141755104065,-0.5060442090034485,0.2794821858406067,0.3352193236351013,0.3987707197666168,0.8741674423217773,0.19314321875572205,0.015330065973103046,0.25236135721206665,0.2710903286933899,0.7720298171043396,-0.15955033898353577,0.3418516516685486,0.2907571494579315,0.07169481366872787,0.25201594829559326,0.06654881685972214,0.2471071034669876,-0.282094806432724,0.029137765988707542,0.30495625734329224,0.059980541467666626,-0.14416106045246124,0.008186686784029007,0.03492290899157524,-0.2224867343902588,-0.3203529417514801,-0.39911189675331116,-0.11604303121566772,0.11979551613330841,0.14917387068271637,-0.689256489276886,-0.02715229243040085,-0.6182838082313538,0.14511407911777496,-0.5875518321990967,0.15690739452838898,0.25426074862480164,0.1934712529182434,-0.03393350914120674,-0.2588261663913727,-0.5008359551429749,0.005393132101744413,-0.023324158042669296,0.0766553282737732,0.33852964639663696,-0.25241708755493164,-0.11716554313898087,-0.10871341079473495,-0.3392444849014282,0.12088804692029953,-0.6507266163825989,0.4836985766887665,-0.20480753481388092,0.7010899782180786,-0.14990675449371338,0.4747214615345001,-0.5870038866996765,0.06726571172475815,-0.06786522269248962,-0.549203097820282,0.3841032385826111,0.3565169870853424,-0.0252365842461586,0.3622169494628906,-0.21110650897026062,-0.1442820280790329,0.2735871970653534,0.518725574016571,0.11367858946323395,-0.5226367115974426,-0.20474568009376526,-0.050599049776792526,0.1554507315158844,-0.0027068706694990396,-0.1795014888048172,-0.5451831221580505,0.002448172075673938,0.0017080254619941115,-0.13266825675964355,-0.3642209470272064,-0.024019934237003326,0.26019737124443054,0.08562539517879486,-0.31168168783187866,0.36504629254341125,0.019146312028169632,0.07530564814805984,0.02684209868311882,0.19820204377174377,0.4738967716693878,0.26364558935165405,-0.729434072971344,0.08830205351114273,0.07224506884813309,0.21006707847118378,-0.1053277999162674,0.550344705581665,-0.03201249614357948,-0.5419589877128601,0.05931985378265381,-0.31925442814826965,0.018356462940573692,-0.07475955039262772,0.37570804357528687,-0.4286859333515167,0.06946902722120285,0.019864806905388832,0.03901413455605507,0.5403043031692505,-0.04816369339823723,-0.044158510863780975,-0.10843263566493988,0.272964209318161,-0.06860388815402985,0.2115255743265152,-0.31111472845077515,-0.25843939185142517,0.31376537680625916,0.21203011274337769,0.1603933423757553,-0.15637968480587006,-0.16531817615032196,0.35429516434669495,-0.24168434739112854,0.04653303697705269,-0.08290897309780121,0.18124958872795105,0.2597038447856903,-0.18191859126091003,-0.08115886896848679,0.16498926281929016,0.03810208663344383,0.1597064584493637,-0.35369253158569336,-0.4363677501678467,-0.09491777420043945,-0.3132489323616028,-0.3564363718032837,0.12690478563308716,0.4645940661430359,-0.288798451423645,-0.15721845626831055,1.0628845691680908,-0.3043961524963379,0.4164625406265259,0.07803744822740555,-0.13091115653514862,0.15516331791877747,-0.02094349078834057,-0.6827935576438904,-0.17872928082942963,0.25426745414733887,-0.0484984815120697,0.20039422810077667,0.10610907524824142,-0.3016883134841919,-0.8654513955116272,0.09854161739349365,-0.10877878218889236,-0.07774536311626434,-0.23606614768505096,-0.3621859550476074,0.0180885661393404,0.4291624426841736,-0.00816925335675478,-0.0931384414434433,-0.21559277176856995,-0.03951871767640114,-0.09942425042390823,-0.24006988108158112,-0.20311196148395538,0.1161184310913086,0.4456199109554291,0.36923864483833313,-0.41736629605293274,-0.8511524796485901,0.28762251138687134,0.0513848140835762,0.510088324546814,-0.40361329913139343,0.4522187411785126
增加,0.2843146324157715,0.3360511362552643,-0.05889936909079552,0.4323396384716034,0.3733059763908386,-0.1598125398159027,-0.016146013513207436,-0.39902135729789734,-0.6547475457191467,0.5568839311599731,0.0042324550449848175,0.14921905100345612,0.42972439527511597,-0.4909955561161041,0.1205446720123291,-0.22694635391235352,0.2293219119310379,0.32139089703559875,0.09001069515943527,0.39698323607444763,-0.27047276496887207,0.23275968432426453,-0.08345938473939896,0.5192503333091736,-0.7456665635108948,0.07375718653202057,0.13130156695842743,0.16276049613952637,-0.5902235507965088,0.37628719210624695,-0.4910268485546112,-0.12483495473861694,-0.24217624962329865,0.054392680525779724,0.533048689365387,0.3778560757637024,-0.08938788622617722,-0.5430639982223511,0.38389402627944946,0.504210889339447,0.09353508800268173,0.3624233603477478,-0.16337665915489197,-0.3036406934261322,0.6594304442405701,-0.09933783859014511,-0.6210289001464844,-0.09013855457305908,0.312242329120636,0.5659767985343933,-0.256752073764801,0.04808809608221054,-0.27869877219200134,-0.08786498755216599,-0.19664987921714783,-0.5092553496360779,0.5918372869491577,0.32271909713745117,0.22640769183635712,0.008786171674728394,0.2418414056301117,0.2228885143995285,-0.3853025436401367,-0.014286787249147892,-0.15702064335346222,-0.2801167964935303,0.5791088342666626,0.1746179759502411,0.09572340548038483,-0.49835899472236633,0.08129215240478516,-0.096417136490345,0.05513085424900055,-0.5707616209983826,-0.34151148796081543,-0.36244577169418335,0.3150341808795929,0.07295302301645279,0.6142117977142334,0.8718448281288147,0.20989243686199188,0.16759060323238373,0.3290954530239105,-0.15052510797977448,0.3568348288536072,0.2106185257434845,0.07182836532592773,-0.10336463898420334,-0.11711503565311432,0.1569528430700302,0.08508181571960449,0.3922131061553955,0.048070747405290604,-0.23309814929962158,0.15915381908416748,0.14370030164718628,-0.374153733253479,0.232444629073143,0.18059761822223663,-0.2629053592681885,0.14952197670936584,-0.2175544798374176,-0.3518984317779541,0.2839452922344208,-0.005224401596933603,-0.7575755715370178,0.01032651774585247,-0.6073153018951416,0.11767134815454483,-0.520980179309845,-0.3623587191104889,0.05737584829330444,0.14448338747024536,0.0019235166255384684,0.0678151398897171,-0.4839645028114319,0.18851721286773682,-0.2763236463069916,0.08218694478273392,-0.03647450730204582,-0.0932886153459549,-0.2203497439622879,-0.08997812867164612,-0.38751769065856934,0.2584530711174011,-0.14769859611988068,0.612133264541626,-0.04589167609810829,0.2583370804786682,-0.03812837600708008,0.5909563899040222,-0.124060720205307,-0.10051637887954712,0.046634674072265625,-0.7441574335098267,0.08232664316892624,0.24389924108982086,0.11613943427801132,0.4703997075557709,-0.11862383782863617,-0.2924710512161255,0.05734182894229889,0.09295564889907837,0.3775936961174011,-0.6840828657150269,0.04173478111624718,0.010469052009284496,-0.08890143781900406,0.016723107546567917,-0.16402651369571686,-0.3937710225582123,-0.3414795994758606,-0.03896140307188034,-0.36715540289878845,-0.37170302867889404,0.19955813884735107,0.09473085403442383,-0.09112203121185303,-0.27181047201156616,-0.15268640220165253,-0.34482869505882263,-0.05319671705365181,-0.05486932396888733,0.37851065397262573,0.102273128926754,0.14801132678985596,-0.6824637651443481,0.25947779417037964,0.4941616654396057,0.16127413511276245,-0.1366216242313385,0.35524922609329224,0.18655206263065338,-0.26849931478500366,0.0653528943657875,-0.22569714486598969,-0.11813268065452576,-0.1972694993019104,0.10632991790771484,-0.35041457414627075,0.40337318181991577,-0.024206023663282394,-0.10471748560667038,0.3626047670841217,-0.20806282758712769,-0.34691888093948364,0.17999976873397827,0.29590800404548645,0.10484504699707031,0.41624996066093445,-0.03091050498187542,-0.044099293649196625,0.10306234657764435,0.13648052513599396,0.18956829607486725,0.08183351159095764,0.026714203879237175,0.4257427453994751,-0.08863664418458939,0.050069477409124374,0.07576365023851395,0.20482203364372253,0.6172856092453003,-0.1537064164876938,-0.08048638701438904,0.33259841799736023,-0.17102475464344025,-0.25616157054901123,-0.6383962035179138,-0.21732720732688904,-0.1827879697084427,0.24417805671691895,-0.0166733767837286,0.43987369537353516,0.2583092749118805,-0.30190277099609375,-0.1569496989250183,0.8352633118629456,-0.06810446083545685,0.522603452205658,0.321786105632782,0.05350008234381676,0.20067019760608673,0.23673154413700104,-0.5246127247810364,-0.1284104287624359,0.39143723249435425,-0.3026891350746155,0.1837512105703354,0.26445314288139343,-0.29246068000793457,-0.6271885633468628,0.4370962977409363,-0.16093821823596954,-0.02683408185839653,-0.5063007473945618,-0.24021710455417633,0.1777047961950302,0.31296631693840027,-0.2804640829563141,-0.19419792294502258,-0.05930201709270477,0.15583103895187378,0.08588624000549316,-0.09325648099184036,-0.5194710493087769,-0.10231268405914307,-0.03029804676771164,0.37935036420822144,0.018980076536536217,-0.7080609202384949,0.16272291541099548,-0.016506392508745193,0.366098016500473,-0.13096480071544647,0.3613482415676117
方式,0.16279184818267822,0.08862307667732239,0.10476222634315491,0.13288144767284393,0.19979704916477203,-0.0590294785797596,-0.05560587719082832,-0.14266520738601685,-0.42447665333747864,0.16631215810775757,-0.07529815286397934,0.08019179850816727,0.15555647015571594,-0.2096571922302246,0.028541477397084236,-0.0979788601398468,0.007712467573583126,0.1822654902935028,0.02181626297533512,0.23524926602840424,-0.09296546876430511,-0.015555969439446926,-0.0847836285829544,0.24458910524845123,-0.3152066469192505,0.07396883517503738,0.1098599061369896,0.13185733556747437,-0.18188218772411346,0.24239633977413177,-0.2672833502292633,-0.0246274396777153,-0.15308143198490143,0.051946692168712616,0.28114524483680725,0.2193782925605774,-0.05327744781970978,-0.17385783791542053,0.17002812027931213,0.2192409187555313,0.08940988034009933,0.1723622828722,-0.08415362238883972,-0.1516686975955963,0.22102083265781403,-0.05756057798862457,-0.24762195348739624,-0.0504513755440712,0.2561103105545044,0.21153011918067932,-0.052694037556648254,-0.14928115904331207,-0.18948645889759064,0.04708343371748924,-0.1623450517654419,-0.1551973819732666,0.23019340634346008,0.1810106486082077,0.13170699775218964,-0.03439081087708473,0.10099078714847565,0.07512874156236649,-0.12615510821342468,-0.047102876007556915,-0.180144265294075,-0.10888870805501938,0.27727261185646057,0.07838281244039536,0.07442418485879898,-0.3309963047504425,0.07035587728023529,-0.10669051110744476,0.012615839950740337,-0.3598007261753082,-0.07085124403238297,-0.17456799745559692,0.15857726335525513,0.025759784504771233,0.38612011075019836,0.35304325819015503,0.014214887283742428,0.011542562395334244,0.17588196694850922,-0.09944445639848709,0.113158218562603,0.0535147562623024,-0.06098266318440437,0.05887701362371445,-0.006480538286268711,-0.0397346168756485,0.003315699053928256,0.21212218701839447,0.03624871373176575,-0.0895671471953392,0.09172321110963821,0.018606923520565033,-0.19184154272079468,0.23533551394939423,0.026865513995289803,-0.08022188395261765,0.023338481783866882,-0.0883822813630104,-0.17405946552753448,0.12349360436201096,0.07353425025939941,-0.3426067531108856,0.061767324805259705,-0.2942330539226532,0.1463617980480194,-0.15036071836948395,-0.20836396515369415,0.014448906295001507,0.023769719526171684,-0.015880756080150604,0.05243479833006859,-0.12378823012113571,0.040757134556770325,-0.10059008002281189,0.13925103843212128,-0.022792603820562363,-0.053219009190797806,-0.18509003520011902,-0.03616948798298836,-0.05889124795794487,0.07229489833116531,-0.10201197117567062,0.20228470861911774,0.0047679184935987,0.10176977515220642,-0.11962103843688965,0.26269668340682983,-0.11529397964477539,0.0406513512134552,0.039432093501091,-0.3397997319698334,0.018327174708247185,0.11069642752408981,-0.06771257519721985,0.09349924325942993,-0.08187331259250641,-0.14265026152133942,-0.07615512609481812,0.05504405498504639,0.22030551731586456,-0.3367534279823303,-0.11117464303970337,0.03685116022825241,-0.10289663076400757,-0.03435596451163292,-0.09375665336847305,-0.24190263450145721,-0.16537800431251526,0.034407421946525574,-0.326852947473526,-0.14265137910842896,0.04617971181869507,-0.09933184087276459,-0.14109548926353455,-0.03030124492943287,-0.10961726307868958,-0.13297247886657715,-0.10655613243579865,-0.06703262776136398,0.23126810789108276,-0.004984980449080467,-0.0782451331615448,-0.4538820683956146,0.07888350635766983,0.24426260590553284,0.020412087440490723,-0.19507406651973724,0.2423096001148224,0.17601840198040009,-0.06287740170955658,0.13435322046279907,-0.1320977509021759,0.008062884211540222,-0.15102821588516235,-0.010806238278746605,-0.09694253653287888,0.20364457368850708,-0.05035768821835518,0.010207543149590492,0.09521789103746414,-0.02594076655805111,-0.17246510088443756,0.12387020885944366,0.1301971822977066,0.17593908309936523,0.21228322386741638,0.07729249447584152,0.16131296753883362,0.11426354199647903,0.10859852284193039,-0.04692273214459419,0.07677872478961945,-0.018018832430243492,0.23332253098487854,-0.10686822980642319,0.0636722594499588,0.15319670736789703,0.1503393054008484,0.34369856119155884,-0.02552393451333046,-0.17309986054897308,0.13285550475120544,-0.0760827288031578,-0.09549205750226974,-0.31393998861312866,-0.030581144616007805,-0.0552750788629055,0.08012375235557556,-0.0630602166056633,0.20484082400798798,0.06397330015897751,-0.025124959647655487,-0.02634877897799015,0.37764596939086914,-0.05243006721138954,0.22350828349590302,0.24034270644187927,0.028097031638026237,0.015606479719281197,0.19728952646255493,-0.3553428649902344,-0.0497431606054306,0.20687763392925262,-0.03572743386030197,0.10593123733997345,0.21911761164665222,-0.21593758463859558,-0.33179134130477905,0.16816632449626923,-0.06019845977425575,-0.13457489013671875,-0.19103628396987915,-0.029369639232754707,0.13995017111301422,0.14274254441261292,-0.0760723352432251,-0.14255371689796448,-0.05186716094613075,0.03134332224726677,-0.04651034623384476,-0.006475262809544802,-0.36958667635917664,-0.013735039159655571,0.011569865979254246,0.17089396715164185,-0.0205560140311718,-0.39930346608161926,0.12267160415649414,0.008299236185848713,0.12717148661613464,0.07010092586278915,0.2318696677684784
安排,0.017626484856009483,0.0698961615562439,-0.021510455757379532,0.012578756548464298,0.05796782672405243,0.01124010793864727,0.04057745635509491,-0.04113093018531799,-0.12293684482574463,0.05597183480858803,-0.024060077965259552,-0.01404176838696003,0.07383298128843307,-0.05903395637869835,0.03629470244050026,-0.04111061990261078,0.011403548531234264,0.0030311064328998327,0.04393456131219864,0.009274667128920555,-0.03553279861807823,-0.014213119633495808,-0.03172525763511658,0.04862776771187782,-0.08038506656885147,0.02410128526389599,0.014763968996703625,0.02244359627366066,-0.028903931379318237,0.021939845755696297,-0.08204006403684616,0.0025042803026735783,-0.06511857360601425,-0.006579542066901922,0.05570162832736969,0.008265389129519463,-0.06919025629758835,-0.04385506734251976,0.034406956285238266,0.017739027738571167,0.035478610545396805,0.06375918537378311,-0.01589488610625267,-0.021910374984145164,0.06085969880223274,0.010181130841374397,-0.06615648418664932,-0.026672206819057465,0.034797415137290955,0.04818717762827873,0.038412224501371384,0.005975996144115925,-0.033275287598371506,0.03786711022257805,0.005195633973926306,-0.025307923555374146,0.03452814742922783,0.09187429398298264,0.021566838026046753,-0.008635605685412884,0.055646661669015884,0.024556702002882957,-0.09365224838256836,-0.027374491095542908,-0.009611403569579124,-0.08656204491853714,0.03392816707491875,0.04422927647829056,0.024851549416780472,-0.10864771157503128,0.0018820216646417975,-0.02493579499423504,0.016175566241145134,-0.12224239856004715,-0.042259588837623596,-0.015091856010258198,0.04536125063896179,0.013435415923595428,0.10827495157718658,0.07804833352565765,-0.0045874170027673244,-0.009327963925898075,0.03279465436935425,-0.024089625105261803,0.0710606798529625,-0.006914644502103329,0.01694096438586712,-0.014281770214438438,-0.020265452563762665,-0.014801440760493279,-0.03621238097548485,0.028713854029774666,0.003073058556765318,-0.021714791655540466,0.011269321665167809,-0.004509191494435072,-0.025423292070627213,0.04740680381655693,0.029225727543234825,-0.030399303883314133,-0.025512991473078728,-0.02898642234504223,-0.0601641982793808,0.0047986735589802265,0.02246055193245411,-0.09386159479618073,-0.020225543528795242,-0.09988699853420258,0.019675172865390778,-0.11103357374668121,-0.059241849929094315,0.0027266035322099924,0.01888183504343033,-0.034229010343551636,0.017636386677622795,-0.034640464931726456,0.013614579103887081,-0.043349262326955795,0.008549249731004238,0.014658666215837002,-0.019882235676050186,-0.024664223194122314,-0.027786271646618843,-0.04928290471434593,0.03238209709525108,-0.056734129786491394,0.08362352102994919,-0.05471325293183327,0.04628797620534897,-0.07358391582965851,0.03447587043046951,-0.0298566073179245,0.011183510534465313,0.015308346599340439,-0.06709155440330505,0.03341321647167206,0.029629213735461235,-0.015865953639149666,0.04644414409995079,-0.0006456101546064019,-0.03797999769449234,0.015273519791662693,0.07535512745380402,0.05251465365290642,-0.057816002517938614,-0.04100659489631653,0.012296400964260101,-0.011952879838645458,0.002096050651744008,-0.008730694651603699,-0.06071701645851135,-0.01144238468259573,0.0038824458606541157,-0.08875170350074768,-0.027231857180595398,0.042658768594264984,0.039464320987463,-0.0009698201320134103,-0.034606292843818665,0.04174669086933136,-0.006003435701131821,-0.015084424056112766,0.033480796962976456,0.05208433419466019,0.0370405912399292,0.015190910547971725,-0.07117580622434616,0.045071136206388474,0.03003588505089283,-0.00024545457563363016,-0.029723094776272774,0.03780364617705345,0.0646815225481987,-0.06294824182987213,0.023952554911375046,-0.015864720568060875,0.0035821786150336266,-0.037877924740314484,-0.013042449951171875,-0.01516666915267706,0.03806396573781967,-0.003917342983186245,-0.0153333256021142,0.07251770794391632,-0.04682769998908043,-0.016159595921635628,0.05428582429885864,0.06451054662466049,0.00925346277654171,0.025895806029438972,0.024939756840467453,0.016627203673124313,-0.008613662794232368,0.00627551693469286,-0.005674436222761869,-0.030332744121551514,-0.003241931786760688,0.07418964058160782,-0.011768577620387077,-0.02330365590751171,0.014462828636169434,0.035077985376119614,0.0924970954656601,-0.00951989647001028,-0.03825915604829788,0.05554673448204994,0.01804623194038868,-0.0046773203648626804,-0.02072238177061081,-0.04086419939994812,-0.04245532304048538,0.02985811047255993,-0.03132603317499161,0.0615549199283123,-0.006905818823724985,-0.04382629320025444,-0.014650837518274784,0.11708339303731918,-0.0028089324478060007,0.050860557705163956,0.09973787516355515,0.020660994574427605,0.02809339016675949,0.04201924428343773,-0.08228973299264908,-0.012041822075843811,0.0028758267872035503,-0.01783573254942894,0.04324863478541374,-0.013024578802287579,-0.031353604048490524,-0.08653314411640167,0.07574054598808289,0.013392007909715176,-0.04951957240700722,-0.018610039725899696,-0.016995294019579887,0.02298719622194767,0.043434660881757736,-0.03346806392073631,-0.012915022671222687,-0.06166146323084831,0.00011020503006875515,-0.005459791049361229,-0.011440319940447807,-0.07804273813962936,-0.024917593225836754,0.05410312861204147,0.07197653502225876,-0.043196145445108414,-0.15331026911735535,0.06099699065089226,-0.02151845023036003,0.048470620065927505,-0.009746002964675426,-0.0033282979857176542
